<?xml version="1.0" encoding="ISO-8859-1"?>
<smile version="1.0" id="Unnamed" numsamples="1000" discsamples="10000">
	<nodes>
		<cpt id="Events">
			<state id="State_0" />
			<state id="Fog_Snow" />
			<state id="Rain" />
			<state id="Rain_Thunderstorm" />
			<state id="Snow" />
			<probabilities>0.5555555555555556 0.07407407407407407 0.2222222222222222 0.07407407407407407 0.07407407407407407</probabilities>
		</cpt>
		<cpt id="Precip__cm_">
			<state id="State_0" />
			<state id="State_140" />
			<state id="State_208" />
			<state id="State_274" />
			<state id="State_348" />
			<state id="T" />
			<parents>Events</parents>
			<probabilities>0.7000000000000001 0.05 0.05 0.05 0.05 0.1 0.1428571428571429 0.1428571428571429 0.2857142857142857 0.1428571428571429 0.1428571428571429 0.1428571428571429 0.09090909090909091 0.09090909090909091 0.09090909090909091 0.1818181818181818 0.1818181818181818 0.3636363636363637 0.1428571428571429 0.2857142857142857 0.1428571428571429 0.1428571428571429 0.1428571428571429 0.1428571428571429 0.1428571428571429 0.1428571428571429 0.1428571428571429 0.1428571428571429 0.1428571428571429 0.2857142857142857</probabilities>
		</cpt>
		<cpt id="Visib_Ave">
			<state id="State6" />
			<state id="State9" />
			<state id="State13" />
			<state id="State14" />
			<state id="State15" />
			<state id="State16" />
			<parents>Precip__cm_</parents>
			<probabilities>0.05263157894736842 0.05263157894736842 0.05263157894736842 0.05263157894736842 0.05263157894736842 0.7368421052631579 0.1428571428571429 0.1428571428571429 0.2857142857142857 0.1428571428571429 0.1428571428571429 0.1428571428571429 0.2857142857142857 0.1428571428571429 0.1428571428571429 0.1428571428571429 0.1428571428571429 0.1428571428571429 0.1428571428571429 0.2857142857142857 0.1428571428571429 0.1428571428571429 0.1428571428571429 0.1428571428571429 0.1428571428571429 0.2857142857142857 0.1428571428571429 0.1428571428571429 0.1428571428571429 0.1428571428571429 0.09090909090909091 0.09090909090909091 0.09090909090909091 0.1818181818181818 0.1818181818181818 0.3636363636363637</probabilities>
		</cpt>
		<cpt id="Visib_Min">
			<state id="State0" />
			<state id="State2" />
			<state id="State3" />
			<state id="State13" />
			<state id="State14" />
			<state id="State16" />
			<parents>Visib_Ave</parents>
			<probabilities>0.2857142857142857 0.1428571428571429 0.1428571428571429 0.1428571428571429 0.1428571428571429 0.1428571428571429 0.125 0.375 0.125 0.125 0.125 0.125 0.1428571428571429 0.1428571428571429 0.2857142857142857 0.1428571428571429 0.1428571428571429 0.1428571428571429 0.1428571428571429 0.2857142857142857 0.1428571428571429 0.1428571428571429 0.1428571428571429 0.1428571428571429 0.1428571428571429 0.1428571428571429 0.1428571428571429 0.2857142857142857 0.1428571428571429 0.1428571428571429 0.04545454545454546 0.04545454545454546 0.04545454545454546 0.1363636363636364 0.1363636363636364 0.5909090909090909</probabilities>
		</cpt>
		<cpt id="Wind_Ave">
			<state id="State6" />
			<state id="State7" />
			<state id="State8" />
			<state id="State11" />
			<state id="State12" />
			<state id="State13" />
			<state id="State14" />
			<state id="State15" />
			<state id="State16" />
			<state id="State17" />
			<state id="State22" />
			<state id="State24" />
			<state id="State26" />
			<state id="State28" />
			<parents>Visib_Min</parents>
			<probabilities>0.06666666666666667 0.06666666666666667 0.06666666666666667 0.06666666666666667 0.06666666666666667 0.06666666666666667 0.06666666666666667 0.06666666666666667 0.06666666666666667 0.06666666666666667 0.1333333333333333 0.06666666666666667 0.06666666666666667 0.06666666666666667 0.05882352941176471 0.05882352941176471 0.05882352941176471 0.05882352941176471 0.05882352941176471 0.1176470588235294 0.1176470588235294 0.05882352941176471 0.05882352941176471 0.1176470588235294 0.05882352941176471 0.05882352941176471 0.05882352941176471 0.05882352941176471 0.06666666666666667 0.06666666666666667 0.06666666666666667 0.06666666666666667 0.06666666666666667 0.06666666666666667 0.1333333333333333 0.06666666666666667 0.06666666666666667 0.06666666666666667 0.06666666666666667 0.06666666666666667 0.06666666666666667 0.06666666666666667 0.1176470588235294 0.05882352941176471 0.05882352941176471 0.1764705882352941 0.05882352941176471 0.05882352941176471 0.05882352941176471 0.05882352941176471 0.05882352941176471 0.05882352941176471 0.05882352941176471 0.05882352941176471 0.05882352941176471 0.05882352941176471 0.0625 0.0625 0.0625 0.0625 0.125 0.0625 0.0625 0.0625 0.125 0.0625 0.0625 0.0625 0.0625 0.0625 0.03846153846153846 0.07692307692307693 0.2307692307692308 0.03846153846153846 0.03846153846153846 0.03846153846153846 0.07692307692307693 0.07692307692307693 0.03846153846153846 0.03846153846153846 0.03846153846153846 0.07692307692307693 0.1153846153846154 0.07692307692307693</probabilities>
		</cpt>
		<cpt id="DP_Min">
			<state id="State_16" />
			<state id="State_11" />
			<state id="State_9" />
			<state id="State_7" />
			<state id="State_6" />
			<state id="State_5" />
			<state id="State_4" />
			<state id="State_3" />
			<state id="State_1" />
			<state id="State0" />
			<state id="State3" />
			<state id="State6" />
			<state id="State7" />
			<state id="State8" />
			<state id="State9" />
			<state id="State12" />
			<parents>Precip__cm_ Wind_Ave</parents>
			<probabilities>0.05882352941176471 0.1176470588235294 0.05882352941176471 0.05882352941176471 0.05882352941176471 0.05882352941176471 0.05882352941176471 0.05882352941176471 0.05882352941176471 0.05882352941176471 0.05882352941176471 0.05882352941176471 0.05882352941176471 0.05882352941176471 0.05882352941176471 0.05882352941176471 0.05882352941176471 0.05882352941176471 0.05882352941176471 0.05882352941176471 0.05882352941176471 0.05882352941176471 0.05882352941176471 0.05882352941176471 0.05882352941176471 0.05882352941176471 0.05882352941176471 0.05882352941176471 0.05882352941176471 0.05882352941176471 0.1176470588235294 0.05882352941176471 0.05 0.05 0.05 0.05 0.05 0.05 0.05 0.05 0.05 0.05 0.25 0.05 0.05 0.05 0.05 0.05 0.05882352941176471 0.05882352941176471 0.05882352941176471 0.05882352941176471 0.05882352941176471 0.05882352941176471 0.05882352941176471 0.05882352941176471 0.05882352941176471 0.1176470588235294 0.05882352941176471 0.05882352941176471 0.05882352941176471 0.05882352941176471 0.05882352941176471 0.05882352941176471 0.05882352941176471 0.05882352941176471 0.05882352941176471 0.05882352941176471 0.05882352941176471 0.05882352941176471 0.05882352941176471 0.05882352941176471 0.05882352941176471 0.05882352941176471 0.05882352941176471 0.05882352941176471 0.1176470588235294 0.05882352941176471 0.05882352941176471 0.05882352941176471 0.0625 0.0625 0.0625 0.0625 0.0625 0.0625 0.0625 0.0625 0.0625 0.0625 0.0625 0.0625 0.0625 0.0625 0.0625 0.0625 0.05882352941176471 0.05882352941176471 0.05882352941176471 0.05882352941176471 0.05882352941176471 0.05882352941176471 0.1176470588235294 0.05882352941176471 0.05882352941176471 0.05882352941176471 0.05882352941176471 0.05882352941176471 0.05882352941176471 0.05882352941176471 0.05882352941176471 0.05882352941176471 0.1176470588235294 0.05882352941176471 0.05882352941176471 0.05882352941176471 0.05882352941176471 0.05882352941176471 0.05882352941176471 0.05882352941176471 0.05882352941176471 0.05882352941176471 0.05882352941176471 0.05882352941176471 0.05882352941176471 0.05882352941176471 0.05882352941176471 0.05882352941176471 0.0625 0.0625 0.0625 0.0625 0.0625 0.0625 0.0625 0.0625 0.0625 0.0625 0.0625 0.0625 0.0625 0.0625 0.0625 0.0625 0.0625 0.0625 0.0625 0.0625 0.0625 0.0625 0.0625 0.0625 0.0625 0.0625 0.0625 0.0625 0.0625 0.0625 0.0625 0.0625 0.0625 0.0625 0.0625 0.0625 0.0625 0.0625 0.0625 0.0625 0.0625 0.0625 0.0625 0.0625 0.0625 0.0625 0.0625 0.0625 0.0625 0.0625 0.0625 0.0625 0.0625 0.0625 0.0625 0.0625 0.0625 0.0625 0.0625 0.0625 0.0625 0.0625 0.0625 0.0625 0.05555555555555555 0.05555555555555555 0.1666666666666667 0.05555555555555555 0.05555555555555555 0.05555555555555555 0.05555555555555555 0.05555555555555555 0.05555555555555555 0.05555555555555555 0.05555555555555555 0.05555555555555555 0.05555555555555555 0.05555555555555555 0.05555555555555555 0.05555555555555555 0.05882352941176471 0.05882352941176471 0.05882352941176471 0.05882352941176471 0.05882352941176471 0.1176470588235294 0.05882352941176471 0.05882352941176471 0.05882352941176471 0.05882352941176471 0.05882352941176471 0.05882352941176471 0.05882352941176471 0.05882352941176471 0.05882352941176471 0.05882352941176471 0.0625 0.0625 0.0625 0.0625 0.0625 0.0625 0.0625 0.0625 0.0625 0.0625 0.0625 0.0625 0.0625 0.0625 0.0625 0.0625 0.0625 0.0625 0.0625 0.0625 0.0625 0.0625 0.0625 0.0625 0.0625 0.0625 0.0625 0.0625 0.0625 0.0625 0.0625 0.0625 0.0625 0.0625 0.0625 0.0625 0.0625 0.0625 0.0625 0.0625 0.0625 0.0625 0.0625 0.0625 0.0625 0.0625 0.0625 0.0625 0.0625 0.0625 0.0625 0.0625 0.0625 0.0625 0.0625 0.0625 0.0625 0.0625 0.0625 0.0625 0.0625 0.0625 0.0625 0.0625 0.0625 0.0625 0.0625 0.0625 0.0625 0.0625 0.0625 0.0625 0.0625 0.0625 0.0625 0.0625 0.0625 0.0625 0.0625 0.0625 0.0625 0.0625 0.0625 0.0625 0.0625 0.0625 0.0625 0.0625 0.0625 0.0625 0.0625 0.0625 0.0625 0.0625 0.0625 0.0625 0.05882352941176471 0.05882352941176471 0.05882352941176471 0.05882352941176471 0.05882352941176471 0.05882352941176471 0.05882352941176471 0.05882352941176471 0.1176470588235294 0.05882352941176471 0.05882352941176471 0.05882352941176471 0.05882352941176471 0.05882352941176471 0.05882352941176471 0.05882352941176471 0.0625 0.0625 0.0625 0.0625 0.0625 0.0625 0.0625 0.0625 0.0625 0.0625 0.0625 0.0625 0.0625 0.0625 0.0625 0.0625 0.0625 0.0625 0.0625 0.0625 0.0625 0.0625 0.0625 0.0625 0.0625 0.0625 0.0625 0.0625 0.0625 0.0625 0.0625 0.0625 0.0625 0.0625 0.0625 0.0625 0.0625 0.0625 0.0625 0.0625 0.0625 0.0625 0.0625 0.0625 0.0625 0.0625 0.0625 0.0625 0.0625 0.0625 0.0625 0.0625 0.0625 0.0625 0.0625 0.0625 0.0625 0.0625 0.0625 0.0625 0.0625 0.0625 0.0625 0.0625 0.0625 0.0625 0.0625 0.0625 0.0625 0.0625 0.0625 0.0625 0.0625 0.0625 0.0625 0.0625 0.0625 0.0625 0.0625 0.0625 0.0625 0.0625 0.0625 0.0625 0.0625 0.0625 0.0625 0.0625 0.0625 0.0625 0.0625 0.0625 0.0625 0.0625 0.0625 0.0625 0.0625 0.0625 0.0625 0.0625 0.0625 0.0625 0.0625 0.0625 0.0625 0.0625 0.0625 0.0625 0.0625 0.0625 0.0625 0.0625 0.0625 0.0625 0.0625 0.0625 0.0625 0.0625 0.0625 0.0625 0.0625 0.0625 0.0625 0.0625 0.0625 0.0625 0.0625 0.0625 0.0625 0.0625 0.0625 0.0625 0.0625 0.0625 0.0625 0.0625 0.0625 0.0625 0.0625 0.0625 0.0625 0.0625 0.0625 0.0625 0.0625 0.0625 0.0625 0.0625 0.0625 0.0625 0.0625 0.0625 0.0625 0.0625 0.0625 0.0625 0.0625 0.0625 0.0625 0.0625 0.0625 0.0625 0.0625 0.0625 0.0625 0.0625 0.0625 0.0625 0.0625 0.0625 0.0625 0.0625 0.0625 0.0625 0.0625 0.0625 0.0625 0.0625 0.0625 0.0625 0.0625 0.0625 0.0625 0.0625 0.0625 0.0625 0.0625 0.0625 0.0625 0.0625 0.0625 0.0625 0.0625 0.0625 0.0625 0.0625 0.0625 0.0625 0.0625 0.0625 0.0625 0.0625 0.0625 0.0625 0.0625 0.0625 0.0625 0.0625 0.0625 0.0625 0.0625 0.0625 0.0625 0.0625 0.0625 0.0625 0.0625 0.0625 0.0625 0.0625 0.0625 0.0625 0.0625 0.0625 0.0625 0.0625 0.0625 0.0625 0.0625 0.0625 0.0625 0.0625 0.0625 0.0625 0.0625 0.0625 0.0625 0.0625 0.0625 0.0625 0.0625 0.0625 0.0625 0.0625 0.0625 0.0625 0.0625 0.0625 0.0625 0.0625 0.0625 0.0625 0.0625 0.0625 0.0625 0.0625 0.0625 0.0625 0.0625 0.0625 0.0625 0.0625 0.0625 0.0625 0.0625 0.0625 0.0625 0.0625 0.0625 0.0625 0.0625 0.0625 0.05882352941176471 0.05882352941176471 0.05882352941176471 0.05882352941176471 0.1176470588235294 0.05882352941176471 0.05882352941176471 0.05882352941176471 0.05882352941176471 0.05882352941176471 0.05882352941176471 0.05882352941176471 0.05882352941176471 0.05882352941176471 0.05882352941176471 0.05882352941176471 0.0625 0.0625 0.0625 0.0625 0.0625 0.0625 0.0625 0.0625 0.0625 0.0625 0.0625 0.0625 0.0625 0.0625 0.0625 0.0625 0.0625 0.0625 0.0625 0.0625 0.0625 0.0625 0.0625 0.0625 0.0625 0.0625 0.0625 0.0625 0.0625 0.0625 0.0625 0.0625 0.0625 0.0625 0.0625 0.0625 0.0625 0.0625 0.0625 0.0625 0.0625 0.0625 0.0625 0.0625 0.0625 0.0625 0.0625 0.0625 0.0625 0.0625 0.0625 0.0625 0.0625 0.0625 0.0625 0.0625 0.0625 0.0625 0.0625 0.0625 0.0625 0.0625 0.0625 0.0625 0.0625 0.0625 0.0625 0.0625 0.0625 0.0625 0.0625 0.0625 0.0625 0.0625 0.0625 0.0625 0.0625 0.0625 0.0625 0.0625 0.0625 0.0625 0.0625 0.0625 0.0625 0.0625 0.0625 0.0625 0.0625 0.0625 0.0625 0.0625 0.0625 0.0625 0.0625 0.0625 0.0625 0.0625 0.0625 0.0625 0.0625 0.0625 0.0625 0.0625 0.0625 0.0625 0.0625 0.0625 0.0625 0.0625 0.0625 0.0625 0.0625 0.0625 0.0625 0.0625 0.0625 0.0625 0.0625 0.0625 0.0625 0.0625 0.0625 0.0625 0.0625 0.0625 0.0625 0.0625 0.0625 0.0625 0.0625 0.0625 0.0625 0.0625 0.0625 0.0625 0.0625 0.0625 0.0625 0.0625 0.0625 0.0625 0.0625 0.0625 0.0625 0.0625 0.0625 0.0625 0.0625 0.0625 0.0625 0.0625 0.0625 0.0625 0.0625 0.0625 0.0625 0.0625 0.0625 0.0625 0.0625 0.0625 0.0625 0.0625 0.0625 0.0625 0.0625 0.0625 0.0625 0.0625 0.0625 0.0625 0.0625 0.0625 0.0625 0.0625 0.0625 0.0625 0.0625 0.0625 0.0625 0.0625 0.0625 0.0625 0.0625 0.0625 0.0625 0.0625 0.0625 0.0625 0.0625 0.0625 0.05882352941176471 0.05882352941176471 0.05882352941176471 0.05882352941176471 0.05882352941176471 0.05882352941176471 0.05882352941176471 0.05882352941176471 0.05882352941176471 0.1176470588235294 0.05882352941176471 0.05882352941176471 0.05882352941176471 0.05882352941176471 0.05882352941176471 0.05882352941176471 0.0625 0.0625 0.0625 0.0625 0.0625 0.0625 0.0625 0.0625 0.0625 0.0625 0.0625 0.0625 0.0625 0.0625 0.0625 0.0625 0.0625 0.0625 0.0625 0.0625 0.0625 0.0625 0.0625 0.0625 0.0625 0.0625 0.0625 0.0625 0.0625 0.0625 0.0625 0.0625 0.0625 0.0625 0.0625 0.0625 0.0625 0.0625 0.0625 0.0625 0.0625 0.0625 0.0625 0.0625 0.0625 0.0625 0.0625 0.0625 0.0625 0.0625 0.0625 0.0625 0.0625 0.0625 0.0625 0.0625 0.0625 0.0625 0.0625 0.0625 0.0625 0.0625 0.0625 0.0625 0.0625 0.0625 0.0625 0.0625 0.0625 0.0625 0.0625 0.0625 0.0625 0.0625 0.0625 0.0625 0.0625 0.0625 0.0625 0.0625 0.0625 0.0625 0.0625 0.0625 0.0625 0.0625 0.0625 0.0625 0.0625 0.0625 0.0625 0.0625 0.0625 0.0625 0.0625 0.0625 0.0625 0.0625 0.0625 0.0625 0.0625 0.0625 0.0625 0.0625 0.0625 0.0625 0.0625 0.0625 0.0625 0.0625 0.0625 0.0625 0.0625 0.0625 0.0625 0.0625 0.0625 0.0625 0.0625 0.0625 0.0625 0.0625 0.0625 0.0625 0.0625 0.0625 0.0625 0.0625 0.0625 0.0625 0.0625 0.0625 0.0625 0.0625 0.0625 0.0625 0.0625 0.0625 0.0625 0.0625 0.0625 0.0625 0.0625 0.0625 0.0625 0.0625 0.0625 0.0625 0.0625 0.0625 0.0625 0.0625 0.0625 0.0625 0.0625 0.0625 0.0625 0.0625 0.0625 0.0625 0.05882352941176471 0.05882352941176471 0.05882352941176471 0.05882352941176471 0.05882352941176471 0.05882352941176471 0.05882352941176471 0.05882352941176471 0.05882352941176471 0.05882352941176471 0.05882352941176471 0.1176470588235294 0.05882352941176471 0.05882352941176471 0.05882352941176471 0.05882352941176471 0.0625 0.0625 0.0625 0.0625 0.0625 0.0625 0.0625 0.0625 0.0625 0.0625 0.0625 0.0625 0.0625 0.0625 0.0625 0.0625 0.0625 0.0625 0.0625 0.0625 0.0625 0.0625 0.0625 0.0625 0.0625 0.0625 0.0625 0.0625 0.0625 0.0625 0.0625 0.0625 0.0625 0.0625 0.0625 0.0625 0.0625 0.0625 0.0625 0.0625 0.0625 0.0625 0.0625 0.0625 0.0625 0.0625 0.0625 0.0625 0.0625 0.0625 0.0625 0.0625 0.0625 0.0625 0.0625 0.0625 0.0625 0.0625 0.0625 0.0625 0.0625 0.0625 0.0625 0.0625 0.0625 0.0625 0.0625 0.0625 0.0625 0.0625 0.0625 0.0625 0.0625 0.0625 0.0625 0.0625 0.0625 0.0625 0.0625 0.0625 0.0625 0.0625 0.0625 0.0625 0.0625 0.0625 0.0625 0.0625 0.0625 0.0625 0.0625 0.0625 0.0625 0.0625 0.0625 0.0625 0.0625 0.0625 0.0625 0.0625 0.0625 0.0625 0.0625 0.0625 0.0625 0.0625 0.0625 0.0625 0.0625 0.0625 0.0625 0.0625 0.0625 0.0625 0.0625 0.0625 0.0625 0.0625 0.0625 0.0625 0.0625 0.0625 0.0625 0.0625 0.0625 0.0625 0.0625 0.0625 0.0625 0.0625 0.0625 0.0625 0.0625 0.0625 0.0625 0.0625 0.0625 0.0625 0.0625 0.0625 0.0625 0.0625 0.0625 0.0625 0.05882352941176471 0.05882352941176471 0.05882352941176471 0.05882352941176471 0.05882352941176471 0.05882352941176471 0.05882352941176471 0.1176470588235294 0.05882352941176471 0.05882352941176471 0.05882352941176471 0.05882352941176471 0.05882352941176471 0.05882352941176471 0.05882352941176471 0.05882352941176471 0.05882352941176471 0.05882352941176471 0.05882352941176471 0.05882352941176471 0.05882352941176471 0.05882352941176471 0.05882352941176471 0.05882352941176471 0.05882352941176471 0.05882352941176471 0.05882352941176471 0.05882352941176471 0.05882352941176471 0.1176470588235294 0.05882352941176471 0.05882352941176471 0.0625 0.0625 0.0625 0.0625 0.0625 0.0625 0.0625 0.0625 0.0625 0.0625 0.0625 0.0625 0.0625 0.0625 0.0625 0.0625 0.05882352941176471 0.05882352941176471 0.05882352941176471 0.05882352941176471 0.05882352941176471 0.05882352941176471 0.05882352941176471 0.05882352941176471 0.05882352941176471 0.05882352941176471 0.05882352941176471 0.05882352941176471 0.05882352941176471 0.05882352941176471 0.05882352941176471 0.1176470588235294 0.0625 0.0625 0.0625 0.0625 0.0625 0.0625 0.0625 0.0625 0.0625 0.0625 0.0625 0.0625 0.0625 0.0625 0.0625 0.0625 0.0625 0.0625 0.0625 0.0625 0.0625 0.0625 0.0625 0.0625 0.0625 0.0625 0.0625 0.0625 0.0625 0.0625 0.0625 0.0625 0.05882352941176471 0.05882352941176471 0.05882352941176471 0.05882352941176471 0.1176470588235294 0.05882352941176471 0.05882352941176471 0.05882352941176471 0.05882352941176471 0.05882352941176471 0.05882352941176471 0.05882352941176471 0.05882352941176471 0.05882352941176471 0.05882352941176471 0.05882352941176471 0.0625 0.0625 0.0625 0.0625 0.0625 0.0625 0.0625 0.0625 0.0625 0.0625 0.0625 0.0625 0.0625 0.0625 0.0625 0.0625 0.0625 0.0625 0.0625 0.0625 0.0625 0.0625 0.0625 0.0625 0.0625 0.0625 0.0625 0.0625 0.0625 0.0625 0.0625 0.0625 0.05882352941176471 0.05882352941176471 0.05882352941176471 0.1176470588235294 0.05882352941176471 0.05882352941176471 0.05882352941176471 0.05882352941176471 0.05882352941176471 0.05882352941176471 0.05882352941176471 0.05882352941176471 0.05882352941176471 0.05882352941176471 0.05882352941176471 0.05882352941176471 0.0625 0.0625 0.0625 0.0625 0.0625 0.0625 0.0625 0.0625 0.0625 0.0625 0.0625 0.0625 0.0625 0.0625 0.0625 0.0625 0.0625 0.0625 0.0625 0.0625 0.0625 0.0625 0.0625 0.0625 0.0625 0.0625 0.0625 0.0625 0.0625 0.0625 0.0625 0.0625</probabilities>
		</cpt>
		<cpt id="Press_Max">
			<state id="State997" />
			<state id="State1003" />
			<state id="State1006" />
			<state id="State1007" />
			<state id="State1012" />
			<state id="State1014" />
			<state id="State1015" />
			<state id="State1017" />
			<state id="State1020" />
			<state id="State1022" />
			<state id="State1024" />
			<state id="State1025" />
			<state id="State1030" />
			<parents>DP_Min</parents>
			<probabilities>0.07142857142857143 0.07142857142857143 0.07142857142857143 0.07142857142857143 0.07142857142857143 0.07142857142857143 0.07142857142857143 0.07142857142857143 0.07142857142857143 0.07142857142857143 0.07142857142857143 0.07142857142857143 0.1428571428571429 0.07142857142857143 0.07142857142857143 0.07142857142857143 0.07142857142857143 0.07142857142857143 0.07142857142857143 0.07142857142857143 0.1428571428571429 0.07142857142857143 0.07142857142857143 0.07142857142857143 0.07142857142857143 0.07142857142857143 0.06666666666666667 0.06666666666666667 0.06666666666666667 0.2 0.06666666666666667 0.06666666666666667 0.06666666666666667 0.06666666666666667 0.06666666666666667 0.06666666666666667 0.06666666666666667 0.06666666666666667 0.06666666666666667 0.07142857142857143 0.07142857142857143 0.07142857142857143 0.07142857142857143 0.07142857142857143 0.07142857142857143 0.07142857142857143 0.07142857142857143 0.07142857142857143 0.07142857142857143 0.1428571428571429 0.07142857142857143 0.07142857142857143 0.1333333333333333 0.1333333333333333 0.06666666666666667 0.06666666666666667 0.06666666666666667 0.06666666666666667 0.06666666666666667 0.06666666666666667 0.06666666666666667 0.06666666666666667 0.06666666666666667 0.06666666666666667 0.06666666666666667 0.07142857142857143 0.07142857142857143 0.07142857142857143 0.07142857142857143 0.1428571428571429 0.07142857142857143 0.07142857142857143 0.07142857142857143 0.07142857142857143 0.07142857142857143 0.07142857142857143 0.07142857142857143 0.07142857142857143 0.07142857142857143 0.07142857142857143 0.07142857142857143 0.07142857142857143 0.07142857142857143 0.07142857142857143 0.07142857142857143 0.1428571428571429 0.07142857142857143 0.07142857142857143 0.07142857142857143 0.07142857142857143 0.07142857142857143 0.07142857142857143 0.07142857142857143 0.07142857142857143 0.07142857142857143 0.07142857142857143 0.1428571428571429 0.07142857142857143 0.07142857142857143 0.07142857142857143 0.07142857142857143 0.07142857142857143 0.07142857142857143 0.07142857142857143 0.07142857142857143 0.07142857142857143 0.07142857142857143 0.07142857142857143 0.07142857142857143 0.07142857142857143 0.07142857142857143 0.07142857142857143 0.07142857142857143 0.1428571428571429 0.07142857142857143 0.07142857142857143 0.07142857142857143 0.06666666666666667 0.06666666666666667 0.06666666666666667 0.06666666666666667 0.06666666666666667 0.06666666666666667 0.06666666666666667 0.06666666666666667 0.2 0.06666666666666667 0.06666666666666667 0.06666666666666667 0.06666666666666667 0.05882352941176471 0.05882352941176471 0.05882352941176471 0.05882352941176471 0.05882352941176471 0.05882352941176471 0.05882352941176471 0.05882352941176471 0.1176470588235294 0.2352941176470588 0.05882352941176471 0.05882352941176471 0.05882352941176471 0.07142857142857143 0.07142857142857143 0.07142857142857143 0.07142857142857143 0.07142857142857143 0.1428571428571429 0.07142857142857143 0.07142857142857143 0.07142857142857143 0.07142857142857143 0.07142857142857143 0.07142857142857143 0.07142857142857143 0.07142857142857143 0.07142857142857143 0.1428571428571429 0.07142857142857143 0.07142857142857143 0.07142857142857143 0.07142857142857143 0.07142857142857143 0.07142857142857143 0.07142857142857143 0.07142857142857143 0.07142857142857143 0.07142857142857143 0.07142857142857143 0.07142857142857143 0.07142857142857143 0.07142857142857143 0.07142857142857143 0.07142857142857143 0.07142857142857143 0.07142857142857143 0.07142857142857143 0.07142857142857143 0.07142857142857143 0.1428571428571429 0.07142857142857143 0.07142857142857143 0.07142857142857143 0.07142857142857143 0.07142857142857143 0.07142857142857143 0.07142857142857143 0.1428571428571429 0.07142857142857143 0.07142857142857143 0.07142857142857143 0.07142857142857143 0.07142857142857143 0.07142857142857143 0.07142857142857143 0.07142857142857143 0.07142857142857143 0.07142857142857143 0.07142857142857143 0.07142857142857143 0.07142857142857143 0.07142857142857143 0.07142857142857143 0.07142857142857143 0.1428571428571429 0.07142857142857143 0.07142857142857143</probabilities>
		</cpt>
		<cpt id="Press_Ave">
			<state id="State988" />
			<state id="State999" />
			<state id="State1002" />
			<state id="State1004" />
			<state id="State1007" />
			<state id="State1008" />
			<state id="State1011" />
			<state id="State1013" />
			<state id="State1014" />
			<state id="State1015" />
			<state id="State1016" />
			<state id="State1018" />
			<state id="State1021" />
			<state id="State1023" />
			<state id="State1028" />
			<parents>Visib_Ave Press_Max</parents>
			<probabilities>0.125 0.0625 0.0625 0.0625 0.0625 0.0625 0.0625 0.0625 0.0625 0.0625 0.0625 0.0625 0.0625 0.0625 0.0625 0.06666666666666667 0.06666666666666667 0.06666666666666667 0.06666666666666667 0.06666666666666667 0.06666666666666667 0.06666666666666667 0.06666666666666667 0.06666666666666667 0.06666666666666667 0.06666666666666667 0.06666666666666667 0.06666666666666667 0.06666666666666667 0.06666666666666667 0.06666666666666667 0.06666666666666667 0.06666666666666667 0.06666666666666667 0.06666666666666667 0.06666666666666667 0.06666666666666667 0.06666666666666667 0.06666666666666667 0.06666666666666667 0.06666666666666667 0.06666666666666667 0.06666666666666667 0.06666666666666667 0.06666666666666667 0.06666666666666667 0.06666666666666667 0.06666666666666667 0.06666666666666667 0.06666666666666667 0.06666666666666667 0.06666666666666667 0.06666666666666667 0.06666666666666667 0.06666666666666667 0.06666666666666667 0.06666666666666667 0.06666666666666667 0.06666666666666667 0.06666666666666667 0.06666666666666667 0.06666666666666667 0.06666666666666667 0.06666666666666667 0.06666666666666667 0.06666666666666667 0.06666666666666667 0.06666666666666667 0.06666666666666667 0.06666666666666667 0.06666666666666667 0.06666666666666667 0.06666666666666667 0.06666666666666667 0.06666666666666667 0.06666666666666667 0.06666666666666667 0.06666666666666667 0.06666666666666667 0.06666666666666667 0.06666666666666667 0.06666666666666667 0.06666666666666667 0.06666666666666667 0.06666666666666667 0.06666666666666667 0.06666666666666667 0.06666666666666667 0.06666666666666667 0.06666666666666667 0.06666666666666667 0.06666666666666667 0.06666666666666667 0.06666666666666667 0.06666666666666667 0.06666666666666667 0.06666666666666667 0.06666666666666667 0.06666666666666667 0.06666666666666667 0.06666666666666667 0.06666666666666667 0.06666666666666667 0.06666666666666667 0.06666666666666667 0.06666666666666667 0.06666666666666667 0.06666666666666667 0.06666666666666667 0.06666666666666667 0.06666666666666667 0.06666666666666667 0.06666666666666667 0.06666666666666667 0.06666666666666667 0.06666666666666667 0.06666666666666667 0.06666666666666667 0.06666666666666667 0.06666666666666667 0.06666666666666667 0.06666666666666667 0.06666666666666667 0.06666666666666667 0.06666666666666667 0.06666666666666667 0.06666666666666667 0.06666666666666667 0.06666666666666667 0.06666666666666667 0.06666666666666667 0.06666666666666667 0.06666666666666667 0.06666666666666667 0.06666666666666667 0.06666666666666667 0.06666666666666667 0.06666666666666667 0.06666666666666667 0.06666666666666667 0.06666666666666667 0.06666666666666667 0.06666666666666667 0.06666666666666667 0.06666666666666667 0.06666666666666667 0.06666666666666667 0.06666666666666667 0.06666666666666667 0.06666666666666667 0.06666666666666667 0.06666666666666667 0.06666666666666667 0.06666666666666667 0.06666666666666667 0.06666666666666667 0.06666666666666667 0.06666666666666667 0.06666666666666667 0.06666666666666667 0.06666666666666667 0.06666666666666667 0.06666666666666667 0.06666666666666667 0.06666666666666667 0.06666666666666667 0.06666666666666667 0.06666666666666667 0.06666666666666667 0.06666666666666667 0.06666666666666667 0.06666666666666667 0.06666666666666667 0.06666666666666667 0.06666666666666667 0.06666666666666667 0.06666666666666667 0.06666666666666667 0.06666666666666667 0.06666666666666667 0.06666666666666667 0.06666666666666667 0.06666666666666667 0.06666666666666667 0.06666666666666667 0.06666666666666667 0.06666666666666667 0.06666666666666667 0.06666666666666667 0.06666666666666667 0.06666666666666667 0.06666666666666667 0.06666666666666667 0.06666666666666667 0.06666666666666667 0.06666666666666667 0.06666666666666667 0.06666666666666667 0.06666666666666667 0.06666666666666667 0.06666666666666667 0.06666666666666667 0.06666666666666667 0.06666666666666667 0.06666666666666667 0.06666666666666667 0.06666666666666667 0.06666666666666667 0.06666666666666667 0.06666666666666667 0.06666666666666667 0.06666666666666667 0.06666666666666667 0.06666666666666667 0.06666666666666667 0.06666666666666667 0.06666666666666667 0.06666666666666667 0.06666666666666667 0.06666666666666667 0.06666666666666667 0.06666666666666667 0.06666666666666667 0.06666666666666667 0.06666666666666667 0.06666666666666667 0.06666666666666667 0.06666666666666667 0.06666666666666667 0.06666666666666667 0.06666666666666667 0.06666666666666667 0.06666666666666667 0.06666666666666667 0.06666666666666667 0.06666666666666667 0.06666666666666667 0.06666666666666667 0.06666666666666667 0.06666666666666667 0.06666666666666667 0.06666666666666667 0.06666666666666667 0.06666666666666667 0.06666666666666667 0.06666666666666667 0.06666666666666667 0.06666666666666667 0.06666666666666667 0.06666666666666667 0.06666666666666667 0.06666666666666667 0.06666666666666667 0.06666666666666667 0.06666666666666667 0.06666666666666667 0.06666666666666667 0.06666666666666667 0.06666666666666667 0.06666666666666667 0.06666666666666667 0.06666666666666667 0.06666666666666667 0.06666666666666667 0.06666666666666667 0.06666666666666667 0.06666666666666667 0.06666666666666667 0.06666666666666667 0.06666666666666667 0.0625 0.0625 0.0625 0.0625 0.0625 0.125 0.0625 0.0625 0.0625 0.0625 0.0625 0.0625 0.0625 0.0625 0.0625 0.06666666666666667 0.06666666666666667 0.06666666666666667 0.06666666666666667 0.06666666666666667 0.06666666666666667 0.06666666666666667 0.06666666666666667 0.06666666666666667 0.06666666666666667 0.06666666666666667 0.06666666666666667 0.06666666666666667 0.06666666666666667 0.06666666666666667 0.06666666666666667 0.06666666666666667 0.06666666666666667 0.06666666666666667 0.06666666666666667 0.06666666666666667 0.06666666666666667 0.06666666666666667 0.06666666666666667 0.06666666666666667 0.06666666666666667 0.06666666666666667 0.06666666666666667 0.06666666666666667 0.06666666666666667 0.0625 0.0625 0.0625 0.0625 0.0625 0.0625 0.0625 0.0625 0.0625 0.0625 0.125 0.0625 0.0625 0.0625 0.0625 0.06666666666666667 0.06666666666666667 0.06666666666666667 0.06666666666666667 0.06666666666666667 0.06666666666666667 0.06666666666666667 0.06666666666666667 0.06666666666666667 0.06666666666666667 0.06666666666666667 0.06666666666666667 0.06666666666666667 0.06666666666666667 0.06666666666666667 0.06666666666666667 0.06666666666666667 0.06666666666666667 0.06666666666666667 0.06666666666666667 0.06666666666666667 0.06666666666666667 0.06666666666666667 0.06666666666666667 0.06666666666666667 0.06666666666666667 0.06666666666666667 0.06666666666666667 0.06666666666666667 0.06666666666666667 0.06666666666666667 0.06666666666666667 0.06666666666666667 0.06666666666666667 0.06666666666666667 0.06666666666666667 0.06666666666666667 0.06666666666666667 0.06666666666666667 0.06666666666666667 0.06666666666666667 0.06666666666666667 0.06666666666666667 0.06666666666666667 0.06666666666666667 0.06666666666666667 0.06666666666666667 0.06666666666666667 0.06666666666666667 0.06666666666666667 0.06666666666666667 0.06666666666666667 0.06666666666666667 0.06666666666666667 0.06666666666666667 0.06666666666666667 0.06666666666666667 0.06666666666666667 0.06666666666666667 0.06666666666666667 0.06666666666666667 0.06666666666666667 0.06666666666666667 0.06666666666666667 0.06666666666666667 0.06666666666666667 0.06666666666666667 0.06666666666666667 0.06666666666666667 0.06666666666666667 0.06666666666666667 0.06666666666666667 0.06666666666666667 0.06666666666666667 0.06666666666666667 0.06666666666666667 0.06666666666666667 0.06666666666666667 0.06666666666666667 0.06666666666666667 0.06666666666666667 0.06666666666666667 0.06666666666666667 0.06666666666666667 0.06666666666666667 0.06666666666666667 0.06666666666666667 0.06666666666666667 0.06666666666666667 0.06666666666666667 0.06666666666666667 0.06666666666666667 0.06666666666666667 0.06666666666666667 0.06666666666666667 0.06666666666666667 0.06666666666666667 0.06666666666666667 0.06666666666666667 0.06666666666666667 0.06666666666666667 0.06666666666666667 0.06666666666666667 0.06666666666666667 0.06666666666666667 0.06666666666666667 0.06666666666666667 0.06666666666666667 0.06666666666666667 0.06666666666666667 0.06666666666666667 0.06666666666666667 0.06666666666666667 0.06666666666666667 0.06666666666666667 0.06666666666666667 0.06666666666666667 0.06666666666666667 0.06666666666666667 0.06666666666666667 0.06666666666666667 0.06666666666666667 0.06666666666666667 0.06666666666666667 0.06666666666666667 0.06666666666666667 0.06666666666666667 0.06666666666666667 0.06666666666666667 0.06666666666666667 0.06666666666666667 0.06666666666666667 0.06666666666666667 0.06666666666666667 0.06666666666666667 0.06666666666666667 0.06666666666666667 0.06666666666666667 0.06666666666666667 0.06666666666666667 0.06666666666666667 0.06666666666666667 0.06666666666666667 0.06666666666666667 0.06666666666666667 0.06666666666666667 0.06666666666666667 0.06666666666666667 0.06666666666666667 0.06666666666666667 0.06666666666666667 0.06666666666666667 0.06666666666666667 0.06666666666666667 0.06666666666666667 0.06666666666666667 0.06666666666666667 0.06666666666666667 0.06666666666666667 0.06666666666666667 0.06666666666666667 0.06666666666666667 0.06666666666666667 0.06666666666666667 0.06666666666666667 0.06666666666666667 0.06666666666666667 0.06666666666666667 0.06666666666666667 0.06666666666666667 0.06666666666666667 0.06666666666666667 0.06666666666666667 0.06666666666666667 0.06666666666666667 0.06666666666666667 0.06666666666666667 0.06666666666666667 0.06666666666666667 0.06666666666666667 0.06666666666666667 0.06666666666666667 0.06666666666666667 0.06666666666666667 0.06666666666666667 0.06666666666666667 0.06666666666666667 0.06666666666666667 0.06666666666666667 0.06666666666666667 0.06666666666666667 0.06666666666666667 0.06666666666666667 0.06666666666666667 0.06666666666666667 0.0625 0.0625 0.0625 0.0625 0.0625 0.0625 0.0625 0.125 0.0625 0.0625 0.0625 0.0625 0.0625 0.0625 0.0625 0.06666666666666667 0.06666666666666667 0.06666666666666667 0.06666666666666667 0.06666666666666667 0.06666666666666667 0.06666666666666667 0.06666666666666667 0.06666666666666667 0.06666666666666667 0.06666666666666667 0.06666666666666667 0.06666666666666667 0.06666666666666667 0.06666666666666667 0.06666666666666667 0.06666666666666667 0.06666666666666667 0.06666666666666667 0.06666666666666667 0.06666666666666667 0.06666666666666667 0.06666666666666667 0.06666666666666667 0.06666666666666667 0.06666666666666667 0.06666666666666667 0.06666666666666667 0.06666666666666667 0.06666666666666667 0.06666666666666667 0.06666666666666667 0.06666666666666667 0.06666666666666667 0.06666666666666667 0.06666666666666667 0.06666666666666667 0.06666666666666667 0.06666666666666667 0.06666666666666667 0.06666666666666667 0.06666666666666667 0.06666666666666667 0.06666666666666667 0.06666666666666667 0.06666666666666667 0.06666666666666667 0.06666666666666667 0.06666666666666667 0.06666666666666667 0.06666666666666667 0.06666666666666667 0.06666666666666667 0.06666666666666667 0.06666666666666667 0.06666666666666667 0.06666666666666667 0.06666666666666667 0.06666666666666667 0.06666666666666667 0.06666666666666667 0.06666666666666667 0.06666666666666667 0.06666666666666667 0.06666666666666667 0.06666666666666667 0.06666666666666667 0.06666666666666667 0.06666666666666667 0.06666666666666667 0.06666666666666667 0.06666666666666667 0.06666666666666667 0.06666666666666667 0.06666666666666667 0.06666666666666667 0.06666666666666667 0.06666666666666667 0.06666666666666667 0.06666666666666667 0.06666666666666667 0.06666666666666667 0.06666666666666667 0.06666666666666667 0.06666666666666667 0.06666666666666667 0.06666666666666667 0.06666666666666667 0.06666666666666667 0.06666666666666667 0.06666666666666667 0.06666666666666667 0.06666666666666667 0.06666666666666667 0.06666666666666667 0.06666666666666667 0.06666666666666667 0.06666666666666667 0.06666666666666667 0.06666666666666667 0.06666666666666667 0.06666666666666667 0.06666666666666667 0.06666666666666667 0.06666666666666667 0.06666666666666667 0.06666666666666667 0.06666666666666667 0.06666666666666667 0.06666666666666667 0.06666666666666667 0.06666666666666667 0.06666666666666667 0.06666666666666667 0.06666666666666667 0.06666666666666667 0.06666666666666667 0.06666666666666667 0.06666666666666667 0.06666666666666667 0.06666666666666667 0.06666666666666667 0.06666666666666667 0.06666666666666667 0.06666666666666667 0.06666666666666667 0.06666666666666667 0.06666666666666667 0.06666666666666667 0.06666666666666667 0.06666666666666667 0.06666666666666667 0.06666666666666667 0.06666666666666667 0.06666666666666667 0.06666666666666667 0.06666666666666667 0.06666666666666667 0.06666666666666667 0.06666666666666667 0.06666666666666667 0.06666666666666667 0.06666666666666667 0.06666666666666667 0.06666666666666667 0.06666666666666667 0.06666666666666667 0.06666666666666667 0.06666666666666667 0.06666666666666667 0.06666666666666667 0.06666666666666667 0.06666666666666667 0.06666666666666667 0.06666666666666667 0.06666666666666667 0.06666666666666667 0.06666666666666667 0.06666666666666667 0.06666666666666667 0.06666666666666667 0.06666666666666667 0.06666666666666667 0.06666666666666667 0.06666666666666667 0.06666666666666667 0.06666666666666667 0.06666666666666667 0.06666666666666667 0.06666666666666667 0.06666666666666667 0.06666666666666667 0.06666666666666667 0.06666666666666667 0.06666666666666667 0.06666666666666667 0.06666666666666667 0.06666666666666667 0.06666666666666667 0.06666666666666667 0.06666666666666667 0.06666666666666667 0.06666666666666667 0.06666666666666667 0.06666666666666667 0.06666666666666667 0.06666666666666667 0.06666666666666667 0.06666666666666667 0.06666666666666667 0.06666666666666667 0.06666666666666667 0.06666666666666667 0.06666666666666667 0.06666666666666667 0.0625 0.0625 0.0625 0.0625 0.0625 0.0625 0.0625 0.0625 0.0625 0.0625 0.0625 0.0625 0.0625 0.125 0.0625 0.06666666666666667 0.06666666666666667 0.06666666666666667 0.06666666666666667 0.06666666666666667 0.06666666666666667 0.06666666666666667 0.06666666666666667 0.06666666666666667 0.06666666666666667 0.06666666666666667 0.06666666666666667 0.06666666666666667 0.06666666666666667 0.06666666666666667 0.06666666666666667 0.06666666666666667 0.06666666666666667 0.06666666666666667 0.06666666666666667 0.06666666666666667 0.06666666666666667 0.06666666666666667 0.06666666666666667 0.06666666666666667 0.06666666666666667 0.06666666666666667 0.06666666666666667 0.06666666666666667 0.06666666666666667 0.06666666666666667 0.06666666666666667 0.06666666666666667 0.06666666666666667 0.06666666666666667 0.06666666666666667 0.06666666666666667 0.06666666666666667 0.06666666666666667 0.06666666666666667 0.06666666666666667 0.06666666666666667 0.06666666666666667 0.06666666666666667 0.06666666666666667 0.06666666666666667 0.06666666666666667 0.06666666666666667 0.06666666666666667 0.06666666666666667 0.06666666666666667 0.06666666666666667 0.06666666666666667 0.06666666666666667 0.06666666666666667 0.06666666666666667 0.06666666666666667 0.06666666666666667 0.06666666666666667 0.06666666666666667 0.06666666666666667 0.06666666666666667 0.06666666666666667 0.06666666666666667 0.06666666666666667 0.06666666666666667 0.06666666666666667 0.06666666666666667 0.06666666666666667 0.06666666666666667 0.06666666666666667 0.06666666666666667 0.06666666666666667 0.06666666666666667 0.06666666666666667 0.06666666666666667 0.06666666666666667 0.06666666666666667 0.06666666666666667 0.06666666666666667 0.06666666666666667 0.06666666666666667 0.06666666666666667 0.06666666666666667 0.06666666666666667 0.06666666666666667 0.06666666666666667 0.06666666666666667 0.06666666666666667 0.06666666666666667 0.06666666666666667 0.06666666666666667 0.06666666666666667 0.06666666666666667 0.06666666666666667 0.06666666666666667 0.06666666666666667 0.06666666666666667 0.06666666666666667 0.06666666666666667 0.06666666666666667 0.06666666666666667 0.06666666666666667 0.06666666666666667 0.06666666666666667 0.06666666666666667 0.06666666666666667 0.06666666666666667 0.06666666666666667 0.06666666666666667 0.06666666666666667 0.06666666666666667 0.06666666666666667 0.06666666666666667 0.06666666666666667 0.06666666666666667 0.06666666666666667 0.06666666666666667 0.06666666666666667 0.06666666666666667 0.06666666666666667 0.06666666666666667 0.06666666666666667 0.06666666666666667 0.06666666666666667 0.06666666666666667 0.06666666666666667 0.06666666666666667 0.06666666666666667 0.06666666666666667 0.06666666666666667 0.06666666666666667 0.06666666666666667 0.06666666666666667 0.06666666666666667 0.06666666666666667 0.06666666666666667 0.06666666666666667 0.06666666666666667 0.06666666666666667 0.06666666666666667 0.06666666666666667 0.06666666666666667 0.06666666666666667 0.06666666666666667 0.06666666666666667 0.06666666666666667 0.06666666666666667 0.06666666666666667 0.06666666666666667 0.06666666666666667 0.06666666666666667 0.06666666666666667 0.06666666666666667 0.06666666666666667 0.06666666666666667 0.06666666666666667 0.06666666666666667 0.06666666666666667 0.06666666666666667 0.06666666666666667 0.06666666666666667 0.06666666666666667 0.06666666666666667 0.06666666666666667 0.06666666666666667 0.06666666666666667 0.06666666666666667 0.06666666666666667 0.06666666666666667 0.06666666666666667 0.06666666666666667 0.06666666666666667 0.06666666666666667 0.06666666666666667 0.06666666666666667 0.06666666666666667 0.06666666666666667 0.06666666666666667 0.06666666666666667 0.06666666666666667 0.06666666666666667 0.06666666666666667 0.06666666666666667 0.06666666666666667 0.06666666666666667 0.06666666666666667 0.06666666666666667 0.06666666666666667 0.06666666666666667 0.06666666666666667 0.06666666666666667 0.06666666666666667 0.06666666666666667 0.06666666666666667 0.0625 0.0625 0.0625 0.0625 0.0625 0.0625 0.0625 0.0625 0.0625 0.0625 0.0625 0.0625 0.0625 0.125 0.0625 0.06666666666666667 0.06666666666666667 0.06666666666666667 0.06666666666666667 0.06666666666666667 0.06666666666666667 0.06666666666666667 0.06666666666666667 0.06666666666666667 0.06666666666666667 0.06666666666666667 0.06666666666666667 0.06666666666666667 0.06666666666666667 0.06666666666666667 0.06666666666666667 0.06666666666666667 0.06666666666666667 0.06666666666666667 0.06666666666666667 0.06666666666666667 0.06666666666666667 0.06666666666666667 0.06666666666666667 0.06666666666666667 0.06666666666666667 0.06666666666666667 0.06666666666666667 0.06666666666666667 0.06666666666666667 0.0625 0.125 0.0625 0.0625 0.0625 0.0625 0.0625 0.0625 0.0625 0.0625 0.0625 0.0625 0.0625 0.0625 0.0625 0.0625 0.0625 0.0625 0.125 0.0625 0.0625 0.0625 0.0625 0.0625 0.0625 0.0625 0.0625 0.0625 0.0625 0.0625 0.05882352941176471 0.05882352941176471 0.1764705882352941 0.05882352941176471 0.05882352941176471 0.05882352941176471 0.05882352941176471 0.05882352941176471 0.05882352941176471 0.05882352941176471 0.05882352941176471 0.05882352941176471 0.05882352941176471 0.05882352941176471 0.05882352941176471 0.0625 0.0625 0.0625 0.0625 0.125 0.0625 0.0625 0.0625 0.0625 0.0625 0.0625 0.0625 0.0625 0.0625 0.0625 0.0625 0.0625 0.0625 0.0625 0.0625 0.0625 0.125 0.0625 0.0625 0.0625 0.0625 0.0625 0.0625 0.0625 0.0625 0.0625 0.0625 0.0625 0.0625 0.0625 0.0625 0.0625 0.0625 0.125 0.0625 0.0625 0.0625 0.0625 0.0625 0.0625 0.05882352941176471 0.05882352941176471 0.05882352941176471 0.05882352941176471 0.05882352941176471 0.05882352941176471 0.05882352941176471 0.05882352941176471 0.05882352941176471 0.1764705882352941 0.05882352941176471 0.05882352941176471 0.05882352941176471 0.05882352941176471 0.05882352941176471 0.05882352941176471 0.05882352941176471 0.05882352941176471 0.05882352941176471 0.05882352941176471 0.05882352941176471 0.05882352941176471 0.05882352941176471 0.05882352941176471 0.05882352941176471 0.05882352941176471 0.1764705882352941 0.05882352941176471 0.05882352941176471 0.05882352941176471 0.05555555555555555 0.05555555555555555 0.05555555555555555 0.05555555555555555 0.05555555555555555 0.05555555555555555 0.05555555555555555 0.05555555555555555 0.05555555555555555 0.05555555555555555 0.05555555555555555 0.05555555555555555 0.2222222222222222 0.05555555555555555 0.05555555555555555 0.0625 0.0625 0.0625 0.0625 0.0625 0.0625 0.0625 0.0625 0.0625 0.0625 0.0625 0.0625 0.125 0.0625 0.0625 0.06666666666666667 0.06666666666666667 0.06666666666666667 0.06666666666666667 0.06666666666666667 0.06666666666666667 0.06666666666666667 0.06666666666666667 0.06666666666666667 0.06666666666666667 0.06666666666666667 0.06666666666666667 0.06666666666666667 0.06666666666666667 0.06666666666666667 0.0625 0.0625 0.0625 0.0625 0.0625 0.0625 0.0625 0.0625 0.0625 0.0625 0.0625 0.0625 0.0625 0.0625 0.125</probabilities>
		</cpt>
		<cpt id="Gust_Sp">
			<state id="State0" />
			<state id="State23" />
			<state id="State26" />
			<state id="State29" />
			<state id="State32" />
			<state id="State34" />
			<state id="State42" />
			<state id="State45" />
			<state id="State47" />
			<state id="State52" />
			<state id="State60" />
			<state id="State61" />
			<state id="State63" />
			<state id="State64" />
			<parents>Press_Max Press_Ave</parents>
			<probabilities>0.06666666666666667 0.06666666666666667 0.06666666666666667 0.06666666666666667 0.06666666666666667 0.06666666666666667 0.06666666666666667 0.06666666666666667 0.06666666666666667 0.06666666666666667 0.1333333333333333 0.06666666666666667 0.06666666666666667 0.06666666666666667 0.07142857142857143 0.07142857142857143 0.07142857142857143 0.07142857142857143 0.07142857142857143 0.07142857142857143 0.07142857142857143 0.07142857142857143 0.07142857142857143 0.07142857142857143 0.07142857142857143 0.07142857142857143 0.07142857142857143 0.07142857142857143 0.07142857142857143 0.07142857142857143 0.07142857142857143 0.07142857142857143 0.07142857142857143 0.07142857142857143 0.07142857142857143 0.07142857142857143 0.07142857142857143 0.07142857142857143 0.07142857142857143 0.07142857142857143 0.07142857142857143 0.07142857142857143 0.07142857142857143 0.07142857142857143 0.07142857142857143 0.07142857142857143 0.07142857142857143 0.07142857142857143 0.07142857142857143 0.07142857142857143 0.07142857142857143 0.07142857142857143 0.07142857142857143 0.07142857142857143 0.07142857142857143 0.07142857142857143 0.07142857142857143 0.07142857142857143 0.07142857142857143 0.07142857142857143 0.07142857142857143 0.07142857142857143 0.07142857142857143 0.07142857142857143 0.07142857142857143 0.07142857142857143 0.07142857142857143 0.07142857142857143 0.07142857142857143 0.07142857142857143 0.07142857142857143 0.07142857142857143 0.07142857142857143 0.07142857142857143 0.07142857142857143 0.07142857142857143 0.07142857142857143 0.07142857142857143 0.07142857142857143 0.07142857142857143 0.07142857142857143 0.07142857142857143 0.07142857142857143 0.07142857142857143 0.07142857142857143 0.07142857142857143 0.07142857142857143 0.07142857142857143 0.07142857142857143 0.07142857142857143 0.07142857142857143 0.07142857142857143 0.07142857142857143 0.07142857142857143 0.07142857142857143 0.07142857142857143 0.07142857142857143 0.07142857142857143 0.07142857142857143 0.07142857142857143 0.07142857142857143 0.07142857142857143 0.07142857142857143 0.07142857142857143 0.07142857142857143 0.07142857142857143 0.07142857142857143 0.07142857142857143 0.07142857142857143 0.07142857142857143 0.07142857142857143 0.07142857142857143 0.07142857142857143 0.07142857142857143 0.07142857142857143 0.07142857142857143 0.07142857142857143 0.07142857142857143 0.07142857142857143 0.07142857142857143 0.07142857142857143 0.07142857142857143 0.07142857142857143 0.07142857142857143 0.07142857142857143 0.07142857142857143 0.07142857142857143 0.07142857142857143 0.07142857142857143 0.07142857142857143 0.07142857142857143 0.07142857142857143 0.07142857142857143 0.07142857142857143 0.07142857142857143 0.07142857142857143 0.07142857142857143 0.07142857142857143 0.07142857142857143 0.07142857142857143 0.07142857142857143 0.07142857142857143 0.07142857142857143 0.07142857142857143 0.07142857142857143 0.07142857142857143 0.07142857142857143 0.07142857142857143 0.07142857142857143 0.07142857142857143 0.07142857142857143 0.07142857142857143 0.07142857142857143 0.07142857142857143 0.07142857142857143 0.07142857142857143 0.07142857142857143 0.07142857142857143 0.07142857142857143 0.07142857142857143 0.07142857142857143 0.07142857142857143 0.07142857142857143 0.07142857142857143 0.07142857142857143 0.07142857142857143 0.07142857142857143 0.07142857142857143 0.07142857142857143 0.07142857142857143 0.07142857142857143 0.07142857142857143 0.07142857142857143 0.07142857142857143 0.07142857142857143 0.07142857142857143 0.07142857142857143 0.07142857142857143 0.07142857142857143 0.07142857142857143 0.07142857142857143 0.07142857142857143 0.07142857142857143 0.07142857142857143 0.07142857142857143 0.07142857142857143 0.07142857142857143 0.07142857142857143 0.07142857142857143 0.07142857142857143 0.07142857142857143 0.07142857142857143 0.07142857142857143 0.07142857142857143 0.07142857142857143 0.07142857142857143 0.07142857142857143 0.07142857142857143 0.07142857142857143 0.07142857142857143 0.07142857142857143 0.07142857142857143 0.07142857142857143 0.07142857142857143 0.07142857142857143 0.07142857142857143 0.07142857142857143 0.07142857142857143 0.07142857142857143 0.07142857142857143 0.07142857142857143 0.07142857142857143 0.07142857142857143 0.07142857142857143 0.07142857142857143 0.07142857142857143 0.07142857142857143 0.07142857142857143 0.07142857142857143 0.07142857142857143 0.07142857142857143 0.07142857142857143 0.07142857142857143 0.07142857142857143 0.06666666666666667 0.06666666666666667 0.06666666666666667 0.06666666666666667 0.1333333333333333 0.06666666666666667 0.06666666666666667 0.06666666666666667 0.06666666666666667 0.06666666666666667 0.06666666666666667 0.06666666666666667 0.06666666666666667 0.06666666666666667 0.07142857142857143 0.07142857142857143 0.07142857142857143 0.07142857142857143 0.07142857142857143 0.07142857142857143 0.07142857142857143 0.07142857142857143 0.07142857142857143 0.07142857142857143 0.07142857142857143 0.07142857142857143 0.07142857142857143 0.07142857142857143 0.07142857142857143 0.07142857142857143 0.07142857142857143 0.07142857142857143 0.07142857142857143 0.07142857142857143 0.07142857142857143 0.07142857142857143 0.07142857142857143 0.07142857142857143 0.07142857142857143 0.07142857142857143 0.07142857142857143 0.07142857142857143 0.07142857142857143 0.07142857142857143 0.07142857142857143 0.07142857142857143 0.07142857142857143 0.07142857142857143 0.07142857142857143 0.07142857142857143 0.07142857142857143 0.07142857142857143 0.07142857142857143 0.07142857142857143 0.07142857142857143 0.07142857142857143 0.07142857142857143 0.07142857142857143 0.07142857142857143 0.07142857142857143 0.07142857142857143 0.07142857142857143 0.07142857142857143 0.07142857142857143 0.07142857142857143 0.07142857142857143 0.07142857142857143 0.07142857142857143 0.07142857142857143 0.07142857142857143 0.07142857142857143 0.07142857142857143 0.07142857142857143 0.07142857142857143 0.07142857142857143 0.07142857142857143 0.07142857142857143 0.07142857142857143 0.07142857142857143 0.07142857142857143 0.07142857142857143 0.07142857142857143 0.07142857142857143 0.07142857142857143 0.07142857142857143 0.07142857142857143 0.07142857142857143 0.07142857142857143 0.07142857142857143 0.07142857142857143 0.07142857142857143 0.07142857142857143 0.07142857142857143 0.07142857142857143 0.07142857142857143 0.07142857142857143 0.07142857142857143 0.07142857142857143 0.07142857142857143 0.07142857142857143 0.07142857142857143 0.07142857142857143 0.07142857142857143 0.07142857142857143 0.07142857142857143 0.07142857142857143 0.07142857142857143 0.07142857142857143 0.07142857142857143 0.07142857142857143 0.07142857142857143 0.07142857142857143 0.07142857142857143 0.07142857142857143 0.07142857142857143 0.07142857142857143 0.07142857142857143 0.07142857142857143 0.07142857142857143 0.07142857142857143 0.07142857142857143 0.07142857142857143 0.07142857142857143 0.07142857142857143 0.07142857142857143 0.07142857142857143 0.07142857142857143 0.07142857142857143 0.07142857142857143 0.07142857142857143 0.07142857142857143 0.07142857142857143 0.07142857142857143 0.07142857142857143 0.07142857142857143 0.07142857142857143 0.07142857142857143 0.07142857142857143 0.07142857142857143 0.07142857142857143 0.07142857142857143 0.07142857142857143 0.07142857142857143 0.07142857142857143 0.07142857142857143 0.07142857142857143 0.07142857142857143 0.07142857142857143 0.07142857142857143 0.07142857142857143 0.07142857142857143 0.07142857142857143 0.07142857142857143 0.07142857142857143 0.07142857142857143 0.07142857142857143 0.07142857142857143 0.07142857142857143 0.07142857142857143 0.07142857142857143 0.07142857142857143 0.07142857142857143 0.07142857142857143 0.07142857142857143 0.07142857142857143 0.07142857142857143 0.07142857142857143 0.07142857142857143 0.07142857142857143 0.07142857142857143 0.07142857142857143 0.07142857142857143 0.07142857142857143 0.07142857142857143 0.07142857142857143 0.07142857142857143 0.07142857142857143 0.07142857142857143 0.07142857142857143 0.07142857142857143 0.07142857142857143 0.07142857142857143 0.07142857142857143 0.07142857142857143 0.07142857142857143 0.07142857142857143 0.07142857142857143 0.07142857142857143 0.07142857142857143 0.07142857142857143 0.07142857142857143 0.07142857142857143 0.07142857142857143 0.07142857142857143 0.07142857142857143 0.07142857142857143 0.07142857142857143 0.07142857142857143 0.07142857142857143 0.07142857142857143 0.07142857142857143 0.07142857142857143 0.07142857142857143 0.07142857142857143 0.07142857142857143 0.07142857142857143 0.07142857142857143 0.07142857142857143 0.07142857142857143 0.07142857142857143 0.07142857142857143 0.07142857142857143 0.07142857142857143 0.07142857142857143 0.07142857142857143 0.07142857142857143 0.07142857142857143 0.07142857142857143 0.07142857142857143 0.07142857142857143 0.07142857142857143 0.07142857142857143 0.07142857142857143 0.07142857142857143 0.07142857142857143 0.07142857142857143 0.07142857142857143 0.07142857142857143 0.07142857142857143 0.07142857142857143 0.07142857142857143 0.07142857142857143 0.07142857142857143 0.07142857142857143 0.07142857142857143 0.07142857142857143 0.07142857142857143 0.07142857142857143 0.06666666666666667 0.06666666666666667 0.06666666666666667 0.06666666666666667 0.06666666666666667 0.06666666666666667 0.06666666666666667 0.1333333333333333 0.06666666666666667 0.06666666666666667 0.06666666666666667 0.06666666666666667 0.06666666666666667 0.06666666666666667 0.07142857142857143 0.07142857142857143 0.07142857142857143 0.07142857142857143 0.07142857142857143 0.07142857142857143 0.07142857142857143 0.07142857142857143 0.07142857142857143 0.07142857142857143 0.07142857142857143 0.07142857142857143 0.07142857142857143 0.07142857142857143 0.07142857142857143 0.07142857142857143 0.07142857142857143 0.07142857142857143 0.07142857142857143 0.07142857142857143 0.07142857142857143 0.07142857142857143 0.07142857142857143 0.07142857142857143 0.07142857142857143 0.07142857142857143 0.07142857142857143 0.07142857142857143 0.07142857142857143 0.07142857142857143 0.07142857142857143 0.07142857142857143 0.07142857142857143 0.07142857142857143 0.07142857142857143 0.07142857142857143 0.07142857142857143 0.07142857142857143 0.07142857142857143 0.07142857142857143 0.07142857142857143 0.07142857142857143 0.07142857142857143 0.07142857142857143 0.07142857142857143 0.07142857142857143 0.07142857142857143 0.07142857142857143 0.07142857142857143 0.07142857142857143 0.07142857142857143 0.07142857142857143 0.07142857142857143 0.07142857142857143 0.07142857142857143 0.07142857142857143 0.07142857142857143 0.07142857142857143 0.07142857142857143 0.07142857142857143 0.07142857142857143 0.07142857142857143 0.07142857142857143 0.07142857142857143 0.07142857142857143 0.07142857142857143 0.07142857142857143 0.07142857142857143 0.07142857142857143 0.07142857142857143 0.07142857142857143 0.07142857142857143 0.07142857142857143 0.07142857142857143 0.07142857142857143 0.07142857142857143 0.07142857142857143 0.07142857142857143 0.07142857142857143 0.07142857142857143 0.07142857142857143 0.07142857142857143 0.07142857142857143 0.07142857142857143 0.07142857142857143 0.07142857142857143 0.07142857142857143 0.07142857142857143 0.07142857142857143 0.07142857142857143 0.07142857142857143 0.07142857142857143 0.07142857142857143 0.07142857142857143 0.07142857142857143 0.07142857142857143 0.07142857142857143 0.07142857142857143 0.07142857142857143 0.07142857142857143 0.07142857142857143 0.07142857142857143 0.07142857142857143 0.07142857142857143 0.07142857142857143 0.07142857142857143 0.07142857142857143 0.07142857142857143 0.07142857142857143 0.07142857142857143 0.07142857142857143 0.07142857142857143 0.07142857142857143 0.07142857142857143 0.07142857142857143 0.07142857142857143 0.07142857142857143 0.07142857142857143 0.07142857142857143 0.07142857142857143 0.07142857142857143 0.07142857142857143 0.07142857142857143 0.07142857142857143 0.07142857142857143 0.07142857142857143 0.07142857142857143 0.07142857142857143 0.07142857142857143 0.07142857142857143 0.07142857142857143 0.07142857142857143 0.07142857142857143 0.07142857142857143 0.07142857142857143 0.07142857142857143 0.07142857142857143 0.07142857142857143 0.07142857142857143 0.07142857142857143 0.07142857142857143 0.07142857142857143 0.07142857142857143 0.07142857142857143 0.07142857142857143 0.07142857142857143 0.07142857142857143 0.07142857142857143 0.07142857142857143 0.07142857142857143 0.07142857142857143 0.07142857142857143 0.07142857142857143 0.07142857142857143 0.07142857142857143 0.07142857142857143 0.07142857142857143 0.07142857142857143 0.07142857142857143 0.07142857142857143 0.07142857142857143 0.07142857142857143 0.07142857142857143 0.07142857142857143 0.07142857142857143 0.07142857142857143 0.07142857142857143 0.07142857142857143 0.07142857142857143 0.07142857142857143 0.07142857142857143 0.07142857142857143 0.07142857142857143 0.07142857142857143 0.07142857142857143 0.07142857142857143 0.07142857142857143 0.07142857142857143 0.07142857142857143 0.07142857142857143 0.07142857142857143 0.07142857142857143 0.0625 0.0625 0.0625 0.0625 0.0625 0.0625 0.0625 0.0625 0.0625 0.0625 0.0625 0.0625 0.0625 0.1875 0.07142857142857143 0.07142857142857143 0.07142857142857143 0.07142857142857143 0.07142857142857143 0.07142857142857143 0.07142857142857143 0.07142857142857143 0.07142857142857143 0.07142857142857143 0.07142857142857143 0.07142857142857143 0.07142857142857143 0.07142857142857143 0.07142857142857143 0.07142857142857143 0.07142857142857143 0.07142857142857143 0.07142857142857143 0.07142857142857143 0.07142857142857143 0.07142857142857143 0.07142857142857143 0.07142857142857143 0.07142857142857143 0.07142857142857143 0.07142857142857143 0.07142857142857143 0.07142857142857143 0.07142857142857143 0.07142857142857143 0.07142857142857143 0.07142857142857143 0.07142857142857143 0.07142857142857143 0.07142857142857143 0.07142857142857143 0.07142857142857143 0.07142857142857143 0.07142857142857143 0.07142857142857143 0.07142857142857143 0.07142857142857143 0.07142857142857143 0.07142857142857143 0.07142857142857143 0.07142857142857143 0.07142857142857143 0.07142857142857143 0.07142857142857143 0.07142857142857143 0.07142857142857143 0.07142857142857143 0.07142857142857143 0.07142857142857143 0.07142857142857143 0.07142857142857143 0.07142857142857143 0.07142857142857143 0.07142857142857143 0.07142857142857143 0.07142857142857143 0.07142857142857143 0.07142857142857143 0.07142857142857143 0.07142857142857143 0.07142857142857143 0.07142857142857143 0.07142857142857143 0.07142857142857143 0.07142857142857143 0.07142857142857143 0.07142857142857143 0.07142857142857143 0.07142857142857143 0.07142857142857143 0.07142857142857143 0.07142857142857143 0.07142857142857143 0.07142857142857143 0.07142857142857143 0.07142857142857143 0.07142857142857143 0.07142857142857143 0.07142857142857143 0.07142857142857143 0.07142857142857143 0.07142857142857143 0.07142857142857143 0.07142857142857143 0.07142857142857143 0.07142857142857143 0.07142857142857143 0.07142857142857143 0.07142857142857143 0.07142857142857143 0.07142857142857143 0.07142857142857143 0.07142857142857143 0.07142857142857143 0.07142857142857143 0.07142857142857143 0.07142857142857143 0.07142857142857143 0.07142857142857143 0.07142857142857143 0.07142857142857143 0.07142857142857143 0.07142857142857143 0.07142857142857143 0.07142857142857143 0.07142857142857143 0.07142857142857143 0.07142857142857143 0.07142857142857143 0.07142857142857143 0.07142857142857143 0.07142857142857143 0.07142857142857143 0.07142857142857143 0.07142857142857143 0.07142857142857143 0.07142857142857143 0.07142857142857143 0.07142857142857143 0.07142857142857143 0.07142857142857143 0.07142857142857143 0.07142857142857143 0.07142857142857143 0.07142857142857143 0.07142857142857143 0.07142857142857143 0.07142857142857143 0.07142857142857143 0.07142857142857143 0.07142857142857143 0.07142857142857143 0.07142857142857143 0.07142857142857143 0.07142857142857143 0.07142857142857143 0.07142857142857143 0.07142857142857143 0.07142857142857143 0.07142857142857143 0.07142857142857143 0.07142857142857143 0.07142857142857143 0.07142857142857143 0.07142857142857143 0.07142857142857143 0.07142857142857143 0.07142857142857143 0.07142857142857143 0.07142857142857143 0.07142857142857143 0.07142857142857143 0.07142857142857143 0.07142857142857143 0.07142857142857143 0.07142857142857143 0.07142857142857143 0.07142857142857143 0.07142857142857143 0.07142857142857143 0.07142857142857143 0.07142857142857143 0.07142857142857143 0.07142857142857143 0.07142857142857143 0.07142857142857143 0.07142857142857143 0.07142857142857143 0.07142857142857143 0.07142857142857143 0.07142857142857143 0.07142857142857143 0.07142857142857143 0.07142857142857143 0.07142857142857143 0.07142857142857143 0.07142857142857143 0.07142857142857143 0.07142857142857143 0.07142857142857143 0.07142857142857143 0.07142857142857143 0.07142857142857143 0.07142857142857143 0.07142857142857143 0.07142857142857143 0.07142857142857143 0.07142857142857143 0.07142857142857143 0.07142857142857143 0.07142857142857143 0.07142857142857143 0.07142857142857143 0.07142857142857143 0.07142857142857143 0.07142857142857143 0.07142857142857143 0.07142857142857143 0.07142857142857143 0.07142857142857143 0.07142857142857143 0.07142857142857143 0.07142857142857143 0.07142857142857143 0.07142857142857143 0.07142857142857143 0.07142857142857143 0.07142857142857143 0.07142857142857143 0.07142857142857143 0.07142857142857143 0.07142857142857143 0.07142857142857143 0.07142857142857143 0.07142857142857143 0.07142857142857143 0.07142857142857143 0.07142857142857143 0.06666666666666667 0.06666666666666667 0.06666666666666667 0.06666666666666667 0.06666666666666667 0.06666666666666667 0.06666666666666667 0.06666666666666667 0.06666666666666667 0.06666666666666667 0.06666666666666667 0.1333333333333333 0.06666666666666667 0.06666666666666667 0.07142857142857143 0.07142857142857143 0.07142857142857143 0.07142857142857143 0.07142857142857143 0.07142857142857143 0.07142857142857143 0.07142857142857143 0.07142857142857143 0.07142857142857143 0.07142857142857143 0.07142857142857143 0.07142857142857143 0.07142857142857143 0.07142857142857143 0.07142857142857143 0.07142857142857143 0.07142857142857143 0.07142857142857143 0.07142857142857143 0.07142857142857143 0.07142857142857143 0.07142857142857143 0.07142857142857143 0.07142857142857143 0.07142857142857143 0.07142857142857143 0.07142857142857143 0.07142857142857143 0.07142857142857143 0.07142857142857143 0.07142857142857143 0.07142857142857143 0.07142857142857143 0.07142857142857143 0.07142857142857143 0.07142857142857143 0.07142857142857143 0.07142857142857143 0.07142857142857143 0.07142857142857143 0.07142857142857143 0.07142857142857143 0.07142857142857143 0.07142857142857143 0.07142857142857143 0.07142857142857143 0.07142857142857143 0.07142857142857143 0.07142857142857143 0.07142857142857143 0.07142857142857143 0.07142857142857143 0.07142857142857143 0.07142857142857143 0.07142857142857143 0.07142857142857143 0.07142857142857143 0.07142857142857143 0.07142857142857143 0.07142857142857143 0.07142857142857143 0.07142857142857143 0.07142857142857143 0.07142857142857143 0.07142857142857143 0.07142857142857143 0.07142857142857143 0.07142857142857143 0.07142857142857143 0.07142857142857143 0.07142857142857143 0.07142857142857143 0.07142857142857143 0.07142857142857143 0.07142857142857143 0.07142857142857143 0.07142857142857143 0.07142857142857143 0.07142857142857143 0.07142857142857143 0.07142857142857143 0.07142857142857143 0.07142857142857143 0.07142857142857143 0.07142857142857143 0.07142857142857143 0.07142857142857143 0.07142857142857143 0.07142857142857143 0.07142857142857143 0.07142857142857143 0.07142857142857143 0.07142857142857143 0.07142857142857143 0.07142857142857143 0.07142857142857143 0.07142857142857143 0.07142857142857143 0.07142857142857143 0.07142857142857143 0.07142857142857143 0.07142857142857143 0.07142857142857143 0.07142857142857143 0.07142857142857143 0.07142857142857143 0.07142857142857143 0.07142857142857143 0.07142857142857143 0.07142857142857143 0.07142857142857143 0.07142857142857143 0.07142857142857143 0.07142857142857143 0.07142857142857143 0.07142857142857143 0.07142857142857143 0.07142857142857143 0.07142857142857143 0.07142857142857143 0.07142857142857143 0.07142857142857143 0.07142857142857143 0.07142857142857143 0.07142857142857143 0.07142857142857143 0.07142857142857143 0.07142857142857143 0.07142857142857143 0.07142857142857143 0.07142857142857143 0.07142857142857143 0.07142857142857143 0.07142857142857143 0.07142857142857143 0.07142857142857143 0.07142857142857143 0.07142857142857143 0.07142857142857143 0.07142857142857143 0.07142857142857143 0.07142857142857143 0.07142857142857143 0.07142857142857143 0.07142857142857143 0.07142857142857143 0.07142857142857143 0.07142857142857143 0.07142857142857143 0.07142857142857143 0.07142857142857143 0.07142857142857143 0.07142857142857143 0.07142857142857143 0.07142857142857143 0.07142857142857143 0.07142857142857143 0.07142857142857143 0.07142857142857143 0.07142857142857143 0.07142857142857143 0.07142857142857143 0.07142857142857143 0.07142857142857143 0.07142857142857143 0.07142857142857143 0.07142857142857143 0.07142857142857143 0.07142857142857143 0.07142857142857143 0.07142857142857143 0.07142857142857143 0.07142857142857143 0.07142857142857143 0.07142857142857143 0.07142857142857143 0.07142857142857143 0.07142857142857143 0.07142857142857143 0.07142857142857143 0.07142857142857143 0.07142857142857143 0.07142857142857143 0.07142857142857143 0.07142857142857143 0.07142857142857143 0.07142857142857143 0.07142857142857143 0.07142857142857143 0.07142857142857143 0.07142857142857143 0.07142857142857143 0.07142857142857143 0.07142857142857143 0.07142857142857143 0.07142857142857143 0.07142857142857143 0.07142857142857143 0.07142857142857143 0.07142857142857143 0.07142857142857143 0.07142857142857143 0.07142857142857143 0.07142857142857143 0.07142857142857143 0.07142857142857143 0.07142857142857143 0.07142857142857143 0.07142857142857143 0.06666666666666667 0.06666666666666667 0.06666666666666667 0.06666666666666667 0.06666666666666667 0.06666666666666667 0.06666666666666667 0.06666666666666667 0.06666666666666667 0.1333333333333333 0.06666666666666667 0.06666666666666667 0.06666666666666667 0.06666666666666667 0.06666666666666667 0.06666666666666667 0.1333333333333333 0.06666666666666667 0.06666666666666667 0.06666666666666667 0.06666666666666667 0.06666666666666667 0.06666666666666667 0.06666666666666667 0.06666666666666667 0.06666666666666667 0.06666666666666667 0.06666666666666667 0.07142857142857143 0.07142857142857143 0.07142857142857143 0.07142857142857143 0.07142857142857143 0.07142857142857143 0.07142857142857143 0.07142857142857143 0.07142857142857143 0.07142857142857143 0.07142857142857143 0.07142857142857143 0.07142857142857143 0.07142857142857143 0.07142857142857143 0.07142857142857143 0.07142857142857143 0.07142857142857143 0.07142857142857143 0.07142857142857143 0.07142857142857143 0.07142857142857143 0.07142857142857143 0.07142857142857143 0.07142857142857143 0.07142857142857143 0.07142857142857143 0.07142857142857143 0.07142857142857143 0.07142857142857143 0.07142857142857143 0.07142857142857143 0.07142857142857143 0.07142857142857143 0.07142857142857143 0.07142857142857143 0.07142857142857143 0.07142857142857143 0.07142857142857143 0.07142857142857143 0.07142857142857143 0.07142857142857143 0.07142857142857143 0.07142857142857143 0.07142857142857143 0.07142857142857143 0.07142857142857143 0.07142857142857143 0.07142857142857143 0.07142857142857143 0.07142857142857143 0.07142857142857143 0.07142857142857143 0.07142857142857143 0.07142857142857143 0.07142857142857143 0.07142857142857143 0.07142857142857143 0.07142857142857143 0.07142857142857143 0.07142857142857143 0.07142857142857143 0.07142857142857143 0.07142857142857143 0.07142857142857143 0.07142857142857143 0.07142857142857143 0.07142857142857143 0.07142857142857143 0.07142857142857143 0.07142857142857143 0.07142857142857143 0.07142857142857143 0.07142857142857143 0.07142857142857143 0.07142857142857143 0.07142857142857143 0.07142857142857143 0.07142857142857143 0.07142857142857143 0.07142857142857143 0.07142857142857143 0.07142857142857143 0.07142857142857143 0.07142857142857143 0.07142857142857143 0.07142857142857143 0.07142857142857143 0.07142857142857143 0.07142857142857143 0.07142857142857143 0.07142857142857143 0.07142857142857143 0.07142857142857143 0.07142857142857143 0.07142857142857143 0.07142857142857143 0.07142857142857143 0.07142857142857143 0.07142857142857143 0.07142857142857143 0.07142857142857143 0.07142857142857143 0.07142857142857143 0.07142857142857143 0.07142857142857143 0.07142857142857143 0.07142857142857143 0.07142857142857143 0.07142857142857143 0.07142857142857143 0.07142857142857143 0.07142857142857143 0.07142857142857143 0.07142857142857143 0.07142857142857143 0.07142857142857143 0.07142857142857143 0.07142857142857143 0.07142857142857143 0.07142857142857143 0.07142857142857143 0.07142857142857143 0.07142857142857143 0.07142857142857143 0.07142857142857143 0.07142857142857143 0.07142857142857143 0.07142857142857143 0.07142857142857143 0.07142857142857143 0.07142857142857143 0.07142857142857143 0.07142857142857143 0.07142857142857143 0.07142857142857143 0.07142857142857143 0.07142857142857143 0.07142857142857143 0.07142857142857143 0.07142857142857143 0.07142857142857143 0.07142857142857143 0.07142857142857143 0.07142857142857143 0.07142857142857143 0.07142857142857143 0.07142857142857143 0.07142857142857143 0.07142857142857143 0.07142857142857143 0.07142857142857143 0.07142857142857143 0.07142857142857143 0.07142857142857143 0.07142857142857143 0.07142857142857143 0.07142857142857143 0.07142857142857143 0.07142857142857143 0.07142857142857143 0.07142857142857143 0.07142857142857143 0.07142857142857143 0.07142857142857143 0.07142857142857143 0.07142857142857143 0.07142857142857143 0.07142857142857143 0.07142857142857143 0.07142857142857143 0.07142857142857143 0.07142857142857143 0.07142857142857143 0.07142857142857143 0.07142857142857143 0.07142857142857143 0.07142857142857143 0.07142857142857143 0.07142857142857143 0.07142857142857143 0.07142857142857143 0.07142857142857143 0.07142857142857143 0.07142857142857143 0.07142857142857143 0.07142857142857143 0.07142857142857143 0.07142857142857143 0.07142857142857143 0.07142857142857143 0.07142857142857143 0.07142857142857143 0.07142857142857143 0.07142857142857143 0.07142857142857143 0.07142857142857143 0.07142857142857143 0.07142857142857143 0.07142857142857143 0.07142857142857143 0.07142857142857143 0.07142857142857143 0.07142857142857143 0.07142857142857143 0.07142857142857143 0.07142857142857143 0.07142857142857143 0.07142857142857143 0.07142857142857143 0.07142857142857143 0.07142857142857143 0.07142857142857143 0.07142857142857143 0.07142857142857143 0.07142857142857143 0.07142857142857143 0.07142857142857143 0.07142857142857143 0.07142857142857143 0.07142857142857143 0.07142857142857143 0.07142857142857143 0.07142857142857143 0.06666666666666667 0.1333333333333333 0.06666666666666667 0.06666666666666667 0.06666666666666667 0.06666666666666667 0.06666666666666667 0.06666666666666667 0.06666666666666667 0.06666666666666667 0.06666666666666667 0.06666666666666667 0.06666666666666667 0.06666666666666667 0.07142857142857143 0.07142857142857143 0.07142857142857143 0.07142857142857143 0.07142857142857143 0.07142857142857143 0.07142857142857143 0.07142857142857143 0.07142857142857143 0.07142857142857143 0.07142857142857143 0.07142857142857143 0.07142857142857143 0.07142857142857143 0.07142857142857143 0.07142857142857143 0.07142857142857143 0.07142857142857143 0.07142857142857143 0.07142857142857143 0.07142857142857143 0.07142857142857143 0.07142857142857143 0.07142857142857143 0.07142857142857143 0.07142857142857143 0.07142857142857143 0.07142857142857143 0.07142857142857143 0.07142857142857143 0.07142857142857143 0.07142857142857143 0.07142857142857143 0.07142857142857143 0.07142857142857143 0.07142857142857143 0.07142857142857143 0.07142857142857143 0.07142857142857143 0.07142857142857143 0.07142857142857143 0.07142857142857143 0.07142857142857143 0.07142857142857143 0.07142857142857143 0.07142857142857143 0.07142857142857143 0.07142857142857143 0.07142857142857143 0.07142857142857143 0.07142857142857143 0.07142857142857143 0.07142857142857143 0.07142857142857143 0.07142857142857143 0.07142857142857143 0.07142857142857143 0.07142857142857143 0.07142857142857143 0.07142857142857143 0.07142857142857143 0.07142857142857143 0.07142857142857143 0.07142857142857143 0.07142857142857143 0.07142857142857143 0.07142857142857143 0.07142857142857143 0.07142857142857143 0.07142857142857143 0.07142857142857143 0.07142857142857143 0.07142857142857143 0.07142857142857143 0.07142857142857143 0.07142857142857143 0.07142857142857143 0.07142857142857143 0.07142857142857143 0.07142857142857143 0.07142857142857143 0.07142857142857143 0.07142857142857143 0.07142857142857143 0.07142857142857143 0.07142857142857143 0.07142857142857143 0.07142857142857143 0.07142857142857143 0.07142857142857143 0.07142857142857143 0.07142857142857143 0.07142857142857143 0.07142857142857143 0.07142857142857143 0.07142857142857143 0.07142857142857143 0.07142857142857143 0.07142857142857143 0.07142857142857143 0.07142857142857143 0.07142857142857143 0.07142857142857143 0.07142857142857143 0.07142857142857143 0.07142857142857143 0.07142857142857143 0.07142857142857143 0.07142857142857143 0.07142857142857143 0.07142857142857143 0.07142857142857143 0.07142857142857143 0.07142857142857143 0.07142857142857143 0.07142857142857143 0.07142857142857143 0.07142857142857143 0.07142857142857143 0.07142857142857143 0.07142857142857143 0.07142857142857143 0.07142857142857143 0.07142857142857143 0.07142857142857143 0.07142857142857143 0.07142857142857143 0.07142857142857143 0.07142857142857143 0.07142857142857143 0.07142857142857143 0.07142857142857143 0.07142857142857143 0.07142857142857143 0.07142857142857143 0.07142857142857143 0.07142857142857143 0.07142857142857143 0.07142857142857143 0.07142857142857143 0.07142857142857143 0.07142857142857143 0.07142857142857143 0.07142857142857143 0.07142857142857143 0.07142857142857143 0.07142857142857143 0.07142857142857143 0.07142857142857143 0.07142857142857143 0.07142857142857143 0.07142857142857143 0.07142857142857143 0.07142857142857143 0.07142857142857143 0.07142857142857143 0.07142857142857143 0.07142857142857143 0.07142857142857143 0.07142857142857143 0.07142857142857143 0.07142857142857143 0.07142857142857143 0.07142857142857143 0.07142857142857143 0.07142857142857143 0.07142857142857143 0.07142857142857143 0.07142857142857143 0.07142857142857143 0.07142857142857143 0.07142857142857143 0.07142857142857143 0.07142857142857143 0.07142857142857143 0.07142857142857143 0.07142857142857143 0.07142857142857143 0.07142857142857143 0.07142857142857143 0.07142857142857143 0.07142857142857143 0.07142857142857143 0.07142857142857143 0.07142857142857143 0.07142857142857143 0.07142857142857143 0.07142857142857143 0.07142857142857143 0.07142857142857143 0.07142857142857143 0.07142857142857143 0.07142857142857143 0.07142857142857143 0.07142857142857143 0.07142857142857143 0.07142857142857143 0.07142857142857143 0.07142857142857143 0.07142857142857143 0.07142857142857143 0.07142857142857143 0.07142857142857143 0.07142857142857143 0.07142857142857143 0.07142857142857143 0.07142857142857143 0.07142857142857143 0.07142857142857143 0.07142857142857143 0.0625 0.0625 0.0625 0.125 0.0625 0.0625 0.0625 0.0625 0.125 0.0625 0.0625 0.0625 0.0625 0.0625 0.07142857142857143 0.07142857142857143 0.07142857142857143 0.07142857142857143 0.07142857142857143 0.07142857142857143 0.07142857142857143 0.07142857142857143 0.07142857142857143 0.07142857142857143 0.07142857142857143 0.07142857142857143 0.07142857142857143 0.07142857142857143 0.07142857142857143 0.07142857142857143 0.07142857142857143 0.07142857142857143 0.07142857142857143 0.07142857142857143 0.07142857142857143 0.07142857142857143 0.07142857142857143 0.07142857142857143 0.07142857142857143 0.07142857142857143 0.07142857142857143 0.07142857142857143 0.07142857142857143 0.07142857142857143 0.07142857142857143 0.07142857142857143 0.07142857142857143 0.07142857142857143 0.07142857142857143 0.07142857142857143 0.07142857142857143 0.07142857142857143 0.07142857142857143 0.07142857142857143 0.07142857142857143 0.07142857142857143 0.07142857142857143 0.07142857142857143 0.07142857142857143 0.07142857142857143 0.07142857142857143 0.07142857142857143 0.07142857142857143 0.07142857142857143 0.07142857142857143 0.07142857142857143 0.07142857142857143 0.07142857142857143 0.07142857142857143 0.07142857142857143 0.07142857142857143 0.07142857142857143 0.07142857142857143 0.07142857142857143 0.07142857142857143 0.07142857142857143 0.07142857142857143 0.07142857142857143 0.07142857142857143 0.07142857142857143 0.07142857142857143 0.07142857142857143 0.07142857142857143 0.07142857142857143 0.07142857142857143 0.07142857142857143 0.07142857142857143 0.07142857142857143 0.07142857142857143 0.07142857142857143 0.07142857142857143 0.07142857142857143 0.07142857142857143 0.07142857142857143 0.07142857142857143 0.07142857142857143 0.07142857142857143 0.07142857142857143 0.07142857142857143 0.07142857142857143 0.07142857142857143 0.07142857142857143 0.07142857142857143 0.07142857142857143 0.07142857142857143 0.07142857142857143 0.07142857142857143 0.07142857142857143 0.07142857142857143 0.07142857142857143 0.07142857142857143 0.07142857142857143 0.07142857142857143 0.07142857142857143 0.07142857142857143 0.07142857142857143 0.07142857142857143 0.07142857142857143 0.07142857142857143 0.07142857142857143 0.07142857142857143 0.07142857142857143 0.07142857142857143 0.07142857142857143 0.07142857142857143 0.07142857142857143 0.07142857142857143 0.07142857142857143 0.07142857142857143 0.07142857142857143 0.07142857142857143 0.07142857142857143 0.07142857142857143 0.07142857142857143 0.07142857142857143 0.07142857142857143 0.07142857142857143 0.07142857142857143 0.07142857142857143 0.07142857142857143 0.07142857142857143 0.07142857142857143 0.07142857142857143 0.07142857142857143 0.07142857142857143 0.07142857142857143 0.07142857142857143 0.07142857142857143 0.07142857142857143 0.07142857142857143 0.07142857142857143 0.07142857142857143 0.07142857142857143 0.07142857142857143 0.07142857142857143 0.07142857142857143 0.07142857142857143 0.07142857142857143 0.07142857142857143 0.07142857142857143 0.07142857142857143 0.07142857142857143 0.07142857142857143 0.07142857142857143 0.07142857142857143 0.07142857142857143 0.07142857142857143 0.07142857142857143 0.07142857142857143 0.07142857142857143 0.07142857142857143 0.07142857142857143 0.07142857142857143 0.07142857142857143 0.07142857142857143 0.07142857142857143 0.07142857142857143 0.07142857142857143 0.07142857142857143 0.07142857142857143 0.07142857142857143 0.07142857142857143 0.07142857142857143 0.07142857142857143 0.07142857142857143 0.07142857142857143 0.07142857142857143 0.07142857142857143 0.07142857142857143 0.07142857142857143 0.07142857142857143 0.07142857142857143 0.07142857142857143 0.07142857142857143 0.07142857142857143 0.07142857142857143 0.07142857142857143 0.07142857142857143 0.07142857142857143 0.07142857142857143 0.07142857142857143 0.07142857142857143 0.07142857142857143 0.07142857142857143 0.07142857142857143 0.07142857142857143 0.07142857142857143 0.07142857142857143 0.07142857142857143 0.07142857142857143 0.07142857142857143 0.07142857142857143 0.07142857142857143 0.07142857142857143 0.07142857142857143 0.07142857142857143 0.07142857142857143 0.07142857142857143 0.07142857142857143 0.07142857142857143 0.07142857142857143 0.07142857142857143 0.07142857142857143 0.07142857142857143 0.06666666666666667 0.06666666666666667 0.06666666666666667 0.06666666666666667 0.06666666666666667 0.06666666666666667 0.06666666666666667 0.06666666666666667 0.1333333333333333 0.06666666666666667 0.06666666666666667 0.06666666666666667 0.06666666666666667 0.06666666666666667 0.0625 0.0625 0.1875 0.0625 0.0625 0.0625 0.0625 0.0625 0.0625 0.0625 0.0625 0.0625 0.0625 0.0625 0.07142857142857143 0.07142857142857143 0.07142857142857143 0.07142857142857143 0.07142857142857143 0.07142857142857143 0.07142857142857143 0.07142857142857143 0.07142857142857143 0.07142857142857143 0.07142857142857143 0.07142857142857143 0.07142857142857143 0.07142857142857143 0.07142857142857143 0.07142857142857143 0.07142857142857143 0.07142857142857143 0.07142857142857143 0.07142857142857143 0.07142857142857143 0.07142857142857143 0.07142857142857143 0.07142857142857143 0.07142857142857143 0.07142857142857143 0.07142857142857143 0.07142857142857143 0.07142857142857143 0.07142857142857143 0.07142857142857143 0.07142857142857143 0.07142857142857143 0.07142857142857143 0.07142857142857143 0.07142857142857143 0.07142857142857143 0.07142857142857143 0.07142857142857143 0.07142857142857143 0.07142857142857143 0.07142857142857143 0.07142857142857143 0.07142857142857143 0.07142857142857143 0.07142857142857143 0.07142857142857143 0.07142857142857143 0.07142857142857143 0.07142857142857143 0.07142857142857143 0.07142857142857143 0.07142857142857143 0.07142857142857143 0.07142857142857143 0.07142857142857143 0.07142857142857143 0.07142857142857143 0.07142857142857143 0.07142857142857143 0.07142857142857143 0.07142857142857143 0.07142857142857143 0.07142857142857143 0.07142857142857143 0.07142857142857143 0.07142857142857143 0.07142857142857143 0.07142857142857143 0.07142857142857143 0.07142857142857143 0.07142857142857143 0.07142857142857143 0.07142857142857143 0.07142857142857143 0.07142857142857143 0.07142857142857143 0.07142857142857143 0.07142857142857143 0.07142857142857143 0.07142857142857143 0.07142857142857143 0.07142857142857143 0.07142857142857143 0.07142857142857143 0.07142857142857143 0.07142857142857143 0.07142857142857143 0.07142857142857143 0.07142857142857143 0.07142857142857143 0.07142857142857143 0.07142857142857143 0.07142857142857143 0.07142857142857143 0.07142857142857143 0.07142857142857143 0.07142857142857143 0.07142857142857143 0.07142857142857143 0.07142857142857143 0.07142857142857143 0.07142857142857143 0.07142857142857143 0.07142857142857143 0.07142857142857143 0.07142857142857143 0.07142857142857143 0.07142857142857143 0.07142857142857143 0.07142857142857143 0.07142857142857143 0.07142857142857143 0.07142857142857143 0.07142857142857143 0.07142857142857143 0.07142857142857143 0.07142857142857143 0.07142857142857143 0.07142857142857143 0.07142857142857143 0.07142857142857143 0.07142857142857143 0.07142857142857143 0.07142857142857143 0.07142857142857143 0.07142857142857143 0.07142857142857143 0.07142857142857143 0.07142857142857143 0.07142857142857143 0.07142857142857143 0.07142857142857143 0.07142857142857143 0.07142857142857143 0.07142857142857143 0.07142857142857143 0.07142857142857143 0.07142857142857143 0.07142857142857143 0.06666666666666667 0.06666666666666667 0.06666666666666667 0.06666666666666667 0.06666666666666667 0.1333333333333333 0.06666666666666667 0.06666666666666667 0.06666666666666667 0.06666666666666667 0.06666666666666667 0.06666666666666667 0.06666666666666667 0.06666666666666667 0.07142857142857143 0.07142857142857143 0.07142857142857143 0.07142857142857143 0.07142857142857143 0.07142857142857143 0.07142857142857143 0.07142857142857143 0.07142857142857143 0.07142857142857143 0.07142857142857143 0.07142857142857143 0.07142857142857143 0.07142857142857143 0.07142857142857143 0.07142857142857143 0.07142857142857143 0.07142857142857143 0.07142857142857143 0.07142857142857143 0.07142857142857143 0.07142857142857143 0.07142857142857143 0.07142857142857143 0.07142857142857143 0.07142857142857143 0.07142857142857143 0.07142857142857143 0.07142857142857143 0.07142857142857143 0.07142857142857143 0.07142857142857143 0.07142857142857143 0.07142857142857143 0.07142857142857143 0.07142857142857143 0.07142857142857143 0.07142857142857143 0.07142857142857143 0.07142857142857143 0.07142857142857143 0.07142857142857143 0.07142857142857143 0.07142857142857143 0.07142857142857143 0.07142857142857143 0.07142857142857143 0.07142857142857143 0.07142857142857143 0.07142857142857143 0.07142857142857143 0.07142857142857143 0.07142857142857143 0.07142857142857143 0.07142857142857143 0.07142857142857143 0.2352941176470588 0.05882352941176471 0.05882352941176471 0.05882352941176471 0.05882352941176471 0.05882352941176471 0.05882352941176471 0.05882352941176471 0.05882352941176471 0.05882352941176471 0.05882352941176471 0.05882352941176471 0.05882352941176471 0.05882352941176471 0.07142857142857143 0.07142857142857143 0.07142857142857143 0.07142857142857143 0.07142857142857143 0.07142857142857143 0.07142857142857143 0.07142857142857143 0.07142857142857143 0.07142857142857143 0.07142857142857143 0.07142857142857143 0.07142857142857143 0.07142857142857143 0.07142857142857143 0.07142857142857143 0.07142857142857143 0.07142857142857143 0.07142857142857143 0.07142857142857143 0.07142857142857143 0.07142857142857143 0.07142857142857143 0.07142857142857143 0.07142857142857143 0.07142857142857143 0.07142857142857143 0.07142857142857143 0.07142857142857143 0.07142857142857143 0.07142857142857143 0.07142857142857143 0.07142857142857143 0.07142857142857143 0.07142857142857143 0.07142857142857143 0.07142857142857143 0.07142857142857143 0.07142857142857143 0.07142857142857143 0.07142857142857143 0.07142857142857143 0.07142857142857143 0.07142857142857143 0.07142857142857143 0.07142857142857143 0.07142857142857143 0.07142857142857143 0.07142857142857143 0.07142857142857143 0.07142857142857143 0.07142857142857143 0.07142857142857143 0.07142857142857143 0.07142857142857143 0.07142857142857143 0.07142857142857143 0.07142857142857143 0.07142857142857143 0.07142857142857143 0.07142857142857143 0.07142857142857143 0.07142857142857143 0.07142857142857143 0.07142857142857143 0.07142857142857143 0.07142857142857143 0.07142857142857143 0.07142857142857143 0.07142857142857143 0.07142857142857143 0.07142857142857143 0.07142857142857143 0.07142857142857143 0.07142857142857143 0.07142857142857143 0.07142857142857143 0.07142857142857143 0.07142857142857143 0.07142857142857143 0.07142857142857143 0.07142857142857143 0.07142857142857143 0.07142857142857143 0.07142857142857143 0.07142857142857143 0.07142857142857143 0.07142857142857143 0.07142857142857143 0.07142857142857143 0.07142857142857143 0.07142857142857143 0.07142857142857143 0.07142857142857143 0.07142857142857143 0.07142857142857143 0.07142857142857143 0.07142857142857143 0.07142857142857143 0.07142857142857143 0.07142857142857143 0.07142857142857143 0.07142857142857143 0.07142857142857143 0.07142857142857143 0.07142857142857143 0.07142857142857143 0.07142857142857143 0.07142857142857143 0.07142857142857143 0.07142857142857143 0.07142857142857143 0.07142857142857143 0.07142857142857143 0.07142857142857143 0.07142857142857143 0.07142857142857143 0.07142857142857143 0.07142857142857143 0.07142857142857143 0.07142857142857143 0.07142857142857143 0.07142857142857143 0.07142857142857143 0.07142857142857143 0.07142857142857143 0.07142857142857143 0.07142857142857143 0.07142857142857143 0.07142857142857143 0.07142857142857143 0.07142857142857143 0.07142857142857143 0.07142857142857143 0.07142857142857143 0.07142857142857143 0.07142857142857143 0.07142857142857143 0.07142857142857143 0.07142857142857143 0.07142857142857143 0.07142857142857143 0.07142857142857143 0.07142857142857143 0.07142857142857143 0.07142857142857143 0.07142857142857143 0.07142857142857143 0.07142857142857143 0.07142857142857143 0.07142857142857143 0.07142857142857143 0.07142857142857143 0.07142857142857143 0.07142857142857143 0.07142857142857143 0.07142857142857143 0.07142857142857143 0.07142857142857143 0.07142857142857143 0.07142857142857143 0.07142857142857143 0.07142857142857143 0.07142857142857143 0.07142857142857143 0.07142857142857143 0.07142857142857143 0.07142857142857143 0.07142857142857143 0.07142857142857143 0.07142857142857143 0.07142857142857143 0.07142857142857143 0.07142857142857143 0.07142857142857143 0.07142857142857143 0.07142857142857143 0.07142857142857143 0.07142857142857143 0.07142857142857143 0.07142857142857143 0.07142857142857143 0.07142857142857143 0.07142857142857143 0.07142857142857143 0.07142857142857143 0.07142857142857143 0.07142857142857143 0.07142857142857143 0.07142857142857143 0.07142857142857143 0.07142857142857143 0.07142857142857143 0.07142857142857143 0.07142857142857143 0.07142857142857143 0.06666666666666667 0.06666666666666667 0.06666666666666667 0.06666666666666667 0.06666666666666667 0.06666666666666667 0.06666666666666667 0.06666666666666667 0.06666666666666667 0.06666666666666667 0.06666666666666667 0.06666666666666667 0.1333333333333333 0.06666666666666667 0.06666666666666667 0.06666666666666667 0.1333333333333333 0.06666666666666667 0.06666666666666667 0.06666666666666667 0.06666666666666667 0.06666666666666667 0.06666666666666667 0.06666666666666667 0.06666666666666667 0.06666666666666667 0.06666666666666667 0.06666666666666667 0.07142857142857143 0.07142857142857143 0.07142857142857143 0.07142857142857143 0.07142857142857143 0.07142857142857143 0.07142857142857143 0.07142857142857143 0.07142857142857143 0.07142857142857143 0.07142857142857143 0.07142857142857143 0.07142857142857143 0.07142857142857143 0.07142857142857143 0.07142857142857143 0.07142857142857143 0.07142857142857143 0.07142857142857143 0.07142857142857143 0.07142857142857143 0.07142857142857143 0.07142857142857143 0.07142857142857143 0.07142857142857143 0.07142857142857143 0.07142857142857143 0.07142857142857143 0.07142857142857143 0.07142857142857143 0.07142857142857143 0.07142857142857143 0.07142857142857143 0.07142857142857143 0.07142857142857143 0.07142857142857143 0.07142857142857143 0.07142857142857143 0.07142857142857143 0.07142857142857143 0.07142857142857143 0.07142857142857143 0.07142857142857143 0.07142857142857143 0.07142857142857143 0.07142857142857143 0.07142857142857143 0.07142857142857143 0.07142857142857143 0.07142857142857143 0.07142857142857143 0.07142857142857143 0.07142857142857143 0.07142857142857143 0.07142857142857143 0.07142857142857143 0.07142857142857143 0.07142857142857143 0.07142857142857143 0.07142857142857143 0.07142857142857143 0.07142857142857143 0.07142857142857143 0.07142857142857143 0.07142857142857143 0.07142857142857143 0.07142857142857143 0.07142857142857143 0.07142857142857143 0.07142857142857143 0.07142857142857143 0.07142857142857143 0.07142857142857143 0.07142857142857143 0.07142857142857143 0.07142857142857143 0.07142857142857143 0.07142857142857143 0.07142857142857143 0.07142857142857143 0.07142857142857143 0.07142857142857143 0.07142857142857143 0.07142857142857143 0.07142857142857143 0.07142857142857143 0.07142857142857143 0.07142857142857143 0.07142857142857143 0.07142857142857143 0.07142857142857143 0.07142857142857143 0.07142857142857143 0.07142857142857143 0.07142857142857143 0.07142857142857143 0.07142857142857143 0.07142857142857143 0.07142857142857143 0.07142857142857143 0.07142857142857143 0.07142857142857143 0.07142857142857143 0.07142857142857143 0.07142857142857143 0.07142857142857143 0.07142857142857143 0.07142857142857143 0.07142857142857143 0.07142857142857143 0.07142857142857143 0.07142857142857143 0.07142857142857143 0.07142857142857143 0.07142857142857143 0.07142857142857143 0.07142857142857143 0.07142857142857143 0.07142857142857143 0.07142857142857143 0.07142857142857143 0.07142857142857143 0.07142857142857143 0.07142857142857143 0.07142857142857143 0.07142857142857143 0.07142857142857143 0.07142857142857143 0.07142857142857143 0.07142857142857143 0.07142857142857143 0.07142857142857143 0.07142857142857143 0.07142857142857143 0.07142857142857143 0.07142857142857143 0.07142857142857143 0.07142857142857143 0.07142857142857143 0.07142857142857143 0.07142857142857143 0.07142857142857143 0.07142857142857143 0.07142857142857143 0.07142857142857143 0.07142857142857143 0.07142857142857143 0.07142857142857143 0.07142857142857143 0.07142857142857143 0.07142857142857143 0.07142857142857143 0.07142857142857143 0.07142857142857143 0.07142857142857143 0.07142857142857143 0.07142857142857143 0.07142857142857143 0.07142857142857143 0.07142857142857143 0.07142857142857143 0.07142857142857143 0.07142857142857143 0.07142857142857143 0.07142857142857143 0.07142857142857143 0.07142857142857143 0.07142857142857143 0.07142857142857143 0.07142857142857143 0.07142857142857143 0.07142857142857143 0.07142857142857143 0.07142857142857143 0.07142857142857143 0.07142857142857143 0.07142857142857143 0.07142857142857143 0.07142857142857143 0.07142857142857143 0.07142857142857143 0.07142857142857143 0.07142857142857143 0.07142857142857143 0.07142857142857143 0.07142857142857143 0.07142857142857143 0.07142857142857143 0.07142857142857143 0.07142857142857143 0.07142857142857143 0.07142857142857143 0.07142857142857143 0.07142857142857143 0.07142857142857143 0.07142857142857143 0.06666666666666667 0.06666666666666667 0.06666666666666667 0.1333333333333333 0.06666666666666667 0.06666666666666667 0.06666666666666667 0.06666666666666667 0.06666666666666667 0.06666666666666667 0.06666666666666667 0.06666666666666667 0.06666666666666667 0.06666666666666667 0.07142857142857143 0.07142857142857143 0.07142857142857143 0.07142857142857143 0.07142857142857143 0.07142857142857143 0.07142857142857143 0.07142857142857143 0.07142857142857143 0.07142857142857143 0.07142857142857143 0.07142857142857143 0.07142857142857143 0.07142857142857143 0.07142857142857143 0.07142857142857143 0.07142857142857143 0.07142857142857143 0.07142857142857143 0.07142857142857143 0.07142857142857143 0.07142857142857143 0.07142857142857143 0.07142857142857143 0.07142857142857143 0.07142857142857143 0.07142857142857143 0.07142857142857143 0.07142857142857143 0.07142857142857143 0.07142857142857143 0.07142857142857143 0.07142857142857143 0.07142857142857143 0.07142857142857143 0.07142857142857143 0.07142857142857143 0.07142857142857143 0.07142857142857143 0.07142857142857143 0.07142857142857143 0.07142857142857143 0.07142857142857143 0.07142857142857143 0.07142857142857143 0.07142857142857143 0.07142857142857143 0.07142857142857143 0.07142857142857143 0.07142857142857143 0.07142857142857143 0.07142857142857143 0.07142857142857143 0.07142857142857143 0.07142857142857143 0.07142857142857143 0.07142857142857143 0.07142857142857143 0.07142857142857143 0.07142857142857143 0.07142857142857143 0.07142857142857143 0.07142857142857143 0.07142857142857143 0.07142857142857143 0.07142857142857143 0.07142857142857143 0.07142857142857143 0.07142857142857143 0.07142857142857143 0.07142857142857143 0.07142857142857143 0.07142857142857143 0.07142857142857143 0.07142857142857143 0.07142857142857143 0.07142857142857143 0.07142857142857143 0.07142857142857143 0.07142857142857143 0.07142857142857143 0.07142857142857143 0.07142857142857143 0.07142857142857143 0.07142857142857143 0.07142857142857143 0.07142857142857143 0.07142857142857143 0.07142857142857143 0.07142857142857143 0.07142857142857143 0.07142857142857143 0.07142857142857143 0.07142857142857143 0.07142857142857143 0.07142857142857143 0.07142857142857143 0.07142857142857143 0.07142857142857143 0.07142857142857143 0.07142857142857143 0.07142857142857143 0.07142857142857143 0.07142857142857143 0.07142857142857143 0.07142857142857143 0.07142857142857143 0.07142857142857143 0.07142857142857143 0.07142857142857143 0.07142857142857143 0.07142857142857143 0.07142857142857143 0.07142857142857143 0.07142857142857143 0.07142857142857143 0.07142857142857143 0.07142857142857143 0.07142857142857143 0.07142857142857143 0.07142857142857143 0.07142857142857143 0.07142857142857143 0.07142857142857143 0.07142857142857143 0.07142857142857143 0.07142857142857143 0.07142857142857143 0.07142857142857143 0.07142857142857143 0.07142857142857143 0.07142857142857143 0.07142857142857143 0.07142857142857143 0.07142857142857143 0.07142857142857143 0.07142857142857143 0.07142857142857143 0.07142857142857143 0.07142857142857143 0.07142857142857143 0.07142857142857143 0.07142857142857143 0.07142857142857143 0.07142857142857143 0.07142857142857143 0.07142857142857143 0.07142857142857143 0.07142857142857143 0.07142857142857143 0.07142857142857143 0.07142857142857143 0.07142857142857143 0.07142857142857143 0.07142857142857143 0.07142857142857143 0.07142857142857143 0.07142857142857143 0.07142857142857143 0.07142857142857143 0.07142857142857143 0.07142857142857143 0.07142857142857143 0.07142857142857143 0.07142857142857143 0.07142857142857143 0.07142857142857143 0.07142857142857143 0.07142857142857143 0.07142857142857143 0.07142857142857143 0.07142857142857143 0.07142857142857143 0.07142857142857143 0.07142857142857143 0.07142857142857143 0.07142857142857143 0.07142857142857143 0.07142857142857143 0.07142857142857143 0.07142857142857143 0.07142857142857143 0.07142857142857143 0.07142857142857143 0.07142857142857143 0.07142857142857143 0.07142857142857143 0.07142857142857143 0.07142857142857143 0.07142857142857143 0.07142857142857143 0.07142857142857143 0.07142857142857143 0.07142857142857143 0.07142857142857143 0.07142857142857143 0.07142857142857143 0.07142857142857143 0.07142857142857143 0.07142857142857143 0.07142857142857143 0.07142857142857143 0.07142857142857143 0.07142857142857143 0.07142857142857143 0.07142857142857143 0.07142857142857143 0.07142857142857143 0.07142857142857143 0.07142857142857143 0.06666666666666667 0.06666666666666667 0.06666666666666667 0.06666666666666667 0.06666666666666667 0.06666666666666667 0.1333333333333333 0.06666666666666667 0.06666666666666667 0.06666666666666667 0.06666666666666667 0.06666666666666667 0.06666666666666667 0.06666666666666667</probabilities>
		</cpt>
		<cpt id="Wind_Max">
			<state id="State13" />
			<state id="State14" />
			<state id="State19" />
			<state id="State21" />
			<state id="State23" />
			<state id="State26" />
			<state id="State32" />
			<state id="State34" />
			<state id="State37" />
			<state id="State45" />
			<state id="State47" />
			<state id="State48" />
			<parents>Gust_Sp</parents>
