<?xml version="1.0" encoding="ISO-8859-1"?>
<smile version="1.0" id="Unnamed" numsamples="1000" discsamples="10000">
	<nodes>
		<cpt id="Humid_Max">
			<state id="State64" />
			<state id="State79" />
			<state id="State80" />
			<state id="State83" />
			<probabilities>0.3543388429752066 0.2510330578512397 0.2148760330578513 0.1797520661157025</probabilities>
		</cpt>
		<cpt id="Temp_Min">
			<state id="State1" />
			<state id="State6" />
			<state id="State7" />
			<state id="State14" />
			<state id="State20" />
			<parents>Humid_Max</parents>
			<probabilities>0.5417867435158501 0.002881844380403458 0.002881844380403458 0.4495677233429394 0.002881844380403458 0.004048582995951417 0.004048582995951417 0.004048582995951417 0.004048582995951417 0.9838056680161943 0.004716981132075472 0.004716981132075472 0.9811320754716981 0.004716981132075472 0.004716981132075472 0.005617977528089888 0.9775280898876404 0.005617977528089888 0.005617977528089888 0.005617977528089888</probabilities>
		</cpt>
		<cpt id="Date">
			<state id="State_01_03_2010" />
			<state id="State_01_04_2010" />
			<state id="State_01_05_2010" />
			<state id="State_01_06_2010" />
			<state id="State_02_04_2010" />
			<state id="State_02_06_2010" />
			<parents>Temp_Min</parents>
			<probabilities>0.9740932642487047 0.005181347150259068 0.005181347150259068 0.005181347150259068 0.005181347150259068 0.005181347150259068 0.00558659217877095 0.9720670391061453 0.00558659217877095 0.00558659217877095 0.00558659217877095 0.00558659217877095 0.004694835680751174 0.004694835680751174 0.004694835680751174 0.004694835680751174 0.9765258215962441 0.004694835680751174 0.006211180124223602 0.006211180124223602 0.9689440993788819 0.006211180124223602 0.006211180124223602 0.006211180124223602 0.004032258064516129 0.004032258064516129 0.004032258064516129 0.5040322580645161 0.004032258064516129 0.4798387096774193</probabilities>
		</cpt>
		<cpt id="Temp_Max">
			<state id="State9" />
			<state id="State18" />
			<state id="State21" />
			<state id="State28" />
			<state id="State31" />
			<parents>Date</parents>
			<probabilities>0.9791666666666666 0.005208333333333333 0.005208333333333333 0.005208333333333333 0.005208333333333333 0.005617977528089888 0.005617977528089888 0.9775280898876404 0.005617977528089888 0.005617977528089888 0.00625 0.00625 0.00625 0.00625 0.9750000000000001 0.007751937984496124 0.007751937984496124 0.007751937984496124 0.007751937984496124 0.9689922480620155 0.004716981132075472 0.9811320754716981 0.004716981132075472 0.004716981132075472 0.004716981132075472 0.008130081300813009 0.008130081300813009 0.008130081300813009 0.9674796747967481 0.008130081300813009</probabilities>
		</cpt>
		<cpt id="Temp_Ave">
			<state id="State5" />
			<state id="State13" />
			<state id="State14" />
			<state id="State22" />
			<state id="State25" />
			<state id="State26" />
			<parents>Date</parents>
			<probabilities>0.9740932642487047 0.005181347150259068 0.005181347150259068 0.005181347150259068 0.005181347150259068 0.005181347150259068 0.00558659217877095 0.00558659217877095 0.9720670391061453 0.00558659217877095 0.00558659217877095 0.00558659217877095 0.006211180124223602 0.006211180124223602 0.006211180124223602 0.9689440993788819 0.006211180124223602 0.006211180124223602 0.007692307692307693 0.007692307692307693 0.007692307692307693 0.007692307692307693 0.007692307692307693 0.9615384615384616 0.004694835680751174 0.9765258215962441 0.004694835680751174 0.004694835680751174 0.004694835680751174 0.004694835680751174 0.008064516129032258 0.008064516129032258 0.008064516129032258 0.008064516129032258 0.9596774193548386 0.008064516129032258</probabilities>
		</cpt>
		<cpt id="DP_Max">
			<state id="State_3" />
			<state id="State6" />
			<state id="State12" />
			<state id="State17" />
			<state id="State21" />
			<parents>Date</parents>
			<probabilities>0.9791666666666666 0.005208333333333333 0.005208333333333333 0.005208333333333333 0.005208333333333333 0.005617977528089888 0.9775280898876404 0.005617977528089888 0.005617977528089888 0.005617977528089888 0.00625 0.00625 0.9750000000000001 0.00625 0.00625 0.007751937984496124 0.007751937984496124 0.007751937984496124 0.007751937984496124 0.9689922480620155 0.004716981132075472 0.9811320754716981 0.004716981132075472 0.004716981132075472 0.004716981132075472 0.008130081300813009 0.008130081300813009 0.008130081300813009 0.9674796747967481 0.008130081300813009</probabilities>
		</cpt>
		<cpt id="DP_Ave">
			<state id="State_3" />
			<state id="State5" />
			<state id="State9" />
			<state id="State14" />
			<state id="State18" />
			<parents>DP_Max</parents>
			<probabilities>0.9791666666666666 0.005208333333333333 0.005208333333333333 0.005208333333333333 0.005208333333333333 0.002597402597402597 0.9896103896103896 0.002597402597402597 0.002597402597402597 0.002597402597402597 0.00625 0.00625 0.9750000000000001 0.00625 0.00625 0.008130081300813009 0.008130081300813009 0.008130081300813009 0.9674796747967481 0.008130081300813009 0.007751937984496124 0.007751937984496124 0.007751937984496124 0.007751937984496124 0.9689922480620155</probabilities>
		</cpt>
		<cpt id="DP_Min">
			<state id="State_5" />
			<state id="State3" />
			<state id="State4" />
			<state id="State7" />
			<state id="State8" />
			<state id="State16" />
			<parents>Date</parents>
			<probabilities>0.9740932642487047 0.005181347150259068 0.005181347150259068 0.005181347150259068 0.005181347150259068 0.005181347150259068 0.00558659217877095 0.9720670391061453 0.00558659217877095 0.00558659217877095 0.00558659217877095 0.00558659217877095 0.006211180124223602 0.006211180124223602 0.006211180124223602 0.9689440993788819 0.006211180124223602 0.006211180124223602 0.007692307692307693 0.007692307692307693 0.007692307692307693 0.007692307692307693 0.007692307692307693 0.9615384615384616 0.004694835680751174 0.004694835680751174 0.9765258215962441 0.004694835680751174 0.004694835680751174 0.004694835680751174 0.008064516129032258 0.008064516129032258 0.008064516129032258 0.008064516129032258 0.9596774193548386 0.008064516129032258</probabilities>
		</cpt>
		<cpt id="Humidity_Ave">
			<state id="State47" />
			<state id="State52" />
			<state id="State55" />
			<state id="State60" />
			<state id="State61" />
			<state id="State62" />
			<parents>Date</parents>
			<probabilities>0.005181347150259068 0.9740932642487047 0.005181347150259068 0.005181347150259068 0.005181347150259068 0.005181347150259068 0.00558659217877095 0.00558659217877095 0.00558659217877095 0.9720670391061453 0.00558659217877095 0.00558659217877095 0.9689440993788819 0.006211180124223602 0.006211180124223602 0.006211180124223602 0.006211180124223602 0.006211180124223602 0.007692307692307693 0.007692307692307693 0.007692307692307693 0.007692307692307693 0.9615384615384616 0.007692307692307693 0.004694835680751174 0.004694835680751174 0.004694835680751174 0.004694835680751174 0.004694835680751174 0.9765258215962441 0.008064516129032258 0.008064516129032258 0.9596774193548386 0.008064516129032258 0.008064516129032258 0.008064516129032258</probabilities>
		</cpt>
		<cpt id="Humidity_Min">
			<state id="State30" />
			<state id="State37" />
			<state id="State39" />
			<state id="State43" />
			<parents>Date</parents>
			<probabilities>0.005235602094240838 0.005235602094240838 0.9842931937172775 0.005235602094240838 0.005649717514124294 0.9830508474576272 0.005649717514124294 0.005649717514124294 0.9811320754716981 0.006289308176100629 0.006289308176100629 0.006289308176100629 0.0078125 0.0078125 0.0078125 0.9765625 0.004739336492890996 0.004739336492890996 0.004739336492890996 0.9857819905213271 0.9754098360655739 0.00819672131147541 0.00819672131147541 0.00819672131147541</probabilities>
		</cpt>
		<cpt id="Press_Max">
			<state id="State1010" />
			<state id="State1012" />
			<state id="State1020" />
			<state id="State1023" />
			<parents>Temp_Min</parents>
			<probabilities>0.005235602094240838 0.9842931937172775 0.005235602094240838 0.005235602094240838 0.005649717514124294 0.005649717514124294 0.9830508474576272 0.005649717514124294 0.004739336492890996 0.004739336492890996 0.004739336492890996 0.9857819905213271 0.9811320754716981 0.006289308176100629 0.006289308176100629 0.006289308176100629 0.004065040650406505 0.9878048780487806 0.004065040650406505 0.004065040650406505</probabilities>
		</cpt>
		<cpt id="Press_Ave">
			<state id="State1007" />
			<state id="State1008" />
			<state id="State1009" />
			<state id="State1010" />
			<state id="State1018" />
			<state id="State1022" />
			<parents>Date</parents>
			<probabilities>0.9740932642487047 0.005181347150259068 0.005181347150259068 0.005181347150259068 0.005181347150259068 0.005181347150259068 0.00558659217877095 0.00558659217877095 0.00558659217877095 0.00558659217877095 0.9720670391061453 0.00558659217877095 0.006211180124223602 0.006211180124223602 0.9689440993788819 0.006211180124223602 0.006211180124223602 0.006211180124223602 0.007692307692307693 0.9615384615384616 0.007692307692307693 0.007692307692307693 0.007692307692307693 0.007692307692307693 0.004694835680751174 0.004694835680751174 0.004694835680751174 0.004694835680751174 0.004694835680751174 0.9765258215962441 0.008064516129032258 0.008064516129032258 0.008064516129032258 0.9596774193548386 0.008064516129032258 0.008064516129032258</probabilities>
		</cpt>
		<cpt id="Press_Min">
			<state id="State1004" />
			<state id="State1006" />
			<state id="State1007" />
			<state id="State1008" />
			<state id="State1017" />
			<state id="State1020" />
			<parents>Date</parents>
			<probabilities>0.9740932642487047 0.005181347150259068 0.005181347150259068 0.005181347150259068 0.005181347150259068 0.005181347150259068 0.00558659217877095 0.00558659217877095 0.00558659217877095 0.00558659217877095 0.9720670391061453 0.00558659217877095 0.006211180124223602 0.006211180124223602 0.006211180124223602 0.9689440993788819 0.006211180124223602 0.006211180124223602 0.007692307692307693 0.9615384615384616 0.007692307692307693 0.007692307692307693 0.007692307692307693 0.007692307692307693 0.004694835680751174 0.004694835680751174 0.004694835680751174 0.004694835680751174 0.004694835680751174 0.9765258215962441 0.008064516129032258 0.008064516129032258 0.9596774193548386 0.008064516129032258 0.008064516129032258 0.008064516129032258</probabilities>
		</cpt>
		<cpt id="Visib_Max">
			<state id="State16" />
			<state id="State__unobserved" />
			<probabilities>0.9989648033126295 0.001035196687370601</probabilities>
		</cpt>
		<cpt id="Wind_Ave">
			<state id="State7" />
			<state id="State8" />
			<state id="State10" />
			<state id="State16" />
			<state id="State28" />
			<parents>Date</parents>
			<probabilities>0.005208333333333333 0.005208333333333333 0.005208333333333333 0.005208333333333333 0.9791666666666666 0.005617977528089888 0.9775280898876404 0.005617977528089888 0.005617977528089888 0.005617977528089888 0.00625 0.9750000000000001 0.00625 0.00625 0.00625 0.007751937984496124 0.007751937984496124 0.007751937984496124 0.9689922480620155 0.007751937984496124 0.9811320754716981 0.004716981132075472 0.004716981132075472 0.004716981132075472 0.004716981132075472 0.008130081300813009 0.008130081300813009 0.9674796747967481 0.008130081300813009 0.008130081300813009</probabilities>
		</cpt>
		<cpt id="Visib_Min">
			<state id="State4" />
			<state id="State13" />
			<state id="State14" />
			<state id="State16" />
			<parents>Wind_Ave</parents>
			<probabilities>0.004739336492890996 0.004739336492890996 0.9857819905213271 0.004739336492890996 0.003012048192771085 0.003012048192771085 0.003012048192771085 0.9909638554216868 0.00819672131147541 0.9754098360655739 0.00819672131147541 0.00819672131147541 0.9765625 0.0078125 0.0078125 0.0078125 0.005235602094240838 0.005235602094240838 0.005235602094240838 0.9842931937172775</probabilities>
		</cpt>
		<cpt id="Precip__cm_">
			<state id="State0" />
			<state id="State46" />
			<parents>Visib_Min</parents>
			<probabilities>0.007936507936507936 0.992063492063492 0.9916666666666667 0.008333333333333333 0.9952153110047847 0.004784688995215311 0.9980657640232108 0.001934235976789168</probabilities>
		</cpt>
		<cpt id="Visib_Ave">
			<state id="State15" />
			<state id="State16" />
			<parents>Precip__cm_</parents>
			<probabilities>0.001187648456057007 0.998812351543943 0.992063492063492 0.007936507936507936</probabilities>
		</cpt>
		<cpt id="Wind_Max">
			<state id="State19" />
			<state id="State23" />
			<state id="State24" />
			<state id="State26" />
			<state id="State42" />
			<state id="State47" />
			<parents>Date</parents>
			<probabilities>0.005181347150259068 0.005181347150259068 0.005181347150259068 0.005181347150259068 0.005181347150259068 0.9740932642487047 0.9720670391061453 0.00558659217877095 0.00558659217877095 0.00558659217877095 0.00558659217877095 0.00558659217877095 0.006211180124223602 0.9689440993788819 0.006211180124223602 0.006211180124223602 0.006211180124223602 0.006211180124223602 0.007692307692307693 0.007692307692307693 0.007692307692307693 0.007692307692307693 0.9615384615384616 0.007692307692307693 0.004694835680751174 0.004694835680751174 0.9765258215962441 0.004694835680751174 0.004694835680751174 0.004694835680751174 0.008064516129032258 0.008064516129032258 0.008064516129032258 0.9596774193548386 0.008064516129032258 0.008064516129032258</probabilities>
		</cpt>
		<cpt id="Gust_Sp">
			<state id="State26" />
			<state id="State29" />
			<state id="State32" />
			<state id="State53" />
			<state id="State61" />
			<parents>Date</parents>
			<probabilities>0.005208333333333333 0.005208333333333333 0.005208333333333333 0.005208333333333333 0.9791666666666666 0.9775280898876404 0.005617977528089888 0.005617977528089888 0.005617977528089888 0.005617977528089888 0.00625 0.00625 0.9750000000000001 0.00625 0.00625 0.007751937984496124 0.007751937984496124 0.007751937984496124 0.9689922480620155 0.007751937984496124 0.004716981132075472 0.9811320754716981 0.004716981132075472 0.004716981132075472 0.004716981132075472 0.008130081300813009 0.9674796747967481 0.008130081300813009 0.008130081300813009 0.008130081300813009</probabilities>
		</cpt>
		<cpt id="Events">
			<state id="State0" />
			<state id="State__unobserved" />
			<probabilities>0.9989648033126295 0.001035196687370601</probabilities>
		</cpt>
		<cpt id="Destination">
			<state id="Adams_Field__KLIT___track_or_info_" />
			<state id="Birmingham_Int_l__EGBB___BHX___track_or_info_" />
			<state id="Cancun_Int_l__MMUN___CUN___track_or_info_" />
			<state id="Charles_de_Gaulle_Roissy__LFPG___CDG___track_or_info_" />
			<state id="Chatrapati_Shivaji_Int_l__VABB___BOM___track_or_info_" />
			<state id="Chicago_O_Hare_Intl__KORD___track_or_info_" />
			<state id="Frankfurt_Int_l__EDDF___FRA___track_or_info_" />
			<state id="Indianapolis_Intl__KIND___track_or_info_" />
			<state id="London_Heathrow__EGLL___LHR___track_or_info_" />
			<state id="Luis_Munoz_Marin_Intl__TJSJ___SJU___track_or_info_" />
			<state id="Mc_Ghee_Tyson__KTYS___track_or_info_" />
			<state id="Memphis_Intl__KMEM___track_or_info_" />
			<state id="Montreal_Trudeau__CYUL___track_or_info_" />
			<state id="Raleigh_Durham_Intl__KRDU___track_or_info_" />
			<state id="San_Diego_Intl__KSAN___track_or_info_" />
			<state id="Scranton_Intl__KAVP___track_or_info_" />
			<state id="Terminal_1___Birmingham_Int_l__EGBB___BHX___track_or_info_" />
			<state id="Terminal_1___Chicago_O_Hare_Intl__KORD___track_or_info_" />
			<state id="Terminal_1___Toronto_Pearson_Int_l__CYYZ___track_or_info_" />
			<state id="Terminal_2___San_Diego_Intl__KSAN___track_or_info_" />
			<state id="Terminal_3___Cancun_Int_l__MMUN___CUN___track_or_info_" />
			<state id="Terminal_4___London_Heathrow__EGLL___LHR___track_or_info_" />
			<state id="Terminal_C___Luis_Munoz_Marin_Intl__TJSJ___SJU___track_or_info_" />
			<state id="Toronto_Pearson_Int_l__CYYZ___track_or_info_" />
			<state id="Tulsa_Intl__KTUL___track_or_info_" />
			<state id="Wichita_Mid_Continent__KICT___track_or_info_" />
			<state id="Will_Rogers_World__KOKC___track_or_info_" />
			<parents>DP_Min</parents>
			<probabilities>0.1869158878504673 0.004672897196261682 0.06074766355140186 0.004672897196261682 0.009345794392523364 0.1822429906542056 0.3598130841121495 0.004672897196261682 0.004672897196261682 0.004672897196261682 0.004672897196261682 0.004672897196261682 0.004672897196261682 0.004672897196261682 0.004672897196261682 0.02336448598130841 0.004672897196261682 0.03738317757009346 0.004672897196261682 0.004672897196261682 0.0514018691588785 0.004672897196261682 0.004672897196261682 0.004672897196261682 0.004672897196261682 0.004672897196261682 0.004672897196261682 0.005 0.005 0.005 0.385 0.005 0.12 0.005 0.005 0.005 0.005 0.005 0.005 0.005 0.005 0.005 0.005 0.005 0.005 0.035 0.045 0.005 0.005 0.005 0.305 0.005 0.005 0.005 0.004273504273504274 0.004273504273504274 0.004273504273504274 0.004273504273504274 0.004273504273504274 0.004273504273504274 0.004273504273504274 0.004273504273504274 0.08974358974358976 0.3461538461538462 0.1495726495726496 0.004273504273504274 0.008547008547008548 0.264957264957265 0.004273504273504274 0.004273504273504274 0.004273504273504274 0.004273504273504274 0.004273504273504274 0.004273504273504274 0.004273504273504274 0.004273504273504274 0.05128205128205129 0.004273504273504274 0.004273504273504274 0.004273504273504274 0.004273504273504274 0.005494505494505495 0.005494505494505495 0.005494505494505495 0.005494505494505495 0.005494505494505495 0.005494505494505495 0.005494505494505495 0.005494505494505495 0.3351648351648352 0.005494505494505495 0.005494505494505495 0.005494505494505495 0.005494505494505495 0.005494505494505495 0.005494505494505495 0.4615384615384616 0.005494505494505495 0.005494505494505495 0.005494505494505495 0.005494505494505495 0.005494505494505495 0.07142857142857144 0.005494505494505495 0.005494505494505495 0.005494505494505495 0.005494505494505495 0.005494505494505495 0.006896551724137931 0.006896551724137931 0.006896551724137931 0.006896551724137931 0.006896551724137931 0.006896551724137931 0.006896551724137931 0.02068965517241379 0.006896551724137931 0.006896551724137931 0.3103448275862069 0.006896551724137931 0.006896551724137931 0.006896551724137931 0.006896551724137931 0.006896551724137931 0.006896551724137931 0.006896551724137931 0.006896551724137931 0.006896551724137931 0.006896551724137931 0.006896551724137931 0.006896551724137931 0.006896551724137931 0.02068965517241379 0.03448275862068966 0.4620689655172414 0.2384105960264901 0.4701986754966888 0.006622516556291391 0.006622516556291391 0.006622516556291391 0.006622516556291391 0.006622516556291391 0.006622516556291391 0.006622516556291391 0.006622516556291391 0.006622516556291391 0.01986754966887417 0.006622516556291391 0.006622516556291391 0.04635761589403974 0.006622516556291391 0.0728476821192053 0.006622516556291391 0.006622516556291391 0.01324503311258278 0.006622516556291391 0.006622516556291391 0.006622516556291391 0.006622516556291391 0.006622516556291391 0.006622516556291391 0.006622516556291391</probabilities>
		</cpt>
		<cpt id="Flight_No_">
			<state id="ACA771" />
			<state id="AFR19" />
			<state id="AIC144" />
			<state id="BTA2245" />
			<state id="BTA2279" />
			<state id="BTA2753" />
			<state id="CJC3345" />
			<state id="COA1187" />
			<state id="COA1462" />
			<state id="COA1732" />
			<state id="COA26" />
			<state id="COA28" />
			<state id="COA473" />
			<state id="UAL655" />
			<state id="UCA8823" />
			<parents>Destination</parents>
			<probabilities>0.01123595505617978 0.01123595505617978 0.01123595505617978 0.01123595505617978 0.01123595505617978 0.8426966292134831 0.01123595505617978 0.01123595505617978 0.01123595505617978 0.01123595505617978 0.01123595505617978 0.01123595505617978 0.01123595505617978 0.01123595505617978 0.01123595505617978 0.01176470588235294 0.01176470588235294 0.01176470588235294 0.01176470588235294 0.01176470588235294 0.01176470588235294 0.01176470588235294 0.01176470588235294 0.01176470588235294 0.01176470588235294 0.8352941176470589 0.01176470588235294 0.01176470588235294 0.01176470588235294 0.01176470588235294 0.03703703703703704 0.03703703703703704 0.03703703703703704 0.03703703703703704 0.03703703703703704 0.03703703703703704 0.03703703703703704 0.03703703703703704 0.03703703703703704 0.4814814814814815 0.03703703703703704 0.03703703703703704 0.03703703703703704 0.03703703703703704 0.03703703703703704 0.01098901098901099 0.8461538461538463 0.01098901098901099 0.01098901098901099 0.01098901098901099 0.01098901098901099 0.01098901098901099 0.01098901098901099 0.01098901098901099 0.01098901098901099 0.01098901098901099 0.01098901098901099 0.01098901098901099 0.01098901098901099 0.01098901098901099 0.0625 0.0625 0.125 0.0625 0.0625 0.0625 0.0625 0.0625 0.0625 0.0625 0.0625 0.0625 0.0625 0.0625 0.0625 0.01315789473684211 0.01315789473684211 0.01315789473684211 0.01315789473684211 0.01315789473684211 0.01315789473684211 0.01315789473684211 0.513157894736842 0.01315789473684211 0.01315789473684211 0.01315789473684211 0.01315789473684211 0.01315789473684211 0.3157894736842105 0.01315789473684211 0.01098901098901099 0.01098901098901099 0.8461538461538463 0.01098901098901099 0.01098901098901099 0.01098901098901099 0.01098901098901099 0.01098901098901099 0.01098901098901099 0.01098901098901099 0.01098901098901099 0.01098901098901099 0.01098901098901099 0.01098901098901099 0.01098901098901099 0.05882352941176471 0.05882352941176471 0.05882352941176471 0.1764705882352941 0.05882352941176471 0.05882352941176471 0.05882352941176471 0.05882352941176471 0.05882352941176471 0.05882352941176471 0.05882352941176471 0.05882352941176471 0.05882352941176471 0.05882352941176471 0.05882352941176471 0.01052631578947368 0.01052631578947368 0.01052631578947368 0.01052631578947368 0.01052631578947368 0.01052631578947368 0.01052631578947368 0.01052631578947368 0.01052631578947368 0.01052631578947368 0.01052631578947368 0.8526315789473684 0.01052631578947368 0.01052631578947368 0.01052631578947368 0.01052631578947368 0.01052631578947368 0.01052631578947368 0.01052631578947368 0.01052631578947368 0.01052631578947368 0.01052631578947368 0.01052631578947368 0.01052631578947368 0.01052631578947368 0.01052631578947368 0.01052631578947368 0.8526315789473684 0.01052631578947368 0.01052631578947368 0.01075268817204301 0.01075268817204301 0.01075268817204301 0.01075268817204301 0.8494623655913979 0.01075268817204301 0.01075268817204301 0.01075268817204301 0.01075268817204301 0.01075268817204301 0.01075268817204301 0.01075268817204301 0.01075268817204301 0.01075268817204301 0.01075268817204301 0.05882352941176471 0.05882352941176471 0.05882352941176471 0.05882352941176471 0.05882352941176471 0.1764705882352941 0.05882352941176471 0.05882352941176471 0.05882352941176471 0.05882352941176471 0.05882352941176471 0.05882352941176471 0.05882352941176471 0.05882352941176471 0.05882352941176471 0.0625 0.0625 0.0625 0.0625 0.0625 0.0625 0.125 0.0625 0.0625 0.0625 0.0625 0.0625 0.0625 0.0625 0.0625 0.01315789473684211 0.01315789473684211 0.01315789473684211 0.01315789473684211 0.01315789473684211 0.01315789473684211 0.8157894736842105 0.01315789473684211 0.01315789473684211 0.01315789473684211 0.01315789473684211 0.01315789473684211 0.01315789473684211 0.01315789473684211 0.01315789473684211 0.04761904761904762 0.04761904761904762 0.04761904761904762 0.04761904761904762 0.04761904761904762 0.04761904761904762 0.04761904761904762 0.04761904761904762 0.3333333333333333 0.04761904761904762 0.04761904761904762 0.04761904761904762 0.04761904761904762 0.04761904761904762 0.04761904761904762 0.009803921568627451 0.009803921568627451 0.009803921568627451 0.009803921568627451 0.009803921568627451 0.009803921568627451 0.009803921568627451 0.009803921568627451 0.009803921568627451 0.009803921568627451 0.009803921568627451 0.009803921568627451 0.009803921568627451 0.009803921568627451 0.8627450980392157 0.04 0.04 0.04 0.04 0.04 0.04 0.04 0.04 0.04 0.04 0.44 0.04 0.04 0.04 0.04 0.04545454545454546 0.04545454545454546 0.04545454545454546 0.04545454545454546 0.04545454545454546 0.04545454545454546 0.04545454545454546 0.3636363636363637 0.04545454545454546 0.04545454545454546 0.04545454545454546 0.04545454545454546 0.04545454545454546 0.04545454545454546 0.04545454545454546 0.3333333333333333 0.04761904761904762 0.04761904761904762 0.04761904761904762 0.04761904761904762 0.04761904761904762 0.04761904761904762 0.04761904761904762 0.04761904761904762 0.04761904761904762 0.04761904761904762 0.04761904761904762 0.04761904761904762 0.04761904761904762 0.04761904761904762 0.04166666666666666 0.04166666666666666 0.04166666666666666 0.04166666666666666 0.04166666666666666 0.04166666666666666 0.04166666666666666 0.04166666666666666 0.4166666666666666 0.04166666666666666 0.04166666666666666 0.04166666666666666 0.04166666666666666 0.04166666666666666 0.04166666666666666 0.04 0.04 0.04 0.04 0.04 0.04 0.04 0.04 0.04 0.44 0.04 0.04 0.04 0.04 0.04 0.03703703703703704 0.03703703703703704 0.03703703703703704 0.03703703703703704 0.03703703703703704 0.03703703703703704 0.03703703703703704 0.03703703703703704 0.03703703703703704 0.03703703703703704 0.03703703703703704 0.4814814814814815 0.03703703703703704 0.03703703703703704 0.03703703703703704 0.03846153846153846 0.03846153846153846 0.03846153846153846 0.03846153846153846 0.03846153846153846 0.03846153846153846 0.03846153846153846 0.03846153846153846 0.03846153846153846 0.03846153846153846 0.03846153846153846 0.03846153846153846 0.4615384615384616 0.03846153846153846 0.03846153846153846 0.8133333333333334 0.01333333333333333 0.01333333333333333 0.01333333333333333 0.01333333333333333 0.01333333333333333 0.01333333333333333 0.01333333333333333 0.01333333333333333 0.01333333333333333 0.01333333333333333 0.01333333333333333 0.01333333333333333 0.01333333333333333 0.01333333333333333 0.05882352941176471 0.05882352941176471 0.05882352941176471 0.1764705882352941 0.05882352941176471 0.05882352941176471 0.05882352941176471 0.05882352941176471 0.05882352941176471 0.05882352941176471 0.05882352941176471 0.05882352941176471 0.05882352941176471 0.05882352941176471 0.05882352941176471 0.05263157894736842 0.05263157894736842 0.05263157894736842 0.2631578947368421 0.05263157894736842 0.05263157894736842 0.05263157894736842 0.05263157894736842 0.05263157894736842 0.05263157894736842 0.05263157894736842 0.05263157894736842 0.05263157894736842 0.05263157894736842 0.05263157894736842 0.01234567901234568 0.01234567901234568 0.01234567901234568 0.8271604938271604 0.01234567901234568 0.01234567901234568 0.01234567901234568 0.01234567901234568 0.01234567901234568 0.01234567901234568 0.01234567901234568 0.01234567901234568 0.01234567901234568 0.01234567901234568 0.01234567901234568</probabilities>
		</cpt>
		<cpt id="Aircraft_Mod_">
			<state id="Airbus_A319__twin_jet___A319_Q___track_or_photos_" />
			<state id="Airbus_A320__twin_jet___A320_Q___track_or_photos_" />
			<state id="Airbus_A330_200__twin_jet___A332_Q___track_or_photos_" />
			<state id="Airbus_A330_200__twin_jet___H_A332_Q___track_or_photos_" />
			<state id="Airbus_A340_300__quad_jet___H_A343_Q___track_or_photos_" />
			<state id="Boeing_737_500__twin_jet___B735_L___track_or_photos_" />
			<state id="Boeing_737_800__twin_jet___B738_Q___track_or_photos_" />
			<state id="Boeing_737_900__twin_jet___B739_Q___track_or_photos_" />
			<state id="Boeing_757_200__twin_jet___B752_Q___track_or_photos_" />
			<state id="Boeing_757_300__twin_jet___B753_Q___track_or_photos_" />
			<state id="Boeing_757_300__twin_jet___H_B753_Q___track_or_photos_" />
			<state id="Boeing_777_200__twin_jet___H_B772_Q___track_or_photos_" />
			<state id="Boeing_777_300ER__twin_jet___B77W_Q___track_or_photos_" />
			<state id="Boeing_777_300ER__twin_jet___H_B77W_Q___track_or_photos_" />
			<state id="de_Havilland_Dash_8_200__twin_turboprop___DH8B_G___track_or_photos_" />
			<state id="de_Havilland_Dash_8_400__twin_turboprop___DH8D_G___track_or_photos_" />
			<state id="de_Havilland_Dash_8_400__twin_turboprop___DH8D_R___track_or_photos_" />
			<state id="Embraer_175__twin_jet___E170_Q___track_or_photos_" />
			<state id="Embraer_EMB_145XR__twin_jet___E45X_L___track_or_photos_" />
			<state id="Embraer_ERJ_145__twin_jet___E145_G___track_or_photos_" />
			<state id="Embraer_ERJ_145__twin_jet___E145_L___track_or_photos_" />
			<state id="Embraer_ERJ_190__twin_jet___E190_Q___track_or_photos_" />
			<parents>Flight_No_</parents>
			<probabilities>0.04545454545454546 0.02272727272727273 0.01136363636363636 0.01136363636363636 0.01136363636363636 0.01136363636363636 0.01136363636363636 0.01136363636363636 0.01136363636363636 0.01136363636363636 0.01136363636363636 0.01136363636363636 0.01136363636363636 0.01136363636363636 0.01136363636363636 0.01136363636363636 0.01136363636363636 0.6022727272727273 0.01136363636363636 0.01136363636363636 0.01136363636363636 0.125 0.01020408163265306 0.01020408163265306 0.1428571428571429 0.5408163265306122 0.1122448979591837 0.01020408163265306 0.01020408163265306 0.01020408163265306 0.01020408163265306 0.01020408163265306 0.01020408163265306 0.02040816326530612 0.01020408163265306 0.01020408163265306 0.01020408163265306 0.01020408163265306 0.01020408163265306 0.01020408163265306 0.01020408163265306 0.01020408163265306 0.01020408163265306 0.01020408163265306 0.0101010101010101 0.0101010101010101 0.0101010101010101 0.0101010101010101 0.0101010101010101 0.0101010101010101 0.0101010101010101 0.0101010101010101 0.0101010101010101 0.0101010101010101 0.0101010101010101 0.0101010101010101 0.0202020202020202 0.7777777777777778 0.0101010101010101 0.0101010101010101 0.0101010101010101 0.0101010101010101 0.0101010101010101 0.0101010101010101 0.0101010101010101 0.0101010101010101 0.01041666666666667 0.01041666666666667 0.01041666666666667 0.01041666666666667 0.01041666666666667 0.01041666666666667 0.01041666666666667 0.01041666666666667 0.01041666666666667 0.01041666666666667 0.01041666666666667 0.01041666666666667 0.01041666666666667 0.01041666666666667 0.01041666666666667 0.01041666666666667 0.01041666666666667 0.01041666666666667 0.7708333333333333 0.01041666666666667 0.02083333333333333 0.01041666666666667 0.01 0.01 0.01 0.01 0.01 0.01 0.01 0.01 0.01 0.01 0.01 0.01 0.01 0.01 0.01 0.01 0.01 0.01 0.19 0.02 0.6 0.01 0.01020408163265306 0.01020408163265306 0.01020408163265306 0.01020408163265306 0.01020408163265306 0.01020408163265306 0.01020408163265306 0.01020408163265306 0.01020408163265306 0.01020408163265306 0.01020408163265306 0.01020408163265306 0.01020408163265306 0.01020408163265306 0.01020408163265306 0.01020408163265306 0.01020408163265306 0.01020408163265306 0.7755102040816326 0.01020408163265306 0.02040816326530612 0.01020408163265306 0.0119047619047619 0.0119047619047619 0.0119047619047619 0.0119047619047619 0.0119047619047619 0.0119047619047619 0.0119047619047619 0.0119047619047619 0.0119047619047619 0.0119047619047619 0.0119047619047619 0.0119047619047619 0.0119047619047619 0.0119047619047619 0.0119047619047619 0.5357142857142857 0.2261904761904762 0.0119047619047619 0.0119047619047619 0.0119047619047619 0.0119047619047619 0.0119047619047619 0.01492537313432836 0.01492537313432836 0.01492537313432836 0.01492537313432836 0.01492537313432836 0.5671641791044776 0.1343283582089552 0.01492537313432836 0.01492537313432836 0.01492537313432836 0.01492537313432836 0.01492537313432836 0.01492537313432836 0.01492537313432836 0.01492537313432836 0.01492537313432836 0.01492537313432836 0.01492537313432836 0.01492537313432836 0.01492537313432836 0.01492537313432836 0.01492537313432836 0.02702702702702703 0.02702702702702703 0.02702702702702703 0.02702702702702703 0.02702702702702703 0.02702702702702703 0.4324324324324325 0.02702702702702703 0.02702702702702703 0.02702702702702703 0.02702702702702703 0.02702702702702703 0.02702702702702703 0.02702702702702703 0.02702702702702703 0.02702702702702703 0.02702702702702703 0.02702702702702703 0.02702702702702703 0.02702702702702703 0.02702702702702703 0.02702702702702703 0.02272727272727273 0.02272727272727273 0.02272727272727273 0.02272727272727273 0.02272727272727273 0.02272727272727273 0.4545454545454546 0.09090909090909091 0.02272727272727273 0.02272727272727273 0.02272727272727273 0.02272727272727273 0.02272727272727273 0.02272727272727273 0.02272727272727273 0.02272727272727273 0.02272727272727273 0.02272727272727273 0.02272727272727273 0.02272727272727273 0.02272727272727273 0.02272727272727273 0.009803921568627451 0.009803921568627451 0.009803921568627451 0.009803921568627451 0.009803921568627451 0.009803921568627451 0.009803921568627451 0.009803921568627451 0.7941176470588235 0.009803921568627451 0.009803921568627451 0.009803921568627451 0.009803921568627451 0.009803921568627451 0.009803921568627451 0.009803921568627451 0.009803921568627451 0.009803921568627451 0.009803921568627451 0.009803921568627451 0.009803921568627451 0.009803921568627451 0.008771929824561403 0.008771929824561403 0.008771929824561403 0.008771929824561403 0.008771929824561403 0.008771929824561403 0.008771929824561403 0.008771929824561403 0.008771929824561403 0.008771929824561403 0.008771929824561403 0.8157894736842105 0.008771929824561403 0.008771929824561403 0.008771929824561403 0.008771929824561403 0.008771929824561403 0.008771929824561403 0.008771929824561403 0.008771929824561403 0.008771929824561403 0.008771929824561403 0.008849557522123894 0.008849557522123894 0.008849557522123894 0.008849557522123894 0.008849557522123894 0.008849557522123894 0.008849557522123894 0.1592920353982301 0.008849557522123894 0.3893805309734513 0.2831858407079646 0.008849557522123894 0.008849557522123894 0.008849557522123894 0.008849557522123894 0.008849557522123894 0.008849557522123894 0.008849557522123894 0.008849557522123894 0.008849557522123894 0.008849557522123894 0.008849557522123894 0.1777777777777778 0.3777777777777778 0.02222222222222222 0.02222222222222222 0.02222222222222222 0.02222222222222222 0.02222222222222222 0.02222222222222222 0.02222222222222222 0.02222222222222222 0.02222222222222222 0.02222222222222222 0.02222222222222222 0.02222222222222222 0.02222222222222222 0.02222222222222222 0.02222222222222222 0.02222222222222222 0.02222222222222222 0.02222222222222222 0.02222222222222222 0.02222222222222222 0.009174311926605505 0.009174311926605505 0.009174311926605505 0.009174311926605505 0.009174311926605505 0.009174311926605505 0.009174311926605505 0.009174311926605505 0.009174311926605505 0.009174311926605505 0.009174311926605505 0.009174311926605505 0.009174311926605505 0.009174311926605505 0.8073394495412845 0.009174311926605505 0.009174311926605505 0.009174311926605505 0.009174311926605505 0.009174311926605505 0.009174311926605505 0.009174311926605505</probabilities>
		</cpt>
		<cpt id="Origin">
			<state id="State__KEWR___track_or_info_" />
			<state id="State__unobserved" />
			<probabilities>0.9989648033126295 0.001035196687370601</probabilities>
		</cpt>
		<cpt id="Duration">
			<state id="State_0" />
			<state id="State_0_minutes" />
			<state id="State_1_hour_0_minutes" />
			<state id="State_1_hour_1_minute" />
			<state id="State_1_hour_10_minutes" />
			<state id="State_1_hour_11_minutes" />
			<state id="State_1_hour_12_minutes" />
			<state id="State_1_hour_13_minutes" />
			<state id="State_1_hour_14_minutes" />
			<state id="State_1_hour_15_minutes" />
			<state id="State_1_hour_16_minutes" />
			<state id="State_1_hour_17_minutes" />
			<state id="State_1_hour_18_minutes" />
			<state id="State_1_hour_19_minutes" />
			<state id="State_1_hour_2_minutes" />
			<state id="State_1_hour_20_minutes" />
			<state id="State_1_hour_21_minutes" />
			<state id="State_1_hour_22_minutes" />
			<state id="State_1_hour_23_minutes" />
			<state id="State_1_hour_24_minutes" />
			<state id="State_1_hour_25_minutes" />
			<state id="State_1_hour_26_minutes" />
			<state id="State_1_hour_27_minutes" />
			<state id="State_1_hour_28_minutes" />
			<state id="State_1_hour_29_minutes" />
			<state id="State_1_hour_3_minutes" />
			<state id="State_1_hour_30_minutes" />
			<state id="State_1_hour_31_minutes" />
			<state id="State_1_hour_32_minutes" />
			<state id="State_1_hour_33_minutes" />
			<state id="State_1_hour_34_minutes" />
			<state id="State_1_hour_35_minutes" />
			<state id="State_1_hour_36_minutes" />
			<state id="State_1_hour_37_minutes" />
			<state id="State_1_hour_38_minutes" />
			<state id="State_1_hour_39_minutes" />
			<state id="State_1_hour_4_minutes" />
			<state id="State_1_hour_40_minutes" />
			<state id="State_1_hour_41_minutes" />
			<state id="State_1_hour_43_minutes" />
			<state id="State_1_hour_44_minutes" />
			<state id="State_1_hour_45_minutes" />
			<state id="State_1_hour_46_minutes" />
			<state id="State_1_hour_47_minutes" />
			<state id="State_1_hour_48_minutes" />
			<state id="State_1_hour_49_minutes" />
			<state id="State_1_hour_5_minutes" />
			<state id="State_1_hour_50_minutes" />
			<state id="State_1_hour_51_minutes" />
			<state id="State_1_hour_52_minutes" />
			<state id="State_1_hour_53_minutes" />
			<state id="State_1_hour_54_minutes" />
			<state id="State_1_hour_55_minutes" />
			<state id="State_1_hour_56_minutes" />
			<state id="State_1_hour_57_minutes" />
			<state id="State_1_hour_58_minutes" />
			<state id="State_1_hour_59_minutes" />
			<state id="State_1_hour_6_minutes" />
			<state id="State_1_hour_7_minutes" />
			<state id="State_1_hour_8_minutes" />
			<state id="State_1_hour_9_minutes" />
			<state id="State_1_minute" />
			<state id="State_14_hours_18_minutes" />
			<state id="State_2_hours_0_minutes" />
			<state id="State_2_hours_1_minute" />
			<state id="State_2_hours_11_minutes" />
			<state id="State_2_hours_13_minutes" />
			<state id="State_2_hours_14_minutes" />
			<state id="State_2_hours_15_minutes" />
			<state id="State_2_hours_17_minutes" />
			<state id="State_2_hours_18_minutes" />
			<state id="State_2_hours_19_minutes" />
			<state id="State_2_hours_2_minutes" />
			<state id="State_2_hours_20_minutes" />
			<state id="State_2_hours_21_minutes" />
			<state id="State_2_hours_22_minutes" />
			<state id="State_2_hours_23_minutes" />
			<state id="State_2_hours_24_minutes" />
			<state id="State_2_hours_25_minutes" />
			<state id="State_2_hours_26_minutes" />
			<state id="State_2_hours_27_minutes" />
			<state id="State_2_hours_28_minutes" />
			<state id="State_2_hours_29_minutes" />
			<state id="State_2_hours_3_minutes" />
			<state id="State_2_hours_30_minutes" />
			<state id="State_2_hours_31_minutes" />
			<state id="State_2_hours_32_minutes" />
			<state id="State_2_hours_33_minutes" />
			<state id="State_2_hours_34_minutes" />
			<state id="State_2_hours_35_minutes" />
			<state id="State_2_hours_36_minutes" />
			<state id="State_2_hours_37_minutes" />
			<state id="State_2_hours_38_minutes" />
			<state id="State_2_hours_39_minutes" />
			<state id="State_2_hours_40_minutes" />
			<state id="State_2_hours_41_minutes" />
			<state id="State_2_hours_42_minutes" />
			<state id="State_2_hours_43_minutes" />
			<state id="State_2_hours_44_minutes" />
			<state id="State_2_hours_45_minutes" />
			<state id="State_2_hours_46_minutes" />
			<state id="State_2_hours_47_minutes" />
			<state id="State_2_hours_49_minutes" />
			<state id="State_2_hours_5_minutes" />
			<state id="State_2_hours_50_minutes" />
			<state id="State_2_hours_53_minutes" />
			<state id="State_2_hours_54_minutes" />
			<state id="State_2_hours_55_minutes" />
			<state id="State_2_hours_57_minutes" />
			<state id="State_2_hours_58_minutes" />
			<state id="State_2_hours_59_minutes" />
			<state id="State_2_hours_6_minutes" />
			<state id="State_2_hours_8_minutes" />
			<state id="State_20_minutes" />
			<state id="State_21_hours_27_minutes" />
			<state id="State_22_hours_23_minutes" />
			<state id="State_24_minutes" />
			<state id="State_25_minutes" />
			<state id="State_26_minutes" />
			<state id="State_27_minutes" />
			<state id="State_28_minutes" />
			<state id="State_29_minutes" />
			<state id="State_3_hours_0_minutes" />
			<state id="State_3_hours_1_minute" />
			<state id="State_3_hours_10_minutes" />
			<state id="State_3_hours_11_minutes" />
			<state id="State_3_hours_12_minutes" />
			<state id="State_3_hours_13_minutes" />
			<state id="State_3_hours_14_minutes" />
			<state id="State_3_hours_15_minutes" />
			<state id="State_3_hours_16_minutes" />
			<state id="State_3_hours_17_minutes" />
			<state id="State_3_hours_18_minutes" />
			<state id="State_3_hours_19_minutes" />
			<state id="State_3_hours_2_minutes" />
			<state id="State_3_hours_20_minutes" />
			<state id="State_3_hours_21_minutes" />
			<state id="State_3_hours_22_minutes" />
			<state id="State_3_hours_23_minutes" />
			<state id="State_3_hours_24_minutes" />
			<state id="State_3_hours_26_minutes" />
			<state id="State_3_hours_27_minutes" />
			<state id="State_3_hours_28_minutes" />
			<state id="State_3_hours_3_minutes" />
			<state id="State_3_hours_30_minutes" />
			<state id="State_3_hours_31_minutes" />
			<state id="State_3_hours_32_minutes" />
			<state id="State_3_hours_33_minutes" />
			<state id="State_3_hours_35_minutes" />
			<state id="State_3_hours_38_minutes" />
			<state id="State_3_hours_39_minutes" />
			<state id="State_3_hours_4_minutes" />
			<state id="State_3_hours_42_minutes" />
			<state id="State_3_hours_43_minutes" />
			<state id="State_3_hours_47_minutes" />
			<state id="State_3_hours_49_minutes" />
			<state id="State_3_hours_5_minutes" />
			<state id="State_3_hours_51_minutes" />
			<state id="State_3_hours_52_minutes" />
			<state id="State_3_hours_53_minutes" />
			<state id="State_3_hours_55_minutes" />
			<state id="State_3_hours_57_minutes" />
			<state id="State_3_hours_59_minutes" />
			<state id="State_3_hours_6_minutes" />
			<state id="State_3_hours_7_minutes" />
			<state id="State_3_hours_8_minutes" />
			<state id="State_3_hours_9_minutes" />
			<state id="State_3_minutes" />
			<state id="State_30_minutes" />
			<state id="State_31_minutes" />
			<state id="State_32_minutes" />
			<state id="State_33_minutes" />
			<state id="State_34_minutes" />
			<state id="State_35_minutes" />
			<state id="State_37_minutes" />
			<state id="State_38_minutes" />
			<state id="State_39_minutes" />
			<state id="State_4_hours_1_minute" />
			<state id="State_4_hours_10_minutes" />
			<state id="State_4_hours_11_minutes" />
			<state id="State_4_hours_12_minutes" />
			<state id="State_4_hours_13_minutes" />
			<state id="State_4_hours_14_minutes" />
			<state id="State_4_hours_15_minutes" />
			<state id="State_4_hours_16_minutes" />
			<state id="State_4_hours_18_minutes" />
			<state id="State_4_hours_2_minutes" />
			<state id="State_4_hours_21_minutes" />
			<state id="State_4_hours_22_minutes" />
			<state id="State_4_hours_3_minutes" />
			<state id="State_4_hours_6_minutes" />
			<state id="State_4_hours_7_minutes" />
			<state id="State_4_hours_8_minutes" />
			<state id="State_4_hours_9_minutes" />
			<state id="State_4_minutes" />
			<state id="State_44_minutes" />
			<state id="State_45_minutes" />
			<state id="State_46_minutes" />
			<state id="State_47_minutes" />
			<state id="State_48_minutes" />
			<state id="State_5_hours_12_minutes" />
			<state id="State_5_hours_13_minutes" />
			<state id="State_5_hours_20_minutes" />
			<state id="State_5_hours_23_minutes" />
			<state id="State_5_hours_24_minutes" />
			<state id="State_5_hours_27_minutes" />
			<state id="State_5_hours_28_minutes" />
			<state id="State_5_hours_30_minutes" />
			<state id="State_5_hours_36_minutes" />
			<state id="State_5_hours_44_minutes" />
			<state id="State_5_hours_5_minutes" />
			<state id="State_5_hours_54_minutes" />
			<state id="State_5_hours_55_minutes" />
			<state id="State_5_hours_56_minutes" />
			<state id="State_5_hours_57_minutes" />
			<state id="State_5_hours_58_minutes" />
			<state id="State_5_hours_59_minutes" />
			<state id="State_5_minutes" />
			<state id="State_50_minutes" />
			<state id="State_51_minutes" />
			<state id="State_52_minutes" />
			<state id="State_53_minutes" />
			<state id="State_54_minutes" />
			<state id="State_55_minutes" />
			<state id="State_56_minutes" />
			<state id="State_58_minutes" />
			<state id="State_59_minutes" />
			<state id="State_6_hours_0_minutes" />
			<state id="State_6_hours_1_minute" />
			<state id="State_6_hours_10_minutes" />
			<state id="State_6_hours_11_minutes" />
			<state id="State_6_hours_12_minutes" />
			<state id="State_6_hours_13_minutes" />
			<state id="State_6_hours_14_minutes" />
			<state id="State_6_hours_16_minutes" />
			<state id="State_6_hours_17_minutes" />
			<state id="State_6_hours_18_minutes" />
			<state id="State_6_hours_19_minutes" />
			<state id="State_6_hours_2_minutes" />
			<state id="State_6_hours_20_minutes" />
			<state id="State_6_hours_21_minutes" />
			<state id="State_6_hours_22_minutes" />
			<state id="State_6_hours_23_minutes" />
			<state id="State_6_hours_24_minutes" />
			<state id="State_6_hours_25_minutes" />
			<state id="State_6_hours_26_minutes" />
			<state id="State_6_hours_27_minutes" />
			<state id="State_6_hours_28_minutes" />
			<state id="State_6_hours_29_minutes" />
			<state id="State_6_hours_3_minutes" />
			<state id="State_6_hours_30_minutes" />
			<state id="State_6_hours_31_minutes" />
			<state id="State_6_hours_32_minutes" />
			<state id="State_6_hours_33_minutes" />
			<state id="State_6_hours_34_minutes" />
			<state id="State_6_hours_35_minutes" />
			<state id="State_6_hours_38_minutes" />
			<state id="State_6_hours_39_minutes" />
			<state id="State_6_hours_40_minutes" />
			<state id="State_6_hours_41_minutes" />
			<state id="State_6_hours_42_minutes" />
			<state id="State_6_hours_43_minutes" />
			<state id="State_6_hours_45_minutes" />
			<state id="State_6_hours_46_minutes" />
			<state id="State_6_hours_5_minutes" />
			<state id="State_6_hours_52_minutes" />
			<state id="State_6_hours_54_minutes" />
			<state id="State_6_hours_55_minutes" />
			<state id="State_6_hours_57_minutes" />
			<state id="State_6_hours_58_minutes" />
			<state id="State_6_hours_6_minutes" />
			<state id="State_6_hours_7_minutes" />
			<state id="State_6_hours_8_minutes" />
			<state id="State_6_hours_9_minutes" />
			<state id="State_7_hours_25_minutes" />
			<state id="State_7_hours_30_minutes" />
			<state id="State_7_hours_35_minutes" />
			<state id="State_7_hours_52_minutes" />
			<state id="State_7_hours_55_minutes" />
			<parents>Flight_No_</parents>
			<probabilities>0.005797101449275362 0.002898550724637681 0.01159420289855073 0.01449275362318841 0.008695652173913044 0.002898550724637681 0.005797101449275362 0.008695652173913044 0.002898550724637681 0.002898550724637681 0.002898550724637681 0.002898550724637681 0.002898550724637681 0.002898550724637681 0.02028985507246377 0.002898550724637681 0.002898550724637681 0.002898550724637681 0.002898550724637681 0.002898550724637681 0.002898550724637681 0.005797101449275362 0.002898550724637681 0.002898550724637681 0.002898550724637681 0.01159420289855073 0.002898550724637681 0.002898550724637681 0.005797101449275362 0.002898550724637681 0.002898550724637681 0.002898550724637681 0.002898550724637681 0.002898550724637681 0.002898550724637681 0.002898550724637681 0.002898550724637681 0.002898550724637681 0.002898550724637681 0.002898550724637681 0.002898550724637681 0.002898550724637681 0.002898550724637681 0.002898550724637681 0.002898550724637681 0.002898550724637681 0.01739130434782609 0.002898550724637681 0.002898550724637681 0.002898550724637681 0.002898550724637681 0.002898550724637681 0.002898550724637681 0.002898550724637681 0.002898550724637681 0.002898550724637681 0.002898550724637681 0.005797101449275362 0.01739130434782609 0.005797101449275362 0.01449275362318841 0.002898550724637681 0.002898550724637681 0.002898550724637681 0.002898550724637681 0.002898550724637681 0.002898550724637681 0.002898550724637681 0.002898550724637681 0.002898550724637681 0.002898550724637681 0.002898550724637681 0.002898550724637681 0.002898550724637681 0.002898550724637681 0.002898550724637681 0.002898550724637681 0.002898550724637681 0.002898550724637681 0.002898550724637681 0.002898550724637681 0.002898550724637681 0.002898550724637681 0.002898550724637681 0.002898550724637681 0.002898550724637681 0.002898550724637681 0.002898550724637681 0.002898550724637681 0.002898550724637681 0.002898550724637681 0.002898550724637681 0.002898550724637681 0.002898550724637681 0.002898550724637681 0.002898550724637681 0.002898550724637681 0.002898550724637681 0.002898550724637681 0.002898550724637681 0.002898550724637681 0.002898550724637681 0.002898550724637681 0.002898550724637681 0.002898550724637681 0.002898550724637681 0.002898550724637681 0.002898550724637681 0.002898550724637681 0.002898550724637681 0.002898550724637681 0.002898550724637681 0.002898550724637681 0.002898550724637681 0.002898550724637681 0.002898550724637681 0.005797101449275362 0.002898550724637681 0.002898550724637681 0.002898550724637681 0.002898550724637681 0.002898550724637681 0.002898550724637681 0.002898550724637681 0.002898550724637681 0.002898550724637681 0.002898550724637681 0.002898550724637681 0.002898550724637681 0.002898550724637681 0.002898550724637681 0.002898550724637681 0.002898550724637681 0.002898550724637681 0.002898550724637681 0.002898550724637681 0.002898550724637681 0.002898550724637681 0.002898550724637681 0.002898550724637681 0.002898550724637681 0.002898550724637681 0.002898550724637681 0.002898550724637681 0.002898550724637681 0.002898550724637681 0.002898550724637681 0.002898550724637681 0.002898550724637681 0.002898550724637681 0.002898550724637681 0.002898550724637681 0.002898550724637681 0.002898550724637681 0.002898550724637681 0.002898550724637681 0.002898550724637681 0.002898550724637681 0.002898550724637681 0.002898550724637681 0.002898550724637681 0.002898550724637681 0.002898550724637681 0.002898550724637681 0.002898550724637681 0.002898550724637681 0.002898550724637681 0.002898550724637681 0.002898550724637681 0.002898550724637681 0.002898550724637681 0.002898550724637681 0.002898550724637681 0.002898550724637681 0.002898550724637681 0.002898550724637681 0.002898550724637681 0.002898550724637681 0.002898550724637681 0.002898550724637681 0.002898550724637681 0.002898550724637681 0.002898550724637681 0.002898550724637681 0.002898550724637681 0.002898550724637681 0.002898550724637681 0.002898550724637681 0.002898550724637681 0.002898550724637681 0.002898550724637681 0.002898550724637681 0.002898550724637681 0.002898550724637681 0.002898550724637681 0.005797101449275362 0.005797101449275362 0.002898550724637681 0.005797101449275362 0.008695652173913044 0.002898550724637681 0.002898550724637681 0.002898550724637681 0.002898550724637681 0.002898550724637681 0.002898550724637681 0.002898550724637681 0.002898550724637681 0.002898550724637681 0.002898550724637681 0.002898550724637681 0.002898550724637681 0.002898550724637681 0.002898550724637681 0.002898550724637681 0.002898550724637681 0.002898550724637681 0.002898550724637681 0.005797101449275362 0.008695652173913044 0.01159420289855073 0.005797101449275362 0.005797101449275362 0.008695652173913044 0.01159420289855073 0.01739130434782609 0.008695652173913044 0.002898550724637681 0.002898550724637681 0.002898550724637681 0.002898550724637681 0.002898550724637681 0.002898550724637681 0.002898550724637681 0.002898550724637681 0.002898550724637681 0.002898550724637681 0.002898550724637681 0.002898550724637681 0.002898550724637681 0.002898550724637681 0.002898550724637681 0.002898550724637681 0.002898550724637681 0.002898550724637681 0.002898550724637681 0.002898550724637681 0.002898550724637681 0.002898550724637681 0.002898550724637681 0.002898550724637681 0.002898550724637681 0.002898550724637681 0.002898550724637681 0.002898550724637681 0.002898550724637681 0.002898550724637681 0.002898550724637681 0.002898550724637681 0.002898550724637681 0.002898550724637681 0.002898550724637681 0.002898550724637681 0.002898550724637681 0.002898550724637681 0.002898550724637681 0.002898550724637681 0.002898550724637681 0.002898550724637681 0.002898550724637681 0.002898550724637681 0.002898550724637681 0.002898550724637681 0.002898550724637681 0.002898550724637681 0.002898550724637681 0.002898550724637681 0.002898550724637681 0.002898550724637681 0.02253521126760564 0.002816901408450704 0.002816901408450704 0.002816901408450704 0.002816901408450704 0.002816901408450704 0.002816901408450704 0.002816901408450704 0.002816901408450704 0.002816901408450704 0.002816901408450704 0.002816901408450704 0.002816901408450704 0.002816901408450704 0.002816901408450704 0.002816901408450704 0.002816901408450704 0.002816901408450704 0.002816901408450704 0.002816901408450704 0.002816901408450704 0.002816901408450704 0.002816901408450704 0.002816901408450704 0.002816901408450704 0.002816901408450704 0.002816901408450704 0.002816901408450704 0.002816901408450704 0.005633802816901409 0.002816901408450704 0.002816901408450704 0.002816901408450704 0.002816901408450704 0.002816901408450704 0.002816901408450704 0.002816901408450704 0.005633802816901409 0.002816901408450704 0.002816901408450704 0.005633802816901409 0.002816901408450704 0.002816901408450704 0.002816901408450704 0.005633802816901409 0.002816901408450704 0.002816901408450704 0.002816901408450704 0.002816901408450704 0.002816901408450704 0.002816901408450704 0.002816901408450704 0.002816901408450704 0.005633802816901409 0.002816901408450704 0.005633802816901409 0.002816901408450704 0.002816901408450704 0.002816901408450704 0.002816901408450704 0.002816901408450704 0.002816901408450704 0.002816901408450704 0.002816901408450704 0.002816901408450704 0.002816901408450704 0.002816901408450704 0.005633802816901409 0.002816901408450704 0.005633802816901409 0.005633802816901409 0.002816901408450704 0.002816901408450704 0.002816901408450704 0.01126760563380282 0.008450704225352114 0.002816901408450704 0.005633802816901409 0.008450704225352114 0.005633802816901409 0.008450704225352114 0.002816901408450704 0.005633802816901409 0.005633802816901409 0.01126760563380282 0.008450704225352114 0.005633802816901409 0.005633802816901409 0.002816901408450704 0.008450704225352114 0.002816901408450704 0.002816901408450704 0.002816901408450704 0.002816901408450704 0.005633802816901409 0.005633802816901409 0.002816901408450704 0.005633802816901409 0.002816901408450704 0.005633802816901409 0.005633802816901409 0.002816901408450704 0.002816901408450704 0.002816901408450704 0.002816901408450704 0.002816901408450704 0.002816901408450704 0.002816901408450704 0.002816901408450704 0.002816901408450704 0.002816901408450704 0.005633802816901409 0.002816901408450704 0.002816901408450704 0.002816901408450704 0.005633802816901409 0.002816901408450704 0.002816901408450704 0.002816901408450704 0.002816901408450704 0.002816901408450704 0.002816901408450704 0.002816901408450704 0.002816901408450704 0.002816901408450704 0.002816901408450704 0.002816901408450704 0.002816901408450704 0.002816901408450704 0.002816901408450704 0.002816901408450704 0.002816901408450704 0.002816901408450704 0.002816901408450704 0.002816901408450704 0.002816901408450704 0.002816901408450704 0.002816901408450704 0.002816901408450704 0.002816901408450704 0.002816901408450704 0.002816901408450704 0.002816901408450704 0.002816901408450704 0.002816901408450704 0.002816901408450704 0.002816901408450704 0.002816901408450704 0.002816901408450704 0.002816901408450704 0.002816901408450704 0.002816901408450704 0.002816901408450704 0.002816901408450704 0.002816901408450704 0.002816901408450704 0.002816901408450704 0.002816901408450704 0.002816901408450704 0.005633802816901409 0.002816901408450704 0.005633802816901409 0.002816901408450704 0.002816901408450704 0.002816901408450704 0.002816901408450704 0.005633802816901409 0.002816901408450704 0.002816901408450704 0.002816901408450704 0.002816901408450704 0.002816901408450704 0.002816901408450704 0.002816901408450704 0.002816901408450704 0.002816901408450704 0.002816901408450704 0.002816901408450704 0.005633802816901409 0.002816901408450704 0.002816901408450704 0.005633802816901409 0.002816901408450704 0.002816901408450704 0.002816901408450704 0.005633802816901409 0.002816901408450704 0.002816901408450704 0.002816901408450704 0.002816901408450704 0.002816901408450704 0.005633802816901409 0.008450704225352114 0.005633802816901409 0.005633802816901409 0.002816901408450704 0.002816901408450704 0.002816901408450704 0.002816901408450704 0.002816901408450704 0.002816901408450704 0.002816901408450704 0.002816901408450704 0.002816901408450704 0.002816901408450704 0.002816901408450704 0.002816901408450704 0.002816901408450704 0.002816901408450704 0.002816901408450704 0.002816901408450704 0.005633802816901409 0.002816901408450704 0.002816901408450704 0.002816901408450704 0.002816901408450704 0.002816901408450704 0.005633802816901409 0.002816901408450704 0.002816901408450704 0.002816901408450704 0.002816901408450704 0.002816901408450704 0.002816901408450704 0.002816901408450704 0.002816901408450704 0.002816901408450704 0.002816901408450704 0.002816901408450704 0.002816901408450704 0.002816901408450704 0.002816901408450704 0.002816901408450704 0.002816901408450704 0.002816901408450704 0.002816901408450704 0.002816901408450704 0.008450704225352114 0.002816901408450704 0.002816901408450704 0.002816901408450704 0.008450704225352114 0.002816901408450704 0.005633802816901409 0.002816901408450704 0.002816901408450704 0.002816901408450704 0.002816901408450704 0.005633802816901409 0.002816901408450704 0.005633802816901409 0.005633802816901409 0.008450704225352114 0.002816901408450704 0.005633802816901409 0.002816901408450704 0.008450704225352114 0.005633802816901409 0.002816901408450704 0.002816901408450704 0.002816901408450704 0.002816901408450704 0.002816901408450704 0.005633802816901409 0.005633802816901409 0.002816901408450704 0.002816901408450704 0.005633802816901409 0.002816901408450704 0.002816901408450704 0.002816901408450704 0.002816901408450704 0.002816901408450704 0.002816901408450704 0.002816901408450704 0.002816901408450704 0.002816901408450704 0.005633802816901409 0.002816901408450704 0.01123595505617978 0.005617977528089888 0.002808988764044944 0.002808988764044944 0.002808988764044944 0.002808988764044944 0.002808988764044944 0.002808988764044944 0.002808988764044944 0.002808988764044944 0.002808988764044944 0.002808988764044944 0.002808988764044944 0.002808988764044944 0.002808988764044944 0.002808988764044944 0.002808988764044944 0.002808988764044944 0.002808988764044944 0.002808988764044944 0.002808988764044944 0.002808988764044944 0.002808988764044944 0.002808988764044944 0.002808988764044944 0.002808988764044944 0.002808988764044944 0.002808988764044944 0.002808988764044944 0.002808988764044944 0.002808988764044944 0.002808988764044944 0.002808988764044944 0.002808988764044944 0.002808988764044944 0.002808988764044944 0.002808988764044944 0.002808988764044944 0.002808988764044944 0.002808988764044944 0.002808988764044944 0.002808988764044944 0.002808988764044944 0.002808988764044944 0.002808988764044944 0.002808988764044944 0.002808988764044944 0.002808988764044944 0.002808988764044944 0.002808988764044944 0.002808988764044944 0.002808988764044944 0.002808988764044944 0.002808988764044944 0.002808988764044944 0.002808988764044944 0.002808988764044944 0.002808988764044944 0.002808988764044944 0.002808988764044944 0.002808988764044944 0.002808988764044944 0.005617977528089888 0.002808988764044944 0.002808988764044944 0.002808988764044944 0.002808988764044944 0.002808988764044944 0.002808988764044944 0.002808988764044944 0.002808988764044944 0.002808988764044944 0.002808988764044944 0.002808988764044944 0.002808988764044944 0.002808988764044944 0.002808988764044944 0.002808988764044944 0.002808988764044944 0.002808988764044944 0.005617977528089888 0.002808988764044944 0.002808988764044944 0.002808988764044944 0.002808988764044944 0.002808988764044944 0.002808988764044944 0.002808988764044944 0.002808988764044944 0.002808988764044944 0.005617977528089888 0.002808988764044944 0.002808988764044944 0.002808988764044944 0.002808988764044944 0.002808988764044944 0.002808988764044944 0.002808988764044944 0.002808988764044944 0.002808988764044944 0.002808988764044944 0.002808988764044944 0.002808988764044944 0.002808988764044944 0.002808988764044944 0.002808988764044944 0.002808988764044944 0.002808988764044944 0.002808988764044944 0.002808988764044944 0.002808988764044944 0.002808988764044944 0.002808988764044944 0.002808988764044944 0.002808988764044944 0.002808988764044944 0.002808988764044944 0.002808988764044944 0.002808988764044944 0.002808988764044944 0.002808988764044944 0.002808988764044944 0.002808988764044944 0.002808988764044944 0.002808988764044944 0.002808988764044944 0.002808988764044944 0.002808988764044944 0.002808988764044944 0.002808988764044944 0.002808988764044944 0.002808988764044944 0.002808988764044944 0.002808988764044944 0.002808988764044944 0.002808988764044944 0.005617977528089888 0.002808988764044944 0.002808988764044944 0.005617977528089888 0.005617977528089888 0.002808988764044944 0.002808988764044944 0.002808988764044944 0.002808988764044944 0.002808988764044944 0.002808988764044944 0.002808988764044944 0.002808988764044944 0.002808988764044944 0.002808988764044944 0.002808988764044944 0.005617977528089888 0.005617977528089888 0.002808988764044944 0.002808988764044944 0.002808988764044944 0.005617977528089888 0.002808988764044944 0.002808988764044944 0.002808988764044944 0.002808988764044944 0.002808988764044944 0.002808988764044944 0.002808988764044944 0.002808988764044944 0.002808988764044944 0.002808988764044944 0.002808988764044944 0.002808988764044944 0.002808988764044944 0.002808988764044944 0.002808988764044944 0.002808988764044944 0.002808988764044944 0.002808988764044944 0.002808988764044944 0.002808988764044944 0.002808988764044944 0.002808988764044944 0.002808988764044944 0.002808988764044944 0.002808988764044944 0.002808988764044944 0.002808988764044944 0.002808988764044944 0.002808988764044944 0.002808988764044944 0.002808988764044944 0.002808988764044944 0.002808988764044944 0.002808988764044944 0.002808988764044944 0.002808988764044944 0.002808988764044944 0.002808988764044944 0.002808988764044944 0.005617977528089888 0.002808988764044944 0.002808988764044944 0.002808988764044944 0.002808988764044944 0.002808988764044944 0.002808988764044944 0.002808988764044944 0.002808988764044944 0.002808988764044944 0.002808988764044944 0.002808988764044944 0.005617977528089888 0.002808988764044944 0.002808988764044944 0.005617977528089888 0.002808988764044944 0.01123595505617978 0.002808988764044944 0.005617977528089888 0.002808988764044944 0.002808988764044944 0.002808988764044944 0.002808988764044944 0.002808988764044944 0.002808988764044944 0.002808988764044944 0.002808988764044944 0.002808988764044944 0.002808988764044944 0.005617977528089888 0.005617977528089888 0.005617977528089888 0.02247191011235955 0.005617977528089888 0.005617977528089888 0.008426966292134831 0.01966292134831461 0.01123595505617978 0.005617977528089888 0.008426966292134831 0.005617977528089888 0.005617977528089888 0.01123595505617978 0.008426966292134831 0.005617977528089888 0.002808988764044944 0.002808988764044944 0.01123595505617978 0.008426966292134831 0.002808988764044944 0.002808988764044944 0.002808988764044944 0.002808988764044944 0.002808988764044944 0.005617977528089888 0.002808988764044944 0.002808988764044944 0.008426966292134831 0.002808988764044944 0.005617977528089888 0.005617977528089888 0.002808988764044944 0.005617977528089888 0.005617977528089888 0.002808988764044944 0.005617977528089888 0.002808988764044944 0.002808988764044944 0.005617977528089888 0.002808988764044944 0.005617977528089888 0.005617977528089888 0.005617977528089888 0.005617977528089888 0.005617977528089888 0.01404494382022472 0.002808988764044944 0.002808988764044944 0.002808988764044944 0.002808988764044944 0.002808988764044944 0.0028328611898017 0.0028328611898017 0.0028328611898017 0.0028328611898017 0.0028328611898017 0.0028328611898017 0.0028328611898017 0.0028328611898017 0.0028328611898017 0.0028328611898017 0.0028328611898017 0.0028328611898017 0.0028328611898017 0.0028328611898017 0.0028328611898017 0.0028328611898017 0.0028328611898017 0.0028328611898017 0.0028328611898017 0.0028328611898017 0.0028328611898017 0.0028328611898017 0.0028328611898017 0.0028328611898017 0.0028328611898017 0.0028328611898017 0.0028328611898017 0.0028328611898017 0.0028328611898017 0.0028328611898017 0.0028328611898017 0.0028328611898017 0.0028328611898017 0.0028328611898017 0.0028328611898017 0.0028328611898017 0.0028328611898017 0.0028328611898017 0.0028328611898017 0.0084985835694051 0.0028328611898017 0.0028328611898017 0.0028328611898017 0.0028328611898017 0.0028328611898017 0.0028328611898017 0.0028328611898017 0.0028328611898017 0.0028328611898017 0.0028328611898017 0.0028328611898017 0.0028328611898017 0.0028328611898017 0.0028328611898017 0.0028328611898017 0.0028328611898017 0.0028328611898017 0.0028328611898017 0.0028328611898017 0.0028328611898017 0.0028328611898017 0.0028328611898017 0.0028328611898017 0.0028328611898017 0.0028328611898017 0.0028328611898017 0.0028328611898017 0.0028328611898017 0.0028328611898017 0.0028328611898017 0.0028328611898017 0.0028328611898017 0.0028328611898017 0.0028328611898017 0.0028328611898017 0.0028328611898017 0.0028328611898017 0.0028328611898017 0.0028328611898017 0.0028328611898017 0.0028328611898017 0.0028328611898017 0.0028328611898017 0.0028328611898017 0.0028328611898017 0.0028328611898017 0.0028328611898017 0.0028328611898017 0.0028328611898017 0.0028328611898017 0.0028328611898017 0.0028328611898017 0.0028328611898017 0.0028328611898017 0.0028328611898017 0.0028328611898017 0.0056657223796034 0.0028328611898017 0.0028328611898017 0.0056657223796034 0.0056657223796034 0.0028328611898017 0.0028328611898017 0.0028328611898017 0.0084985835694051 0.0084985835694051 0.0056657223796034 0.0084985835694051 0.0028328611898017 0.0084985835694051 0.0056657223796034 0.0028328611898017 0.0028328611898017 0.0028328611898017 0.0028328611898017 0.0028328611898017 0.0028328611898017 0.0028328611898017 0.0028328611898017 0.0028328611898017 0.0028328611898017 0.0028328611898017 0.0084985835694051 0.0056657223796034 0.0084985835694051 0.0056657223796034 0.0113314447592068 0.0141643059490085 0.0084985835694051 0.0056657223796034 0.0084985835694051 0.0028328611898017 0.0056657223796034 0.0028328611898017 0.0056657223796034 0.0084985835694051 0.0028328611898017 0.0028328611898017 0.0056657223796034 0.0056657223796034 0.0028328611898017 0.0056657223796034 0.0028328611898017 0.0084985835694051 0.0113314447592068 0.0056657223796034 0.0056657223796034 0.0056657223796034 0.0028328611898017 0.0028328611898017 0.0028328611898017 0.0084985835694051 0.0056657223796034 0.0028328611898017 0.0028328611898017 0.0028328611898017 0.0198300283286119 0.0056657223796034 0.0028328611898017 0.0028328611898017 0.0084985835694051 0.0028328611898017 0.0028328611898017 0.0056657223796034 0.0198300283286119 0.0113314447592068 0.0113314447592068 0.0028328611898017 0.0028328611898017 0.0028328611898017 0.0028328611898017 0.0028328611898017 0.0028328611898017 0.0028328611898017 0.0028328611898017 0.0028328611898017 0.0028328611898017 0.0028328611898017 0.0028328611898017 0.0028328611898017 0.0028328611898017 0.0028328611898017 0.0028328611898017 0.0028328611898017 0.0028328611898017 0.0028328611898017 0.0028328611898017 0.0028328611898017 0.0028328611898017 0.0028328611898017 0.0028328611898017 0.0028328611898017 0.0028328611898017 0.0028328611898017 0.0028328611898017 0.0028328611898017 0.0028328611898017 0.0028328611898017 0.0028328611898017 0.0028328611898017 0.0028328611898017 0.0028328611898017 0.0028328611898017 0.0028328611898017 0.0028328611898017 0.0028328611898017 0.0028328611898017 0.0028328611898017 0.0028328611898017 0.0028328611898017 0.0028328611898017 0.0028328611898017 0.0028328611898017 0.0028328611898017 0.0028328611898017 0.0028328611898017 0.0028328611898017 0.0028328611898017 0.0028328611898017 0.0028328611898017 0.0028328611898017 0.0028328611898017 0.0028328611898017 0.0028328611898017 0.0028328611898017 0.0028328611898017 0.0028328611898017 0.0028328611898017 0.0028328611898017 0.0028328611898017 0.0028328611898017 0.0028328611898017 0.0028328611898017 0.0028328611898017 0.0028328611898017 0.0028328611898017 0.0028328611898017 0.0028328611898017 0.0028328611898017 0.0028328611898017 0.0028328611898017 0.0028328611898017 0.0028328611898017 0.0028328611898017 0.0028328611898017 0.0028328611898017 0.0028328611898017 0.0028328611898017 0.0028328611898017 0.0028328611898017 0.0028328611898017 0.0028328611898017 0.0028328611898017 0.0028328611898017 0.0028328611898017 0.0028328611898017 0.0028328611898017 0.0028328611898017 0.0028328611898017 0.0028328611898017 0.0028328611898017 0.0028328611898017 0.0028328611898017 0.0028328611898017 0.0028328611898017 0.0028328611898017 0.0028328611898017 0.0028328611898017 0.0028328611898017 0.0028328611898017 0.0028328611898017 0.0028328611898017 0.0028328611898017 0.0028328611898017 0.0056657223796034 0.0028328611898017 0.0028328611898017 0.0028328611898017 0.0028328611898017 0.002801120448179272 0.002801120448179272 0.002801120448179272 0.002801120448179272 0.002801120448179272 0.002801120448179272 0.002801120448179272 0.002801120448179272 0.002801120448179272 0.002801120448179272 0.002801120448179272 0.002801120448179272 0.002801120448179272 0.002801120448179272 0.002801120448179272 0.002801120448179272 0.002801120448179272 0.002801120448179272 0.008403361344537815 0.005602240896358544 0.008403361344537815 0.01400560224089636 0.008403361344537815 0.01680672268907563 0.01120448179271709 0.002801120448179272 0.02240896358543417 0.01400560224089636 0.03641456582633054 0.01680672268907563 0.008403361344537815 0.0196078431372549 0.01400560224089636 0.01120448179271709 0.01400560224089636 0.008403361344537815 0.002801120448179272 0.002801120448179272 0.005602240896358544 0.008403361344537815 0.008403361344537815 0.005602240896358544 0.002801120448179272 0.005602240896358544 0.002801120448179272 0.002801120448179272 0.002801120448179272 0.002801120448179272 0.002801120448179272 0.002801120448179272 0.002801120448179272 0.005602240896358544 0.002801120448179272 0.002801120448179272 0.002801120448179272 0.005602240896358544 0.002801120448179272 0.002801120448179272 0.002801120448179272 0.002801120448179272 0.002801120448179272 0.002801120448179272 0.002801120448179272 0.002801120448179272 0.002801120448179272 0.002801120448179272 0.002801120448179272 0.002801120448179272 0.002801120448179272 0.002801120448179272 0.002801120448179272 0.002801120448179272 0.002801120448179272 0.002801120448179272 0.002801120448179272 0.002801120448179272 0.002801120448179272 0.002801120448179272 0.002801120448179272 0.002801120448179272 0.002801120448179272 0.002801120448179272 0.002801120448179272 0.002801120448179272 0.002801120448179272 0.002801120448179272 0.002801120448179272 0.002801120448179272 0.002801120448179272 0.002801120448179272 0.002801120448179272 0.002801120448179272 0.002801120448179272 0.002801120448179272 0.002801120448179272 0.002801120448179272 0.002801120448179272 0.002801120448179272 0.002801120448179272 0.002801120448179272 0.002801120448179272 0.002801120448179272 0.002801120448179272 0.002801120448179272 0.002801120448179272 0.002801120448179272 0.002801120448179272 0.002801120448179272 0.002801120448179272 0.002801120448179272 0.002801120448179272 0.002801120448179272 0.002801120448179272 0.005602240896358544 0.002801120448179272 0.002801120448179272 0.002801120448179272 0.002801120448179272 0.002801120448179272 0.002801120448179272 0.002801120448179272 0.002801120448179272 0.002801120448179272 0.002801120448179272 0.002801120448179272 0.002801120448179272 0.002801120448179272 0.002801120448179272 0.002801120448179272 0.002801120448179272 0.002801120448179272 0.002801120448179272 0.002801120448179272 0.002801120448179272 0.002801120448179272 0.002801120448179272 0.002801120448179272 0.002801120448179272 0.002801120448179272 0.002801120448179272 0.002801120448179272 0.002801120448179272 0.002801120448179272 0.002801120448179272 0.002801120448179272 0.002801120448179272 0.002801120448179272 0.002801120448179272 0.002801120448179272 0.002801120448179272 0.002801120448179272 0.002801120448179272 0.002801120448179272 0.002801120448179272 0.002801120448179272 0.002801120448179272 0.002801120448179272 0.002801120448179272 0.002801120448179272 0.002801120448179272 0.002801120448179272 0.002801120448179272 0.002801120448179272 0.002801120448179272 0.002801120448179272 0.002801120448179272 0.002801120448179272 0.002801120448179272 0.002801120448179272 0.002801120448179272 0.002801120448179272 0.002801120448179272 0.002801120448179272 0.002801120448179272 0.002801120448179272 0.002801120448179272 0.002801120448179272 0.002801120448179272 0.002801120448179272 0.002801120448179272 0.002801120448179272 0.002801120448179272 0.002801120448179272 0.002801120448179272 0.002801120448179272 0.002801120448179272 0.002801120448179272 0.002801120448179272 0.002801120448179272 0.002801120448179272 0.002801120448179272 0.002801120448179272 0.002801120448179272 0.002801120448179272 0.002801120448179272 0.002801120448179272 0.002801120448179272 0.002801120448179272 0.002801120448179272 0.002801120448179272 0.002801120448179272 0.002801120448179272 0.002801120448179272 0.002801120448179272 0.002801120448179272 0.002801120448179272 0.002801120448179272 0.002801120448179272 0.002801120448179272 0.002801120448179272 0.002801120448179272 0.002801120448179272 0.002801120448179272 0.002801120448179272 0.002801120448179272 0.002801120448179272 0.002801120448179272 0.002801120448179272 0.002801120448179272 0.002801120448179272 0.002801120448179272 0.002801120448179272 0.002801120448179272 0.002801120448179272 0.002801120448179272 0.002801120448179272 0.002801120448179272 0.002801120448179272 0.002801120448179272 0.002801120448179272 0.002801120448179272 0.002801120448179272 0.002801120448179272 0.002801120448179272 0.002801120448179272 0.002801120448179272 0.002801120448179272 0.002801120448179272 0.002801120448179272 0.002801120448179272 0.002801120448179272 0.002801120448179272 0.002801120448179272 0.002801120448179272 0.002801120448179272 0.002801120448179272 0.002801120448179272 0.002801120448179272 0.002801120448179272 0.002801120448179272 0.002801120448179272 0.002801120448179272 0.002801120448179272 0.002801120448179272 0.002801120448179272 0.002801120448179272 0.002801120448179272 0.002801120448179272 0.002801120448179272 0.002801120448179272 0.002801120448179272 0.002801120448179272 0.002801120448179272 0.002801120448179272 0.002801120448179272 0.002801120448179272 0.002801120448179272 0.002801120448179272 0.002801120448179272 0.002801120448179272 0.002801120448179272 0.002801120448179272 0.002801120448179272 0.002801120448179272 0.002801120448179272 0.002801120448179272 0.002801120448179272 0.002801120448179272 0.002801120448179272 0.002816901408450704 0.002816901408450704 0.002816901408450704 0.002816901408450704 0.002816901408450704 0.002816901408450704 0.002816901408450704 0.002816901408450704 0.002816901408450704 0.002816901408450704 0.002816901408450704 0.002816901408450704 0.002816901408450704 0.002816901408450704 0.002816901408450704 0.002816901408450704 0.002816901408450704 0.002816901408450704 0.002816901408450704 0.002816901408450704 0.002816901408450704 0.002816901408450704 0.002816901408450704 0.002816901408450704 0.002816901408450704 0.002816901408450704 0.002816901408450704 0.002816901408450704 0.002816901408450704 0.002816901408450704 0.002816901408450704 0.002816901408450704 0.002816901408450704 0.002816901408450704 0.002816901408450704 0.002816901408450704 0.002816901408450704 0.002816901408450704 0.002816901408450704 0.002816901408450704 0.002816901408450704 0.002816901408450704 0.002816901408450704 0.002816901408450704 0.002816901408450704 0.002816901408450704 0.002816901408450704 0.002816901408450704 0.002816901408450704 0.002816901408450704 0.002816901408450704 0.002816901408450704 0.002816901408450704 0.002816901408450704 0.002816901408450704 0.002816901408450704 0.002816901408450704 0.002816901408450704 0.002816901408450704 0.002816901408450704 0.002816901408450704 0.002816901408450704 0.002816901408450704 0.002816901408450704 0.002816901408450704 0.005633802816901409 0.002816901408450704 0.005633802816901409 0.002816901408450704 0.005633802816901409 0.008450704225352114 0.008450704225352114 0.002816901408450704 0.008450704225352114 0.005633802816901409 0.008450704225352114 0.01126760563380282 0.01971830985915493 0.01126760563380282 0.01126760563380282 0.01126760563380282 0.008450704225352114 0.01126760563380282 0.002816901408450704 0.02253521126760564 0.005633802816901409 0.01126760563380282 0.008450704225352114 0.008450704225352114 0.008450704225352114 0.01690140845070423 0.008450704225352114 0.008450704225352114 0.002816901408450704 0.005633802816901409 0.005633802816901409 0.002816901408450704 0.005633802816901409 0.005633802816901409 0.002816901408450704 0.01126760563380282 0.008450704225352114 0.005633802816901409 0.002816901408450704 0.002816901408450704 0.005633802816901409 0.002816901408450704 0.005633802816901409 0.002816901408450704 0.005633802816901409 0.005633802816901409 0.002816901408450704 0.002816901408450704 0.002816901408450704 0.002816901408450704 0.002816901408450704 0.002816901408450704 0.002816901408450704 0.002816901408450704 0.002816901408450704 0.002816901408450704 0.002816901408450704 0.002816901408450704 0.002816901408450704 0.002816901408450704 0.002816901408450704 0.002816901408450704 0.002816901408450704 0.002816901408450704 0.002816901408450704 0.002816901408450704 0.002816901408450704 0.005633802816901409 0.002816901408450704 0.002816901408450704 0.002816901408450704 0.002816901408450704 0.002816901408450704 0.002816901408450704 0.002816901408450704 0.002816901408450704 0.002816901408450704 0.002816901408450704 0.002816901408450704 0.002816901408450704 0.002816901408450704 0.002816901408450704 0.002816901408450704 0.002816901408450704 0.002816901408450704 0.002816901408450704 0.002816901408450704 0.002816901408450704 0.002816901408450704 0.002816901408450704 0.002816901408450704 0.002816901408450704 0.002816901408450704 0.002816901408450704 0.002816901408450704 0.002816901408450704 0.002816901408450704 0.002816901408450704 0.002816901408450704 0.002816901408450704 0.002816901408450704 0.002816901408450704 0.002816901408450704 0.002816901408450704 0.002816901408450704 0.002816901408450704 0.002816901408450704 0.002816901408450704 0.002816901408450704 0.002816901408450704 0.002816901408450704 0.002816901408450704 0.002816901408450704 0.002816901408450704 0.002816901408450704 0.002816901408450704 0.002816901408450704 0.002816901408450704 0.002816901408450704 0.002816901408450704 0.002816901408450704 0.002816901408450704 0.002816901408450704 0.002816901408450704 0.002816901408450704 0.002816901408450704 0.002816901408450704 0.002816901408450704 0.002816901408450704 0.002816901408450704 0.002816901408450704 0.002816901408450704 0.002816901408450704 0.002816901408450704 0.002816901408450704 0.002816901408450704 0.002816901408450704 0.002816901408450704 0.002816901408450704 0.002816901408450704 0.002816901408450704 0.002816901408450704 0.002816901408450704 0.002816901408450704 0.002816901408450704 0.002816901408450704 0.002816901408450704 0.002816901408450704 0.002816901408450704 0.002816901408450704 0.002816901408450704 0.002816901408450704 0.002816901408450704 0.002816901408450704 0.002816901408450704 0.002816901408450704 0.002816901408450704 0.002816901408450704 0.002816901408450704 0.002816901408450704 0.002816901408450704 0.002816901408450704 0.002816901408450704 0.002816901408450704 0.002816901408450704 0.002816901408450704 0.002816901408450704 0.002816901408450704 0.002816901408450704 0.002816901408450704 0.002816901408450704 0.002816901408450704 0.002816901408450704 0.002816901408450704 0.002816901408450704 0.002816901408450704 0.002816901408450704 0.002816901408450704 0.002816901408450704 0.002816901408450704 0.002816901408450704 0.002816901408450704 0.002816901408450704 0.002816901408450704 0.002816901408450704 0.002816901408450704 0.002816901408450704 0.002816901408450704 0.002816901408450704 0.002816901408450704 0.002816901408450704 0.002816901408450704 0.002816901408450704 0.002816901408450704 0.002816901408450704 0.002816901408450704 0.002816901408450704 0.002816901408450704 0.002816901408450704 0.002816901408450704 0.002816901408450704 0.002816901408450704 0.002816901408450704 0.002816901408450704 0.002816901408450704 0.002816901408450704 0.002816901408450704 0.002816901408450704 0.002816901408450704 0.002816901408450704 0.002816901408450704 0.002816901408450704 0.002816901408450704 0.002816901408450704 0.02052785923753666 0.002932551319648094 0.002932551319648094 0.002932551319648094 0.005865102639296188 0.005865102639296188 0.008797653958944281 0.005865102639296188 0.01466275659824047 0.01173020527859238 0.01759530791788856 0.01173020527859238 0.02346041055718475 0.01466275659824047 0.002932551319648094 0.01759530791788856 0.01466275659824047 0.01173020527859238 0.005865102639296188 0.005865102639296188 0.002932551319648094 0.008797653958944281 0.002932551319648094 0.002932551319648094 0.002932551319648094 0.002932551319648094 0.002932551319648094 0.005865102639296188 0.002932551319648094 0.005865102639296188 0.002932551319648094 0.002932551319648094 0.002932551319648094 0.002932551319648094 0.002932551319648094 0.002932551319648094 0.005865102639296188 0.002932551319648094 0.005865102639296188 0.002932551319648094 0.002932551319648094 0.002932551319648094 0.002932551319648094 0.002932551319648094 0.002932551319648094 0.002932551319648094 0.002932551319648094 0.002932551319648094 0.002932551319648094 0.002932551319648094 0.002932551319648094 0.002932551319648094 0.002932551319648094 0.002932551319648094 0.002932551319648094 0.002932551319648094 0.002932551319648094 0.005865102639296188 0.002932551319648094 0.008797653958944281 0.002932551319648094 0.005865102639296188 0.002932551319648094 0.002932551319648094 0.002932551319648094 0.002932551319648094 0.002932551319648094 0.002932551319648094 0.002932551319648094 0.002932551319648094 0.002932551319648094 0.002932551319648094 0.002932551319648094 0.002932551319648094 0.002932551319648094 0.002932551319648094 0.002932551319648094 0.002932551319648094 0.002932551319648094 0.002932551319648094 0.002932551319648094 0.002932551319648094 0.002932551319648094 0.002932551319648094 0.002932551319648094 0.002932551319648094 0.002932551319648094 0.002932551319648094 0.002932551319648094 0.002932551319648094 0.002932551319648094 0.002932551319648094 0.002932551319648094 0.002932551319648094 0.002932551319648094 0.002932551319648094 0.002932551319648094 0.002932551319648094 0.002932551319648094 0.002932551319648094 0.002932551319648094 0.002932551319648094 0.002932551319648094 0.002932551319648094 0.002932551319648094 0.002932551319648094 0.002932551319648094 0.002932551319648094 0.002932551319648094 0.002932551319648094 0.002932551319648094 0.002932551319648094 0.002932551319648094 0.002932551319648094 0.002932551319648094 0.002932551319648094 0.002932551319648094 0.002932551319648094 0.002932551319648094 0.002932551319648094 0.002932551319648094 0.002932551319648094 0.002932551319648094 0.002932551319648094 0.002932551319648094 0.002932551319648094 0.002932551319648094 0.002932551319648094 0.002932551319648094 0.002932551319648094 0.002932551319648094 0.002932551319648094 0.002932551319648094 0.002932551319648094 0.002932551319648094 0.002932551319648094 0.002932551319648094 0.002932551319648094 0.002932551319648094 0.002932551319648094 0.002932551319648094 0.002932551319648094 0.002932551319648094 0.002932551319648094 0.002932551319648094 0.002932551319648094 0.002932551319648094 0.002932551319648094 0.002932551319648094 0.002932551319648094 0.002932551319648094 0.002932551319648094 0.002932551319648094 0.002932551319648094 0.002932551319648094 0.002932551319648094 0.002932551319648094 0.002932551319648094 0.002932551319648094 0.002932551319648094 0.002932551319648094 0.002932551319648094 0.002932551319648094 0.002932551319648094 0.002932551319648094 0.002932551319648094 0.002932551319648094 0.002932551319648094 0.002932551319648094 0.002932551319648094 0.002932551319648094 0.002932551319648094 0.002932551319648094 0.002932551319648094 0.002932551319648094 0.002932551319648094 0.002932551319648094 0.002932551319648094 0.002932551319648094 0.002932551319648094 0.002932551319648094 0.002932551319648094 0.002932551319648094 0.002932551319648094 0.002932551319648094 0.002932551319648094 0.002932551319648094 0.002932551319648094 0.002932551319648094 0.002932551319648094 0.002932551319648094 0.002932551319648094 0.002932551319648094 0.002932551319648094 0.002932551319648094 0.002932551319648094 0.002932551319648094 0.002932551319648094 0.002932551319648094 0.002932551319648094 0.002932551319648094 0.002932551319648094 0.002932551319648094 0.002932551319648094 0.002932551319648094 0.002932551319648094 0.002932551319648094 0.002932551319648094 0.002932551319648094 0.002932551319648094 0.002932551319648094 0.002932551319648094 0.002932551319648094 0.002932551319648094 0.002932551319648094 0.002932551319648094 0.002932551319648094 0.002932551319648094 0.002932551319648094 0.002932551319648094 0.005865102639296188 0.002932551319648094 0.002932551319648094 0.002932551319648094 0.002932551319648094 0.002932551319648094 0.002932551319648094 0.002932551319648094 0.002932551319648094 0.002932551319648094 0.002932551319648094 0.002932551319648094 0.002932551319648094 0.002932551319648094 0.002932551319648094 0.002932551319648094 0.002932551319648094 0.002932551319648094 0.002932551319648094 0.002932551319648094 0.002932551319648094 0.002932551319648094 0.002932551319648094 0.002932551319648094 0.002932551319648094 0.002932551319648094 0.002932551319648094 0.002932551319648094 0.002932551319648094 0.002932551319648094 0.002932551319648094 0.002932551319648094 0.002932551319648094 0.002932551319648094 0.002932551319648094 0.002932551319648094 0.002932551319648094 0.002932551319648094 0.002932551319648094 0.002932551319648094 0.002932551319648094 0.002932551319648094 0.002932551319648094 0.002932551319648094 0.002932551319648094 0.002932551319648094 0.002932551319648094 0.002932551319648094 0.002932551319648094 0.002932551319648094 0.002932551319648094 0.002932551319648094 0.002932551319648094 0.002932551319648094 0.002932551319648094 0.002932551319648094 0.002932551319648094 0.002932551319648094 0.002932551319648094 0.0154320987654321 0.00308641975308642 0.00308641975308642 0.00308641975308642 0.00308641975308642 0.00308641975308642 0.00308641975308642 0.00308641975308642 0.00308641975308642 0.00308641975308642 0.00308641975308642 0.00308641975308642 0.00308641975308642 0.00308641975308642 0.00308641975308642 0.00308641975308642 0.00308641975308642 0.00308641975308642 0.00308641975308642 0.00308641975308642 0.00308641975308642 0.00308641975308642 0.00308641975308642 0.00308641975308642 0.00308641975308642 0.00308641975308642 0.00308641975308642 0.00308641975308642 0.00308641975308642 0.00308641975308642 0.00308641975308642 0.00308641975308642 0.00308641975308642 0.00308641975308642 0.00308641975308642 0.00308641975308642 0.00308641975308642 0.006172839506172839 0.00308641975308642 0.006172839506172839 0.006172839506172839 0.006172839506172839 0.00308641975308642 0.00308641975308642 0.00308641975308642 0.009259259259259259 0.00308641975308642 0.01234567901234568 0.006172839506172839 0.00308641975308642 0.006172839506172839 0.006172839506172839 0.009259259259259259 0.01234567901234568 0.0154320987654321 0.01234567901234568 0.006172839506172839 0.00308641975308642 0.00308641975308642 0.00308641975308642 0.00308641975308642 0.006172839506172839 0.00308641975308642 0.0154320987654321 0.006172839506172839 0.00308641975308642 0.006172839506172839 0.00308641975308642 0.00308641975308642 0.00308641975308642 0.00308641975308642 0.00308641975308642 0.009259259259259259 0.00308641975308642 0.00308641975308642 0.00308641975308642 0.00308641975308642 0.00308641975308642 0.006172839506172839 0.006172839506172839 0.00308641975308642 0.00308641975308642 0.00308641975308642 0.009259259259259259 0.00308641975308642 0.00308641975308642 0.00308641975308642 0.00308641975308642 0.00308641975308642 0.00308641975308642 0.00308641975308642 0.00308641975308642 0.00308641975308642 0.00308641975308642 0.00308641975308642 0.00308641975308642 0.00308641975308642 0.00308641975308642 0.00308641975308642 0.00308641975308642 0.00308641975308642 0.00308641975308642 0.00308641975308642 0.006172839506172839 0.00308641975308642 0.00308641975308642 0.00308641975308642 0.00308641975308642 0.00308641975308642 0.00308641975308642 0.00308641975308642 0.006172839506172839 0.00308641975308642 0.00308641975308642 0.006172839506172839 0.00308641975308642 0.00308641975308642 0.00308641975308642 0.00308641975308642 0.00308641975308642 0.00308641975308642 0.00308641975308642 0.00308641975308642 0.00308641975308642 0.00308641975308642 0.00308641975308642 0.00308641975308642 0.00308641975308642 0.00308641975308642 0.00308641975308642 0.00308641975308642 0.00308641975308642 0.00308641975308642 0.00308641975308642 0.00308641975308642 0.00308641975308642 0.00308641975308642 0.00308641975308642 0.00308641975308642 0.00308641975308642 0.00308641975308642 0.00308641975308642 0.00308641975308642 0.00308641975308642 0.00308641975308642 0.00308641975308642 0.00308641975308642 0.00308641975308642 0.00308641975308642 0.00308641975308642 0.00308641975308642 0.00308641975308642 0.00308641975308642 0.00308641975308642 0.00308641975308642 0.00308641975308642 0.00308641975308642 0.00308641975308642 0.00308641975308642 0.00308641975308642 0.00308641975308642 0.00308641975308642 0.00308641975308642 0.00308641975308642 0.00308641975308642 0.00308641975308642 0.00308641975308642 0.00308641975308642 0.00308641975308642 0.00308641975308642 0.00308641975308642 0.00308641975308642 0.00308641975308642 0.00308641975308642 0.00308641975308642 0.00308641975308642 0.00308641975308642 0.00308641975308642 0.00308641975308642 0.00308641975308642 0.00308641975308642 0.00308641975308642 0.00308641975308642 0.00308641975308642 0.00308641975308642 0.00308641975308642 0.00308641975308642 0.00308641975308642 0.00308641975308642 0.00308641975308642 0.00308641975308642 0.00308641975308642 0.00308641975308642 0.00308641975308642 0.00308641975308642 0.00308641975308642 0.00308641975308642 0.00308641975308642 0.00308641975308642 0.00308641975308642 0.00308641975308642 0.00308641975308642 0.00308641975308642 0.00308641975308642 0.00308641975308642 0.00308641975308642 0.00308641975308642 0.00308641975308642 0.00308641975308642 0.00308641975308642 0.00308641975308642 0.00308641975308642 0.00308641975308642 0.00308641975308642 0.00308641975308642 0.00308641975308642 0.00308641975308642 0.00308641975308642 0.00308641975308642 0.00308641975308642 0.00308641975308642 0.00308641975308642 0.00308641975308642 0.00308641975308642 0.00308641975308642 0.00308641975308642 0.00308641975308642 0.00308641975308642 0.00308641975308642 0.00308641975308642 0.00308641975308642 0.00308641975308642 0.00308641975308642 0.00308641975308642 0.00308641975308642 0.00308641975308642 0.00308641975308642 0.00308641975308642 0.00308641975308642 0.00308641975308642 0.00308641975308642 0.00308641975308642 0.00308641975308642 0.00308641975308642 0.00308641975308642 0.00308641975308642 0.00308641975308642 0.00308641975308642 0.00308641975308642 0.00308641975308642 0.00308641975308642 0.00308641975308642 0.00308641975308642 0.00308641975308642 0.00308641975308642 0.00308641975308642 0.00308641975308642 0.00308641975308642 0.00308641975308642 0.00308641975308642 0.00308641975308642 0.00308641975308642 0.00308641975308642 0.00308641975308642 0.00308641975308642 0.00308641975308642 0.00308641975308642 0.00308641975308642 0.00308641975308642 0.00308641975308642 0.00308641975308642 0.00308641975308642 0.00308641975308642 0.00308641975308642 0.00308641975308642 0.00308641975308642 0.00308641975308642 0.00308641975308642 0.00308641975308642 0.01020408163265306 0.003401360544217687 0.003401360544217687 0.003401360544217687 0.003401360544217687 0.003401360544217687 0.003401360544217687 0.003401360544217687 0.003401360544217687 0.003401360544217687 0.003401360544217687 0.003401360544217687 0.003401360544217687 0.003401360544217687 0.003401360544217687 0.003401360544217687 0.003401360544217687 0.003401360544217687 0.003401360544217687 0.003401360544217687 0.003401360544217687 0.003401360544217687 0.003401360544217687 0.003401360544217687 0.003401360544217687 0.003401360544217687 0.003401360544217687 0.003401360544217687 0.003401360544217687 0.003401360544217687 0.003401360544217687 0.003401360544217687 0.003401360544217687 0.003401360544217687 0.003401360544217687 0.003401360544217687 0.003401360544217687 0.003401360544217687 0.003401360544217687 0.003401360544217687 0.003401360544217687 0.003401360544217687 0.003401360544217687 0.003401360544217687 0.003401360544217687 0.003401360544217687 0.003401360544217687 0.003401360544217687 0.003401360544217687 0.003401360544217687 0.003401360544217687 0.003401360544217687 0.003401360544217687 0.003401360544217687 0.003401360544217687 0.003401360544217687 0.003401360544217687 0.003401360544217687 0.003401360544217687 0.003401360544217687 0.003401360544217687 0.003401360544217687 0.003401360544217687 0.003401360544217687 0.003401360544217687 0.003401360544217687 0.003401360544217687 0.003401360544217687 0.003401360544217687 0.003401360544217687 0.003401360544217687 0.003401360544217687 0.003401360544217687 0.003401360544217687 0.003401360544217687 0.003401360544217687 0.003401360544217687 0.003401360544217687 0.003401360544217687 0.003401360544217687 0.003401360544217687 0.003401360544217687 0.003401360544217687 0.003401360544217687 0.003401360544217687 0.003401360544217687 0.003401360544217687 0.003401360544217687 0.003401360544217687 0.003401360544217687 0.003401360544217687 0.003401360544217687 0.003401360544217687 0.003401360544217687 0.003401360544217687 0.003401360544217687 0.003401360544217687 0.003401360544217687 0.003401360544217687 0.003401360544217687 0.003401360544217687 0.003401360544217687 0.003401360544217687 0.003401360544217687 0.003401360544217687 0.003401360544217687 0.003401360544217687 0.003401360544217687 0.003401360544217687 0.003401360544217687 0.003401360544217687 0.003401360544217687 0.003401360544217687 0.003401360544217687 0.003401360544217687 0.003401360544217687 0.003401360544217687 0.003401360544217687 0.003401360544217687 0.003401360544217687 0.003401360544217687 0.003401360544217687 0.003401360544217687 0.003401360544217687 0.003401360544217687 0.003401360544217687 0.003401360544217687 0.003401360544217687 0.003401360544217687 0.003401360544217687 0.003401360544217687 0.003401360544217687 0.003401360544217687 0.003401360544217687 0.003401360544217687 0.003401360544217687 0.003401360544217687 0.003401360544217687 0.003401360544217687 0.003401360544217687 0.003401360544217687 0.003401360544217687 0.003401360544217687 0.003401360544217687 0.003401360544217687 0.003401360544217687 0.003401360544217687 0.003401360544217687 0.003401360544217687 0.003401360544217687 0.003401360544217687 0.003401360544217687 0.003401360544217687 0.003401360544217687 0.003401360544217687 0.003401360544217687 0.003401360544217687 0.003401360544217687 0.003401360544217687 0.003401360544217687 0.003401360544217687 0.003401360544217687 0.003401360544217687 0.003401360544217687 0.003401360544217687 0.003401360544217687 0.003401360544217687 0.003401360544217687 0.003401360544217687 0.003401360544217687 0.003401360544217687 0.003401360544217687 0.003401360544217687 0.003401360544217687 0.003401360544217687 0.003401360544217687 0.003401360544217687 0.003401360544217687 0.003401360544217687 0.003401360544217687 0.003401360544217687 0.003401360544217687 0.003401360544217687 0.003401360544217687 0.003401360544217687 0.003401360544217687 0.003401360544217687 0.003401360544217687 0.003401360544217687 0.003401360544217687 0.003401360544217687 0.003401360544217687 0.003401360544217687 0.003401360544217687 0.003401360544217687 0.003401360544217687 0.003401360544217687 0.003401360544217687 0.003401360544217687 0.003401360544217687 0.01020408163265306 0.003401360544217687 0.006802721088435374 0.01360544217687075 0.006802721088435374 0.006802721088435374 0.006802721088435374 0.01020408163265306 0.006802721088435374 0.003401360544217687 0.006802721088435374 0.003401360544217687 0.003401360544217687 0.003401360544217687 0.003401360544217687 0.003401360544217687 0.003401360544217687 0.003401360544217687 0.003401360544217687 0.003401360544217687 0.003401360544217687 0.003401360544217687 0.003401360544217687 0.003401360544217687 0.003401360544217687 0.003401360544217687 0.003401360544217687 0.003401360544217687 0.003401360544217687 0.003401360544217687 0.003401360544217687 0.003401360544217687 0.003401360544217687 0.003401360544217687 0.003401360544217687 0.003401360544217687 0.003401360544217687 0.003401360544217687 0.003401360544217687 0.003401360544217687 0.003401360544217687 0.003401360544217687 0.003401360544217687 0.003401360544217687 0.003401360544217687 0.003401360544217687 0.003401360544217687 0.003401360544217687 0.003401360544217687 0.003401360544217687 0.003401360544217687 0.003401360544217687 0.003401360544217687 0.003401360544217687 0.003401360544217687 0.003401360544217687 0.003401360544217687 0.003401360544217687 0.003401360544217687 0.003401360544217687 0.003401360544217687 0.003401360544217687 0.003401360544217687 0.003401360544217687 0.003401360544217687 0.003401360544217687 0.003401360544217687 0.003401360544217687 0.003401360544217687 0.003401360544217687 0.003401360544217687 0.003401360544217687 0.003401360544217687 0.003401360544217687 0.003401360544217687 0.003401360544217687 0.003401360544217687 0.003401360544217687 0.003401360544217687 0.003322259136212625 0.003322259136212625 0.003322259136212625 0.003322259136212625 0.003322259136212625 0.003322259136212625 0.003322259136212625 0.003322259136212625 0.003322259136212625 0.003322259136212625 0.003322259136212625 0.003322259136212625 0.003322259136212625 0.003322259136212625 0.003322259136212625 0.003322259136212625 0.003322259136212625 0.003322259136212625 0.003322259136212625 0.003322259136212625 0.003322259136212625 0.003322259136212625 0.003322259136212625 0.003322259136212625 0.003322259136212625 0.003322259136212625 0.003322259136212625 0.003322259136212625 0.003322259136212625 0.003322259136212625 0.003322259136212625 0.003322259136212625 0.003322259136212625 0.003322259136212625 0.003322259136212625 0.003322259136212625 0.003322259136212625 0.003322259136212625 0.003322259136212625 0.003322259136212625 0.003322259136212625 0.003322259136212625 0.003322259136212625 0.003322259136212625 0.003322259136212625 0.003322259136212625 0.003322259136212625 0.003322259136212625 0.003322259136212625 0.003322259136212625 0.003322259136212625 0.003322259136212625 0.003322259136212625 0.003322259136212625 0.003322259136212625 0.003322259136212625 0.003322259136212625 0.003322259136212625 0.003322259136212625 0.003322259136212625 0.003322259136212625 0.003322259136212625 0.003322259136212625 0.003322259136212625 0.003322259136212625 