<?xml version="1.0" encoding="ISO-8859-1"?>
<smile version="1.0" id="Network1" numsamples="1000" discsamples="10000">
	<nodes>
		<cpt id="Events">
			<state id="Rain" />
			<state id="Rain_Thunderstorm" />
			<state id="Fog" />
			<state id="Fog_Snow" />
			<state id="Fog_Rain_Thunderstorm" />
			<state id="Snow" />
			<state id="None" />
			<probabilities>0.2525252525252525 0.07070707070707072 0.0101010101010101 0.0101010101010101 0.0101010101010101 0.0202020202020202 0.6262626262626262</probabilities>
		</cpt>
		<cpt id="Temperature">
			<state id="Temp_0_4C" />
			<state id="Temp_5_9C" />
			<state id="Temp_10_14C" />
			<state id="Temp_15_19C" />
			<state id="Temp_20_24C" />
			<state id="Temp_25_29" />
			<parents>Events</parents>
			<probabilities>0.03228679853771686 0.2256065115213135 0.4522157186493883 0.1293477332722197 0.1293477332722197 0.03119550474714194 0 0.1111022220444409 0.3333366667333347 0.1111122222444449 0.2222244444888898 0.2222244444888898 0 0 0 1 0 0 0.1666666666666667 0.1666666666666667 0.1666666666666667 0.1666666666666667 0.1666666666666667 0.1666666666666667 0 1 0 0 0 0 0 1 0 0 0 0 0.01312625250501002 0.07905811623246492 0.2234468937875751 0.4218436873747494 0.157314629258517 0.1052104208416835</probabilities>
		</cpt>
		<cpt id="Delay">
			<state id="Normal" />
			<state id="Low_Delay" />
			<state id="High_Delay" />
			<parents>Temperature</parents>
			<probabilities>0.9 0.1 0 0.2 0.8 0 0.5 0.5 0 0.3333333333333333 0.3333333333333333 0.3333333333333333 0.3333333333333333 0.3333333333333333 0.3333333333333333 0.3333333333333333 0.3333333333333333 0.3333333333333333</probabilities>
		</cpt>
		<cpt id="Temperature_1">
			<state id="Temp_0_4C" />
			<state id="Temp_5_9C" />
			<state id="Temp_10_14C" />
			<state id="Temp_15_19C" />
			<state id="Temp_20_24C" />
			<state id="Temp_25_29" />
			<parents>Events</parents>
			<probabilities>0.03228679853771686 0.2256065115213135 0.4522157186493883 0.1293477332722197 0.1293477332722197 0.03119550474714194 0 0.1111022220444409 0.3333366667333347 0.1111122222444449 0.2222244444888898 0.2222244444888898 0 0 0 1 0 0 0.1666666666666667 0.1666666666666667 0.1666666666666667 0.1666666666666667 0.1666666666666667 0.1666666666666667 0 1 0 0 0 0 0 1 0 0 0 0 0.01312625250501002 0.07905811623246492 0.2234468937875751 0.4218436873747494 0.157314629258517 0.1052104208416835</probabilities>
		</cpt>
		<cpt id="Delay_1">
			<state id="Normal" />
			<state id="Low_Delay" />
			<state id="High_Delay" />
			<parents>Temperature_1 Delay</parents>
			<probabilities>0.9 0.1 0 0.9 0.1 0 0.9 0.1 0 0.2 0.8 0 0.2 0.8 0 0.2 0.8 0 0.5 0.5 0 0.5 0.5 0 0.5 0.5 0 0.3333333333333333 0.3333333333333333 0.3333333333333333 0.3333333333333333 0.3333333333333333 0.3333333333333333 0.3333333333333333 0.3333333333333333 0.3333333333333333 0.3333333333333333 0.3333333333333333 0.3333333333333333 0.3333333333333333 0.3333333333333333 0.3333333333333333 0.3333333333333333 0.3333333333333333 0.3333333333333333 0.3333333333333333 0.3333333333333333 0.3333333333333333 0.3333333333333333 0.3333333333333333 0.3333333333333333 0.3333333333333333 0.3333333333333333 0.3333333333333333</probabilities>
		</cpt>
		<cpt id="Temperature_2">
			<state id="Temp_0_4C" />
			<state id="Temp_5_9C" />
			<state id="Temp_10_14C" />
			<state id="Temp_15_19C" />
			<state id="Temp_20_24C" />
			<state id="Temp_25_29" />
			<parents>Events</parents>
			<probabilities>0.03228679853771686 0.2256065115213135 0.4522157186493883 0.1293477332722197 0.1293477332722197 0.03119550474714194 0 0.1111022220444409 0.3333366667333347 0.1111122222444449 0.2222244444888898 0.2222244444888898 0 0 0 1 0 0 0.1666666666666667 0.1666666666666667 0.1666666666666667 0.1666666666666667 0.1666666666666667 0.1666666666666667 0 1 0 0 0 0 0 1 0 0 0 0 0.01312625250501002 0.07905811623246492 0.2234468937875751 0.4218436873747494 0.157314629258517 0.1052104208416835</probabilities>
		</cpt>
		<cpt id="Delay_2">
			<state id="Normal" />
			<state id="Low_Delay" />
			<state id="High_Delay" />
			<parents>Temperature_2 Delay_1</parents>
			<probabilities>0.9 0.1 0 0.9 0.1 0 0.9 0.1 0 0.2 0.8 0 0.2 0.8 0 0.2 0.8 0 0.5 0.5 0 0.5 0.5 0 0.5 0.5 0 0.3333333333333333 0.3333333333333333 0.3333333333333333 0.3333333333333333 0.3333333333333333 0.3333333333333333 0.3333333333333333 0.3333333333333333 0.3333333333333333 0.3333333333333333 0.3333333333333333 0.3333333333333333 0.3333333333333333 0.3333333333333333 0.3333333333333333 0.3333333333333333 0.3333333333333333 0.3333333333333333 0.3333333333333333 0.3333333333333333 0.3333333333333333 0.3333333333333333 0.3333333333333333 0.3333333333333333 0.3333333333333333 0.3333333333333333 0.3333333333333333</probabilities>
		</cpt>
		<cpt id="Temperature_3">
			<state id="Temp_0_4C" />
			<state id="Temp_5_9C" />
			<state id="Temp_10_14C" />
			<state id="Temp_15_19C" />
			<state id="Temp_20_24C" />
			<state id="Temp_25_29" />
			<parents>Events</parents>
			<probabilities>0.03228679853771686 0.2256065115213135 0.4522157186493883 0.1293477332722197 0.1293477332722197 0.03119550474714194 0 0.1111022220444409 0.3333366667333347 0.1111122222444449 0.2222244444888898 0.2222244444888898 0 0 0 1 0 0 0.1666666666666667 0.1666666666666667 0.1666666666666667 0.1666666666666667 0.1666666666666667 0.1666666666666667 0 1 0 0 0 0 0 1 0 0 0 0 0.01312625250501002 0.07905811623246492 0.2234468937875751 0.4218436873747494 0.157314629258517 0.1052104208416835</probabilities>
		</cpt>
		<cpt id="Delay_3">
			<state id="Normal" />
			<state id="Low_Delay" />
			<state id="High_Delay" />
			<parents>Temperature_3 Delay_2</parents>
			<probabilities>0.9 0.1 0 0.9 0.1 0 0.9 0.1 0 0.2 0.8 0 0.2 0.8 0 0.2 0.8 0 0.5 0.5 0 0.5 0.5 0 0.5 0.5 0 0.3333333333333333 0.3333333333333333 0.3333333333333333 0.3333333333333333 0.3333333333333333 0.3333333333333333 0.3333333333333333 0.3333333333333333 0.3333333333333333 0.3333333333333333 0.3333333333333333 0.3333333333333333 0.3333333333333333 0.3333333333333333 0.3333333333333333 0.3333333333333333 0.3333333333333333 0.3333333333333333 0.3333333333333333 0.3333333333333333 0.3333333333333333 0.3333333333333333 0.3333333333333333 0.3333333333333333 0.3333333333333333 0.3333333333333333 0.3333333333333333</probabilities>
		</cpt>
		<cpt id="Temperature_4">
			<state id="Temp_0_4C" />
			<state id="Temp_5_9C" />
			<state id="Temp_10_14C" />
			<state id="Temp_15_19C" />
			<state id="Temp_20_24C" />
			<state id="Temp_25_29" />
			<parents>Events</parents>
			<probabilities>0.03228679853771686 0.2256065115213135 0.4522157186493883 0.1293477332722197 0.1293477332722197 0.03119550474714194 0 0.1111022220444409 0.3333366667333347 0.1111122222444449 0.2222244444888898 0.2222244444888898 0 0 0 1 0 0 0.1666666666666667 0.1666666666666667 0.1666666666666667 0.1666666666666667 0.1666666666666667 0.1666666666666667 0 1 0 0 0 0 0 1 0 0 0 0 0.01312625250501002 0.07905811623246492 0.2234468937875751 0.4218436873747494 0.157314629258517 0.1052104208416835</probabilities>
		</cpt>
		<cpt id="Delay_4">
			<state id="Normal" />
			<state id="Low_Delay" />
			<state id="High_Delay" />
			<parents>Temperature_4 Delay_3</parents>
			<probabilities>0.9 0.1 0 0.9 0.1 0 0.9 0.1 0 0.2 0.8 0 0.2 0.8 0 0.2 0.8 0 0.5 0.5 0 0.5 0.5 0 0.5 0.5 0 0.3333333333333333 0.3333333333333333 0.3333333333333333 0.3333333333333333 0.3333333333333333 0.3333333333333333 0.3333333333333333 0.3333333333333333 0.3333333333333333 0.3333333333333333 0.3333333333333333 0.3333333333333333 0.3333333333333333 0.3333333333333333 0.3333333333333333 0.3333333333333333 0.3333333333333333 0.3333333333333333 0.3333333333333333 0.3333333333333333 0.3333333333333333 0.3333333333333333 0.3333333333333333 0.3333333333333333 0.3333333333333333 0.3333333333333333 0.3333333333333333</probabilities>
		</cpt>
		<cpt id="Temperature_5">
			<state id="Temp_0_4C" />
			<state id="Temp_5_9C" />
			<state id="Temp_10_14C" />
			<state id="Temp_15_19C" />
			<state id="Temp_20_24C" />
			<state id="Temp_25_29" />
			<parents>Events</parents>
			<probabilities>0.03228679853771686 0.2256065115213135 0.4522157186493883 0.1293477332722197 0.1293477332722197 0.03119550474714194 0 0.1111022220444409 0.3333366667333347 0.1111122222444449 0.2222244444888898 0.2222244444888898 0 0 0 1 0 0 0.1666666666666667 0.1666666666666667 0.1666666666666667 0.1666666666666667 0.1666666666666667 0.1666666666666667 0 1 0 0 0 0 0 1 0 0 0 0 0.01312625250501002 0.07905811623246492 0.2234468937875751 0.4218436873747494 0.157314629258517 0.1052104208416835</probabilities>
		</cpt>
		<cpt id="Delay_5">
			<state id="Normal" />
			<state id="Low_Delay" />
			<state id="High_Delay" />
			<parents>Temperature_5 Delay_4</parents>
			<probabilities>0.9 0.1 0 0.9 0.1 0 0.9 0.1 0 0.2 0.8 0 0.2 0.8 0 0.2 0.8 0 0.5 0.5 0 0.5 0.5 0 0.5 0.5 0 0.3333333333333333 0.3333333333333333 0.3333333333333333 0.3333333333333333 0.3333333333333333 0.3333333333333333 0.3333333333333333 0.3333333333333333 0.3333333333333333 0.3333333333333333 0.3333333333333333 0.3333333333333333 0.3333333333333333 0.3333333333333333 0.3333333333333333 0.3333333333333333 0.3333333333333333 0.3333333333333333 0.3333333333333333 0.3333333333333333 0.3333333333333333 0.3333333333333333 0.3333333333333333 0.3333333333333333 0.3333333333333333 0.3333333333333333 0.3333333333333333</probabilities>
		</cpt>
		<cpt id="Temperature_6">
			<state id="Temp_0_4C" />
			<state id="Temp_5_9C" />
			<state id="Temp_10_14C" />
			<state id="Temp_15_19C" />
			<state id="Temp_20_24C" />
			<state id="Temp_25_29" />
			<parents>Events</parents>
			<probabilities>0.03228679853771686 0.2256065115213135 0.4522157186493883 0.1293477332722197 0.1293477332722197 0.03119550474714194 0 0.1111022220444409 0.3333366667333347 0.1111122222444449 0.2222244444888898 0.2222244444888898 0 0 0 1 0 0 0.1666666666666667 0.1666666666666667 0.1666666666666667 0.1666666666666667 0.1666666666666667 0.1666666666666667 0 1 0 0 0 0 0 1 0 0 0 0 0.01312625250501002 0.07905811623246492 0.2234468937875751 0.4218436873747494 0.157314629258517 0.1052104208416835</probabilities>
		</cpt>
		<cpt id="Delay_6">
			<state id="Normal" />
			<state id="Low_Delay" />
			<state id="High_Delay" />
			<parents>Temperature_6 Delay_5</parents>
			<probabilities>0.9 0.1 0 0.9 0.1 0 0.9 0.1 0 0.2 0.8 0 0.2 0.8 0 0.2 0.8 0 0.5 0.5 0 0.5 0.5 0 0.5 0.5 0 0.3333333333333333 0.3333333333333333 0.3333333333333333 0.3333333333333333 0.3333333333333333 0.3333333333333333 0.3333333333333333 0.3333333333333333 0.3333333333333333 0.3333333333333333 0.3333333333333333 0.3333333333333333 0.3333333333333333 0.3333333333333333 0.3333333333333333 0.3333333333333333 0.3333333333333333 0.3333333333333333 0.3333333333333333 0.3333333333333333 0.3333333333333333 0.3333333333333333 0.3333333333333333 0.3333333333333333 0.3333333333333333 0.3333333333333333 0.3333333333333333</probabilities>
		</cpt>
		<cpt id="Temperature_7">
			<state id="Temp_0_4C" />
			<state id="Temp_5_9C" />
			<state id="Temp_10_14C" />
			<state id="Temp_15_19C" />
			<state id="Temp_20_24C" />
			<state id="Temp_25_29" />
			<parents>Events</parents>
			<probabilities>0.03228679853771686 0.2256065115213135 0.4522157186493883 0.1293477332722197 0.1293477332722197 0.03119550474714194 0 0.1111022220444409 0.3333366667333347 0.1111122222444449 0.2222244444888898 0.2222244444888898 0 0 0 1 0 0 0.1666666666666667 0.1666666666666667 0.1666666666666667 0.1666666666666667 0.1666666666666667 0.1666666666666667 0 1 0 0 0 0 0 1 0 0 0 0 0.01312625250501002 0.07905811623246492 0.2234468937875751 0.4218436873747494 0.157314629258517 0.1052104208416835</probabilities>
		</cpt>
		<cpt id="Delay_7">
			<state id="Normal" />
			<state id="Low_Delay" />
			<state id="High_Delay" />
			<parents>Temperature_7 Delay_6</parents>
			<probabilities>0.9 0.1 0 0.9 0.1 0 0.9 0.1 0 0.2 0.8 0 0.2 0.8 0 0.2 0.8 0 0.5 0.5 0 0.5 0.5 0 0.5 0.5 0 0.3333333333333333 0.3333333333333333 0.3333333333333333 0.3333333333333333 0.3333333333333333 0.3333333333333333 0.3333333333333333 0.3333333333333333 0.3333333333333333 0.3333333333333333 0.3333333333333333 0.3333333333333333 0.3333333333333333 0.3333333333333333 0.3333333333333333 0.3333333333333333 0.3333333333333333 0.3333333333333333 0.3333333333333333 0.3333333333333333 0.3333333333333333 0.3333333333333333 0.3333333333333333 0.3333333333333333 0.3333333333333333 0.3333333333333333 0.3333333333333333</probabilities>
		</cpt>
		<cpt id="Temperature_8">
			<state id="Temp_0_4C" />
			<state id="Temp_5_9C" />
			<state id="Temp_10_14C" />
			<state id="Temp_15_19C" />
			<state id="Temp_20_24C" />
			<state id="Temp_25_29" />
			<parents>Events</parents>
			<probabilities>0.03228679853771686 0.2256065115213135 0.4522157186493883 0.1293477332722197 0.1293477332722197 0.03119550474714194 0 0.1111022220444409 0.3333366667333347 0.1111122222444449 0.2222244444888898 0.2222244444888898 0 0 0 1 0 0 0.1666666666666667 0.1666666666666667 0.1666666666666667 0.1666666666666667 0.1666666666666667 0.1666666666666667 0 1 0 0 0 0 0 1 0 0 0 0 0.01312625250501002 0.07905811623246492 0.2234468937875751 0.4218436873747494 0.157314629258517 0.1052104208416835</probabilities>
		</cpt>
		<cpt id="Delay_8">
			<state id="Normal" />
			<state id="Low_Delay" />
			<state id="High_Delay" />
			<parents>Temperature_8 Delay_7</parents>
			<probabilities>0.9 0.1 0 0.9 0.1 0 0.9 0.1 0 0.2 0.8 0 0.2 0.8 0 0.2 0.8 0 0.5 0.5 0 0.5 0.5 0 0.5 0.5 0 0.3333333333333333 0.3333333333333333 0.3333333333333333 0.3333333333333333 0.3333333333333333 0.3333333333333333 0.3333333333333333 0.3333333333333333 0.3333333333333333 0.3333333333333333 0.3333333333333333 0.3333333333333333 0.3333333333333333 0.3333333333333333 0.3333333333333333 0.3333333333333333 0.3333333333333333 0.3333333333333333 0.3333333333333333 0.3333333333333333 0.3333333333333333 0.3333333333333333 0.3333333333333333 0.3333333333333333 0.3333333333333333 0.3333333333333333 0.3333333333333333</probabilities>
		</cpt>
		<cpt id="Temperature_9">
			<state id="Temp_0_4C" />
			<state id="Temp_5_9C" />
			<state id="Temp_10_14C" />
			<state id="Temp_15_19C" />
			<state id="Temp_20_24C" />
			<state id="Temp_25_29" />
			<parents>Events</parents>
			<probabilities>0.03228679853771686 0.2256065115213135 0.4522157186493883 0.1293477332722197 0.1293477332722197 0.03119550474714194 0 0.1111022220444409 0.3333366667333347 0.1111122222444449 0.2222244444888898 0.2222244444888898 0 0 0 1 0 0 0.1666666666666667 0.1666666666666667 0.1666666666666667 0.1666666666666667 0.1666666666666667 0.1666666666666667 0 1 0 0 0 0 0 1 0 0 0 0 0.01312625250501002 0.07905811623246492 0.2234468937875751 0.4218436873747494 0.157314629258517 0.1052104208416835</probabilities>
		</cpt>
		<cpt id="Delay_9">
			<state id="Normal" />
			<state id="Low_Delay" />
			<state id="High_Delay" />
			<parents>Temperature_9 Delay_8</parents>
			<probabilities>0.9 0.1 0 0.9 0.1 0 0.9 0.1 0 0.2 0.8 0 0.2 0.8 0 0.2 0.8 0 0.5 0.5 0 0.5 0.5 0 0.5 0.5 0 0.3333333333333333 0.3333333333333333 0.3333333333333333 0.3333333333333333 0.3333333333333333 0.3333333333333333 0.3333333333333333 0.3333333333333333 0.3333333333333333 0.3333333333333333 0.3333333333333333 0.3333333333333333 0.3333333333333333 0.3333333333333333 0.3333333333333333 0.3333333333333333 0.3333333333333333 0.3333333333333333 0.3333333333333333 0.3333333333333333 0.3333333333333333 0.3333333333333333 0.3333333333333333 0.3333333333333333 0.3333333333333333 0.3333333333333333 0.3333333333333333</probabilities>
		</cpt>
		<cpt id="Temperature_10">
			<state id="Temp_0_4C" />
			<state id="Temp_5_9C" />
			<state id="Temp_10_14C" />
			<state id="Temp_15_19C" />
			<state id="Temp_20_24C" />
			<state id="Temp_25_29" />
			<parents>Events</parents>
			<probabilities>0.03228679853771686 0.2256065115213135 0.4522157186493883 0.1293477332722197 0.1293477332722197 0.03119550474714194 0 0.1111022220444409 0.3333366667333347 0.1111122222444449 0.2222244444888898 0.2222244444888898 0 0 0 1 0 0 0.1666666666666667 0.1666666666666667 0.1666666666666667 0.1666666666666667 0.1666666666666667 0.1666666666666667 0 1 0 0 0 0 0 1 0 0 0 0 0.01312625250501002 0.07905811623246492 0.2234468937875751 0.4218436873747494 0.157314629258517 0.1052104208416835</probabilities>
		</cpt>
		<cpt id="Delay_10">
			<state id="Normal" />
			<state id="Low_Delay" />
			<state id="High_Delay" />
			<parents>Temperature_10 Delay_9</parents>
			<probabilities>0.9 0.1 0 0.9 0.1 0 0.9 0.1 0 0.2 0.8 0 0.2 0.8 0 0.2 0.8 0 0.5 0.5 0 0.5 0.5 0 0.5 0.5 0 0.3333333333333333 0.3333333333333333 0.3333333333333333 0.3333333333333333 0.3333333333333333 0.3333333333333333 0.3333333333333333 0.3333333333333333 0.3333333333333333 0.3333333333333333 0.3333333333333333 0.3333333333333333 0.3333333333333333 0.3333333333333333 0.3333333333333333 0.3333333333333333 0.3333333333333333 0.3333333333333333 0.3333333333333333 0.3333333333333333 0.3333333333333333 0.3333333333333333 0.3333333333333333 0.3333333333333333 0.3333333333333333 0.3333333333333333 0.3333333333333333</probabilities>
		</cpt>
		<cpt id="Temperature_11">
			<state id="Temp_0_4C" />
			<state id="Temp_5_9C" />
			<state id="Temp_10_14C" />
			<state id="Temp_15_19C" />
			<state id="Temp_20_24C" />
			<state id="Temp_25_29" />
			<parents>Events</parents>
			<probabilities>0.03228679853771686 0.2256065115213135 0.4522157186493883 0.1293477332722197 0.1293477332722197 0.03119550474714194 0 0.1111022220444409 0.3333366667333347 0.1111122222444449 0.2222244444888898 0.2222244444888898 0 0 0 1 0 0 0.1666666666666667 0.1666666666666667 0.1666666666666667 0.1666666666666667 0.1666666666666667 0.1666666666666667 0 1 0 0 0 0 0 1 0 0 0 0 0.01312625250501002 0.07905811623246492 0.2234468937875751 0.4218436873747494 0.157314629258517 0.1052104208416835</probabilities>
		</cpt>
		<cpt id="Delay_11">
			<state id="Normal" />
			<state id="Low_Delay" />
			<state id="High_Delay" />
			<parents>Temperature_11 Delay_10</parents>
			<probabilities>0.9 0.1 0 0.9 0.1 0 0.9 0.1 0 0.2 0.8 0 0.2 0.8 0 0.2 0.8 0 0.5 0.5 0 0.5 0.5 0 0.5 0.5 0 0.3333333333333333 0.3333333333333333 0.3333333333333333 0.3333333333333333 0.3333333333333333 0.3333333333333333 0.3333333333333333 0.3333333333333333 0.3333333333333333 0.3333333333333333 0.3333333333333333 0.3333333333333333 0.3333333333333333 0.3333333333333333 0.3333333333333333 0.3333333333333333 0.3333333333333333 0.3333333333333333 0.3333333333333333 0.3333333333333333 0.3333333333333333 0.3333333333333333 0.3333333333333333 0.3333333333333333 0.3333333333333333 0.3333333333333333 0.3333333333333333</probabilities>
		</cpt>
		<cpt id="Temperature_12">
			<state id="Temp_0_4C" />
			<state id="Temp_5_9C" />
			<state id="Temp_10_14C" />
			<state id="Temp_15_19C" />
			<state id="Temp_20_24C" />
			<state id="Temp_25_29" />
			<parents>Events</parents>
			<probabilities>0.03228679853771686 0.2256065115213135 0.4522157186493883 0.1293477332722197 0.1293477332722197 0.03119550474714194 0 0.1111022220444409 0.3333366667333347 0.1111122222444449 0.2222244444888898 0.2222244444888898 0 0 0 1 0 0 0.1666666666666667 0.1666666666666667 0.1666666666666667 0.1666666666666667 0.1666666666666667 0.1666666666666667 0 1 0 0 0 0 0 1 0 0 0 0 0.01312625250501002 0.07905811623246492 0.2234468937875751 0.4218436873747494 0.157314629258517 0.1052104208416835</probabilities>
		</cpt>
		<cpt id="Delay_12">
			<state id="Normal" />
			<state id="Low_Delay" />
			<state id="High_Delay" />
			<parents>Temperature_12 Delay_11</parents>
			<probabilities>0.9 0.1 0 0.9 0.1 0 0.9 0.1 0 0.2 0.8 0 0.2 0.8 0 0.2 0.8 0 0.5 0.5 0 0.5 0.5 0 0.5 0.5 0 0.3333333333333333 0.3333333333333333 0.3333333333333333 0.3333333333333333 0.3333333333333333 0.3333333333333333 0.3333333333333333 0.3333333333333333 0.3333333333333333 0.3333333333333333 0.3333333333333333 0.3333333333333333 0.3333333333333333 0.3333333333333333 0.3333333333333333 0.3333333333333333 0.3333333333333333 0.3333333333333333 0.3333333333333333 0.3333333333333333 0.3333333333333333 0.3333333333333333 0.3333333333333333 0.3333333333333333 0.3333333333333333 0.3333333333333333 0.3333333333333333</probabilities>
		</cpt>
		<cpt id="Temperature_13">
			<state id="Temp_0_4C" />
			<state id="Temp_5_9C" />
			<state id="Temp_10_14C" />
			<state id="Temp_15_19C" />
			<state id="Temp_20_24C" />
			<state id="Temp_25_29" />
			<parents>Events</parents>
			<probabilities>0.03228679853771686 0.2256065115213135 0.4522157186493883 0.1293477332722197 0.1293477332722197 0.03119550474714194 0 0.1111022220444409 0.3333366667333347 0.1111122222444449 0.2222244444888898 0.2222244444888898 0 0 0 1 0 0 0.1666666666666667 0.1666666666666667 0.1666666666666667 0.1666666666666667 0.1666666666666667 0.1666666666666667 0 1 0 0 0 0 0 1 0 0 0 0 0.01312625250501002 0.07905811623246492 0.2234468937875751 0.4218436873747494 0.157314629258517 0.1052104208416835</probabilities>
		</cpt>
		<cpt id="Delay_13">
			<state id="Normal" />
			<state id="Low_Delay" />
			<state id="High_Delay" />
			<parents>Temperature_13 Delay_12</parents>
			<probabilities>0.9 0.1 0 0.9 0.1 0 0.9 0.1 0 0.2 0.8 0 0.2 0.8 0 0.2 0.8 0 0.5 0.5 0 0.5 0.5 0 0.5 0.5 0 0.3333333333333333 0.3333333333333333 0.3333333333333333 0.3333333333333333 0.3333333333333333 0.3333333333333333 0.3333333333333333 0.3333333333333333 0.3333333333333333 0.3333333333333333 0.3333333333333333 0.3333333333333333 0.3333333333333333 0.3333333333333333 0.3333333333333333 0.3333333333333333 0.3333333333333333 0.3333333333333333 0.3333333333333333 0.3333333333333333 0.3333333333333333 0.3333333333333333 0.3333333333333333 0.3333333333333333 0.3333333333333333 0.3333333333333333 0.3333333333333333</probabilities>
		</cpt>
		<cpt id="Temperature_14">
			<state id="Temp_0_4C" />
			<state id="Temp_5_9C" />
			<state id="Temp_10_14C" />
			<state id="Temp_15_19C" />
			<state id="Temp_20_24C" />
			<state id="Temp_25_29" />
			<parents>Events</parents>
			<probabilities>0.03228679853771686 0.2256065115213135 0.4522157186493883 0.1293477332722197 0.1293477332722197 0.03119550474714194 0 0.1111022220444409 0.3333366667333347 0.1111122222444449 0.2222244444888898 0.2222244444888898 0 0 0 1 0 0 0.1666666666666667 0.1666666666666667 0.1666666666666667 0.1666666666666667 0.1666666666666667 0.1666666666666667 0 1 0 0 0 0 0 1 0 0 0 0 0.01312625250501002 0.07905811623246492 0.2234468937875751 0.4218436873747494 0.157314629258517 0.1052104208416835</probabilities>
		</cpt>
		<cpt id="Delay_14">
			<state id="Normal" />
			<state id="Low_Delay" />
			<state id="High_Delay" />
			<parents>Temperature_14 Delay_13</parents>
			<probabilities>0.9 0.1 0 0.9 0.1 0 0.9 0.1 0 0.2 0.8 0 0.2 0.8 0 0.2 0.8 0 0.5 0.5 0 0.5 0.5 0 0.5 0.5 0 0.3333333333333333 0.3333333333333333 0.3333333333333333 0.3333333333333333 0.3333333333333333 0.3333333333333333 0.3333333333333333 0.3333333333333333 0.3333333333333333 0.3333333333333333 0.3333333333333333 0.3333333333333333 0.3333333333333333 0.3333333333333333 0.3333333333333333 0.3333333333333333 0.3333333333333333 0.3333333333333333 0.3333333333333333 0.3333333333333333 0.3333333333333333 0.3333333333333333 0.3333333333333333 0.3333333333333333 0.3333333333333333 0.3333333333333333 0.3333333333333333</probabilities>
		</cpt>
		<cpt id="Temperature_15">
			<state id="Temp_0_4C" />
			<state id="Temp_5_9C" />
			<state id="Temp_10_14C" />
			<state id="Temp_15_19C" />
			<state id="Temp_20_24C" />
			<state id="Temp_25_29" />
			<parents>Events</parents>
			<probabilities>0.03228679853771686 0.2256065115213135 0.4522157186493883 0.1293477332722197 0.1293477332722197 0.03119550474714194 0 0.1111022220444409 0.3333366667333347 0.1111122222444449 0.2222244444888898 0.2222244444888898 0 0 0 1 0 0 0.1666666666666667 0.1666666666666667 0.1666666666666667 0.1666666666666667 0.1666666666666667 0.1666666666666667 0 1 0 0 0 0 0 1 0 0 0 0 0.01312625250501002 0.07905811623246492 0.2234468937875751 0.4218436873747494 0.157314629258517 0.1052104208416835</probabilities>
		</cpt>
		<cpt id="Delay_15">
			<state id="Normal" />
			<state id="Low_Delay" />
			<state id="High_Delay" />
			<parents>Temperature_15 Delay_14</parents>
			<probabilities>0.9 0.1 0 0.9 0.1 0 0.9 0.1 0 0.2 0.8 0 0.2 0.8 0 0.2 0.8 0 0.5 0.5 0 0.5 0.5 0 0.5 0.5 0 0.3333333333333333 0.3333333333333333 0.3333333333333333 0.3333333333333333 0.3333333333333333 0.3333333333333333 0.3333333333333333 0.3333333333333333 0.3333333333333333 0.3333333333333333 0.3333333333333333 0.3333333333333333 0.3333333333333333 0.3333333333333333 0.3333333333333333 0.3333333333333333 0.3333333333333333 0.3333333333333333 0.3333333333333333 0.3333333333333333 0.3333333333333333 0.3333333333333333 0.3333333333333333 0.3333333333333333 0.3333333333333333 0.3333333333333333 0.3333333333333333</probabilities>
		</cpt>
		<cpt id="Temperature_16">
			<state id="Temp_0_4C" />
			<state id="Temp_5_9C" />
			<state id="Temp_10_14C" />
			<state id="Temp_15_19C" />
			<state id="Temp_20_24C" />
			<state id="Temp_25_29" />
			<parents>Events</parents>
			<probabilities>0.03228679853771686 0.2256065115213135 0.4522157186493883 0.1293477332722197 0.1293477332722197 0.03119550474714194 0 0.1111022220444409 0.3333366667333347 0.1111122222444449 0.2222244444888898 0.2222244444888898 0 0 0 1 0 0 0.1666666666666667 0.1666666666666667 0.1666666666666667 0.1666666666666667 0.1666666666666667 0.1666666666666667 0 1 0 0 0 0 0 1 0 0 0 0 0.01312625250501002 0.07905811623246492 0.2234468937875751 0.4218436873747494 0.157314629258517 0.1052104208416835</probabilities>
		</cpt>
		<cpt id="Delay_16">
			<state id="Normal" />
			<state id="Low_Delay" />
			<state id="High_Delay" />
			<parents>Temperature_16 Delay_15</parents>
			<probabilities>0.9 0.1 0 0.9 0.1 0 0.9 0.1 0 0.2 0.8 0 0.2 0.8 0 0.2 0.8 0 0.5 0.5 0 0.5 0.5 0 0.5 0.5 0 0.3333333333333333 0.3333333333333333 0.3333333333333333 0.3333333333333333 0.3333333333333333 0.3333333333333333 0.3333333333333333 0.3333333333333333 0.3333333333333333 0.3333333333333333 0.3333333333333333 0.3333333333333333 0.3333333333333333 0.3333333333333333 0.3333333333333333 0.3333333333333333 0.3333333333333333 0.3333333333333333 0.3333333333333333 0.3333333333333333 0.3333333333333333 0.3333333333333333 0.3333333333333333 0.3333333333333333 0.3333333333333333 0.3333333333333333 0.3333333333333333</probabilities>
		</cpt>
		<cpt id="Temperature_17">
			<state id="Temp_0_4C" />
			<state id="Temp_5_9C" />
			<state id="Temp_10_14C" />
			<state id="Temp_15_19C" />
			<state id="Temp_20_24C" />
			<state id="Temp_25_29" />
			<parents>Events</parents>
			<probabilities>0.03228679853771686 0.2256065115213135 0.4522157186493883 0.1293477332722197 0.1293477332722197 0.03119550474714194 0 0.1111022220444409 0.3333366667333347 0.1111122222444449 0.2222244444888898 0.2222244444888898 0 0 0 1 0 0 0.1666666666666667 0.1666666666666667 0.1666666666666667 0.1666666666666667 0.1666666666666667 0.1666666666666667 0 1 0 0 0 0 0 1 0 0 0 0 0.01312625250501002 0.07905811623246492 0.2234468937875751 0.4218436873747494 0.157314629258517 0.1052104208416835</probabilities>
		</cpt>
		<cpt id="Delay_17">
			<state id="Normal" />
			<state id="Low_Delay" />
			<state id="High_Delay" />
			<parents>Temperature_17 Delay_16</parents>
			<probabilities>0.9 0.1 0 0.9 0.1 0 0.9 0.1 0 0.2 0.8 0 0.2 0.8 0 0.2 0.8 0 0.5 0.5 0 0.5 0.5 0 0.5 0.5 0 0.3333333333333333 0.3333333333333333 0.3333333333333333 0.3333333333333333 0.3333333333333333 0.3333333333333333 0.3333333333333333 0.3333333333333333 0.3333333333333333 0.3333333333333333 0.3333333333333333 0.3333333333333333 0.3333333333333333 0.3333333333333333 0.3333333333333333 0.3333333333333333 0.3333333333333333 0.3333333333333333 0.3333333333333333 0.3333333333333333 0.3333333333333333 0.3333333333333333 0.3333333333333333 0.3333333333333333 0.3333333333333333 0.3333333333333333 0.3333333333333333</probabilities>
		</cpt>
		<cpt id="Temperature_18">
			<state id="Temp_0_4C" />
			<state id="Temp_5_9C" />
			<state id="Temp_10_14C" />
			<state id="Temp_15_19C" />
			<state id="Temp_20_24C" />
			<state id="Temp_25_29" />
			<parents>Events</parents>
			<probabilities>0.03228679853771686 0.2256065115213135 0.4522157186493883 0.1293477332722197 0.1293477332722197 0.03119550474714194 0 0.1111022220444409 0.3333366667333347 0.1111122222444449 0.2222244444888898 0.2222244444888898 0 0 0 1 0 0 0.1666666666666667 0.1666666666666667 0.1666666666666667 0.1666666666666667 0.1666666666666667 0.1666666666666667 0 1 0 0 0 0 0 1 0 0 0 0 0.01312625250501002 0.07905811623246492 0.2234468937875751 0.4218436873747494 0.157314629258517 0.1052104208416835</probabilities>
		</cpt>
		<cpt id="Delay_18">
			<state id="Normal" />
			<state id="Low_Delay" />
			<state id="High_Delay" />
			<parents>Temperature_18 Delay_17</parents>
			<probabilities>0.9 0.1 0 0.9 0.1 0 0.9 0.1 0 0.2 0.8 0 0.2 0.8 0 0.2 0.8 0 0.5 0.5 0 0.5 0.5 0 0.5 0.5 0 0.3333333333333333 0.3333333333333333 0.3333333333333333 0.3333333333333333 0.3333333333333333 0.3333333333333333 0.3333333333333333 0.3333333333333333 0.3333333333333333 0.3333333333333333 0.3333333333333333 0.3333333333333333 0.3333333333333333 0.3333333333333333 0.3333333333333333 0.3333333333333333 0.3333333333333333 0.3333333333333333 0.3333333333333333 0.3333333333333333 0.3333333333333333 0.3333333333333333 0.3333333333333333 0.3333333333333333 0.3333333333333333 0.3333333333333333 0.3333333333333333</probabilities>
		</cpt>
		<cpt id="Temperature_19">
			<state id="Temp_0_4C" />
			<state id="Temp_5_9C" />
			<state id="Temp_10_14C" />
			<state id="Temp_15_19C" />
			<state id="Temp_20_24C" />
			<state id="Temp_25_29" />
			<parents>Events</parents>
			<probabilities>0.03228679853771686 0.2256065115213135 0.4522157186493883 0.1293477332722197 0.1293477332722197 0.03119550474714194 0 0.1111022220444409 0.3333366667333347 0.1111122222444449 0.2222244444888898 0.2222244444888898 0 0 0 1 0 0 0.1666666666666667 0.1666666666666667 0.1666666666666667 0.1666666666666667 0.1666666666666667 0.1666666666666667 0 1 0 0 0 0 0 1 0 0 0 0 0.01312625250501002 0.07905811623246492 0.2234468937875751 0.4218436873747494 0.157314629258517 0.1052104208416835</probabilities>
		</cpt>
		<cpt id="Delay_19">
			<state id="Normal" />
			<state id="Low_Delay" />
			<state id="High_Delay" />
			<parents>Temperature_19 Delay_18</parents>
			<probabilities>0.9 0.1 0 0.9 0.1 0 0.9 0.1 0 0.2 0.8 0 0.2 0.8 0 0.2 0.8 0 0.5 0.5 0 0.5 0.5 0 0.5 0.5 0 0.3333333333333333 0.3333333333333333 0.3333333333333333 0.3333333333333333 0.3333333333333333 0.3333333333333333 0.3333333333333333 0.3333333333333333 0.3333333333333333 0.3333333333333333 0.3333333333333333 0.3333333333333333 0.3333333333333333 0.3333333333333333 0.3333333333333333 0.3333333333333333 0.3333333333333333 0.3333333333333333 0.3333333333333333 0.3333333333333333 0.3333333333333333 0.3333333333333333 0.3333333333333333 0.3333333333333333 0.3333333333333333 0.3333333333333333 0.3333333333333333</probabilities>
		</cpt>
		<cpt id="Temperature_20">
			<state id="Temp_0_4C" />
			<state id="Temp_5_9C" />
			<state id="Temp_10_14C" />
			<state id="Temp_15_19C" />
			<state id="Temp_20_24C" />
			<state id="Temp_25_29" />
			<parents>Events</parents>
			<probabilities>0.03228679853771686 0.2256065115213135 0.4522157186493883 0.1293477332722197 0.1293477332722197 0.03119550474714194 0 0.1111022220444409 0.3333366667333347 0.1111122222444449 0.2222244444888898 0.2222244444888898 0 0 0 1 0 0 0.1666666666666667 0.1666666666666667 0.1666666666666667 0.1666666666666667 0.1666666666666667 0.1666666666666667 0 1 0 0 0 0 0 1 0 0 0 0 0.01312625250501002 0.07905811623246492 0.2234468937875751 0.4218436873747494 0.157314629258517 0.1052104208416835</probabilities>
		</cpt>
		<cpt id="Delay_20">
			<state id="Normal" />
			<state id="Low_Delay" />
			<state id="High_Delay" />
			<parents>Temperature_20 Delay_19</parents>
			<probabilities>0.9 0.1 0 0.9 0.1 0 0.9 0.1 0 0.2 0.8 0 0.2 0.8 0 0.2 0.8 0 0.5 0.5 0 0.5 0.5 0 0.5 0.5 0 0.3333333333333333 0.3333333333333333 0.3333333333333333 0.3333333333333333 0.3333333333333333 0.3333333333333333 0.3333333333333333 0.3333333333333333 0.3333333333333333 0.3333333333333333 0.3333333333333333 0.3333333333333333 0.3333333333333333 0.3333333333333333 0.3333333333333333 0.3333333333333333 0.3333333333333333 0.3333333333333333 0.3333333333333333 0.3333333333333333 0.3333333333333333 0.3333333333333333 0.3333333333333333 0.3333333333333333 0.3333333333333333 0.3333333333333333 0.3333333333333333</probabilities>
		</cpt>
		<cpt id="Temperature_21">
			<state id="Temp_0_4C" />
			<state id="Temp_5_9C" />
			<state id="Temp_10_14C" />
			<state id="Temp_15_19C" />
			<state id="Temp_20_24C" />
			<state id="Temp_25_29" />
			<parents>Events</parents>
			<probabilities>0.03228679853771686 0.2256065115213135 0.4522157186493883 0.1293477332722197 0.1293477332722197 0.03119550474714194 0 0.1111022220444409 0.3333366667333347 0.1111122222444449 0.2222244444888898 0.2222244444888898 0 0 0 1 0 0 0.1666666666666667 0.1666666666666667 0.1666666666666667 0.1666666666666667 0.1666666666666667 0.1666666666666667 0 1 0 0 0 0 0 1 0 0 0 0 0.01312625250501002 0.07905811623246492 0.2234468937875751 0.4218436873747494 0.157314629258517 0.1052104208416835</probabilities>
		</cpt>
		<cpt id="Delay_21">
			<state id="Normal" />
			<state id="Low_Delay" />
			<state id="High_Delay" />
			<parents>Temperature_21 Delay_20</parents>
			<probabilities>0.9 0.1 0 0.9 0.1 0 0.9 0.1 0 0.2 0.8 0 0.2 0.8 0 0.2 0.8 0 0.5 0.5 0 0.5 0.5 0 0.5 0.5 0 0.3333333333333333 0.3333333333333333 0.3333333333333333 0.3333333333333333 0.3333333333333333 0.3333333333333333 0.3333333333333333 0.3333333333333333 0.3333333333333333 0.3333333333333333 0.3333333333333333 0.3333333333333333 0.3333333333333333 0.3333333333333333 0.3333333333333333 0.3333333333333333 0.3333333333333333 0.3333333333333333 0.3333333333333333 0.3333333333333333 0.3333333333333333 0.3333333333333333 0.3333333333333333 0.3333333333333333 0.3333333333333333 0.3333333333333333 0.3333333333333333</probabilities>
		</cpt>
		<cpt id="Temperature_22">
			<state id="Temp_0_4C" />
			<state id="Temp_5_9C" />
			<state id="Temp_10_14C" />
			<state id="Temp_15_19C" />
			<state id="Temp_20_24C" />
			<state id="Temp_25_29" />
			<parents>Events</parents>
			<probabilities>0.03228679853771686 0.2256065115213135 0.4522157186493883 0.1293477332722197 0.1293477332722197 0.03119550474714194 0 0.1111022220444409 0.3333366667333347 0.1111122222444449 0.2222244444888898 0.2222244444888898 0 0 0 1 0 0 0.1666666666666667 0.1666666666666667 0.1666666666666667 0.1666666666666667 0.1666666666666667 0.1666666666666667 0 1 0 0 0 0 0 1 0 0 0 0 0.01312625250501002 0.07905811623246492 0.2234468937875751 0.4218436873747494 0.157314629258517 0.1052104208416835</probabilities>
		</cpt>
		<cpt id="Delay_22">
			<state id="Normal" />
			<state id="Low_Delay" />
			<state id="High_Delay" />
			<parents>Temperature_22 Delay_21</parents>
			<probabilities>0.9 0.1 0 0.9 0.1 0 0.9 0.1 0 0.2 0.8 0 0.2 0.8 0 0.2 0.8 0 0.5 0.5 0 0.5 0.5 0 0.5 0.5 0 0.3333333333333333 0.3333333333333333 0.3333333333333333 0.3333333333333333 0.3333333333333333 0.3333333333333333 0.3333333333333333 0.3333333333333333 0.3333333333333333 0.3333333333333333 0.3333333333333333 0.3333333333333333 0.3333333333333333 0.3333333333333333 0.3333333333333333 0.3333333333333333 0.3333333333333333 0.3333333333333333 0.3333333333333333 0.3333333333333333 0.3333333333333333 0.3333333333333333 0.3333333333333333 0.3333333333333333 0.3333333333333333 0.3333333333333333 0.3333333333333333</probabilities>
		</cpt>
		<cpt id="Temperature_23">
			<state id="Temp_0_4C" />
			<state id="Temp_5_9C" />
			<state id="Temp_10_14C" />
			<state id="Temp_15_19C" />
			<state id="Temp_20_24C" />
			<state id="Temp_25_29" />
			<parents>Events</parents>
			<probabilities>0.03228679853771686 0.2256065115213135 0.4522157186493883 0.1293477332722197 0.1293477332722197 0.03119550474714194 0 0.1111022220444409 0.3333366667333347 0.1111122222444449 0.2222244444888898 0.2222244444888898 0 0 0 1 0 0 0.1666666666666667 0.1666666666666667 0.1666666666666667 0.1666666666666667 0.1666666666666667 0.1666666666666667 0 1 0 0 0 0 0 1 0 0 0 0 0.01312625250501002 0.07905811623246492 0.2234468937875751 0.4218436873747494 0.157314629258517 0.1052104208416835</probabilities>
		</cpt>
		<cpt id="Delay_23">
			<state id="Normal" />
			<state id="Low_Delay" />
			<state id="High_Delay" />
			<parents>Temperature_23 Delay_22</parents>
			<probabilities>0.9 0.1 0 0.9 0.1 0 0.9 0.1 0 0.2 0.8 0 0.2 0.8 0 0.2 0.8 0 0.5 0.5 0 0.5 0.5 0 0.5 0.5 0 0.3333333333333333 0.3333333333333333 0.3333333333333333 0.3333333333333333 0.3333333333333333 0.3333333333333333 0.3333333333333333 0.3333333333333333 0.3333333333333333 0.3333333333333333 0.3333333333333333 0.3333333333333333 0.3333333333333333 0.3333333333333333 0.3333333333333333 0.3333333333333333 0.3333333333333333 0.3333333333333333 0.3333333333333333 0.3333333333333333 0.3333333333333333 0.3333333333333333 0.3333333333333333 0.3333333333333333 0.3333333333333333 0.3333333333333333 0.3333333333333333</probabilities>
		</cpt>
		<cpt id="Temperature_24">
			<state id="Temp_0_4C" />
			<state id="Temp_5_9C" />
			<state id="Temp_10_14C" />
			<state id="Temp_15_19C" />
			<state id="Temp_20_24C" />
			<state id="Temp_25_29" />
			<parents>Events</parents>
			<probabilities>0.03228679853771686 0.2256065115213135 0.4522157186493883 0.1293477332722197 0.1293477332722197 0.03119550474714194 0 0.1111022220444409 0.3333366667333347 0.1111122222444449 0.2222244444888898 0.2222244444888898 0 0 0 1 0 0 0.1666666666666667 0.1666666666666667 0.1666666666666667 0.1666666666666667 0.1666666666666667 0.1666666666666667 0 1 0 0 0 0 0 1 0 0 0 0 0.01312625250501002 0.07905811623246492 0.2234468937875751 0.4218436873747494 0.157314629258517 0.1052104208416835</probabilities>
		</cpt>
		<cpt id="Delay_24">
			<state id="Normal" />
			<state id="Low_Delay" />
			<state id="High_Delay" />
			<parents>Temperature_24 Delay_23</parents>
			<probabilities>0.9 0.1 0 0.9 0.1 0 0.9 0.1 0 0.2 0.8 0 0.2 0.8 0 0.2 0.8 0 0.5 0.5 0 0.5 0.5 0 0.5 0.5 0 0.3333333333333333 0.3333333333333333 0.3333333333333333 0.3333333333333333 0.3333333333333333 0.3333333333333333 0.3333333333333333 0.3333333333333333 0.3333333333333333 0.3333333333333333 0.3333333333333333 0.3333333333333333 0.3333333333333333 0.3333333333333333 0.3333333333333333 0.3333333333333333 0.3333333333333333 0.3333333333333333 0.3333333333333333 0.3333333333333333 0.3333333333333333 0.3333333333333333 0.3333333333333333 0.3333333333333333 0.3333333333333333 0.3333333333333333 0.3333333333333333</probabilities>
		</cpt>
		<cpt id="Temperature_25">
			<state id="Temp_0_4C" />
			<state id="Temp_5_9C" />
			<state id="Temp_10_14C" />
			<state id="Temp_15_19C" />
			<state id="Temp_20_24C" />
			<state id="Temp_25_29" />
			<parents>Events</parents>
			<probabilities>0.03228679853771686 0.2256065115213135 0.4522157186493883 0.1293477332722197 0.1293477332722197 0.03119550474714194 0 0.1111022220444409 0.3333366667333347 0.1111122222444449 0.2222244444888898 0.2222244444888898 0 0 0 1 0 0 0.1666666666666667 0.1666666666666667 0.1666666666666667 0.1666666666666667 0.1666666666666667 0.1666666666666667 0 1 0 0 0 0 0 1 0 0 0 0 0.01312625250501002 0.07905811623246492 0.2234468937875751 0.4218436873747494 0.157314629258517 0.1052104208416835</probabilities>
		</cpt>
		<cpt id="Delay_25">
			<state id="Normal" />
			<state id="Low_Delay" />
			<state id="High_Delay" />
			<parents>Temperature_25 Delay_24</parents>
			<probabilities>0.9 0.1 0 0.9 0.1 0 0.9 0.1 0 0.2 0.8 0 0.2 0.8 0 0.2 0.8 0 0.5 0.5 0 0.5 0.5 0 0.5 0.5 0 0.3333333333333333 0.3333333333333333 0.3333333333333333 0.3333333333333333 0.3333333333333333 0.3333333333333333 0.3333333333333333 0.3333333333333333 0.3333333333333333 0.3333333333333333 0.3333333333333333 0.3333333333333333 0.3333333333333333 0.3333333333333333 0.3333333333333333 0.3333333333333333 0.3333333333333333 0.3333333333333333 0.3333333333333333 0.3333333333333333 0.3333333333333333 0.3333333333333333 0.3333333333333333 0.3333333333333333 0.3333333333333333 0.3333333333333333 0.3333333333333333</probabilities>
		</cpt>
		<cpt id="Temperature_26">
			<state id="Temp_0_4C" />
			<state id="Temp_5_9C" />
			<state id="Temp_10_14C" />
			<state id="Temp_15_19C" />
			<state id="Temp_20_24C" />
			<state id="Temp_25_29" />
			<parents>Events</parents>
			<probabilities>0.03228679853771686 0.2256065115213135 0.4522157186493883 0.1293477332722197 0.1293477332722197 0.03119550474714194 0 0.1111022220444409 0.3333366667333347 0.1111122222444449 0.2222244444888898 0.2222244444888898 0 0 0 1 0 0 0.1666666666666667 0.1666666666666667 0.1666666666666667 0.1666666666666667 0.1666666666666667 0.1666666666666667 0 1 0 0 0 0 0 1 0 0 0 0 0.01312625250501002 0.07905811623246492 0.2234468937875751 0.4218436873747494 0.157314629258517 0.1052104208416835</probabilities>
		</cpt>
		<cpt id="Delay_26">
			<state id="Normal" />
			<state id="Low_Delay" />
			<state id="High_Delay" />
			<parents>Temperature_26 Delay_25</parents>
			<probabilities>0.9 0.1 0 0.9 0.1 0 0.9 0.1 0 0.2 0.8 0 0.2 0.8 0 0.2 0.8 0 0.5 0.5 0 0.5 0.5 0 0.5 0.5 0 0.3333333333333333 0.3333333333333333 0.3333333333333333 0.3333333333333333 0.3333333333333333 0.3333333333333333 0.3333333333333333 0.3333333333333333 0.3333333333333333 0.3333333333333333 0.3333333333333333 0.3333333333333333 0.3333333333333333 0.3333333333333333 0.3333333333333333 0.3333333333333333 0.3333333333333333 0.3333333333333333 0.3333333333333333 0.3333333333333333 0.3333333333333333 0.3333333333333333 0.3333333333333333 0.3333333333333333 0.3333333333333333 0.3333333333333333 0.3333333333333333</probabilities>
		</cpt>
		<cpt id="Temperature_27">
			<state id="Temp_0_4C" />
			<state id="Temp_5_9C" />
			<state id="Temp_10_14C" />
			<state id="Temp_15_19C" />
			<state id="Temp_20_24C" />
			<state id="Temp_25_29" />
			<parents>Events</parents>
			<probabilities>0.03228679853771686 0.2256065115213135 0.4522157186493883 0.1293477332722197 0.1293477332722197 0.03119550474714194 0 0.1111022220444409 0.3333366667333347 0.1111122222444449 0.2222244444888898 0.2222244444888898 0 0 0 1 0 0 0.1666666666666667 0.1666666666666667 0.1666666666666667 0.1666666666666667 0.1666666666666667 0.1666666666666667 0 1 0 0 0 0 0 1 0 0 0 0 0.01312625250501002 0.07905811623246492 0.2234468937875751 0.4218436873747494 0.157314629258517 0.1052104208416835</probabilities>
		</cpt>
		<cpt id="Delay_27">
			<state id="Normal" />
			<state id="Low_Delay" />
			<state id="High_Delay" />
			<parents>Temperature_27 Delay_26</parents>
			<probabilities>0.9 0.1 0 0.9 0.1 0 0.9 0.1 0 0.2 0.8 0 0.2 0.8 0 0.2 0.8 0 0.5 0.5 0 0.5 0.5 0 0.5 0.5 0 0.3333333333333333 0.3333333333333333 0.3333333333333333 0.3333333333333333 0.3333333333333333 0.3333333333333333 0.3333333333333333 0.3333333333333333 0.3333333333333333 0.3333333333333333 0.3333333333333333 0.3333333333333333 0.3333333333333333 0.3333333333333333 0.3333333333333333 0.3333333333333333 0.3333333333333333 0.3333333333333333 0.3333333333333333 0.3333333333333333 0.3333333333333333 0.3333333333333333 0.3333333333333333 0.3333333333333333 0.3333333333333333 0.3333333333333333 0.3333333333333333</probabilities>
		</cpt>
		<cpt id="Temperature_28">
			<state id="Temp_0_4C" />
			<state id="Temp_5_9C" />
			<state id="Temp_10_14C" />
			<state id="Temp_15_19C" />
			<state id="Temp_20_24C" />
			<state id="Temp_25_29" />
			<parents>Events</parents>
			<probabilities>0.03228679853771686 0.2256065115213135 0.4522157186493883 0.1293477332722197 0.1293477332722197 0.03119550474714194 0 0.1111022220444409 0.3333366667333347 0.1111122222444449 0.2222244444888898 0.2222244444888898 0 0 0 1 0 0 0.1666666666666667 0.1666666666666667 0.1666666666666667 0.1666666666666667 0.1666666666666667 0.1666666666666667 0 1 0 0 0 0 0 1 0 0 0 0 0.01312625250501002 0.07905811623246492 0.2234468937875751 0.4218436873747494 0.157314629258517 0.1052104208416835</probabilities>
		</cpt>
		<cpt id="Delay_28">
			<state id="Normal" />
			<state id="Low_Delay" />
			<state id="High_Delay" />
			<parents>Temperature_28 Delay_27</parents>
			<probabilities>0.9 0.1 0 0.9 0.1 0 0.9 0.1 0 0.2 0.8 0 0.2 0.8 0 0.2 0.8 0 0.5 0.5 0 0.5 0.5 0 0.5 0.5 0 0.3333333333333333 0.3333333333333333 0.3333333333333333 0.3333333333333333 0.3333333333333333 0.3333333333333333 0.3333333333333333 0.3333333333333333 0.3333333333333333 0.3333333333333333 0.3333333333333333 0.3333333333333333 0.3333333333333333 0.3333333333333333 0.3333333333333333 0.3333333333333333 0.3333333333333333 0.3333333333333333 0.3333333333333333 0.3333333333333333 0.3333333333333333 0.3333333333333333 0.3333333333333333 0.3333333333333333 0.3333333333333333 0.3333333333333333 0.3333333333333333</probabilities>
		</cpt>
		<cpt id="Temperature_29">
			<state id="Temp_0_4C" />
			<state id="Temp_5_9C" />
			<state id="Temp_10_14C" />
			<state id="Temp_15_19C" />
			<state id="Temp_20_24C" />
			<state id="Temp_25_29" />
			<parents>Events</parents>
			<probabilities>0.03228679853771686 0.2256065115213135 0.4522157186493883 0.1293477332722197 0.1293477332722197 0.03119550474714194 0 0.1111022220444409 0.3333366667333347 0.1111122222444449 0.2222244444888898 0.2222244444888898 0 0 0 1 0 0 0.1666666666666667 0.1666666666666667 0.1666666666666667 0.1666666666666667 0.1666666666666667 0.1666666666666667 0 1 0 0 0 0 0 1 0 0 0 0 0.01312625250501002 0.07905811623246492 0.2234468937875751 0.4218436873747494 0.157314629258517 0.1052104208416835</probabilities>
		</cpt>
		<cpt id="Delay_29">
			<state id="Normal" />
			<state id="Low_Delay" />
			<state id="High_Delay" />
			<parents>Temperature_29 Delay_28</parents>
			<probabilities>0.9 0.1 0 0.9 0.1 0 0.9 0.1 0 0.2 0.8 0 0.2 0.8 0 0.2 0.8 0 0.5 0.5 0 0.5 0.5 0 0.5 0.5 0 0.3333333333333333 0.3333333333333333 0.3333333333333333 0.3333333333333333 0.3333333333333333 0.3333333333333333 0.3333333333333333 0.3333333333333333 0.3333333333333333 0.3333333333333333 0.3333333333333333 0.3333333333333333 0.3333333333333333 0.3333333333333333 0.3333333333333333 0.3333333333333333 0.3333333333333333 0.3333333333333333 0.3333333333333333 0.3333333333333333 0.3333333333333333 0.3333333333333333 0.3333333333333333 0.3333333333333333 0.3333333333333333 0.3333333333333333 0.3333333333333333</probabilities>
		</cpt>
		<cpt id="Temperature_30">
			<state id="Temp_0_4C" />
			<state id="Temp_5_9C" />
			<state id="Temp_10_14C" />
			<state id="Temp_15_19C" />
			<state id="Temp_20_24C" />
			<state id="Temp_25_29" />
			<parents>Events</parents>
			<probabilities>0.03228679853771686 0.2256065115213135 0.4522157186493883 0.1293477332722197 0.1293477332722197 0.03119550474714194 0 0.1111022220444409 0.3333366667333347 0.1111122222444449 0.2222244444888898 0.2222244444888898 0 0 0 1 0 0 0.1666666666666667 0.1666666666666667 0.1666666666666667 0.1666666666666667 0.1666666666666667 0.1666666666666667 0 1 0 0 0 0 0 1 0 0 0 0 0.01312625250501002 0.07905811623246492 0.2234468937875751 0.4218436873747494 0.157314629258517 0.1052104208416835</probabilities>
		</cpt>
		<cpt id="Delay_30">
			<state id="Normal" />
			<state id="Low_Delay" />
			<state id="High_Delay" />
			<parents>Temperature_30 Delay_29</parents>
			<probabilities>0.9 0.1 0 0.9 0.1 0 0.9 0.1 0 0.2 0.8 0 0.2 0.8 0 0.2 0.8 0 0.5 0.5 0 0.5 0.5 0 0.5 0.5 0 0.3333333333333333 0.3333333333333333 0.3333333333333333 0.3333333333333333 0.3333333333333333 0.3333333333333333 0.3333333333333333 0.3333333333333333 0.3333333333333333 0.3333333333333333 0.3333333333333333 0.3333333333333333 0.3333333333333333 0.3333333333333333 0.3333333333333333 0.3333333333333333 0.3333333333333333 0.3333333333333333 0.3333333333333333 0.3333333333333333 0.3333333333333333 0.3333333333333333 0.3333333333333333 0.3333333333333333 0.3333333333333333 0.3333333333333333 0.3333333333333333</probabilities>
		</cpt>
		<cpt id="Temperature_31">
			<state id="Temp_0_4C" />
			<state id="Temp_5_9C" />
			<state id="Temp_10_14C" />
			<state id="Temp_15_19C" />
			<state id="Temp_20_24C" />
			<state id="Temp_25_29" />
			<parents>Events</parents>
			<probabilities>0.03228679853771686 0.2256065115213135 0.4522157186493883 0.1293477332722197 0.1293477332722197 0.03119550474714194 0 0.1111022220444409 0.3333366667333347 0.1111122222444449 0.2222244444888898 0.2222244444888898 0 0 0 1 0 0 0.1666666666666667 0.1666666666666667 0.1666666666666667 0.1666666666666667 0.1666666666666667 0.1666666666666667 0 1 0 0 0 0 0 1 0 0 0 0 0.01312625250501002 0.07905811623246492 0.2234468937875751 0.4218436873747494 0.157314629258517 0.1052104208416835</probabilities>
		</cpt>
		<cpt id="Delay_31">
			<state id="Normal" />
			<state id="Low_Delay" />
			<state id="High_Delay" />
			<parents>Temperature_31 Delay_30</parents>
			<probabilities>0.9 0.1 0 0.9 0.1 0 0.9 0.1 0 0.2 0.8 0 0.2 0.8 0 0.2 0.8 0 0.5 0.5 0 0.5 0.5 0 0.5 0.5 0 0.3333333333333333 0.3333333333333333 0.3333333333333333 0.3333333333333333 0.3333333333333333 0.3333333333333333 0.3333333333333333 0.3333333333333333 0.3333333333333333 0.3333333333333333 0.3333333333333333 0.3333333333333333 0.3333333333333333 0.3333333333333333 0.3333333333333333 0.3333333333333333 0.3333333333333333 0.3333333333333333 0.3333333333333333 0.3333333333333333 0.3333333333333333 0.3333333333333333 0.3333333333333333 0.3333333333333333 0.3333333333333333 0.3333333333333333 0.3333333333333333</probabilities>
		</cpt>
		<cpt id="Temperature_32">
			<state id="Temp_0_4C" />
			<state id="Temp_5_9C" />
			<state id="Temp_10_14C" />
			<state id="Temp_15_19C" />
			<state id="Temp_20_24C" />
			<state id="Temp_25_29" />
			<parents>Events</parents>
			<probabilities>0.03228679853771686 0.2256065115213135 0.4522157186493883 0.1293477332722197 0.1293477332722197 0.03119550474714194 0 0.1111022220444409 0.3333366667333347 0.1111122222444449 0.2222244444888898 0.2222244444888898 0 0 0 1 0 0 0.1666666666666667 0.1666666666666667 0.1666666666666667 0.1666666666666667 0.1666666666666667 0.1666666666666667 0 1 0 0 0 0 0 1 0 0 0 0 0.01312625250501002 0.07905811623246492 0.2234468937875751 0.4218436873747494 0.157314629258517 0.1052104208416835</probabilities>
		</cpt>
		<cpt id="Delay_32">
			<state id="Normal" />
			<state id="Low_Delay" />
			<state id="High_Delay" />
			<parents>Temperature_32 Delay_31</parents>
			<probabilities>0.9 0.1 0 0.9 0.1 0 0.9 0.1 0 0.2 0.8 0 0.2 0.8 0 0.2 0.8 0 0.5 0.5 0 0.5 0.5 0 0.5 0.5 0 0.3333333333333333 0.3333333333333333 0.3333333333333333 0.3333333333333333 0.3333333333333333 0.3333333333333333 0.3333333333333333 0.3333333333333333 0.3333333333333333 0.3333333333333333 0.3333333333333333 0.3333333333333333 0.3333333333333333 0.3333333333333333 0.3333333333333333 0.3333333333333333 0.3333333333333333 0.3333333333333333 0.3333333333333333 0.3333333333333333 0.3333333333333333 0.3333333333333333 0.3333333333333333 0.3333333333333333 0.3333333333333333 0.3333333333333333 0.3333333333333333</probabilities>
		</cpt>
		<cpt id="Temperature_33">
			<state id="Temp_0_4C" />
			<state id="Temp_5_9C" />
			<state id="Temp_10_14C" />
			<state id="Temp_15_19C" />
			<state id="Temp_20_24C" />
			<state id="Temp_25_29" />
			<parents>Events</parents>
			<probabilities>0.03228679853771686 0.2256065115213135 0.4522157186493883 0.1293477332722197 0.1293477332722197 0.03119550474714194 0 0.1111022220444409 0.3333366667333347 0.1111122222444449 0.2222244444888898 0.2222244444888898 0 0 0 1 0 0 0.1666666666666667 0.1666666666666667 0.1666666666666667 0.1666666666666667 0.1666666666666667 0.1666666666666667 0 1 0 0 0 0 0 1 0 0 0 0 0.01312625250501002 0.07905811623246492 0.2234468937875751 0.4218436873747494 0.157314629258517 0.1052104208416835</probabilities>
		</cpt>
		<cpt id="Delay_33">
			<state id="Normal" />
			<state id="Low_Delay" />
			<state id="High_Delay" />
			<parents>Temperature_33 Delay_32</parents>
			<probabilities>0.9 0.1 0 0.9 0.1 0 0.9 0.1 0 0.2 0.8 0 0.2 0.8 0 0.2 0.8 0 0.5 0.5 0 0.5 0.5 0 0.5 0.5 0 0.3333333333333333 0.3333333333333333 0.3333333333333333 0.3333333333333333 0.3333333333333333 0.3333333333333333 0.3333333333333333 0.3333333333333333 0.3333333333333333 0.3333333333333333 0.3333333333333333 0.3333333333333333 0.3333333333333333 0.3333333333333333 0.3333333333333333 0.3333333333333333 0.3333333333333333 0.3333333333333333 0.3333333333333333 0.3333333333333333 0.3333333333333333 0.3333333333333333 0.3333333333333333 0.3333333333333333 0.3333333333333333 0.3333333333333333 0.3333333333333333</probabilities>
		</cpt>
		<cpt id="Temperature_34">
			<state id="Temp_0_4C" />
			<state id="Temp_5_9C" />
			<state id="Temp_10_14C" />
			<state id="Temp_15_19C" />
			<state id="Temp_20_24C" />
			<state id="Temp_25_29" />
			<parents>Events</parents>
			<probabilities>0.03228679853771686 0.2256065115213135 0.4522157186493883 0.1293477332722197 0.1293477332722197 0.03119550474714194 0 0.1111022220444409 0.3333366667333347 0.1111122222444449 0.2222244444888898 0.2222244444888898 0 0 0 1 0 0 0.1666666666666667 0.1666666666666667 0.1666666666666667 0.1666666666666667 0.1666666666666667 0.1666666666666667 0 1 0 0 0 0 0 1 0 0 0 0 0.01312625250501002 0.07905811623246492 0.2234468937875751 0.4218436873747494 0.157314629258517 0.1052104208416835</probabilities>
		</cpt>
		<cpt id="Delay_34">
			<state id="Normal" />
			<state id="Low_Delay" />
			<state id="High_Delay" />
			<parents>Temperature_34 Delay_33</parents>
			<probabilities>0.9 0.1 0 0.9 0.1 0 0.9 0.1 0 0.2 0.8 0 0.2 0.8 0 0.2 0.8 0 0.5 0.5 0 0.5 0.5 0 0.5 0.5 0 0.3333333333333333 0.3333333333333333 0.3333333333333333 0.3333333333333333 0.3333333333333333 0.3333333333333333 0.3333333333333333 0.3333333333333333 0.3333333333333333 0.3333333333333333 0.3333333333333333 0.3333333333333333 0.3333333333333333 0.3333333333333333 0.3333333333333333 0.3333333333333333 0.3333333333333333 0.3333333333333333 0.3333333333333333 0.3333333333333333 0.3333333333333333 0.3333333333333333 0.3333333333333333 0.3333333333333333 0.3333333333333333 0.3333333333333333 0.3333333333333333</probabilities>
		</cpt>
		<cpt id="Temperature_35">
			<state id="Temp_0_4C" />
			<state id="Temp_5_9C" />
			<state id="Temp_10_14C" />
			<state id="Temp_15_19C" />
			<state id="Temp_20_24C" />
			<state id="Temp_25_29" />
			<parents>Events</parents>
			<probabilities>0.03228679853771686 0.2256065115213135 0.4522157186493883 0.1293477332722197 0.1293477332722197 0.03119550474714194 0 0.1111022220444409 0.3333366667333347 0.1111122222444449 0.2222244444888898 0.2222244444888898 0 0 0 1 0 0 0.1666666666666667 0.1666666666666667 0.1666666666666667 0.1666666666666667 0.1666666666666667 0.1666666666666667 0 1 0 0 0 0 0 1 0 0 0 0 0.01312625250501002 0.07905811623246492 0.2234468937875751 0.4218436873747494 0.157314629258517 0.1052104208416835</probabilities>
		</cpt>
		<cpt id="Delay_35">
			<state id="Normal" />
			<state id="Low_Delay" />
			<state id="High_Delay" />
			<parents>Temperature_35 Delay_34</parents>
			<probabilities>0.9 0.1 0 0.9 0.1 0 0.9 0.1 0 0.2 0.8 0 0.2 0.8 0 0.2 0.8 0 0.5 0.5 0 0.5 0.5 0 0.5 0.5 0 0.3333333333333333 0.3333333333333333 0.3333333333333333 0.3333333333333333 0.3333333333333333 0.3333333333333333 0.3333333333333333 0.3333333333333333 0.3333333333333333 0.3333333333333333 0.3333333333333333 0.3333333333333333 0.3333333333333333 0.3333333333333333 0.3333333333333333 0.3333333333333333 0.3333333333333333 0.3333333333333333 0.3333333333333333 0.3333333333333333 0.3333333333333333 0.3333333333333333 0.3333333333333333 0.3333333333333333 0.3333333333333333 0.3333333333333333 0.3333333333333333</probabilities>
		</cpt>
		<cpt id="Temperature_36">
			<state id="Temp_0_4C" />
			<state id="Temp_5_9C" />
			<state id="Temp_10_14C" />
			<state id="Temp_15_19C" />
			<state id="Temp_20_24C" />
			<state id="Temp_25_29" />
			<parents>Events</parents>
			<probabilities>0.03228679853771686 0.2256065115213135 0.4522157186493883 0.1293477332722197 0.1293477332722197 0.03119550474714194 0 0.1111022220444409 0.3333366667333347 0.1111122222444449 0.2222244444888898 0.2222244444888898 0 0 0 1 0 0 0.1666666666666667 0.1666666666666667 0.1666666666666667 0.1666666666666667 0.1666666666666667 0.1666666666666667 0 1 0 0 0 0 0 1 0 0 0 0 0.01312625250501002 0.07905811623246492 0.2234468937875751 0.4218436873747494 0.157314629258517 0.1052104208416835</probabilities>
		</cpt>
		<cpt id="Delay_36">
			<state id="Normal" />
			<state id="Low_Delay" />
			<state id="High_Delay" />
			<parents>Temperature_36 Delay_35</parents>
			<probabilities>0.9 0.1 0 0.9 0.1 0 0.9 0.1 0 0.2 0.8 0 0.2 0.8 0 0.2 0.8 0 0.5 0.5 0 0.5 0.5 0 0.5 0.5 0 0.3333333333333333 0.3333333333333333 0.3333333333333333 0.3333333333333333 0.3333333333333333 0.3333333333333333 0.3333333333333333 0.3333333333333333 0.3333333333333333 0.3333333333333333 0.3333333333333333 0.3333333333333333 0.3333333333333333 0.3333333333333333 0.3333333333333333 0.3333333333333333 0.3333333333333333 0.3333333333333333 0.3333333333333333 0.3333333333333333 0.3333333333333333 0.3333333333333333 0.3333333333333333 0.3333333333333333 0.3333333333333333 0.3333333333333333 0.3333333333333333</probabilities>
		</cpt>
		<cpt id="Temperature_37">
			<state id="Temp_0_4C" />
			<state id="Temp_5_9C" />
			<state id="Temp_10_14C" />
			<state id="Temp_15_19C" />
			<state id="Temp_20_24C" />
			<state id="Temp_25_29" />
			<parents>Events</parents>
			<probabilities>0.03228679853771686 0.2256065115213135 0.4522157186493883 0.1293477332722197 0.1293477332722197 0.03119550474714194 0 0.1111022220444409 0.3333366667333347 0.1111122222444449 0.2222244444888898 0.2222244444888898 0 0 0 1 0 0 0.1666666666666667 0.1666666666666667 0.1666666666666667 0.1666666666666667 0.1666666666666667 0.1666666666666667 0 1 0 0 0 0 0 1 0 0 0 0 0.01312625250501002 0.07905811623246492 0.2234468937875751 0.4218436873747494 0.157314629258517 0.1052104208416835</probabilities>
		</cpt>
		<cpt id="Delay_37">
			<state id="Normal" />
			<state id="Low_Delay" />
			<state id="High_Delay" />
			<parents>Temperature_37 Delay_36</parents>
			<probabilities>0.9 0.1 0 0.9 0.1 0 0.9 0.1 0 0.2 0.8 0 0.2 0.8 0 0.2 0.8 0 0.5 0.5 0 0.5 0.5 0 0.5 0.5 0 0.3333333333333333 0.3333333333333333 0.3333333333333333 0.3333333333333333 0.3333333333333333 0.3333333333333333 0.3333333333333333 0.3333333333333333 0.3333333333333333 0.3333333333333333 0.3333333333333333 0.3333333333333333 0.3333333333333333 0.3333333333333333 0.3333333333333333 0.3333333333333333 0.3333333333333333 0.3333333333333333 0.3333333333333333 0.3333333333333333 0.3333333333333333 0.3333333333333333 0.3333333333333333 0.3333333333333333 0.3333333333333333 0.3333333333333333 0.3333333333333333</probabilities>
		</cpt>
		<cpt id="Temperature_38">
			<state id="Temp_0_4C" />
			<state id="Temp_5_9C" />
			<state id="Temp_10_14C" />
			<state id="Temp_15_19C" />
			<state id="Temp_20_24C" />
			<state id="Temp_25_29" />
			<parents>Events</parents>
			<probabilities>0.03228679853771686 0.2256065115213135 0.4522157186493883 0.1293477332722197 0.1293477332722197 0.03119550474714194 0 0.1111022220444409 0.3333366667333347 0.1111122222444449 0.2222244444888898 0.2222244444888898 0 0 0 1 0 0 0.1666666666666667 0.1666666666666667 0.1666666666666667 0.1666666666666667 0.1666666666666667 0.1666666666666667 0 1 0 0 0 0 0 1 0 0 0 0 0.01312625250501002 0.07905811623246492 0.2234468937875751 0.4218436873747494 0.157314629258517 0.1052104208416835</probabilities>
		</cpt>
		<cpt id="Delay_38">
			<state id="Normal" />
			<state id="Low_Delay" />
			<state id="High_Delay" />
			<parents>Temperature_38 Delay_37</parents>
			<probabilities>0.9 0.1 0 0.9 0.1 0 0.9 0.1 0 0.2 0.8 0 0.2 0.8 0 0.2 0.8 0 0.5 0.5 0 0.5 0.5 0 0.5 0.5 0 0.3333333333333333 0.3333333333333333 0.3333333333333333 0.3333333333333333 0.3333333333333333 0.3333333333333333 0.3333333333333333 0.3333333333333333 0.3333333333333333 0.3333333333333333 0.3333333333333333 0.3333333333333333 0.3333333333333333 0.3333333333333333 0.3333333333333333 0.3333333333333333 0.3333333333333333 0.3333333333333333 0.3333333333333333 0.3333333333333333 0.3333333333333333 0.3333333333333333 0.3333333333333333 0.3333333333333333 0.3333333333333333 0.3333333333333333 0.3333333333333333</probabilities>
		</cpt>
		<cpt id="Temperature_39">
			<state id="Temp_0_4C" />
			<state id="Temp_5_9C" />
			<state id="Temp_10_14C" />
			<state id="Temp_15_19C" />
			<state id="Temp_20_24C" />
			<state id="Temp_25_29" />
			<parents>Events</parents>
			<probabilities>0.03228679853771686 0.2256065115213135 0.4522157186493883 0.1293477332722197 0.1293477332722197 0.03119550474714194 0 0.1111022220444409 0.3333366667333347 0.1111122222444449 0.2222244444888898 0.2222244444888898 0 0 0 1 0 0 0.1666666666666667 0.1666666666666667 0.1666666666666667 0.1666666666666667 0.1666666666666667 0.1666666666666667 0 1 0 0 0 0 0 1 0 0 0 0 0.01312625250501002 0.07905811623246492 0.2234468937875751 0.4218436873747494 0.157314629258517 0.1052104208416835</probabilities>
		</cpt>
		<cpt id="Delay_39">
			<state id="Normal" />
			<state id="Low_Delay" />
			<state id="High_Delay" />
			<parents>Temperature_39 Delay_38</parents>
			<probabilities>0.9 0.1 0 0.9 0.1 0 0.9 0.1 0 0.2 0.8 0 0.2 0.8 0 0.2 0.8 0 0.5 0.5 0 0.5 0.5 0 0.5 0.5 0 0.3333333333333333 0.3333333333333333 0.3333333333333333 0.3333333333333333 0.3333333333333333 0.3333333333333333 0.3333333333333333 0.3333333333333333 0.3333333333333333 0.3333333333333333 0.3333333333333333 0.3333333333333333 0.3333333333333333 0.3333333333333333 0.3333333333333333 0.3333333333333333 0.3333333333333333 0.3333333333333333 0.3333333333333333 0.3333333333333333 0.3333333333333333 0.3333333333333333 0.3333333333333333 0.3333333333333333 0.3333333333333333 0.3333333333333333 0.3333333333333333</probabilities>
		</cpt>
		<cpt id="Temperature_40">
			<state id="Temp_0_4C" />
			<state id="Temp_5_9C" />
			<state id="Temp_10_14C" />
			<state id="Temp_15_19C" />
			<state id="Temp_20_24C" />
			<state id="Temp_25_29" />
			<parents>Events</parents>
			<probabilities>0.03228679853771686 0.2256065115213135 0.4522157186493883 0.1293477332722197 0.1293477332722197 0.03119550474714194 0 0.1111022220444409 0.3333366667333347 0.1111122222444449 0.2222244444888898 0.2222244444888898 0 0 0 1 0 0 0.1666666666666667 0.1666666666666667 0.1666666666666667 0.1666666666666667 0.1666666666666667 0.1666666666666667 0 1 0 0 0 0 0 1 0 0 0 0 0.01312625250501002 0.07905811623246492 0.2234468937875751 0.4218436873747494 0.157314629258517 0.1052104208416835</probabilities>
		</cpt>
		<cpt id="Delay_40">
			<state id="Normal" />
			<state id="Low_Delay" />
			<state id="High_Delay" />
			<parents>Temperature_40 Delay_39</parents>
			<probabilities>0.9 0.1 0 0.9 0.1 0 0.9 0.1 0 0.2 0.8 0 0.2 0.8 0 0.2 0.8 0 0.5 0.5 0 0.5 0.5 0 0.5 0.5 0 0.3333333333333333 0.3333333333333333 0.3333333333333333 0.3333333333333333 0.3333333333333333 0.3333333333333333 0.3333333333333333 0.3333333333333333 0.3333333333333333 0.3333333333333333 0.3333333333333333 0.3333333333333333 0.3333333333333333 0.3333333333333333 0.3333333333333333 0.3333333333333333 0.3333333333333333 0.3333333333333333 0.3333333333333333 0.3333333333333333 0.3333333333333333 0.3333333333333333 0.3333333333333333 0.3333333333333333 0.3333333333333333 0.3333333333333333 0.3333333333333333</probabilities>
		</cpt>
		<cpt id="Temperature_41">
			<state id="Temp_0_4C" />
			<state id="Temp_5_9C" />
			<state id="Temp_10_14C" />
			<state id="Temp_15_19C" />
			<state id="Temp_20_24C" />
			<state id="Temp_25_29" />
			<parents>Events</parents>
			<probabilities>0.03228679853771686 0.2256065115213135 0.4522157186493883 0.1293477332722197 0.1293477332722197 0.03119550474714194 0 0.1111022220444409 0.3333366667333347 0.1111122222444449 0.2222244444888898 0.2222244444888898 0 0 0 1 0 0 0.1666666666666667 0.1666666666666667 0.1666666666666667 0.1666666666666667 0.1666666666666667 0.1666666666666667 0 1 0 0 0 0 0 1 0 0 0 0 0.01312625250501002 0.07905811623246492 0.2234468937875751 0.4218436873747494 0.157314629258517 0.1052104208416835</probabilities>
		</cpt>
		<cpt id="Delay_41">
			<state id="Normal" />
			<state id="Low_Delay" />
			<state id="High_Delay" />
			<parents>Temperature_41 Delay_40</parents>
			<probabilities>0.9 0.1 0 0.9 0.1 0 0.9 0.1 0 0.2 0.8 0 0.2 0.8 0 0.2 0.8 0 0.5 0.5 0 0.5 0.5 0 0.5 0.5 0 0.3333333333333333 0.3333333333333333 0.3333333333333333 0.3333333333333333 0.3333333333333333 0.3333333333333333 0.3333333333333333 0.3333333333333333 0.3333333333333333 0.3333333333333333 0.3333333333333333 0.3333333333333333 0.3333333333333333 0.3333333333333333 0.3333333333333333 0.3333333333333333 0.3333333333333333 0.3333333333333333 0.3333333333333333 0.3333333333333333 0.3333333333333333 0.3333333333333333 0.3333333333333333 0.3333333333333333 0.3333333333333333 0.3333333333333333 0.3333333333333333</probabilities>
		</cpt>
		<cpt id="Temperature_42">
			<state id="Temp_0_4C" />
			<state id="Temp_5_9C" />
			<state id="Temp_10_14C" />
			<state id="Temp_15_19C" />
			<state id="Temp_20_24C" />
			<state id="Temp_25_29" />
			<parents>Events</parents>
			<probabilities>0.03228679853771686 0.2256065115213135 0.4522157186493883 0.1293477332722197 0.1293477332722197 0.03119550474714194 0 0.1111022220444409 0.3333366667333347 0.1111122222444449 0.2222244444888898 0.2222244444888898 0 0 0 1 0 0 0.1666666666666667 0.1666666666666667 0.1666666666666667 0.1666666666666667 0.1666666666666667 0.1666666666666667 0 1 0 0 0 0 0 1 0 0 0 0 0.01312625250501002 0.07905811623246492 0.2234468937875751 0.4218436873747494 0.157314629258517 0.1052104208416835</probabilities>
		</cpt>
		<cpt id="Delay_42">
			<state id="Normal" />
			<state id="Low_Delay" />
			<state id="High_Delay" />
			<parents>Temperature_42 Delay_41</parents>
			<probabilities>0.9 0.1 0 0.9 0.1 0 0.9 0.1 0 0.2 0.8 0 0.2 0.8 0 0.2 0.8 0 0.5 0.5 0 0.5 0.5 0 0.5 0.5 0 0.3333333333333333 0.3333333333333333 0.3333333333333333 0.3333333333333333 0.3333333333333333 0.3333333333333333 0.3333333333333333 0.3333333333333333 0.3333333333333333 0.3333333333333333 0.3333333333333333 0.3333333333333333 0.3333333333333333 0.3333333333333333 0.3333333333333333 0.3333333333333333 0.3333333333333333 0.3333333333333333 0.3333333333333333 0.3333333333333333 0.3333333333333333 0.3333333333333333 0.3333333333333333 0.3333333333333333 0.3333333333333333 0.3333333333333333 0.3333333333333333</probabilities>
		</cpt>
		<cpt id="Temperature_43">
			<state id="Temp_0_4C" />
			<state id="Temp_5_9C" />
			<state id="Temp_10_14C" />
			<state id="Temp_15_19C" />
			<state id="Temp_20_24C" />
			<state id="Temp_25_29" />
			<parents>Events</parents>
			<probabilities>0.03228679853771686 0.2256065115213135 0.4522157186493883 0.1293477332722197 0.1293477332722197 0.03119550474714194 0 0.1111022220444409 0.3333366667333347 0.1111122222444449 0.2222244444888898 0.2222244444888898 0 0 0 1 0 0 0.1666666666666667 0.1666666666666667 0.1666666666666667 0.1666666666666667 0.1666666666666667 0.1666666666666667 0 1 0 0 0 0 0 1 0 0 0 0 0.01312625250501002 0.07905811623246492 0.2234468937875751 0.4218436873747494 0.157314629258517 0.1052104208416835</probabilities>
		</cpt>
		<cpt id="Delay_43">
			<state id="Normal" />
			<state id="Low_Delay" />
			<state id="High_Delay" />
			<parents>Temperature_43 Delay_42</parents>
			<probabilities>0.9 0.1 0 0.9 0.1 0 0.9 0.1 0 0.2 0.8 0 0.2 0.8 0 0.2 0.8 0 0.5 0.5 0 0.5 0.5 0 0.5 0.5 0 0.3333333333333333 0.3333333333333333 0.3333333333333333 0.3333333333333333 0.3333333333333333 0.3333333333333333 0.3333333333333333 0.3333333333333333 0.3333333333333333 0.3333333333333333 0.3333333333333333 0.3333333333333333 0.3333333333333333 0.3333333333333333 0.3333333333333333 0.3333333333333333 0.3333333333333333 0.3333333333333333 0.3333333333333333 0.3333333333333333 0.3333333333333333 0.3333333333333333 0.3333333333333333 0.3333333333333333 0.3333333333333333 0.3333333333333333 0.3333333333333333</probabilities>
		</cpt>
		<cpt id="Temperature_44">
			<state id="Temp_0_4C" />
			<state id="Temp_5_9C" />
			<state id="Temp_10_14C" />
			<state id="Temp_15_19C" />
			<state id="Temp_20_24C" />
			<state id="Temp_25_29" />
			<parents>Events</parents>
			<probabilities>0.03228679853771686 0.2256065115213135 0.4522157186493883 0.1293477332722197 0.1293477332722197 0.03119550474714194 0 0.1111022220444409 0.3333366667333347 0.1111122222444449 0.2222244444888898 0.2222244444888898 0 0 0 1 0 0 0.1666666666666667 0.1666666666666667 0.1666666666666667 0.1666666666666667 0.1666666666666667 0.1666666666666667 0 1 0 0 0 0 0 1 0 0 0 0 0.01312625250501002 0.07905811623246492 0.2234468937875751 0.4218436873747494 0.157314629258517 0.1052104208416835</probabilities>
		</cpt>
		<cpt id="Delay_44">
			<state id="Normal" />
			<state id="Low_Delay" />
			<state id="High_Delay" />
			<parents>Temperature_44 Delay_43</parents>
			<probabilities>0.9 0.1 0 0.9 0.1 0 0.9 0.1 0 0.2 0.8 0 0.2 0.8 0 0.2 0.8 0 0.5 0.5 0 0.5 0.5 0 0.5 0.5 0 0.3333333333333333 0.3333333333333333 0.3333333333333333 0.3333333333333333 0.3333333333333333 0.3333333333333333 0.3333333333333333 0.3333333333333333 0.3333333333333333 0.3333333333333333 0.3333333333333333 0.3333333333333333 0.3333333333333333 0.3333333333333333 0.3333333333333333 0.3333333333333333 0.3333333333333333 0.3333333333333333 0.3333333333333333 0.3333333333333333 0.3333333333333333 0.3333333333333333 0.3333333333333333 0.3333333333333333 0.3333333333333333 0.3333333333333333 0.3333333333333333</probabilities>
		</cpt>
		<cpt id="Temperature_45">
			<state id="Temp_0_4C" />
			<state id="Temp_5_9C" />
			<state id="Temp_10_14C" />
			<state id="Temp_15_19C" />
			<state id="Temp_20_24C" />
			<state id="Temp_25_29" />
			<parents>Events</parents>
			<probabilities>0.03228679853771686 0.2256065115213135 0.4522157186493883 0.1293477332722197 0.1293477332722197 0.03119550474714194 0 0.1111022220444409 0.3333366667333347 0.1111122222444449 0.2222244444888898 0.2222244444888898 0 0 0 1 0 0 0.1666666666666667 0.1666666666666667 0.1666666666666667 0.1666666666666667 0.1666666666666667 0.1666666666666667 0 1 0 0 0 0 0 1 0 0 0 0 0.01312625250501002 0.07905811623246492 0.2234468937875751 0.4218436873747494 0.157314629258517 0.1052104208416835</probabilities>
		</cpt>
		<cpt id="Delay_45">
			<state id="Normal" />
			<state id="Low_Delay" />
			<state id="High_Delay" />
			<parents>Temperature_45 Delay_44</parents>
			<probabilities>0.9 0.1 0 0.9 0.1 0 0.9 0.1 0 0.2 0.8 0 0.2 0.8 0 0.2 0.8 0 0.5 0.5 0 0.5 0.5 0 0.5 0.5 0 0.3333333333333333 0.3333333333333333 0.3333333333333333 0.3333333333333333 0.3333333333333333 0.3333333333333333 0.3333333333333333 0.3333333333333333 0.3333333333333333 0.3333333333333333 0.3333333333333333 0.3333333333333333 0.3333333333333333 0.3333333333333333 0.3333333333333333 0.3333333333333333 0.3333333333333333 0.3333333333333333 0.3333333333333333 0.3333333333333333 0.3333333333333333 0.3333333333333333 0.3333333333333333 0.3333333333333333 0.3333333333333333 0.3333333333333333 0.3333333333333333</probabilities>
		</cpt>
		<cpt id="Temperature_46">
			<state id="Temp_0_4C" />
			<state id="Temp_5_9C" />
			<state id="Temp_10_14C" />
			<state id="Temp_15_19C" />
			<state id="Temp_20_24C" />
			<state id="Temp_25_29" />
			<parents>Events</parents>
			<probabilities>0.03228679853771686 0.2256065115213135 0.4522157186493883 0.1293477332722197 0.1293477332722197 0.03119550474714194 0 0.1111022220444409 0.3333366667333347 0.1111122222444449 0.2222244444888898 0.2222244444888898 0 0 0 1 0 0 0.1666666666666667 0.1666666666666667 0.1666666666666667 0.1666666666666667 0.1666666666666667 0.1666666666666667 0 1 0 0 0 0 0 1 0 0 0 0 0.01312625250501002 0.07905811623246492 0.2234468937875751 0.4218436873747494 0.157314629258517 0.1052104208416835</probabilities>
		</cpt>
		<cpt id="Delay_46">
			<state id="Normal" />
			<state id="Low_Delay" />
			<state id="High_Delay" />
			<parents>Temperature_46 Delay_45</parents>
			<probabilities>0.9 0.1 0 0.9 0.1 0 0.9 0.1 0 0.2 0.8 0 0.2 0.8 0 0.2 0.8 0 0.5 0.5 0 0.5 0.5 0 0.5 0.5 0 0.3333333333333333 0.3333333333333333 0.3333333333333333 0.3333333333333333 0.3333333333333333 0.3333333333333333 0.3333333333333333 0.3333333333333333 0.3333333333333333 0.3333333333333333 0.3333333333333333 0.3333333333333333 0.3333333333333333 0.3333333333333333 0.3333333333333333 0.3333333333333333 0.3333333333333333 0.3333333333333333 0.3333333333333333 0.3333333333333333 0.3333333333333333 0.3333333333333333 0.3333333333333333 0.3333333333333333 0.3333333333333333 0.3333333333333333 0.3333333333333333</probabilities>
		</cpt>
		<cpt id="Temperature_47">
			<state id="Temp_0_4C" />
			<state id="Temp_5_9C" />
			<state id="Temp_10_14C" />
			<state id="Temp_15_19C" />
			<state id="Temp_20_24C" />
			<state id="Temp_25_29" />
			<parents>Events</parents>
			<probabilities>0.03228679853771686 0.2256065115213135 0.4522157186493883 0.1293477332722197 0.1293477332722197 0.03119550474714194 0 0.1111022220444409 0.3333366667333347 0.1111122222444449 0.2222244444888898 0.2222244444888898 0 0 0 1 0 0 0.1666666666666667 0.1666666666666667 0.1666666666666667 0.1666666666666667 0.1666666666666667 0.1666666666666667 0 1 0 0 0 0 0 1 0 0 0 0 0.01312625250501002 0.07905811623246492 0.2234468937875751 0.4218436873747494 0.157314629258517 0.1052104208416835</probabilities>
		</cpt>
		<cpt id="Delay_47">
			<state id="Normal" />
			<state id="Low_Delay" />
			<state id="High_Delay" />
			<parents>Temperature_47 Delay_46</parents>
			<probabilities>0.9 0.1 0 0.9 0.1 0 0.9 0.1 0 0.2 0.8 0 0.2 0.8 0 0.2 0.8 0 0.5 0.5 0 0.5 0.5 0 0.5 0.5 0 0.3333333333333333 0.3333333333333333 0.3333333333333333 0.3333333333333333 0.3333333333333333 0.3333333333333333 0.3333333333333333 0.3333333333333333 0.3333333333333333 0.3333333333333333 0.3333333333333333 0.3333333333333333 0.3333333333333333 0.3333333333333333 0.3333333333333333 0.3333333333333333 0.3333333333333333 0.3333333333333333 0.3333333333333333 0.3333333333333333 0.3333333333333333 0.3333333333333333 0.3333333333333333 0.3333333333333333 0.3333333333333333 0.3333333333333333 0.3333333333333333</probabilities>
		</cpt>
		<cpt id="Temperature_48">
			<state id="Temp_0_4C" />
			<state id="Temp_5_9C" />
			<state id="Temp_10_14C" />
			<state id="Temp_15_19C" />
			<state id="Temp_20_24C" />
			<state id="Temp_25_29" />
			<parents>Events</parents>
			<probabilities>0.03228679853771686 0.2256065115213135 0.4522157186493883 0.1293477332722197 0.1293477332722197 0.03119550474714194 0 0.1111022220444409 0.3333366667333347 0.1111122222444449 0.2222244444888898 0.2222244444888898 0 0 0 1 0 0 0.1666666666666667 0.1666666666666667 0.1666666666666667 0.1666666666666667 0.1666666666666667 0.1666666666666667 0 1 0 0 0 0 0 1 0 0 0 0 0.01312625250501002 0.07905811623246492 0.2234468937875751 0.4218436873747494 0.157314629258517 0.1052104208416835</probabilities>
		</cpt>
		<cpt id="Delay_48">
			<state id="Normal" />
			<state id="Low_Delay" />
			<state id="High_Delay" />
			<parents>Temperature_48 Delay_47</parents>
			<probabilities>0.9 0.1 0 0.9 0.1 0 0.9 0.1 0 0.2 0.8 0 0.2 0.8 0 0.2 0.8 0 0.5 0.5 0 0.5 0.5 0 0.5 0.5 0 0.3333333333333333 0.3333333333333333 0.3333333333333333 0.3333333333333333 0.3333333333333333 0.3333333333333333 0.3333333333333333 0.3333333333333333 0.3333333333333333 0.3333333333333333 0.3333333333333333 0.3333333333333333 0.3333333333333333 0.3333333333333333 0.3333333333333333 0.3333333333333333 0.3333333333333333 0.3333333333333333 0.3333333333333333 0.3333333333333333 0.3333333333333333 0.3333333333333333 0.3333333333333333 0.3333333333333333 0.3333333333333333 0.3333333333333333 0.3333333333333333</probabilities>
		</cpt>
		<cpt id="Temperature_49">
			<state id="Temp_0_4C" />
			<state id="Temp_5_9C" />
			<state id="Temp_10_14C" />
			<state id="Temp_15_19C" />
			<state id="Temp_20_24C" />
			<state id="Temp_25_29" />
			<parents>Events</parents>
			<probabilities>0.03228679853771686 0.2256065115213135 0.4522157186493883 0.1293477332722197 0.1293477332722197 0.03119550474714194 0 0.1111022220444409 0.3333366667333347 0.1111122222444449 0.2222244444888898 0.2222244444888898 0 0 0 1 0 0 0.1666666666666667 0.1666666666666667 0.1666666666666667 0.1666666666666667 0.1666666666666667 0.1666666666666667 0 1 0 0 0 0 0 1 0 0 0 0 0.01312625250501002 0.07905811623246492 0.2234468937875751 0.4218436873747494 0.157314629258517 0.1052104208416835</probabilities>
		</cpt>
		<cpt id="Delay_49">
			<state id="Normal" />
			<state id="Low_Delay" />
			<state id="High_Delay" />
			<parents>Temperature_49 Delay_48</parents>
			<probabilities>0.9 0.1 0 0.9 0.1 0 0.9 0.1 0 0.2 0.8 0 0.2 0.8 0 0.2 0.8 0 0.5 0.5 0 0.5 0.5 0 0.5 0.5 0 0.3333333333333333 0.3333333333333333 0.3333333333333333 0.3333333333333333 0.3333333333333333 0.3333333333333333 0.3333333333333333 0.3333333333333333 0.3333333333333333 0.3333333333333333 0.3333333333333333 0.3333333333333333 0.3333333333333333 0.3333333333333333 0.3333333333333333 0.3333333333333333 0.3333333333333333 0.3333333333333333 0.3333333333333333 0.3333333333333333 0.3333333333333333 0.3333333333333333 0.3333333333333333 0.3333333333333333 0.3333333333333333 0.3333333333333333 0.3333333333333333</probabilities>
		</cpt>
		<cpt id="Temperature_50">
			<state id="Temp_0_4C" />
			<state id="Temp_5_9C" />
			<state id="Temp_10_14C" />
			<state id="Temp_15_19C" />
			<state id="Temp_20_24C" />
			<state id="Temp_25_29" />
			<parents>Events</parents>
			<probabilities>0.03228679853771686 0.2256065115213135 0.4522157186493883 0.1293477332722197 0.1293477332722197 0.03119550474714194 0 0.1111022220444409 0.3333366667333347 0.1111122222444449 0.2222244444888898 0.2222244444888898 0 0 0 1 0 0 0.1666666666666667 0.1666666666666667 0.1666666666666667 0.1666666666666667 0.1666666666666667 0.1666666666666667 0 1 0 0 0 0 0 1 0 0 0 0 0.01312625250501002 0.07905811623246492 0.2234468937875751 0.4218436873747494 0.157314629258517 0.1052104208416835</probabilities>
		</cpt>
		<cpt id="Delay_50">
			<state id="Normal" />
			<state id="Low_Delay" />
			<state id="High_Delay" />
			<parents>Temperature_50 Delay_49</parents>
			<probabilities>0.9 0.1 0 0.9 0.1 0 0.9 0.1 0 0.2 0.8 0 0.2 0.8 0 0.2 0.8 0 0.5 0.5 0 0.5 0.5 0 0.5 0.5 0 0.3333333333333333 0.3333333333333333 0.3333333333333333 0.3333333333333333 0.3333333333333333 0.3333333333333333 0.3333333333333333 0.3333333333333333 0.3333333333333333 0.3333333333333333 0.3333333333333333 0.3333333333333333 0.3333333333333333 0.3333333333333333 0.3333333333333333 0.3333333333333333 0.3333333333333333 0.3333333333333333 0.3333333333333333 0.3333333333333333 0.3333333333333333 0.3333333333333333 0.3333333333333333 0.3333333333333333 0.3333333333333333 0.3333333333333333 0.3333333333333333</probabilities>
		</cpt>
		<cpt id="Temperature_51">
			<state id="Temp_0_4C" />
			<state id="Temp_5_9C" />
			<state id="Temp_10_14C" />
			<state id="Temp_15_19C" />
			<state id="Temp_20_24C" />
			<state id="Temp_25_29" />
			<parents>Events</parents>
			<probabilities>0.03228679853771686 0.2256065115213135 0.4522157186493883 0.1293477332722197 0.1293477332722197 0.03119550474714194 0 0.1111022220444409 0.3333366667333347 0.1111122222444449 0.2222244444888898 0.2222244444888898 0 0 0 1 0 0 0.1666666666666667 0.1666666666666667 0.1666666666666667 0.1666666666666667 0.1666666666666667 0.1666666666666667 0 1 0 0 0 0 0 1 0 0 0 0 0.01312625250501002 0.07905811623246492 0.2234468937875751 0.4218436873747494 0.157314629258517 0.1052104208416835</probabilities>
		</cpt>
		<cpt id="Delay_51">
			<state id="Normal" />
			<state id="Low_Delay" />
			<state id="High_Delay" />
			<parents>Temperature_51 Delay_50</parents>
			<probabilities>0.9 0.1 0 0.9 0.1 0 0.9 0.1 0 0.2 0.8 0 0.2 0.8 0 0.2 0.8 0 0.5 0.5 0 0.5 0.5 0 0.5 0.5 0 0.3333333333333333 0.3333333333333333 0.3333333333333333 0.3333333333333333 0.3333333333333333 0.3333333333333333 0.3333333333333333 0.3333333333333333 0.3333333333333333 0.3333333333333333 0.3333333333333333 0.3333333333333333 0.3333333333333333 0.3333333333333333 0.3333333333333333 0.3333333333333333 0.3333333333333333 0.3333333333333333 0.3333333333333333 0.3333333333333333 0.3333333333333333 0.3333333333333333 0.3333333333333333 0.3333333333333333 0.3333333333333333 0.3333333333333333 0.3333333333333333</probabilities>
		</cpt>
		<cpt id="Temperature_52">
			<state id="Temp_0_4C" />
			<state id="Temp_5_9C" />
			<state id="Temp_10_14C" />
			<state id="Temp_15_19C" />
			<state id="Temp_20_24C" />
			<state id="Temp_25_29" />
			<parents>Events</parents>
			<probabilities>0.03228679853771686 0.2256065115213135 0.4522157186493883 0.1293477332722197 0.1293477332722197 0.03119550474714194 0 0.1111022220444409 0.3333366667333347 0.1111122222444449 0.2222244444888898 0.2222244444888898 0 0 0 1 0 0 0.1666666666666667 0.1666666666666667 0.1666666666666667 0.1666666666666667 0.1666666666666667 0.1666666666666667 0 1 0 0 0 0 0 1 0 0 0 0 0.01312625250501002 0.07905811623246492 0.2234468937875751 0.4218436873747494 0.157314629258517 0.1052104208416835</probabilities>
		</cpt>
		<cpt id="Delay_52">
			<state id="Normal" />
			<state id="Low_Delay" />
			<state id="High_Delay" />
			<parents>Temperature_52 Delay_51</parents>
			<probabilities>0.9 0.1 0 0.9 0.1 0 0.9 0.1 0 0.2 0.8 0 0.2 0.8 0 0.2 0.8 0 0.5 0.5 0 0.5 0.5 0 0.5 0.5 0 0.3333333333333333 0.3333333333333333 0.3333333333333333 0.3333333333333333 0.3333333333333333 0.3333333333333333 0.3333333333333333 0.3333333333333333 0.3333333333333333 0.3333333333333333 0.3333333333333333 0.3333333333333333 0.3333333333333333 0.3333333333333333 0.3333333333333333 0.3333333333333333 0.3333333333333333 0.3333333333333333 0.3333333333333333 0.3333333333333333 0.3333333333333333 0.3333333333333333 0.3333333333333333 0.3333333333333333 0.3333333333333333 0.3333333333333333 0.3333333333333333</probabilities>
		</cpt>
		<cpt id="Temperature_53">
			<state id="Temp_0_4C" />
			<state id="Temp_5_9C" />
			<state id="Temp_10_14C" />
			<state id="Temp_15_19C" />
			<state id="Temp_20_24C" />
			<state id="Temp_25_29" />
			<parents>Events</parents>
			<probabilities>0.03228679853771686 0.2256065115213135 0.4522157186493883 0.1293477332722197 0.1293477332722197 0.03119550474714194 0 0.1111022220444409 0.3333366667333347 0.1111122222444449 0.2222244444888898 0.2222244444888898 0 0 0 1 0 0 0.1666666666666667 0.1666666666666667 0.1666666666666667 0.1666666666666667 0.1666666666666667 0.1666666666666667 0 1 0 0 0 0 0 1 0 0 0 0 0.01312625250501002 0.07905811623246492 0.2234468937875751 0.4218436873747494 0.157314629258517 0.1052104208416835</probabilities>
		</cpt>
		<cpt id="Delay_53">
			<state id="Normal" />
			<state id="Low_Delay" />
			<state id="High_Delay" />
			<parents>Temperature_53 Delay_52</parents>
			<probabilities>0.9 0.1 0 0.9 0.1 0 0.9 0.1 0 0.2 0.8 0 0.2 0.8 0 0.2 0.8 0 0.5 0.5 0 0.5 0.5 0 0.5 0.5 0 0.3333333333333333 0.3333333333333333 0.3333333333333333 0.3333333333333333 0.3333333333333333 0.3333333333333333 0.3333333333333333 0.3333333333333333 0.3333333333333333 0.3333333333333333 0.3333333333333333 0.3333333333333333 0.3333333333333333 0.3333333333333333 0.3333333333333333 0.3333333333333333 0.3333333333333333 0.3333333333333333 0.3333333333333333 0.3333333333333333 0.3333333333333333 0.3333333333333333 0.3333333333333333 0.3333333333333333 0.3333333333333333 0.3333333333333333 0.3333333333333333</probabilities>
		</cpt>
		<cpt id="Temperature_54">
			<state id="Temp_0_4C" />
			<state id="Temp_5_9C" />
			<state id="Temp_10_14C" />
			<state id="Temp_15_19C" />
			<state id="Temp_20_24C" />
			<state id="Temp_25_29" />
			<parents>Events</parents>
			<probabilities>0.03228679853771686 0.2256065115213135 0.4522157186493883 0.1293477332722197 0.1293477332722197 0.03119550474714194 0 0.1111022220444409 0.3333366667333347 0.1111122222444449 0.2222244444888898 0.2222244444888898 0 0 0 1 0 0 0.1666666666666667 0.1666666666666667 0.1666666666666667 0.1666666666666667 0.1666666666666667 0.1666666666666667 0 1 0 0 0 0 0 1 0 0 0 0 0.01312625250501002 0.07905811623246492 0.2234468937875751 0.4218436873747494 0.157314629258517 0.1052104208416835</probabilities>
		</cpt>
		<cpt id="Delay_54">
			<state id="Normal" />
			<state id="Low_Delay" />
			<state id="High_Delay" />
			<parents>Temperature_54 Delay_53</parents>
			<probabilities>0.9 0.1 0 0.9 0.1 0 0.9 0.1 0 0.2 0.8 0 0.2 0.8 0 0.2 0.8 0 0.5 0.5 0 0.5 0.5 0 0.5 0.5 0 0.3333333333333333 0.3333333333333333 0.3333333333333333 0.3333333333333333 0.3333333333333333 0.3333333333333333 0.3333333333333333 0.3333333333333333 0.3333333333333333 0.3333333333333333 0.3333333333333333 0.3333333333333333 0.3333333333333333 0.3333333333333333 0.3333333333333333 0.3333333333333333 0.3333333333333333 0.3333333333333333 0.3333333333333333 0.3333333333333333 0.3333333333333333 0.3333333333333333 0.3333333333333333 0.3333333333333333 0.3333333333333333 0.3333333333333333 0.3333333333333333</probabilities>
		</cpt>
		<cpt id="Temperature_55">
			<state id="Temp_0_4C" />
			<state id="Temp_5_9C" />
			<state id="Temp_10_14C" />
			<state id="Temp_15_19C" />
			<state id="Temp_20_24C" />
			<state id="Temp_25_29" />
			<parents>Events</parents>
			<probabilities>0.03228679853771686 0.2256065115213135 0.4522157186493883 0.1293477332722197 0.1293477332722197 0.03119550474714194 0 0.1111022220444409 0.3333366667333347 0.1111122222444449 0.2222244444888898 0.2222244444888898 0 0 0 1 0 0 0.1666666666666667 0.1666666666666667 0.1666666666666667 0.1666666666666667 0.1666666666666667 0.1666666666666667 0 1 0 0 0 0 0 1 0 0 0 0 0.01312625250501002 0.07905811623246492 0.2234468937875751 0.4218436873747494 0.157314629258517 0.1052104208416835</probabilities>
		</cpt>
		<cpt id="Delay_55">
			<state id="Normal" />
			<state id="Low_Delay" />
			<state id="High_Delay" />
			<parents>Temperature_55 Delay_54</parents>
			<probabilities>0.9 0.1 0 0.9 0.1 0 0.9 0.1 0 0.2 0.8 0 0.2 0.8 0 0.2 0.8 0 0.5 0.5 0 0.5 0.5 0 0.5 0.5 0 0.3333333333333333 0.3333333333333333 0.3333333333333333 0.3333333333333333 0.3333333333333333 0.3333333333333333 0.3333333333333333 0.3333333333333333 0.3333333333333333 0.3333333333333333 0.3333333333333333 0.3333333333333333 0.3333333333333333 0.3333333333333333 0.3333333333333333 0.3333333333333333 0.3333333333333333 0.3333333333333333 0.3333333333333333 0.3333333333333333 0.3333333333333333 0.3333333333333333 0.3333333333333333 0.3333333333333333 0.3333333333333333 0.3333333333333333 0.3333333333333333</probabilities>
		</cpt>
		<cpt id="Temperature_56">
			<state id="Temp_0_4C" />
			<state id="Temp_5_9C" />
			<state id="Temp_10_14C" />
			<state id="Temp_15_19C" />
			<state id="Temp_20_24C" />
			<state id="Temp_25_29" />
			<parents>Events</parents>
			<probabilities>0.03228679853771686 0.2256065115213135 0.4522157186493883 0.1293477332722197 0.1293477332722197 0.03119550474714194 0 0.1111022220444409 0.3333366667333347 0.1111122222444449 0.2222244444888898 0.2222244444888898 0 0 0 1 0 0 0.1666666666666667 0.1666666666666667 0.1666666666666667 0.1666666666666667 0.1666666666666667 0.1666666666666667 0 1 0 0 0 0 0 1 0 0 0 0 0.01312625250501002 0.07905811623246492 0.2234468937875751 0.4218436873747494 0.157314629258517 0.1052104208416835</probabilities>
		</cpt>
		<cpt id="Delay_56">
			<state id="Normal" />
			<state id="Low_Delay" />
			<state id="High_Delay" />
			<parents>Temperature_56 Delay_55</parents>
			<probabilities>0.9 0.1 0 0.9 0.1 0 0.9 0.1 0 0.2 0.8 0 0.2 0.8 0 0.2 0.8 0 0.5 0.5 0 0.5 0.5 0 0.5 0.5 0 0.3333333333333333 0.3333333333333333 0.3333333333333333 0.3333333333333333 0.3333333333333333 0.3333333333333333 0.3333333333333333 0.3333333333333333 0.3333333333333333 0.3333333333333333 0.3333333333333333 0.3333333333333333 0.3333333333333333 0.3333333333333333 0.3333333333333333 0.3333333333333333 0.3333333333333333 0.3333333333333333 0.3333333333333333 0.3333333333333333 0.3333333333333333 0.3333333333333333 0.3333333333333333 0.3333333333333333 0.3333333333333333 0.3333333333333333 0.3333333333333333</probabilities>
		</cpt>
		<cpt id="Temperature_57">
			<state id="Temp_0_4C" />
			<state id="Temp_5_9C" />
			<state id="Temp_10_14C" />
			<state id="Temp_15_19C" />
			<state id="Temp_20_24C" />
			<state id="Temp_25_29" />
			<parents>Events</parents>
			<probabilities>0.03228679853771686 0.2256065115213135 0.4522157186493883 0.1293477332722197 0.1293477332722197 0.03119550474714194 0 0.1111022220444409 0.3333366667333347 0.1111122222444449 0.2222244444888898 0.2222244444888898 0 0 0 1 0 0 0.1666666666666667 0.1666666666666667 0.1666666666666667 0.1666666666666667 0.1666666666666667 0.1666666666666667 0 1 0 0 0 0 0 1 0 0 0 0 0.01312625250501002 0.07905811623246492 0.2234468937875751 0.4218436873747494 0.157314629258517 0.1052104208416835</probabilities>
		</cpt>
		<cpt id="Delay_57">
			<state id="Normal" />
			<state id="Low_Delay" />
			<state id="High_Delay" />
			<parents>Temperature_57 Delay_56</parents>
			<probabilities>0.9 0.1 0 0.9 0.1 0 0.9 0.1 0 0.2 0.8 0 0.2 0.8 0 0.2 0.8 0 0.5 0.5 0 0.5 0.5 0 0.5 0.5 0 0.3333333333333333 0.3333333333333333 0.3333333333333333 0.3333333333333333 0.3333333333333333 0.3333333333333333 0.3333333333333333 0.3333333333333333 0.3333333333333333 0.3333333333333333 0.3333333333333333 0.3333333333333333 0.3333333333333333 0.3333333333333333 0.3333333333333333 0.3333333333333333 0.3333333333333333 0.3333333333333333 0.3333333333333333 0.3333333333333333 0.3333333333333333 0.3333333333333333 0.3333333333333333 0.3333333333333333 0.3333333333333333 0.3333333333333333 0.3333333333333333</probabilities>
		</cpt>
		<cpt id="Temperature_58">
			<state id="Temp_0_4C" />
			<state id="Temp_5_9C" />
			<state id="Temp_10_14C" />
			<state id="Temp_15_19C" />
			<state id="Temp_20_24C" />
			<state id="Temp_25_29" />
			<parents>Events</parents>
			<probabilities>0.03228679853771686 0.2256065115213135 0.4522157186493883 0.1293477332722197 0.1293477332722197 0.03119550474714194 0 0.1111022220444409 0.3333366667333347 0.1111122222444449 0.2222244444888898 0.2222244444888898 0 0 0 1 0 0 0.1666666666666667 0.1666666666666667 0.1666666666666667 0.1666666666666667 0.1666666666666667 0.1666666666666667 0 1 0 0 0 0 0 1 0 0 0 0 0.01312625250501002 0.07905811623246492 0.2234468937875751 0.4218436873747494 0.157314629258517 0.1052104208416835</probabilities>
		</cpt>
		<cpt id="Delay_58">
			<state id="Normal" />
			<state id="Low_Delay" />
			<state id="High_Delay" />
			<parents>Temperature_58 Delay_57</parents>
			<probabilities>0.9 0.1 0 0.9 0.1 0 0.9 0.1 0 0.2 0.8 0 0.2 0.8 0 0.2 0.8 0 0.5 0.5 0 0.5 0.5 0 0.5 0.5 0 0.3333333333333333 0.3333333333333333 0.3333333333333333 0.3333333333333333 0.3333333333333333 0.3333333333333333 0.3333333333333333 0.3333333333333333 0.3333333333333333 0.3333333333333333 0.3333333333333333 0.3333333333333333 0.3333333333333333 0.3333333333333333 0.3333333333333333 0.3333333333333333 0.3333333333333333 0.3333333333333333 0.3333333333333333 0.3333333333333333 0.3333333333333333 0.3333333333333333 0.3333333333333333 0.3333333333333333 0.3333333333333333 0.3333333333333333 0.3333333333333333</probabilities>
		</cpt>
		<cpt id="Temperature_59">
			<state id="Temp_0_4C" />
			<state id="Temp_5_9C" />
			<state id="Temp_10_14C" />
			<state id="Temp_15_19C" />
			<state id="Temp_20_24C" />
			<state id="Temp_25_29" />
			<parents>Events</parents>
			<probabilities>0.03228679853771686 0.2256065115213135 0.4522157186493883 0.1293477332722197 0.1293477332722197 0.03119550474714194 0 0.1111022220444409 0.3333366667333347 0.1111122222444449 0.2222244444888898 0.2222244444888898 0 0 0 1 0 0 0.1666666666666667 0.1666666666666667 0.1666666666666667 0.1666666666666667 0.1666666666666667 0.1666666666666667 0 1 0 0 0 0 0 1 0 0 0 0 0.01312625250501002 0.07905811623246492 0.2234468937875751 0.4218436873747494 0.157314629258517 0.1052104208416835</probabilities>
		</cpt>
		<cpt id="Delay_59">
			<state id="Normal" />
			<state id="Low_Delay" />
			<state id="High_Delay" />
			<parents>Temperature_59 Delay_58</parents>
			<probabilities>0.9 0.1 0 0.9 0.1 0 0.9 0.1 0 0.2 0.8 0 0.2 0.8 0 0.2 0.8 0 0.5 0.5 0 0.5 0.5 0 0.5 0.5 0 0.3333333333333333 0.3333333333333333 0.3333333333333333 0.3333333333333333 0.3333333333333333 0.3333333333333333 0.3333333333333333 0.3333333333333333 0.3333333333333333 0.3333333333333333 0.3333333333333333 0.3333333333333333 0.3333333333333333 0.3333333333333333 0.3333333333333333 0.3333333333333333 0.3333333333333333 0.3333333333333333 0.3333333333333333 0.3333333333333333 0.3333333333333333 0.3333333333333333 0.3333333333333333 0.3333333333333333 0.3333333333333333 0.3333333333333333 0.3333333333333333</probabilities>
		</cpt>
		<cpt id="Temperature_60">
			<state id="Temp_0_4C" />
			<state id="Temp_5_9C" />
			<state id="Temp_10_14C" />
			<state id="Temp_15_19C" />
			<state id="Temp_20_24C" />
			<state id="Temp_25_29" />
			<parents>Events</parents>
			<probabilities>0.03228679853771686 0.2256065115213135 0.4522157186493883 0.1293477332722197 0.1293477332722197 0.03119550474714194 0 0.1111022220444409 0.3333366667333347 0.1111122222444449 0.2222244444888898 0.2222244444888898 0 0 0 1 0 0 0.1666666666666667 0.1666666666666667 0.1666666666666667 0.1666666666666667 0.1666666666666667 0.1666666666666667 0 1 0 0 0 0 0 1 0 0 0 0 0.01312625250501002 0.07905811623246492 0.2234468937875751 0.4218436873747494 0.157314629258517 0.1052104208416835</probabilities>
		</cpt>
		<cpt id="Delay_60">
			<state id="Normal" />
			<state id="Low_Delay" />
			<state id="High_Delay" />
			<parents>Temperature_60 Delay_59</parents>
			<probabilities>0.9 0.1 0 0.9 0.1 0 0.9 0.1 0 0.2 0.8 0 0.2 0.8 0 0.2 0.8 0 0.5 0.5 0 0.5 0.5 0 0.5 0.5 0 0.3333333333333333 0.3333333333333333 0.3333333333333333 0.3333333333333333 0.3333333333333333 0.3333333333333333 0.3333333333333333 0.3333333333333333 0.3333333333333333 0.3333333333333333 0.3333333333333333 0.3333333333333333 0.3333333333333333 0.3333333333333333 0.3333333333333333 0.3333333333333333 0.3333333333333333 0.3333333333333333 0.3333333333333333 0.3333333333333333 0.3333333333333333 0.3333333333333333 0.3333333333333333 0.3333333333333333 0.3333333333333333 0.3333333333333333 0.3333333333333333</probabilities>
		</cpt>
		<cpt id="Temperature_61">
			<state id="Temp_0_4C" />
			<state id="Temp_5_9C" />
			<state id="Temp_10_14C" />
			<state id="Temp_15_19C" />
			<state id="Temp_20_24C" />
			<state id="Temp_25_29" />
			<parents>Events</parents>
			<probabilities>0.03228679853771686 0.2256065115213135 0.4522157186493883 0.1293477332722197 0.1293477332722197 0.03119550474714194 0 0.1111022220444409 0.3333366667333347 0.1111122222444449 0.2222244444888898 0.2222244444888898 0 0 0 1 0 0 0.1666666666666667 0.1666666666666667 0.1666666666666667 0.1666666666666667 0.1666666666666667 0.1666666666666667 0 1 0 0 0 0 0 1 0 0 0 0 0.01312625250501002 0.07905811623246492 0.2234468937875751 0.4218436873747494 0.157314629258517 0.1052104208416835</probabilities>
		</cpt>
		<cpt id="Delay_61">
			<state id="Normal" />
			<state id="Low_Delay" />
			<state id="High_Delay" />
			<parents>Temperature_61 Delay_60</parents>
			<probabilities>0.9 0.1 0 0.9 0.1 0 0.9 0.1 0 0.2 0.8 0 0.2 0.8 0 0.2 0.8 0 0.5 0.5 0 0.5 0.5 0 0.5 0.5 0 0.3333333333333333 0.3333333333333333 0.3333333333333333 0.3333333333333333 0.3333333333333333 0.3333333333333333 0.3333333333333333 0.3333333333333333 0.3333333333333333 0.3333333333333333 0.3333333333333333 0.3333333333333333 0.3333333333333333 0.3333333333333333 0.3333333333333333 0.3333333333333333 0.3333333333333333 0.3333333333333333 0.3333333333333333 0.3333333333333333 0.3333333333333333 0.3333333333333333 0.3333333333333333 0.3333333333333333 0.3333333333333333 0.3333333333333333 0.3333333333333333</probabilities>
		</cpt>
		<cpt id="Temperature_62">
			<state id="Temp_0_4C" />
			<state id="Temp_5_9C" />
			<state id="Temp_10_14C" />
			<state id="Temp_15_19C" />
			<state id="Temp_20_24C" />
			<state id="Temp_25_29" />
			<parents>Events</parents>
			<probabilities>0.03228679853771686 0.2256065115213135 0.4522157186493883 0.1293477332722197 0.1293477332722197 0.03119550474714194 0 0.1111022220444409 0.3333366667333347 0.1111122222444449 0.2222244444888898 0.2222244444888898 0 0 0 1 0 0 0.1666666666666667 0.1666666666666667 0.1666666666666667 0.1666666666666667 0.1666666666666667 0.1666666666666667 0 1 0 0 0 0 0 1 0 0 0 0 0.01312625250501002 0.07905811623246492 0.2234468937875751 0.4218436873747494 0.157314629258517 0.1052104208416835</probabilities>
		</cpt>
		<cpt id="Delay_62">
			<state id="Normal" />
			<state id="Low_Delay" />
			<state id="High_Delay" />
			<parents>Temperature_62 Delay_61</parents>
			<probabilities>0.9 0.1 0 0.9 0.1 0 0.9 0.1 0 0.2 0.8 0 0.2 0.8 0 0.2 0.8 0 0.5 0.5 0 0.5 0.5 0 0.5 0.5 0 0.3333333333333333 0.3333333333333333 0.3333333333333333 0.3333333333333333 0.3333333333333333 0.3333333333333333 0.3333333333333333 0.3333333333333333 0.3333333333333333 0.3333333333333333 0.3333333333333333 0.3333333333333333 0.3333333333333333 0.3333333333333333 0.3333333333333333 0.3333333333333333 0.3333333333333333 0.3333333333333333 0.3333333333333333 0.3333333333333333 0.3333333333333333 0.3333333333333333 0.3333333333333333 0.3333333333333333 0.3333333333333333 0.3333333333333333 0.3333333333333333</probabilities>
		</cpt>
		<cpt id="Temperature_63">
			<state id="Temp_0_4C" />
			<state id="Temp_5_9C" />
			<state id="Temp_10_14C" />
			<state id="Temp_15_19C" />
			<state id="Temp_20_24C" />
			<state id="Temp_25_29" />
			<parents>Events</parents>
			<probabilities>0.03228679853771686 0.2256065115213135 0.4522157186493883 0.1293477332722197 0.1293477332722197 0.03119550474714194 0 0.1111022220444409 0.3333366667333347 0.1111122222444449 0.2222244444888898 0.2222244444888898 0 0 0 1 0 0 0.1666666666666667 0.1666666666666667 0.1666666666666667 0.1666666666666667 0.1666666666666667 0.1666666666666667 0 1 0 0 0 0 0 1 0 0 0 0 0.01312625250501002 0.07905811623246492 0.2234468937875751 0.4218436873747494 0.157314629258517 0.1052104208416835</probabilities>
		</cpt>
		<cpt id="Delay_63">
			<state id="Normal" />
			<state id="Low_Delay" />
			<state id="High_Delay" />
			<parents>Temperature_63 Delay_62</parents>
			<probabilities>0.9 0.1 0 0.9 0.1 0 0.9 0.1 0 0.2 0.8 0 0.2 0.8 0 0.2 0.8 0 0.5 0.5 0 0.5 0.5 0 0.5 0.5 0 0.3333333333333333 0.3333333333333333 0.3333333333333333 0.3333333333333333 0.3333333333333333 0.3333333333333333 0.3333333333333333 0.3333333333333333 0.3333333333333333 0.3333333333333333 0.3333333333333333 0.3333333333333333 0.3333333333333333 0.3333333333333333 0.3333333333333333 0.3333333333333333 0.3333333333333333 0.3333333333333333 0.3333333333333333 0.3333333333333333 0.3333333333333333 0.3333333333333333 0.3333333333333333 0.3333333333333333 0.3333333333333333 0.3333333333333333 0.3333333333333333</probabilities>
		</cpt>
		<cpt id="Temperature_64">
			<state id="Temp_0_4C" />
			<state id="Temp_5_9C" />
			<state id="Temp_10_14C" />
			<state id="Temp_15_19C" />
			<state id="Temp_20_24C" />
			<state id="Temp_25_29" />
			<parents>Events</parents>
			<probabilities>0.03228679853771686 0.2256065115213135 0.4522157186493883 0.1293477332722197 0.1293477332722197 0.03119550474714194 0 0.1111022220444409 0.3333366667333347 0.1111122222444449 0.2222244444888898 0.2222244444888898 0 0 0 1 0 0 0.1666666666666667 0.1666666666666667 0.1666666666666667 0.1666666666666667 0.1666666666666667 0.1666666666666667 0 1 0 0 0 0 0 1 0 0 0 0 0.01312625250501002 0.07905811623246492 0.2234468937875751 0.4218436873747494 0.157314629258517 0.1052104208416835</probabilities>
		</cpt>
		<cpt id="Delay_64">
			<state id="Normal" />
