<?xml version="1.0" encoding="ISO-8859-1"?>
<smile version="1.0" id="Network1" numsamples="1000" discsamples="10000">
	<nodes>
		<cpt id="Events">
			<state id="Rain" />
			<state id="Rain_Thunderstorm" />
			<state id="Fog" />
			<state id="Fog_Snow" />
			<state id="Fog_Rain_Thunderstorm" />
			<state id="Snow" />
			<state id="None" />
			<probabilities>0.253158211119921 0.06711858528721672 0.009569377990430622 0.02572604330572043 0.01276056864303448 0.02552113728606896 0.6061460763676078</probabilities>
		</cpt>
		<cpt id="Temperature" dynamic="plate">
			<state id="Temp_0_4C" />
			<state id="Temp_5_9C" />
			<state id="Temp_10_14C" />
			<state id="Temp_15_19C" />
			<state id="Temp_20_24C" />
			<state id="Temp_25_29C" />
			<parents>Events</parents>
			<probabilities>0.05560766332910485 0.2318273296331715 0.4235649051709713 0.128454657416632 0.1304006688804688 0.03014477556965154 0 0.111174531007699 0.3332325779319658 0.11128800475573 0.2221524431523026 0.2221524431523026 0 0 0 1 0 0 0.1978919849418658 0.164613047492635 0.1541341564230019 0.159438039591526 0.1651066663523699 0.1588161051986015 0 1 0 0 0 0 0 1 0 0 0 0 0.02490024228928875 0.08017037245396461 0.2166548043140238 0.4191804555432575 0.1574709426047085 0.1016231827947566</probabilities>
		</cpt>
		<cpt id="Delay" dynamic="plate">
			<state id="Normal" />
			<state id="Low_Delay" />
			<state id="High_Delay" />
			<parents>Temperature</parents>
			<probabilities>0.8999941059836006 0.1000058940163995 0 0.1999398203678471 0.8000601796321528 0 0.5 0.5 0 0 0 0 0.3333259985819559 0.3333477975519416 0.3333262038661026 0.3333333333333334 0.3333333333333334 0.3333333333333334</probabilities>
		</cpt>
	</nodes>
	<dynamic numslices="5">
		<cpt id="Temperature" order="1">
			<parents>Temperature</parents>
			<probabilities>0.05560766332910485 0.2318273296331715 0.4235649051709713 0.128454657416632 0.1304006688804688 0.03014477556965154 0.05560766332910485 0.2318273296331715 0.4235649051709713 0.128454657416632 0.1304006688804688 0.03014477556965154 0.05560766332910485 0.2318273296331715 0.4235649051709713 0.128454657416632 0.1304006688804688 0.03014477556965154 0.05560766332910485 0.2318273296331715 0.4235649051709713 0.128454657416632 0.1304006688804688 0.03014477556965154 0.05560766332910485 0.2318273296331715 0.4235649051709713 0.128454657416632 0.1304006688804688 0.03014477556965154 0.05560766332910485 0.2318273296331715 0.4235649051709713 0.128454657416632 0.1304006688804688 0.03014477556965154 0 0.111174531007699 0.3332325779319658 0.11128800475573 0.2221524431523026 0.2221524431523026 0 0.111174531007699 0.3332325779319658 0.11128800475573 0.2221524431523026 0.2221524431523026 0 0.111174531007699 0.3332325779319658 0.11128800475573 0.2221524431523026 0.2221524431523026 0 0.111174531007699 0.3332325779319658 0.11128800475573 0.2221524431523026 0.2221524431523026 0 0.111174531007699 0.3332325779319658 0.11128800475573 0.2221524431523026 0.2221524431523026 0 0.111174531007699 0.3332325779319658 0.11128800475573 0.2221524431523026 0.2221524431523026 0 0 0 1 0 0 0 0 0 1 0 0 0 0 0 1 0 0 0 0 0 1 0 0 0 0 0 1 0 0 0 0 0 1 0 0 0.1978919849418658 0.164613047492635 0.1541341564230019 0.159438039591526 0.1651066663523699 0.1588161051986015 0.1978919849418658 0.164613047492635 0.1541341564230019 0.159438039591526 0.1651066663523699 0.1588161051986015 0.1978919849418658 0.164613047492635 0.1541341564230019 0.159438039591526 0.1651066663523699 0.1588161051986015 0.1978919849418658 0.164613047492635 0.1541341564230019 0.159438039591526 0.1651066663523699 0.1588161051986015 0.1978919849418658 0.164613047492635 0.1541341564230019 0.159438039591526 0.1651066663523699 0.1588161051986015 0.1978919849418658 0.164613047492635 0.1541341564230019 0.159438039591526 0.1651066663523699 0.1588161051986015 0 1 0 0 0 0 0 1 0 0 0 0 0 1 0 0 0 0 0 1 0 0 0 0 0 1 0 0 0 0 0 1 0 0 0 0 0 1 0 0 0 0 0 1 0 0 0 0 0 1 0 0 0 0 0 1 0 0 0 0 0 1 0 0 0 0 0 1 0 0 0 0 0.02490024228928876 0.08017037245396465 0.2166548043140239 0.4191804555432577 0.1574709426047086 0.1016231827947566 0.02490024228928876 0.08017037245396465 0.2166548043140239 0.4191804555432577 0.1574709426047086 0.1016231827947566 0.02490024228928876 0.08017037245396465 0.2166548043140239 0.4191804555432577 0.1574709426047086 0.1016231827947566 0.02490024228928876 0.08017037245396465 0.2166548043140239 0.4191804555432577 0.1574709426047086 0.1016231827947566 0.02490024228928876 0.08017037245396465 0.2166548043140239 0.4191804555432577 0.1574709426047086 0.1016231827947566 0.02490024228928876 0.08017037245396465 0.2166548043140239 0.4191804555432577 0.1574709426047086 0.1016231827947566</probabilities>
		</cpt>
	</dynamic>
	<extensions>
		<genie version="1.0" app="GeNIe 2.0.4535.0" name="Network1" faultnameformat="nodestate">
			<plate leftwidth="120" rightwidth="120">208 298 808 598</plate>
			<diagautoformat target="e5f6f7" targetnr="e5f6f7" observation="ffff80" observationnr="ffff00" auxiliary="ffffff" />
			<node id="Events">
				<name>Events</name>
				<interior color="ffffff" />
				<outline color="000080" />
				<font color="000000" name="Arial" size="8" />
				<position>474 176 570 248</position>
			</node>
			<node id="Temperature">
				<name>Average Temp</name>
				<interior color="ffffff" />
				<outline color="000080" />
				<font color="000000" name="Arial" size="8" />
				<position>451 390 588 439</position>
			</node>
			<node id="Delay">
				<name>Delay</name>
				<interior color="ffffff" />
				<outline color="000080" />
				<font color="000000" name="Arial" size="8" />
				<position>483 507 561 543</position>
			</node>
		</genie>
	</extensions>
</smile>
