<?xml version="1.0" encoding="ISO-8859-1"?>
<smile version="1.0" id="Unnamed" numsamples="1000" discsamples="10000">
	<nodes>
		<cpt id="Visib_Max">
			<state id="State14" />
			<state id="State16" />
			<probabilities>0.04444444444444445 0.9555555555555556</probabilities>
		</cpt>
		<cpt id="Visib_Ave">
			<state id="State6" />
			<state id="State7" />
			<state id="State9" />
			<state id="State10" />
			<state id="State11" />
			<state id="State13" />
			<state id="State14" />
			<state id="State15" />
			<state id="State16" />
			<parents>Visib_Max</parents>
			<probabilities>0.2 0.1 0.1 0.1 0.1 0.1 0.1 0.1 0.1 0.05882352941176471 0.0392156862745098 0.0392156862745098 0.05882352941176471 0.0392156862745098 0.0392156862745098 0.1176470588235294 0.09803921568627451 0.5098039215686274</probabilities>
		</cpt>
		<cpt id="Visib_Min">
			<state id="State0" />
			<state id="State1" />
			<state id="State2" />
			<state id="State3" />
			<state id="State4" />
			<state id="State6" />
			<state id="State8" />
			<state id="State10" />
			<state id="State11" />
			<state id="State13" />
			<state id="State14" />
			<state id="State16" />
			<parents>Visib_Max Visib_Ave</parents>
			<probabilities>0.07692307692307693 0.07692307692307693 0.07692307692307693 0.1538461538461539 0.07692307692307693 0.07692307692307693 0.07692307692307693 0.07692307692307693 0.07692307692307693 0.07692307692307693 0.07692307692307693 0.07692307692307693 0.08333333333333333 0.08333333333333333 0.08333333333333333 0.08333333333333333 0.08333333333333333 0.08333333333333333 0.08333333333333333 0.08333333333333333 0.08333333333333333 0.08333333333333333 0.08333333333333333 0.08333333333333333 0.08333333333333333 0.08333333333333333 0.08333333333333333 0.08333333333333333 0.08333333333333333 0.08333333333333333 0.08333333333333333 0.08333333333333333 0.08333333333333333 0.08333333333333333 0.08333333333333333 0.08333333333333333 0.08333333333333333 0.08333333333333333 0.08333333333333333 0.08333333333333333 0.08333333333333333 0.08333333333333333 0.08333333333333333 0.08333333333333333 0.08333333333333333 0.08333333333333333 0.08333333333333333 0.08333333333333333 0.08333333333333333 0.08333333333333333 0.08333333333333333 0.08333333333333333 0.08333333333333333 0.08333333333333333 0.08333333333333333 0.08333333333333333 0.08333333333333333 0.08333333333333333 0.08333333333333333 0.08333333333333333 0.08333333333333333 0.08333333333333333 0.08333333333333333 0.08333333333333333 0.08333333333333333 0.08333333333333333 0.08333333333333333 0.08333333333333333 0.08333333333333333 0.08333333333333333 0.08333333333333333 0.08333333333333333 0.08333333333333333 0.08333333333333333 0.08333333333333333 0.08333333333333333 0.08333333333333333 0.08333333333333333 0.08333333333333333 0.08333333333333333 0.08333333333333333 0.08333333333333333 0.08333333333333333 0.08333333333333333 0.08333333333333333 0.08333333333333333 0.08333333333333333 0.08333333333333333 0.08333333333333333 0.08333333333333333 0.08333333333333333 0.08333333333333333 0.08333333333333333 0.08333333333333333 0.08333333333333333 0.08333333333333333 0.08333333333333333 0.08333333333333333 0.08333333333333333 0.08333333333333333 0.08333333333333333 0.08333333333333333 0.08333333333333333 0.08333333333333333 0.08333333333333333 0.08333333333333333 0.08333333333333333 0.08333333333333333 0.1428571428571429 0.1428571428571429 0.07142857142857143 0.07142857142857143 0.07142857142857143 0.07142857142857143 0.07142857142857143 0.07142857142857143 0.07142857142857143 0.07142857142857143 0.07142857142857143 0.07142857142857143 0.07692307692307693 0.07692307692307693 0.07692307692307693 0.1538461538461539 0.07692307692307693 0.07692307692307693 0.07692307692307693 0.07692307692307693 0.07692307692307693 0.07692307692307693 0.07692307692307693 0.07692307692307693 0.07692307692307693 0.07692307692307693 0.1538461538461539 0.07692307692307693 0.07692307692307693 0.07692307692307693 0.07692307692307693 0.07692307692307693 0.07692307692307693 0.07692307692307693 0.07692307692307693 0.07692307692307693 0.07142857142857143 0.07142857142857143 0.2142857142857143 0.07142857142857143 0.07142857142857143 0.07142857142857143 0.07142857142857143 0.07142857142857143 0.07142857142857143 0.07142857142857143 0.07142857142857143 0.07142857142857143 0.1538461538461539 0.07692307692307693 0.07692307692307693 0.07692307692307693 0.07692307692307693 0.07692307692307693 0.07692307692307693 0.07692307692307693 0.07692307692307693 0.07692307692307693 0.07692307692307693 0.07692307692307693 0.07692307692307693 0.07692307692307693 0.07692307692307693 0.07692307692307693 0.07692307692307693 0.07692307692307693 0.1538461538461539 0.07692307692307693 0.07692307692307693 0.07692307692307693 0.07692307692307693 0.07692307692307693 0.05882352941176471 0.05882352941176471 0.2352941176470588 0.05882352941176471 0.1176470588235294 0.1176470588235294 0.05882352941176471 0.05882352941176471 0.05882352941176471 0.05882352941176471 0.05882352941176471 0.05882352941176471 0.0625 0.0625 0.0625 0.0625 0.0625 0.125 0.125 0.125 0.0625 0.125 0.0625 0.0625 0.02702702702702703 0.02702702702702703 0.02702702702702703 0.02702702702702703 0.02702702702702703 0.02702702702702703 0.02702702702702703 0.02702702702702703 0.05405405405405406 0.1891891891891892 0.08108108108108109 0.4594594594594595</probabilities>
		</cpt>
		<cpt id="Events">
			<state id="State_0" />
			<state id="Fog_Snow" />
			<state id="Rain" />
			<state id="Rain_Thunderstorm" />
			<state id="Snow" />
			<parents>Visib_Max Visib_Min</parents>
			<probabilities>0.2 0.2 0.2 0.2 0.2 0.2 0.2 0.2 0.2 0.2 0.2 0.2 0.2 0.2 0.2 0.1666666666666667 0.1666666666666667 0.1666666666666667 0.3333333333333333 0.1666666666666667 0.2 0.2 0.2 0.2 0.2 0.2 0.2 0.2 0.2 0.2 0.2 0.2 0.2 0.2 0.2 0.2 0.2 0.2 0.2 0.2 0.2 0.2 0.2 0.2 0.2 0.2 0.2 0.2 0.2 0.2 0.2 0.2 0.2 0.2 0.2 0.2 0.2 0.2 0.2 0.2 0.1428571428571429 0.2857142857142857 0.2857142857142857 0.1428571428571429 0.1428571428571429 0.1666666666666667 0.1666666666666667 0.1666666666666667 0.3333333333333333 0.1666666666666667 0.09090909090909091 0.09090909090909091 0.4545454545454546 0.2727272727272727 0.09090909090909091 0.1666666666666667 0.1666666666666667 0.3333333333333333 0.1666666666666667 0.1666666666666667 0.1666666666666667 0.1666666666666667 0.3333333333333333 0.1666666666666667 0.1666666666666667 0.1428571428571429 0.1428571428571429 0.2857142857142857 0.1428571428571429 0.2857142857142857 0.1428571428571429 0.1428571428571429 0.4285714285714286 0.1428571428571429 0.1428571428571429 0.3333333333333333 0.1666666666666667 0.1666666666666667 0.1666666666666667 0.1666666666666667 0.1666666666666667 0.1666666666666667 0.3333333333333333 0.1666666666666667 0.1666666666666667 0.5 0.08333333333333333 0.25 0.08333333333333333 0.08333333333333333 0.1428571428571429 0.1428571428571429 0.2857142857142857 0.1428571428571429 0.2857142857142857 0.8095238095238095 0.04761904761904762 0.04761904761904762 0.04761904761904762 0.04761904761904762</probabilities>
		</cpt>
		<cpt id="Precip__cm_">
			<state id="State_0" />
			<state id="State_10" />
			<state id="State_107" />
			<state id="State_119" />
			<state id="State_150" />
			<state id="State_208" />
			<state id="State_3" />
			<state id="State_300" />
			<state id="State_317" />
			<state id="State_348" />
			<state id="State_452" />
			<state id="State_46" />
			<state id="State_5" />
			<state id="State_8" />
			<state id="T" />
			<parents>Visib_Max Events</parents>
			<probabilities>0.06666666666666667 0.06666666666666667 0.06666666666666667 0.06666666666666667 0.06666666666666667 0.06666666666666667 0.06666666666666667 0.06666666666666667 0.06666666666666667 0.06666666666666667 0.06666666666666667 0.06666666666666667 0.06666666666666667 0.06666666666666667 0.06666666666666667 0.06666666666666667 0.06666666666666667 0.06666666666666667 0.06666666666666667 0.06666666666666667 0.06666666666666667 0.06666666666666667 0.06666666666666667 0.06666666666666667 0.06666666666666667 0.06666666666666667 0.06666666666666667 0.06666666666666667 0.06666666666666667 0.06666666666666667 0.06666666666666667 0.06666666666666667 0.06666666666666667 0.06666666666666667 0.06666666666666667 0.06666666666666667 0.06666666666666667 0.06666666666666667 0.06666666666666667 0.06666666666666667 0.06666666666666667 0.06666666666666667 0.06666666666666667 0.06666666666666667 0.06666666666666667 0.0625 0.0625 0.0625 0.0625 0.0625 0.0625 0.0625 0.0625 0.125 0.0625 0.0625 0.0625 0.0625 0.0625 0.0625 0.06666666666666667 0.06666666666666667 0.06666666666666667 0.06666666666666667 0.06666666666666667 0.06666666666666667 0.06666666666666667 0.06666666666666667 0.06666666666666667 0.06666666666666667 0.06666666666666667 0.06666666666666667 0.06666666666666667 0.06666666666666667 0.06666666666666667 0.5675675675675675 0.02702702702702703 0.02702702702702703 0.02702702702702703 0.02702702702702703 0.02702702702702703 0.05405405405405406 0.02702702702702703 0.02702702702702703 0.02702702702702703 0.02702702702702703 0.02702702702702703 0.02702702702702703 0.02702702702702703 0.05405405405405406 0.0625 0.0625 0.0625 0.0625 0.0625 0.125 0.0625 0.0625 0.0625 0.0625 0.0625 0.0625 0.0625 0.0625 0.0625 0.03448275862068966 0.103448275862069 0.06896551724137931 0.03448275862068966 0.06896551724137931 0.03448275862068966 0.103448275862069 0.03448275862068966 0.03448275862068966 0.06896551724137931 0.06896551724137931 0.03448275862068966 0.06896551724137931 0.06896551724137931 0.1724137931034483 0.05555555555555555 0.05555555555555555 0.05555555555555555 0.1111111111111111 0.05555555555555555 0.05555555555555555 0.05555555555555555 0.1111111111111111 0.05555555555555555 0.05555555555555555 0.05555555555555555 0.1111111111111111 0.05555555555555555 0.05555555555555555 0.05555555555555555 0.05882352941176471 0.05882352941176471 0.05882352941176471 0.05882352941176471 0.05882352941176471 0.05882352941176471 0.05882352941176471 0.05882352941176471 0.05882352941176471 0.05882352941176471 0.05882352941176471 0.05882352941176471 0.05882352941176471 0.05882352941176471 0.1764705882352941</probabilities>
		</cpt>
		<cpt id="Wind_Max">
			<state id="State13" />
			<state id="State14" />
			<state id="State19" />
			<state id="State21" />
			<state id="State24" />
			<state id="State26" />
			<state id="State27" />
			<state id="State32" />
			<state id="State34" />
			<state id="State35" />
			<state id="State39" />
			<state id="State45" />
			<state id="State47" />
			<state id="State48" />
			<state id="State52" />
			<state id="State58" />
			<parents>Precip__cm_</parents>
			<probabilities>0.25 0.05555555555555555 0.05555555555555555 0.08333333333333333 0.02777777777777778 0.02777777777777778 0.05555555555555555 0.1111111111111111 0.02777777777777778 0.02777777777777778 0.02777777777777778 0.05555555555555555 0.02777777777777778 0.08333333333333333 0.05555555555555555 0.02777777777777778 0.05555555555555555 0.05555555555555555 0.05555555555555555 0.05555555555555555 0.05555555555555555 0.05555555555555555 0.05555555555555555 0.05555555555555555 0.05555555555555555 0.05555555555555555 0.05555555555555555 0.05555555555555555 0.05555555555555555 0.1666666666666667 0.05555555555555555 0.05555555555555555 0.05882352941176471 0.05882352941176471 0.05882352941176471 0.05882352941176471 0.05882352941176471 0.05882352941176471 0.05882352941176471 0.05882352941176471 0.05882352941176471 0.05882352941176471 0.1176470588235294 0.05882352941176471 0.05882352941176471 0.05882352941176471 0.05882352941176471 0.05882352941176471 0.05882352941176471 0.05882352941176471 0.05882352941176471 0.05882352941176471 0.05882352941176471 0.1176470588235294 0.05882352941176471 0.05882352941176471 0.05882352941176471 0.05882352941176471 0.05882352941176471 0.05882352941176471 0.05882352941176471 0.05882352941176471 0.05882352941176471 0.05882352941176471 0.05882352941176471 0.05882352941176471 0.05882352941176471 0.05882352941176471 0.1176470588235294 0.05882352941176471 0.05882352941176471 0.05882352941176471 0.05882352941176471 0.05882352941176471 0.05882352941176471 0.05882352941176471 0.05882352941176471 0.05882352941176471 0.05882352941176471 0.05882352941176471 0.05882352941176471 0.05882352941176471 0.05882352941176471 0.05882352941176471 0.05882352941176471 0.05882352941176471 0.05882352941176471 0.05882352941176471 0.05882352941176471 0.05882352941176471 0.05882352941176471 0.05882352941176471 0.1176470588235294 0.05882352941176471 0.05882352941176471 0.05882352941176471 0.05263157894736842 0.05263157894736842 0.05263157894736842 0.05263157894736842 0.05263157894736842 0.05263157894736842 0.1052631578947368 0.05263157894736842 0.05263157894736842 0.1052631578947368 0.05263157894736842 0.05263157894736842 0.05263157894736842 0.1052631578947368 0.05263157894736842 0.05263157894736842 0.05882352941176471 0.05882352941176471 0.05882352941176471 0.05882352941176471 0.05882352941176471 0.05882352941176471 0.1176470588235294 0.05882352941176471 0.05882352941176471 0.05882352941176471 0.05882352941176471 0.05882352941176471 0.05882352941176471 0.05882352941176471 0.05882352941176471 0.05882352941176471 0.05882352941176471 0.05882352941176471 0.05882352941176471 0.05882352941176471 0.1176470588235294 0.05882352941176471 0.05882352941176471 0.05882352941176471 0.05882352941176471 0.05882352941176471 0.05882352941176471 0.05882352941176471 0.05882352941176471 0.05882352941176471 0.05882352941176471 0.05882352941176471 0.05882352941176471 0.05882352941176471 0.05882352941176471 0.05882352941176471 0.05882352941176471 0.05882352941176471 0.05882352941176471 0.05882352941176471 0.05882352941176471 0.05882352941176471 0.05882352941176471 0.1176470588235294 0.05882352941176471 0.05882352941176471 0.05882352941176471 0.05882352941176471 0.05882352941176471 0.05882352941176471 0.05882352941176471 0.05882352941176471 0.05882352941176471 0.05882352941176471 0.05882352941176471 0.05882352941176471 0.05882352941176471 0.05882352941176471 0.05882352941176471 0.05882352941176471 0.05882352941176471 0.05882352941176471 0.05882352941176471 0.1176470588235294 0.05882352941176471 0.05882352941176471 0.05882352941176471 0.05882352941176471 0.05882352941176471 0.05882352941176471 0.05882352941176471 0.05882352941176471 0.05882352941176471 0.05882352941176471 0.1176470588235294 0.05882352941176471 0.05882352941176471 0.05882352941176471 0.05882352941176471 0.05882352941176471 0.05882352941176471 0.05882352941176471 0.05882352941176471 0.05882352941176471 0.05882352941176471 0.05882352941176471 0.05882352941176471 0.1176470588235294 0.05882352941176471 0.05882352941176471 0.05882352941176471 0.05882352941176471 0.05882352941176471 0.05882352941176471 0.05882352941176471 0.05882352941176471 0.05882352941176471 0.05882352941176471 0.05882352941176471 0.05882352941176471 0.05882352941176471 0.05882352941176471 0.05882352941176471 0.05882352941176471 0.05882352941176471 0.05882352941176471 0.05882352941176471 0.05882352941176471 0.05882352941176471 0.1176470588235294 0.05882352941176471 0.05882352941176471 0.04347826086956522 0.04347826086956522 0.04347826086956522 0.1739130434782609 0.04347826086956522 0.1739130434782609 0.04347826086956522 0.04347826086956522 0.08695652173913043 0.04347826086956522 0.04347826086956522 0.04347826086956522 0.04347826086956522 0.04347826086956522 0.04347826086956522 0.04347826086956522</probabilities>
		</cpt>
		<cpt id="Temp_Ave">
			<state id="State0" />
			<state id="State1" />
			<state id="State2" />
			<state id="State5" />
			<state id="State7" />
			<state id="State8" />
			<state id="State9" />
			<state id="State10" />
			<state id="State11" />
			<state id="State12" />
			<state id="State13" />
			<state id="State14" />
			<state id="State15" />
			<state id="State16" />
			<state id="State17" />
			<state id="State18" />
			<state id="State19" />
			<state id="State20" />
			<state id="State21" />
			<state id="State22" />
			<state id="State25" />
			<state id="State26" />
			<parents>Events Wind_Max</parents>
			<probabilities>0.03333333333333333 0.03333333333333333 0.03333333333333333 0.03333333333333333 0.03333333333333333 0.03333333333333333 0.03333333333333333 0.03333333333333333 0.03333333333333333 0.03333333333333333 0.03333333333333333 0.03333333333333333 0.3 0.03333333333333333 0.03333333333333333 0.03333333333333333 0.03333333333333333 0.03333333333333333 0.03333333333333333 0.03333333333333333 0.03333333333333333 0.03333333333333333 0.04347826086956522 0.04347826086956522 0.04347826086956522 0.04347826086956522 0.04347826086956522 0.04347826086956522 0.04347826086956522 0.04347826086956522 0.04347826086956522 0.04347826086956522 0.04347826086956522 0.04347826086956522 0.04347826086956522 0.04347826086956522 0.08695652173913043 0.04347826086956522 0.04347826086956522 0.04347826086956522 0.04347826086956522 0.04347826086956522 0.04347826086956522 0.04347826086956522 0.04347826086956522 0.04347826086956522 0.04347826086956522 0.04347826086956522 0.04347826086956522 0.04347826086956522 0.04347826086956522 0.04347826086956522 0.04347826086956522 0.04347826086956522 0.08695652173913043 0.04347826086956522 0.04347826086956522 0.04347826086956522 0.04347826086956522 0.04347826086956522 0.04347826086956522 0.04347826086956522 0.04347826086956522 0.04347826086956522 0.04347826086956522 0.04347826086956522 0.04 0.04 0.04 0.04 0.04 0.04 0.04 0.04 0.04 0.04 0.04 0.04 0.04 0.04 0.04 0.08 0.04 0.04 0.08 0.08 0.04 0.04 0.04545454545454546 0.04545454545454546 0.04545454545454546 0.04545454545454546 0.04545454545454546 0.04545454545454546 0.04545454545454546 0.04545454545454546 0.04545454545454546 0.04545454545454546 0.04545454545454546 0.04545454545454546 0.04545454545454546 0.04545454545454546 0.04545454545454546 0.04545454545454546 0.04545454545454546 0.04545454545454546 0.04545454545454546 0.04545454545454546 0.04545454545454546 0.04545454545454546 0.04545454545454546 0.04545454545454546 0.04545454545454546 0.04545454545454546 0.04545454545454546 0.04545454545454546 0.04545454545454546 0.04545454545454546 0.04545454545454546 0.04545454545454546 0.04545454545454546 0.04545454545454546 0.04545454545454546 0.04545454545454546 0.04545454545454546 0.04545454545454546 0.04545454545454546 0.04545454545454546 0.04545454545454546 0.04545454545454546 0.04545454545454546 0.04545454545454546 0.04166666666666666 0.04166666666666666 0.04166666666666666 0.04166666666666666 0.04166666666666666 0.04166666666666666 0.04166666666666666 0.04166666666666666 0.08333333333333333 0.04166666666666666 0.04166666666666666 0.04166666666666666 0.04166666666666666 0.04166666666666666 0.04166666666666666 0.04166666666666666 0.04166666666666666 0.04166666666666666 0.04166666666666666 0.04166666666666666 0.04166666666666666 0.08333333333333333 0.04 0.08 0.04 0.04 0.04 0.04 0.04 0.04 0.04 0.04 0.04 0.04 0.04 0.04 0.04 0.04 0.04 0.08 0.04 0.04 0.08 0.04 0.04545454545454546 0.04545454545454546 0.04545454545454546 0.04545454545454546 0.04545454545454546 0.04545454545454546 0.04545454545454546 0.04545454545454546 0.04545454545454546 0.04545454545454546 0.04545454545454546 0.04545454545454546 0.04545454545454546 0.04545454545454546 0.04545454545454546 0.04545454545454546 0.04545454545454546 0.04545454545454546 0.04545454545454546 0.04545454545454546 0.04545454545454546 0.04545454545454546 0.04545454545454546 0.04545454545454546 0.04545454545454546 0.04545454545454546 0.04545454545454546 0.04545454545454546 0.04545454545454546 0.04545454545454546 0.04545454545454546 0.04545454545454546 0.04545454545454546 0.04545454545454546 0.04545454545454546 0.04545454545454546 0.04545454545454546 0.04545454545454546 0.04545454545454546 0.04545454545454546 0.04545454545454546 0.04545454545454546 0.04545454545454546 0.04545454545454546 0.04545454545454546 0.04545454545454546 0.04545454545454546 0.04545454545454546 0.04545454545454546 0.04545454545454546 0.04545454545454546 0.04545454545454546 0.04545454545454546 0.04545454545454546 0.04545454545454546 0.04545454545454546 0.04545454545454546 0.04545454545454546 0.04545454545454546 0.04545454545454546 0.04545454545454546 0.04545454545454546 0.04545454545454546 0.04545454545454546 0.04545454545454546 0.04545454545454546 0.04347826086956522 0.04347826086956522 0.04347826086956522 0.04347826086956522 0.04347826086956522 0.04347826086956522 0.04347826086956522 0.04347826086956522 0.04347826086956522 0.04347826086956522 0.08695652173913043 0.04347826086956522 0.04347826086956522 0.04347826086956522 0.04347826086956522 0.04347826086956522 0.04347826086956522 0.04347826086956522 0.04347826086956522 0.04347826086956522 0.04347826086956522 0.04347826086956522 0.04545454545454546 0.04545454545454546 0.04545454545454546 0.04545454545454546 0.04545454545454546 0.04545454545454546 0.04545454545454546 0.04545454545454546 0.04545454545454546 0.04545454545454546 0.04545454545454546 0.04545454545454546 0.04545454545454546 0.04545454545454546 0.04545454545454546 0.04545454545454546 0.04545454545454546 0.04545454545454546 0.04545454545454546 0.04545454545454546 0.04545454545454546 0.04545454545454546 0.04166666666666666 0.04166666666666666 0.04166666666666666 0.04166666666666666 0.04166666666666666 0.04166666666666666 0.08333333333333333 0.04166666666666666 0.04166666666666666 0.08333333333333333 0.04166666666666666 0.04166666666666666 0.04166666666666666 0.04166666666666666 0.04166666666666666 0.04166666666666666 0.04166666666666666 0.04166666666666666 0.04166666666666666 0.04166666666666666 0.04166666666666666 0.04166666666666666 0.04347826086956522 0.04347826086956522 0.04347826086956522 0.04347826086956522 0.04347826086956522 0.04347826086956522 0.04347826086956522 0.04347826086956522 0.04347826086956522 0.04347826086956522 0.04347826086956522 0.04347826086956522 0.08695652173913043 0.04347826086956522 0.04347826086956522 0.04347826086956522 0.04347826086956522 0.04347826086956522 0.04347826086956522 0.04347826086956522 0.04347826086956522 0.04347826086956522 0.04545454545454546 0.04545454545454546 0.04545454545454546 0.04545454545454546 0.04545454545454546 0.04545454545454546 0.04545454545454546 0.04545454545454546 0.04545454545454546 0.04545454545454546 0.04545454545454546 0.04545454545454546 0.04545454545454546 0.04545454545454546 0.04545454545454546 0.04545454545454546 0.04545454545454546 0.04545454545454546 0.04545454545454546 0.04545454545454546 0.04545454545454546 0.04545454545454546 0.04545454545454546 0.04545454545454546 0.04545454545454546 0.04545454545454546 0.04545454545454546 0.04545454545454546 0.04545454545454546 0.04545454545454546 0.04545454545454546 0.04545454545454546 0.04545454545454546 0.04545454545454546 0.04545454545454546 0.04545454545454546 0.04545454545454546 0.04545454545454546 0.04545454545454546 0.04545454545454546 0.04545454545454546 0.04545454545454546 0.04545454545454546 0.04545454545454546 0.04545454545454546 0.04545454545454546 0.04545454545454546 0.04545454545454546 0.04545454545454546 0.04545454545454546 0.04545454545454546 0.04545454545454546 0.04545454545454546 0.04545454545454546 0.04545454545454546 0.04545454545454546 0.04545454545454546 0.04545454545454546 0.04545454545454546 0.04545454545454546 0.04545454545454546 0.04545454545454546 0.04545454545454546 0.04545454545454546 0.04545454545454546 0.04545454545454546 0.04545454545454546 0.04545454545454546 0.04545454545454546 0.04545454545454546 0.04545454545454546 0.04545454545454546 0.04545454545454546 0.04545454545454546 0.04545454545454546 0.04545454545454546 0.04545454545454546 0.04545454545454546 0.04545454545454546 0.04545454545454546 0.04545454545454546 0.04545454545454546 0.04545454545454546 0.04545454545454546 0.04545454545454546 0.04545454545454546 0.04545454545454546 0.04545454545454546 0.04545454545454546 0.04545454545454546 0.04545454545454546 0.04545454545454546 0.04545454545454546 0.04545454545454546 0.04545454545454546 0.04545454545454546 0.04545454545454546 0.04545454545454546 0.04545454545454546 0.04545454545454546 0.04545454545454546 0.04545454545454546 0.04545454545454546 0.04545454545454546 0.04545454545454546 0.04545454545454546 0.04545454545454546 0.04545454545454546 0.04545454545454546 0.04545454545454546 0.04545454545454546 0.04545454545454546 0.04545454545454546 0.04545454545454546 0.04545454545454546 0.04545454545454546 0.04545454545454546 0.04545454545454546 0.04545454545454546 0.04545454545454546 0.04545454545454546 0.04545454545454546 0.04545454545454546 0.04545454545454546 0.04545454545454546 0.04545454545454546 0.04545454545454546 0.04545454545454546 0.04545454545454546 0.04545454545454546 0.04545454545454546 0.04545454545454546 0.04545454545454546 0.04545454545454546 0.04545454545454546 0.04545454545454546 0.04545454545454546 0.04545454545454546 0.04545454545454546 0.04545454545454546 0.04545454545454546 0.04545454545454546 0.04545454545454546 0.04545454545454546 0.04545454545454546 0.04545454545454546 0.04545454545454546 0.04545454545454546 0.04545454545454546 0.04545454545454546 0.04545454545454546 0.04545454545454546 0.04545454545454546 0.04545454545454546 0.04545454545454546 0.04545454545454546 0.04545454545454546 0.04545454545454546 0.04545454545454546 0.04545454545454546 0.04545454545454546 0.04545454545454546 0.04545454545454546 0.04545454545454546 0.04545454545454546 0.04545454545454546 0.04545454545454546 0.04545454545454546 0.04545454545454546 0.04545454545454546 0.04545454545454546 0.04545454545454546 0.04545454545454546 0.04545454545454546 0.04545454545454546 0.04545454545454546 0.04545454545454546 0.04545454545454546 0.04545454545454546 0.04545454545454546 0.04545454545454546 0.04545454545454546 0.04545454545454546 0.04545454545454546 0.04545454545454546 0.04545454545454546 0.04545454545454546 0.04545454545454546 0.04545454545454546 0.04545454545454546 0.04545454545454546 0.04545454545454546 0.04545454545454546 0.04545454545454546 0.04545454545454546 0.04545454545454546 0.04545454545454546 0.04545454545454546 0.04545454545454546 0.04545454545454546 0.04545454545454546 0.04545454545454546 0.04545454545454546 0.04545454545454546 0.04545454545454546 0.04545454545454546 0.04545454545454546 0.04545454545454546 0.04545454545454546 0.04545454545454546 0.04545454545454546 0.04545454545454546 0.04545454545454546 0.04545454545454546 0.04545454545454546 0.04545454545454546 0.04545454545454546 0.04545454545454546 0.04545454545454546 0.04545454545454546 0.04545454545454546 0.04545454545454546 0.04545454545454546 0.04545454545454546 0.04545454545454546 0.04545454545454546 0.04545454545454546 0.04545454545454546 0.04545454545454546 0.04545454545454546 0.04545454545454546 0.04545454545454546 0.04545454545454546 0.04545454545454546 0.04545454545454546 0.04545454545454546 0.04545454545454546 0.04545454545454546 0.04545454545454546 0.04545454545454546 0.04545454545454546 0.04545454545454546 0.04545454545454546 0.04545454545454546 0.04545454545454546 0.04545454545454546 0.04545454545454546 0.04545454545454546 0.04545454545454546 0.04545454545454546 0.04545454545454546 0.04545454545454546 0.04545454545454546 0.04545454545454546 0.04545454545454546 0.04545454545454546 0.04545454545454546 0.04545454545454546 0.04545454545454546 0.04545454545454546 0.04545454545454546 0.04545454545454546 0.04545454545454546 0.04545454545454546 0.04545454545454546 0.04545454545454546 0.04545454545454546 0.04545454545454546 0.04545454545454546 0.04545454545454546 0.04545454545454546 0.04545454545454546 0.04545454545454546 0.04545454545454546 0.04545454545454546 0.04545454545454546 0.04545454545454546 0.04545454545454546 0.04545454545454546 0.04545454545454546 0.04545454545454546 0.04545454545454546 0.04545454545454546 0.04545454545454546 0.04545454545454546 0.04545454545454546 0.08695652173913043 0.04347826086956522 0.04347826086956522 0.04347826086956522 0.04347826086956522 0.04347826086956522 0.04347826086956522 0.04347826086956522 0.04347826086956522 0.04347826086956522 0.04347826086956522 0.04347826086956522 0.04347826086956522 0.04347826086956522 0.04347826086956522 0.04347826086956522 0.04347826086956522 0.04347826086956522 0.04347826086956522 0.04347826086956522 0.04347826086956522 0.04347826086956522 0.04545454545454546 0.04545454545454546 0.04545454545454546 0.04545454545454546 0.04545454545454546 0.04545454545454546 0.04545454545454546 0.04545454545454546 0.04545454545454546 0.04545454545454546 0.04545454545454546 0.04545454545454546 0.04545454545454546 0.04545454545454546 0.04545454545454546 0.04545454545454546 0.04545454545454546 0.04545454545454546 0.04545454545454546 0.04545454545454546 0.04545454545454546 0.04545454545454546 0.04545454545454546 0.04545454545454546 0.04545454545454546 0.04545454545454546 0.04545454545454546 0.04545454545454546 0.04545454545454546 0.04545454545454546 0.04545454545454546 0.04545454545454546 0.04545454545454546 0.04545454545454546 0.04545454545454546 0.04545454545454546 0.04545454545454546 0.04545454545454546 0.04545454545454546 0.04545454545454546 0.04545454545454546 0.04545454545454546 0.04545454545454546 0.04545454545454546 0.04545454545454546 0.04545454545454546 0.04545454545454546 0.04545454545454546 0.04545454545454546 0.04545454545454546 0.04545454545454546 0.04545454545454546 0.04545454545454546 0.04545454545454546 0.04545454545454546 0.04545454545454546 0.04545454545454546 0.04545454545454546 0.04545454545454546 0.04545454545454546 0.04545454545454546 0.04545454545454546 0.04545454545454546 0.04545454545454546 0.04545454545454546 0.04545454545454546 0.04545454545454546 0.04545454545454546 0.04545454545454546 0.04545454545454546 0.04545454545454546 0.04545454545454546 0.04545454545454546 0.04545454545454546 0.04545454545454546 0.04545454545454546 0.04545454545454546 0.04545454545454546 0.04545454545454546 0.04545454545454546 0.04545454545454546 0.04545454545454546 0.04545454545454546 0.04545454545454546 0.04545454545454546 0.04545454545454546 0.04545454545454546 0.04545454545454546 0.04545454545454546 0.04545454545454546 0.04545454545454546 0.04545454545454546 0.04545454545454546 0.04545454545454546 0.04545454545454546 0.04545454545454546 0.04545454545454546 0.04545454545454546 0.04545454545454546 0.04545454545454546 0.04545454545454546 0.04545454545454546 0.04545454545454546 0.04545454545454546 0.04545454545454546 0.04545454545454546 0.04545454545454546 0.04545454545454546 0.04545454545454546 0.04545454545454546 0.04545454545454546 0.04545454545454546 0.04545454545454546 0.04545454545454546 0.04545454545454546 0.04545454545454546 0.04545454545454546 0.04545454545454546 0.04545454545454546 0.04545454545454546 0.04545454545454546 0.04545454545454546 0.04545454545454546 0.04545454545454546 0.04545454545454546 0.04545454545454546 0.04545454545454546 0.04545454545454546 0.04545454545454546 0.04545454545454546 0.04545454545454546 0.04545454545454546 0.04166666666666666 0.04166666666666666 0.04166666666666666 0.04166666666666666 0.04166666666666666 0.04166666666666666 0.04166666666666666 0.04166666666666666 0.04166666666666666 0.04166666666666666 0.04166666666666666 0.04166666666666666 0.04166666666666666 0.04166666666666666 0.04166666666666666 0.04166666666666666 0.125 0.04166666666666666 0.04166666666666666 0.04166666666666666 0.04166666666666666 0.04166666666666666 0.04347826086956522 0.04347826086956522 0.04347826086956522 0.04347826086956522 0.04347826086956522 0.04347826086956522 0.04347826086956522 0.04347826086956522 0.08695652173913043 0.04347826086956522 0.04347826086956522 0.04347826086956522 0.04347826086956522 0.04347826086956522 0.04347826086956522 0.04347826086956522 0.04347826086956522 0.04347826086956522 0.04347826086956522 0.04347826086956522 0.04347826086956522 0.04347826086956522 0.04166666666666666 0.04166666666666666 0.04166666666666666 0.04166666666666666 0.04166666666666666 0.04166666666666666 0.04166666666666666 0.04166666666666666 0.04166666666666666 0.04166666666666666 0.08333333333333333 0.04166666666666666 0.04166666666666666 0.04166666666666666 0.04166666666666666 0.04166666666666666 0.04166666666666666 0.04166666666666666 0.04166666666666666 0.08333333333333333 0.04166666666666666 0.04166666666666666 0.04545454545454546 0.04545454545454546 0.04545454545454546 0.04545454545454546 0.04545454545454546 0.04545454545454546 0.04545454545454546 0.04545454545454546 0.04545454545454546 0.04545454545454546 0.04545454545454546 0.04545454545454546 0.04545454545454546 0.04545454545454546 0.04545454545454546 0.04545454545454546 0.04545454545454546 0.04545454545454546 0.04545454545454546 0.04545454545454546 0.04545454545454546 0.04545454545454546 0.04347826086956522 0.04347826086956522 0.04347826086956522 0.04347826086956522 0.04347826086956522 0.04347826086956522 0.04347826086956522 0.04347826086956522 0.04347826086956522 0.04347826086956522 0.04347826086956522 0.04347826086956522 0.04347826086956522 0.04347826086956522 0.04347826086956522 0.04347826086956522 0.04347826086956522 0.04347826086956522 0.04347826086956522 0.04347826086956522 0.08695652173913043 0.04347826086956522 0.04545454545454546 0.04545454545454546 0.04545454545454546 0.04545454545454546 0.04545454545454546 0.04545454545454546 0.04545454545454546 0.04545454545454546 0.04545454545454546 0.04545454545454546 0.04545454545454546 0.04545454545454546 0.04545454545454546 0.04545454545454546 0.04545454545454546 0.04545454545454546 0.04545454545454546 0.04545454545454546 0.04545454545454546 0.04545454545454546 0.04545454545454546 0.04545454545454546 0.04347826086956522 0.04347826086956522 0.04347826086956522 0.04347826086956522 0.04347826086956522 0.04347826086956522 0.04347826086956522 0.04347826086956522 0.04347826086956522 0.08695652173913043 0.04347826086956522 0.04347826086956522 0.04347826086956522 0.04347826086956522 0.04347826086956522 0.04347826086956522 0.04347826086956522 0.04347826086956522 0.04347826086956522 0.04347826086956522 0.04347826086956522 0.04347826086956522 0.04347826086956522 0.04347826086956522 0.04347826086956522 0.08695652173913043 0.04347826086956522 0.04347826086956522 0.04347826086956522 0.04347826086956522 0.04347826086956522 0.04347826086956522 0.04347826086956522 0.04347826086956522 0.04347826086956522 0.04347826086956522 0.04347826086956522 0.04347826086956522 0.04347826086956522 0.04347826086956522 0.04347826086956522 0.04347826086956522 0.04347826086956522 0.04347826086956522 0.04347826086956522 0.04347826086956522 0.04347826086956522 0.04347826086956522 0.04347826086956522 0.04347826086956522 0.04347826086956522 0.08695652173913043 0.04347826086956522 0.04347826086956522 0.04347826086956522 0.04347826086956522 0.04347826086956522 0.04347826086956522 0.04347826086956522 0.04347826086956522 0.04347826086956522 0.04347826086956522 0.04347826086956522 0.04347826086956522 0.04347826086956522 0.04347826086956522 0.04545454545454546 0.04545454545454546 0.04545454545454546 0.04545454545454546 0.04545454545454546 0.04545454545454546 0.04545454545454546 0.04545454545454546 0.04545454545454546 0.04545454545454546 0.04545454545454546 0.04545454545454546 0.04545454545454546 0.04545454545454546 0.04545454545454546 0.04545454545454546 0.04545454545454546 0.04545454545454546 0.04545454545454546 0.04545454545454546 0.04545454545454546 0.04545454545454546 0.03846153846153846 0.03846153846153846 0.03846153846153846 0.03846153846153846 0.07692307692307693 0.03846153846153846 0.03846153846153846 0.1153846153846154 0.03846153846153846 0.03846153846153846 0.03846153846153846 0.03846153846153846 0.03846153846153846 0.07692307692307693 0.03846153846153846 0.03846153846153846 0.03846153846153846 0.03846153846153846 0.03846153846153846 0.03846153846153846 0.03846153846153846 0.03846153846153846 0.04545454545454546 0.04545454545454546 0.04545454545454546 0.04545454545454546 0.04545454545454546 0.04545454545454546 0.04545454545454546 0.04545454545454546 0.04545454545454546 0.04545454545454546 0.04545454545454546 0.04545454545454546 0.04545454545454546 0.04545454545454546 0.04545454545454546 0.04545454545454546 0.04545454545454546 0.04545454545454546 0.04545454545454546 0.04545454545454546 0.04545454545454546 0.04545454545454546 0.04347826086956522 0.04347826086956522 0.04347826086956522 0.04347826086956522 0.04347826086956522 0.08695652173913043 0.04347826086956522 0.04347826086956522 0.04347826086956522 0.04347826086956522 0.04347826086956522 0.04347826086956522 0.04347826086956522 0.04347826086956522 0.04347826086956522 0.04347826086956522 0.04347826086956522 0.04347826086956522 0.04347826086956522 0.04347826086956522 0.04347826086956522 0.04347826086956522 0.04545454545454546 0.04545454545454546 0.04545454545454546 0.04545454545454546 0.04545454545454546 0.04545454545454546 0.04545454545454546 0.04545454545454546 0.04545454545454546 0.04545454545454546 0.04545454545454546 0.04545454545454546 0.04545454545454546 0.04545454545454546 0.04545454545454546 0.04545454545454546 0.04545454545454546 0.04545454545454546 0.04545454545454546 0.04545454545454546 0.04545454545454546 0.04545454545454546 0.04545454545454546 0.04545454545454546 0.04545454545454546 0.04545454545454546 0.04545454545454546 0.04545454545454546 0.04545454545454546 0.04545454545454546 0.04545454545454546 0.04545454545454546 0.04545454545454546 0.04545454545454546 0.04545454545454546 0.04545454545454546 0.04545454545454546 0.04545454545454546 0.04545454545454546 0.04545454545454546 0.04545454545454546 0.04545454545454546 0.04545454545454546 0.04545454545454546 0.04545454545454546 0.04545454545454546 0.04545454545454546 0.04545454545454546 0.04545454545454546 0.04545454545454546 0.04545454545454546 0.04545454545454546 0.04545454545454546 0.04545454545454546 0.04545454545454546 0.04545454545454546 0.04545454545454546 0.04545454545454546 0.04545454545454546 0.04545454545454546 0.04545454545454546 0.04545454545454546 0.04545454545454546 0.04545454545454546 0.04545454545454546 0.04545454545454546 0.04545454545454546 0.04545454545454546 0.04545454545454546 0.04545454545454546 0.04545454545454546 0.04545454545454546 0.04545454545454546 0.04545454545454546 0.04545454545454546 0.04545454545454546 0.04545454545454546 0.04545454545454546 0.04545454545454546 0.04545454545454546 0.04545454545454546 0.04545454545454546 0.04545454545454546 0.04545454545454546 0.04545454545454546 0.04545454545454546 0.04545454545454546 0.04545454545454546 0.04347826086956522 0.04347826086956522 0.04347826086956522 0.04347826086956522 0.04347826086956522 0.04347826086956522 0.08695652173913043 0.04347826086956522 0.04347826086956522 0.04347826086956522 0.04347826086956522 0.04347826086956522 0.04347826086956522 0.04347826086956522 0.04347826086956522 0.04347826086956522 0.04347826086956522 0.04347826086956522 0.04347826086956522 0.04347826086956522 0.04347826086956522 0.04347826086956522 0.04347826086956522 0.04347826086956522 0.04347826086956522 0.04347826086956522 0.04347826086956522 0.04347826086956522 0.04347826086956522 0.04347826086956522 0.04347826086956522 0.04347826086956522 0.04347826086956522 0.04347826086956522 0.04347826086956522 0.04347826086956522 0.04347826086956522 0.04347826086956522 0.04347826086956522 0.04347826086956522 0.08695652173913043 0.04347826086956522 0.04347826086956522 0.04347826086956522 0.04347826086956522 0.04347826086956522 0.04347826086956522 0.04347826086956522 0.04347826086956522 0.04347826086956522 0.04347826086956522 0.04347826086956522 0.04347826086956522 0.08695652173913043 0.04347826086956522 0.04347826086956522 0.04347826086956522 0.04347826086956522 0.04347826086956522 0.04347826086956522 0.04347826086956522 0.04347826086956522 0.04347826086956522 0.04347826086956522 0.04347826086956522 0.04347826086956522 0.04545454545454546 0.04545454545454546 0.04545454545454546 0.04545454545454546 0.04545454545454546 0.04545454545454546 0.04545454545454546 0.04545454545454546 0.04545454545454546 0.04545454545454546 0.04545454545454546 0.04545454545454546 0.04545454545454546 0.04545454545454546 0.04545454545454546 0.04545454545454546 0.04545454545454546 0.04545454545454546 0.04545454545454546 0.04545454545454546 0.04545454545454546 0.04545454545454546 0.04545454545454546 0.04545454545454546 0.04545454545454546 0.04545454545454546 0.04545454545454546 0.04545454545454546 0.04545454545454546 0.04545454545454546 0.04545454545454546 0.04545454545454546 0.04545454545454546 0.04545454545454546 0.04545454545454546 0.04545454545454546 0.04545454545454546 0.04545454545454546 0.04545454545454546 0.04545454545454546 0.04545454545454546 0.04545454545454546 0.04545454545454546 0.04545454545454546 0.04545454545454546 0.04545454545454546 0.04545454545454546 0.04545454545454546 0.04545454545454546 0.04545454545454546 0.04545454545454546 0.04545454545454546 0.04545454545454546 0.04545454545454546 0.04545454545454546 0.04545454545454546 0.04545454545454546 0.04545454545454546 0.04545454545454546 0.04545454545454546 0.04545454545454546 0.04545454545454546 0.04545454545454546 0.04545454545454546 0.04545454545454546 0.04545454545454546 0.04347826086956522 0.04347826086956522 0.04347826086956522 0.04347826086956522 0.04347826086956522 0.04347826086956522 0.04347826086956522 0.04347826086956522 0.04347826086956522 0.04347826086956522 0.04347826086956522 0.08695652173913043 0.04347826086956522 0.04347826086956522 0.04347826086956522 0.04347826086956522 0.04347826086956522 0.04347826086956522 0.04347826086956522 0.04347826086956522 0.04347826086956522 0.04347826086956522 0.04545454545454546 0.04545454545454546 0.04545454545454546 0.04545454545454546 0.04545454545454546 0.04545454545454546 0.04545454545454546 0.04545454545454546 0.04545454545454546 0.04545454545454546 0.04545454545454546 0.04545454545454546 0.04545454545454546 0.04545454545454546 0.04545454545454546 0.04545454545454546 0.04545454545454546 0.04545454545454546 0.04545454545454546 0.04545454545454546 0.04545454545454546 0.04545454545454546 0.04545454545454546 0.04545454545454546 0.04545454545454546 0.04545454545454546 0.04545454545454546 0.04545454545454546 0.04545454545454546 0.04545454545454546 0.04545454545454546 0.04545454545454546 0.04545454545454546 0.04545454545454546 0.04545454545454546 0.04545454545454546 0.04545454545454546 0.04545454545454546 0.04545454545454546 0.04545454545454546 0.04545454545454546 0.04545454545454546 0.04545454545454546 0.04545454545454546 0.04545454545454546 0.04545454545454546 0.04545454545454546 0.04545454545454546 0.04545454545454546 0.04545454545454546 0.04545454545454546 0.04545454545454546 0.04545454545454546 0.04545454545454546 0.04545454545454546 0.04545454545454546 0.04545454545454546 0.04545454545454546 0.04545454545454546 0.04545454545454546 0.04545454545454546 0.04545454545454546 0.04545454545454546 0.04545454545454546 0.04545454545454546 0.04545454545454546 0.04545454545454546 0.04545454545454546 0.04545454545454546 0.04545454545454546 0.04545454545454546 0.04545454545454546 0.04545454545454546 0.04545454545454546 0.04545454545454546 0.04545454545454546 0.04545454545454546 0.04545454545454546 0.04545454545454546 0.04545454545454546 0.04545454545454546 0.04545454545454546 0.04545454545454546 0.04545454545454546 0.04545454545454546 0.04545454545454546 0.04545454545454546 0.04545454545454546 0.04545454545454546 0.04545454545454546 0.04545454545454546 0.04545454545454546 0.04545454545454546 0.04545454545454546 0.04545454545454546 0.04545454545454546 0.04545454545454546 0.04545454545454546 0.04545454545454546 0.04545454545454546 0.04545454545454546 0.04545454545454546 0.04545454545454546 0.04545454545454546 0.04545454545454546 0.04545454545454546 0.04545454545454546 0.04545454545454546 0.04545454545454546 0.04545454545454546 0.04545454545454546 0.04545454545454546 0.04545454545454546 0.04545454545454546 0.04545454545454546 0.04545454545454546 0.04545454545454546 0.04545454545454546 0.04545454545454546 0.04545454545454546 0.04545454545454546 0.04545454545454546 0.04545454545454546 0.04545454545454546 0.04545454545454546 0.04545454545454546 0.04545454545454546 0.04545454545454546 0.04545454545454546 0.04545454545454546 0.04545454545454546 0.04545454545454546 0.04545454545454546 0.04545454545454546 0.04545454545454546 0.04545454545454546 0.04545454545454546 0.04545454545454546 0.04545454545454546 0.04545454545454546 0.04545454545454546 0.04545454545454546 0.04545454545454546 0.04545454545454546 0.04545454545454546 0.04545454545454546 0.04545454545454546 0.04545454545454546 0.04545454545454546 0.04545454545454546 0.04545454545454546 0.04545454545454546 0.04545454545454546 0.04545454545454546 0.04545454545454546 0.04545454545454546 0.04545454545454546 0.04545454545454546 0.04545454545454546 0.04545454545454546 0.04545454545454546 0.04545454545454546 0.04545454545454546 0.04545454545454546 0.04545454545454546 0.04545454545454546 0.04545454545454546 0.04545454545454546 0.04545454545454546 0.04545454545454546 0.04545454545454546 0.04545454545454546 0.04545454545454546 0.04545454545454546 0.04545454545454546 0.04545454545454546 0.04545454545454546 0.04545454545454546 0.04545454545454546 0.04545454545454546 0.04545454545454546 0.04545454545454546 0.04545454545454546 0.04545454545454546 0.04545454545454546 0.04545454545454546 0.04545454545454546 0.04545454545454546 0.04545454545454546 0.04545454545454546 0.04545454545454546 0.04545454545454546 0.04545454545454546 0.04545454545454546 0.04545454545454546 0.04545454545454546 0.04545454545454546 0.04545454545454546 0.04545454545454546 0.04545454545454546 0.04545454545454546 0.04545454545454546 0.04545454545454546 0.04545454545454546 0.04545454545454546 0.04545454545454546 0.04545454545454546 0.04545454545454546 0.04545454545454546 0.04545454545454546 0.04545454545454546 0.04545454545454546 0.04545454545454546 0.04545454545454546 0.04545454545454546 0.04545454545454546 0.04545454545454546 0.04545454545454546 0.04545454545454546 0.04545454545454546 0.04347826086956522 0.08695652173913043 0.04347826086956522 0.04347826086956522 0.04347826086956522 0.04347826086956522 0.04347826086956522 0.04347826086956522 0.04347826086956522 0.04347826086956522 0.04347826086956522 0.04347826086956522 0.04347826086956522 0.04347826086956522 0.04347826086956522 0.04347826086956522 0.04347826086956522 0.04347826086956522 0.04347826086956522 0.04347826086956522 0.04347826086956522 0.04347826086956522 0.04545454545454546 0.04545454545454546 0.04545454545454546 0.04545454545454546 0.04545454545454546 0.04545454545454546 0.04545454545454546 0.04545454545454546 0.04545454545454546 0.04545454545454546 0.04545454545454546 0.04545454545454546 0.04545454545454546 0.04545454545454546 0.04545454545454546 0.04545454545454546 0.04545454545454546 0.04545454545454546 0.04545454545454546 0.04545454545454546 0.04545454545454546 0.04545454545454546 0.04545454545454546 0.04545454545454546 0.04545454545454546 0.04545454545454546 0.04545454545454546 0.04545454545454546 0.04545454545454546 0.04545454545454546 0.04545454545454546 0.04545454545454546 0.04545454545454546 0.04545454545454546 0.04545454545454546 0.04545454545454546 0.04545454545454546 0.04545454545454546 0.04545454545454546 0.04545454545454546 0.04545454545454546 0.04545454545454546 0.04545454545454546 0.04545454545454546 0.04347826086956522 0.04347826086956522 0.08695652173913043 0.04347826086956522 0.04347826086956522 0.04347826086956522 0.04347826086956522 0.04347826086956522 0.04347826086956522 0.04347826086956522 0.04347826086956522 0.04347826086956522 0.04347826086956522 0.04347826086956522 0.04347826086956522 0.04347826086956522 0.04347826086956522 0.04347826086956522 0.04347826086956522 0.04347826086956522 0.04347826086956522 0.04347826086956522 0.04545454545454546 0.04545454545454546 0.04545454545454546 0.04545454545454546 0.04545454545454546 0.04545454545454546 0.04545454545454546 0.04545454545454546 0.04545454545454546 0.04545454545454546 0.04545454545454546 0.04545454545454546 0.04545454545454546 0.04545454545454546 0.04545454545454546 0.04545454545454546 0.04545454545454546 0.04545454545454546 0.04545454545454546 0.04545454545454546 0.04545454545454546 0.04545454545454546 0.04545454545454546 0.04545454545454546 0.04545454545454546 0.04545454545454546 0.04545454545454546 0.04545454545454546 0.04545454545454546 0.04545454545454546 0.04545454545454546 0.04545454545454546 0.04545454545454546 0.04545454545454546 0.04545454545454546 0.04545454545454546 0.04545454545454546 0.04545454545454546 0.04545454545454546 0.04545454545454546 0.04545454545454546 0.04545454545454546 0.04545454545454546 0.04545454545454546 0.04545454545454546 0.04545454545454546 0.04545454545454546 0.04545454545454546 0.04545454545454546 0.04545454545454546 0.04545454545454546 0.04545454545454546 0.04545454545454546 0.04545454545454546 0.04545454545454546 0.04545454545454546 0.04545454545454546 0.04545454545454546 0.04545454545454546 0.04545454545454546 0.04545454545454546 0.04545454545454546 0.04545454545454546 0.04545454545454546 0.04545454545454546 0.04545454545454546 0.04545454545454546 0.04545454545454546 0.04545454545454546 0.04545454545454546 0.04545454545454546 0.04545454545454546 0.04545454545454546 0.04545454545454546 0.04545454545454546 0.04545454545454546 0.04545454545454546 0.04545454545454546 0.04545454545454546 0.04545454545454546 0.04545454545454546 0.04545454545454546 0.04545454545454546 0.04545454545454546 0.04545454545454546 0.04545454545454546 0.04545454545454546 0.04545454545454546 0.04545454545454546 0.04545454545454546 0.04545454545454546 0.04545454545454546 0.04545454545454546 0.04545454545454546 0.04545454545454546 0.04545454545454546 0.04545454545454546 0.04545454545454546 0.04545454545454546 0.04545454545454546 0.04545454545454546 0.04545454545454546 0.04545454545454546 0.04545454545454546 0.04545454545454546 0.04545454545454546 0.04545454545454546 0.04545454545454546 0.04545454545454546 0.04545454545454546 0.04545454545454546 0.04545454545454546 0.04545454545454546 0.04545454545454546 0.04545454545454546 0.04545454545454546 0.04545454545454546 0.04545454545454546 0.04545454545454546 0.04545454545454546 0.04545454545454546 0.04545454545454546 0.04545454545454546 0.04545454545454546 0.04545454545454546 0.04545454545454546 0.04545454545454546 0.04545454545454546 0.04545454545454546 0.04545454545454546 0.04545454545454546 0.04545454545454546 0.04545454545454546 0.04545454545454546 0.04545454545454546 0.04545454545454546 0.04545454545454546 0.04545454545454546 0.04545454545454546 0.04545454545454546 0.04545454545454546 0.04545454545454546 0.04545454545454546 0.04545454545454546 0.04545454545454546 0.04545454545454546 0.04545454545454546 0.04545454545454546 0.04545454545454546 0.04545454545454546 0.04545454545454546 0.04545454545454546 0.04545454545454546 0.04545454545454546</probabilities>
		</cpt>
		<cpt id="Humid_Max">
			<state id="State41" />
			<state id="State42" />
			<state id="State50" />
			<state id="State53" />
			<state id="State55" />
			<state id="State60" />
			<state id="State61" />
			<state id="State62" />
			<state id="State64" />
			<state id="State66" />
			<state id="State72" />
			<state id="State73" />
			<state id="State75" />
			<state id="State76" />
			<state id="State78" />
			<state id="State80" />
			<state id="State82" />
			<state id="State83" />
			<state id="State84" />
			<state id="State86" />
			<state id="State87" />
			<state id="State89" />
			<state id="State93" />
			<parents>Wind_Max Temp_Ave</parents>
			<probabilities>0.04347826086956522 0.04347826086956522 0.04347826086956522 0.04347826086956522 0.04347826086956522 0.04347826086956522 0.04347826086956522 0.04347826086956522 0.04347826086956522 0.04347826086956522 0.04347826086956522 0.04347826086956522 0.04347826086956522 0.04347826086956522 0.04347826086956522 0.04347826086956522 0.04347826086956522 0.04347826086956522 0.04347826086956522 0.04347826086956522 0.04347826086956522 0.04347826086956522 0.04347826086956522 0.04347826086956522 0.04347826086956522 0.04347826086956522 0.04347826086956522 0.04347826086956522 0.04347826086956522 0.04347826086956522 0.04347826086956522 0.04347826086956522 0.04347826086956522 0.04347826086956522 0.04347826086956522 0.04347826086956522 0.04347826086956522 0.04347826086956522 0.04347826086956522 0.04347826086956522 0.04347826086956522 0.04347826086956522 0.04347826086956522 0.04347826086956522 0.04347826086956522 0.04347826086956522 0.04347826086956522 0.04347826086956522 0.04347826086956522 0.04347826086956522 0.04347826086956522 0.04347826086956522 0.04347826086956522 0.04347826086956522 0.04347826086956522 0.04347826086956522 0.04347826086956522 0.04347826086956522 0.04347826086956522 0.04347826086956522 0.04347826086956522 0.04347826086956522 0.04347826086956522 0.04347826086956522 0.04347826086956522 0.04347826086956522 0.04347826086956522 0.04347826086956522 0.04347826086956522 0.04347826086956522 0.04347826086956522 0.04347826086956522 0.04347826086956522 0.04347826086956522 0.04347826086956522 0.04347826086956522 0.04347826086956522 0.04347826086956522 0.04347826086956522 0.04347826086956522 0.04347826086956522 0.04347826086956522 0.04347826086956522 0.04347826086956522 0.04347826086956522 0.04347826086956522 0.04347826086956522 0.04347826086956522 0.04347826086956522 0.04347826086956522 0.04347826086956522 0.04347826086956522 0.04347826086956522 0.04347826086956522 0.04347826086956522 0.04347826086956522 0.04347826086956522 0.04347826086956522 0.04347826086956522 0.04347826086956522 0.04347826086956522 0.04347826086956522 0.04347826086956522 0.04347826086956522 0.04347826086956522 0.04347826086956522 0.04347826086956522 0.04347826086956522 0.04347826086956522 0.04347826086956522 0.04347826086956522 0.04347826086956522 0.04347826086956522 0.04347826086956522 0.04347826086956522 0.04347826086956522 0.04347826086956522 0.04347826086956522 0.04347826086956522 0.04347826086956522 0.04347826086956522 0.04347826086956522 0.04347826086956522 0.04347826086956522 0.04347826086956522 0.04347826086956522 0.04347826086956522 0.04347826086956522 0.04347826086956522 0.04347826086956522 0.04347826086956522 0.04347826086956522 0.04347826086956522 0.04347826086956522 0.04347826086956522 0.04347826086956522 0.04347826086956522 0.04347826086956522 0.04347826086956522 0.04347826086956522 0.04347826086956522 0.04347826086956522 0.04347826086956522 0.04347826086956522 0.04347826086956522 0.04347826086956522 0.04347826086956522 0.04347826086956522 0.04347826086956522 0.04347826086956522 0.04347826086956522 0.04347826086956522 0.04347826086956522 0.04347826086956522 0.04347826086956522 0.04347826086956522 0.04347826086956522 0.04347826086956522 0.04347826086956522 0.04347826086956522 0.04347826086956522 0.04347826086956522 0.04347826086956522 0.04347826086956522 0.04347826086956522 0.04347826086956522 0.04347826086956522 0.04347826086956522 0.04347826086956522 0.04347826086956522 0.04347826086956522 0.04347826086956522 0.04347826086956522 0.04347826086956522 0.04347826086956522 0.04347826086956522 0.04347826086956522 0.04347826086956522 0.04347826086956522 0.04347826086956522 0.04347826086956522 0.04347826086956522 0.04347826086956522 0.04347826086956522 0.04347826086956522 0.04347826086956522 0.04347826086956522 0.04347826086956522 0.04347826086956522 0.04347826086956522 0.04347826086956522 0.04347826086956522 0.04347826086956522 0.04347826086956522 0.04347826086956522 0.04347826086956522 0.04347826086956522 0.04347826086956522 0.04347826086956522 0.04347826086956522 0.04347826086956522 0.04347826086956522 0.04347826086956522 0.04347826086956522 0.04347826086956522 0.04347826086956522 0.04347826086956522 0.04347826086956522 0.04347826086956522 0.04347826086956522 0.04347826086956522 0.04347826086956522 0.04347826086956522 0.04347826086956522 0.04347826086956522 0.04347826086956522 0.04347826086956522 0.04347826086956522 0.04347826086956522 0.04347826086956522 0.04347826086956522 0.04347826086956522 0.04347826086956522 0.04347826086956522 0.04347826086956522 0.04347826086956522 0.04347826086956522 0.04347826086956522 0.04347826086956522 0.04347826086956522 0.04347826086956522 0.04347826086956522 0.04347826086956522 0.04347826086956522 0.04347826086956522 0.04347826086956522 0.04347826086956522 0.04347826086956522 0.04347826086956522 0.04347826086956522 0.04347826086956522 0.04347826086956522 0.04347826086956522 0.04347826086956522 0.04347826086956522 0.04347826086956522 0.04347826086956522 0.04347826086956522 0.04347826086956522 0.04347826086956522 0.04347826086956522 0.04347826086956522 0.04347826086956522 0.04347826086956522 0.04347826086956522 0.04347826086956522 0.04347826086956522 0.04347826086956522 0.04347826086956522 0.04347826086956522 0.04347826086956522 0.04347826086956522 0.04347826086956522 0.04347826086956522 0.04347826086956522 0.04347826086956522 0.04347826086956522 0.04347826086956522 0.04347826086956522 0.04347826086956522 0.04347826086956522 0.04347826086956522 0.04347826086956522 0.04347826086956522 0.04347826086956522 0.04347826086956522 0.03225806451612903 0.03225806451612903 0.03225806451612903 0.03225806451612903 0.03225806451612903 0.03225806451612903 0.03225806451612903 0.03225806451612903 0.2903225806451613 0.03225806451612903 0.03225806451612903 0.03225806451612903 0.03225806451612903 0.03225806451612903 0.03225806451612903 0.03225806451612903 0.03225806451612903 0.03225806451612903 0.03225806451612903 0.03225806451612903 0.03225806451612903 0.03225806451612903 0.03225806451612903 0.04347826086956522 0.04347826086956522 0.04347826086956522 0.04347826086956522 0.04347826086956522 0.04347826086956522 0.04347826086956522 0.04347826086956522 0.04347826086956522 0.04347826086956522 0.04347826086956522 0.04347826086956522 0.04347826086956522 0.04347826086956522 0.04347826086956522 0.04347826086956522 0.04347826086956522 0.04347826086956522 0.04347826086956522 0.04347826086956522 0.04347826086956522 0.04347826086956522 0.04347826086956522 0.04347826086956522 0.04347826086956522 0.04347826086956522 0.04347826086956522 0.04347826086956522 0.04347826086956522 0.04347826086956522 0.04347826086956522 0.04347826086956522 0.04347826086956522 0.04347826086956522 0.04347826086956522 0.04347826086956522 0.04347826086956522 0.04347826086956522 0.04347826086956522 0.04347826086956522 0.04347826086956522 0.04347826086956522 0.04347826086956522 0.04347826086956522 0.04347826086956522 0.04347826086956522 0.04347826086956522 0.04347826086956522 0.04347826086956522 0.04347826086956522 0.04347826086956522 0.04347826086956522 0.04347826086956522 0.04347826086956522 0.04347826086956522 0.04347826086956522 0.04347826086956522 0.04347826086956522 0.04347826086956522 0.04347826086956522 0.04347826086956522 0.04347826086956522 0.04347826086956522 0.04347826086956522 0.04347826086956522 0.04347826086956522 0.04347826086956522 0.04347826086956522 0.04347826086956522 0.04347826086956522 0.04347826086956522 0.04347826086956522 0.04347826086956522 0.04347826086956522 0.04347826086956522 0.04347826086956522 0.04347826086956522 0.04347826086956522 0.04347826086956522 0.04347826086956522 0.04347826086956522 0.04347826086956522 0.04347826086956522 0.04347826086956522 0.04347826086956522 0.04347826086956522 0.04347826086956522 0.04347826086956522 0.04347826086956522 0.04347826086956522 0.04347826086956522 0.04347826086956522 0.04347826086956522 0.04347826086956522 0.04347826086956522 0.04347826086956522 0.04347826086956522 0.04347826086956522 0.04347826086956522 0.04347826086956522 0.04347826086956522 0.04347826086956522 0.04347826086956522 0.04347826086956522 0.04347826086956522 0.04347826086956522 0.04347826086956522 0.04347826086956522 0.04347826086956522 0.04347826086956522 0.04347826086956522 0.04347826086956522 0.04347826086956522 0.04347826086956522 0.04347826086956522 0.04347826086956522 0.04347826086956522 0.04347826086956522 0.04347826086956522 0.04347826086956522 0.04347826086956522 0.04347826086956522 0.04347826086956522 0.04347826086956522 0.04347826086956522 0.04347826086956522 0.04347826086956522 0.04347826086956522 0.04347826086956522 0.04347826086956522 0.04347826086956522 0.04347826086956522 0.04347826086956522 0.04347826086956522 0.04347826086956522 0.04347826086956522 0.04347826086956522 0.04347826086956522 0.04347826086956522 0.04347826086956522 0.04347826086956522 0.04347826086956522 0.04347826086956522 0.04347826086956522 0.04347826086956522 0.04347826086956522 0.04347826086956522 0.04347826086956522 0.04347826086956522 0.04347826086956522 0.04347826086956522 0.04347826086956522 0.04347826086956522 0.04347826086956522 0.04347826086956522 0.04347826086956522 0.04347826086956522 0.04347826086956522 0.04347826086956522 0.04347826086956522 0.04347826086956522 0.04347826086956522 0.04347826086956522 0.04347826086956522 0.04347826086956522 0.04347826086956522 0.04347826086956522 0.04347826086956522 0.04347826086956522 0.04347826086956522 0.04347826086956522 0.04347826086956522 0.04347826086956522 0.04347826086956522 0.04347826086956522 0.04347826086956522 0.04347826086956522 0.04347826086956522 0.04347826086956522 0.04347826086956522 0.04347826086956522 0.04347826086956522 0.04347826086956522 0.04347826086956522 0.04347826086956522 0.04347826086956522 0.04347826086956522 0.04347826086956522 0.04347826086956522 0.04347826086956522 0.04347826086956522 0.04347826086956522 0.04347826086956522 0.04347826086956522 0.04347826086956522 0.04347826086956522 0.04347826086956522 0.04347826086956522 0.04347826086956522 0.04347826086956522 0.04347826086956522 0.04347826086956522 0.04347826086956522 0.04347826086956522 0.04347826086956522 0.04347826086956522 0.04347826086956522 0.04347826086956522 0.04347826086956522 0.04347826086956522 0.04347826086956522 0.04347826086956522 0.04347826086956522 0.04347826086956522 0.04347826086956522 0.04347826086956522 0.04347826086956522 0.04347826086956522 0.04347826086956522 0.04347826086956522 0.04347826086956522 0.04347826086956522 0.04347826086956522 0.04347826086956522 0.04347826086956522 0.04347826086956522 0.04347826086956522 0.04347826086956522 0.04347826086956522 0.04347826086956522 0.04347826086956522 0.04347826086956522 0.04347826086956522 0.04347826086956522 0.04347826086956522 0.04347826086956522 0.04347826086956522 0.04347826086956522 0.04347826086956522 0.04347826086956522 0.04347826086956522 0.04347826086956522 0.04347826086956522 0.04347826086956522 0.04347826086956522 0.04347826086956522 0.04347826086956522 0.04347826086956522 0.04347826086956522 0.04347826086956522 0.04347826086956522 0.04347826086956522 0.04347826086956522 0.04347826086956522 0.04347826086956522 0.04347826086956522 0.04347826086956522 0.04347826086956522 0.04347826086956522 0.04347826086956522 0.04347826086956522 0.04347826086956522 0.04347826086956522 0.04347826086956522 0.04347826086956522 0.04347826086956522 0.04347826086956522 0.04347826086956522 0.04347826086956522 0.04347826086956522 0.04347826086956522 0.04347826086956522 0.04347826086956522 0.04347826086956522 0.04347826086956522 0.04347826086956522 0.04347826086956522 0.04347826086956522 0.04347826086956522 0.04347826086956522 0.04347826086956522 0.04347826086956522 0.04347826086956522 0.04347826086956522 0.04347826086956522 0.04347826086956522 0.04347826086956522 0.04347826086956522 0.04347826086956522 0.04347826086956522 0.04347826086956522 0.04347826086956522 0.04347826086956522 0.04347826086956522 0.04347826086956522 0.04347826086956522 0.04347826086956522 0.04347826086956522 0.04347826086956522 0.04347826086956522 0.04347826086956522 0.04347826086956522 0.04347826086956522 0.04347826086956522 0.04347826086956522 0.04347826086956522 0.04347826086956522 0.04347826086956522 0.04347826086956522 0.04347826086956522 0.04347826086956522 0.04347826086956522 0.04347826086956522 0.04347826086956522 0.04347826086956522 0.04347826086956522 0.04347826086956522 0.04347826086956522 0.04347826086956522 0.04347826086956522 0.04347826086956522 0.04347826086956522 0.04347826086956522 0.04347826086956522 0.04347826086956522 0.04347826086956522 0.04347826086956522 0.04347826086956522 0.04347826086956522 0.04347826086956522 0.04347826086956522 0.04347826086956522 0.04347826086956522 0.04347826086956522 0.04347826086956522 0.04347826086956522 0.04347826086956522 0.04347826086956522 0.04347826086956522 0.04347826086956522 0.04347826086956522 0.04347826086956522 0.04347826086956522 0.04347826086956522 0.04347826086956522 0.04347826086956522 0.04347826086956522 0.04347826086956522 0.04347826086956522 0.04347826086956522 0.04347826086956522 0.04347826086956522 0.04347826086956522 0.04347826086956522 0.04347826086956522 0.04347826086956522 0.04347826086956522 0.04347826086956522 0.04347826086956522 0.04347826086956522 0.04347826086956522 0.04347826086956522 0.04347826086956522 0.04347826086956522 0.04347826086956522 0.04347826086956522 0.04347826086956522 0.04347826086956522 0.04347826086956522 0.04347826086956522 0.04347826086956522 0.04347826086956522 0.04347826086956522 0.04347826086956522 0.04347826086956522 0.04347826086956522 0.04347826086956522 0.04347826086956522 0.04347826086956522 0.04347826086956522 0.04347826086956522 0.04347826086956522 0.04347826086956522 0.04347826086956522 0.04347826086956522 0.04347826086956522 0.04347826086956522 0.04347826086956522 0.04347826086956522 0.04347826086956522 0.04347826086956522 0.04347826086956522 0.04347826086956522 0.04347826086956522 0.04347826086956522 0.04347826086956522 0.04347826086956522 0.04347826086956522 0.04347826086956522 0.04347826086956522 0.04347826086956522 0.04347826086956522 0.04347826086956522 0.04347826086956522 0.04347826086956522 0.04347826086956522 0.04347826086956522 0.04347826086956522 0.04347826086956522 0.04347826086956522 0.04347826086956522 0.04347826086956522 0.04347826086956522 0.04347826086956522 0.04347826086956522 0.04347826086956522 0.04347826086956522 0.04347826086956522 0.04347826086956522 0.04347826086956522 0.04347826086956522 0.04347826086956522 0.04347826086956522 0.04347826086956522 0.04347826086956522 0.04347826086956522 0.04347826086956522 0.04347826086956522 0.04347826086956522 0.04347826086956522 0.04347826086956522 0.04347826086956522 0.04347826086956522 0.04347826086956522 0.04347826086956522 0.04347826086956522 0.04347826086956522 0.04347826086956522 0.04347826086956522 0.04347826086956522 0.04347826086956522 0.04347826086956522 0.04347826086956522 0.04347826086956522 0.04347826086956522 0.04347826086956522 0.04347826086956522 0.04347826086956522 0.04347826086956522 0.04347826086956522 0.04347826086956522 0.04347826086956522 0.04347826086956522 0.04347826086956522 0.04347826086956522 0.04347826086956522 0.04347826086956522 0.04347826086956522 0.04347826086956522 0.04347826086956522 0.04347826086956522 0.04347826086956522 0.04347826086956522 0.04347826086956522 0.04347826086956522 0.04347826086956522 0.04347826086956522 0.04347826086956522 0.04347826086956522 0.04347826086956522 0.04347826086956522 0.04347826086956522 0.04347826086956522 0.04347826086956522 0.04347826086956522 0.04347826086956522 0.04347826086956522 0.04347826086956522 0.04347826086956522 0.04347826086956522 0.04347826086956522 0.04347826086956522 0.04347826086956522 0.04347826086956522 0.04347826086956522 0.04347826086956522 0.04347826086956522 0.04347826086956522 0.04347826086956522 0.04347826086956522 0.04347826086956522 0.04347826086956522 0.04347826086956522 0.04347826086956522 0.04347826086956522 0.04347826086956522 0.04347826086956522 0.04347826086956522 0.04347826086956522 0.04347826086956522 0.04347826086956522 0.04347826086956522 0.04347826086956522 0.04347826086956522 0.04347826086956522 0.04347826086956522 0.04347826086956522 0.04347826086956522 0.04347826086956522 0.04347826086956522 0.04347826086956522 0.04347826086956522 0.04347826086956522 0.04347826086956522 0.04347826086956522 0.04347826086956522 0.04347826086956522 0.04347826086956522 0.04347826086956522 0.04347826086956522 0.04347826086956522 0.04347826086956522 0.04347826086956522 0.04347826086956522 0.04347826086956522 0.04347826086956522 0.04347826086956522 0.04347826086956522 0.04347826086956522 0.04166666666666666 0.04166666666666666 0.04166666666666666 0.04166666666666666 0.04166666666666666 0.04166666666666666 0.04166666666666666 0.04166666666666666 0.04166666666666666 0.04166666666666666 0.04166666666666666 0.04166666666666666 0.04166666666666666 0.04166666666666666 0.04166666666666666 0.08333333333333333 0.04166666666666666 0.04166666666666666 0.04166666666666666 0.04166666666666666 0.04166666666666666 0.04166666666666666 0.04166666666666666 0.04347826086956522 0.04347826086956522 0.04347826086956522 0.04347826086956522 0.04347826086956522 0.04347826086956522 0.04347826086956522 0.04347826086956522 0.04347826086956522 0.04347826086956522 0.04347826086956522 0.04347826086956522 0.04347826086956522 0.04347826086956522 0.04347826086956522 0.04347826086956522 0.04347826086956522 0.04347826086956522 0.04347826086956522 0.04347826086956522 0.04347826086956522 0.04347826086956522 0.04347826086956522 0.04347826086956522 0.04347826086956522 0.04347826086956522 0.04347826086956522 0.04347826086956522 0.04347826086956522 0.04347826086956522 0.04347826086956522 0.04347826086956522 0.04347826086956522 0.04347826086956522 0.04347826086956522 0.04347826086956522 0.04347826086956522 0.04347826086956522 0.04347826086956522 0.04347826086956522 0.04347826086956522 0.04347826086956522 0.04347826086956522 0.04347826086956522 0.04347826086956522 0.04347826086956522 0.04347826086956522 0.04347826086956522 0.04347826086956522 0.04347826086956522 0.04347826086956522 0.04347826086956522 0.04347826086956522 0.04347826086956522 0.04347826086956522 0.04347826086956522 0.04347826086956522 0.04347826086956522 0.04347826086956522 0.04347826086956522 0.04347826086956522 0.04347826086956522 0.04347826086956522 0.04347826086956522 0.04347826086956522 0.04347826086956522 0.04347826086956522 0.04347826086956522 0.04347826086956522 0.04347826086956522 0.04347826086956522 0.04347826086956522 0.04347826086956522 0.04347826086956522 0.04347826086956522 0.04347826086956522 0.04347826086956522 0.04347826086956522 0.04347826086956522 0.04347826086956522 0.04347826086956522 0.04347826086956522 0.04347826086956522 0.04347826086956522 0.04347826086956522 0.04347826086956522 0.04347826086956522 0.04347826086956522 0.04347826086956522 0.04347826086956522 0.04347826086956522 0.04347826086956522 0.04347826086956522 0.04347826086956522 0.04347826086956522 0.04347826086956522 0.04347826086956522 0.04347826086956522 0.04347826086956522 0.04347826086956522 0.04347826086956522 0.04347826086956522 0.04347826086956522 0.04347826086956522 0.04347826086956522 0.04347826086956522 0.04347826086956522 0.04347826086956522 0.04347826086956522 0.04347826086956522 0.04347826086956522 0.04347826086956522 0.04347826086956522 0.04347826086956522 0.04347826086956522 0.04347826086956522 0.04347826086956522 0.04347826086956522 0.04347826086956522 0.04347826086956522 0.04347826086956522 0.04347826086956522 0.04347826086956522 0.04347826086956522 0.04347826086956522 0.04347826086956522 0.04347826086956522 0.04347826086956522 0.04347826086956522 0.04347826086956522 0.04347826086956522 0.04347826086956522 0.04347826086956522 0.04347826086956522 0.04347826086956522 0.04347826086956522 0.04347826086956522 0.04347826086956522 0.04347826086956522 0.04347826086956522 0.04347826086956522 0.04347826086956522 0.04347826086956522 0.04347826086956522 0.04347826086956522 0.04347826086956522 0.04347826086956522 0.04347826086956522 0.04347826086956522 0.04347826086956522 0.04347826086956522 0.04347826086956522 0.04347826086956522 0.04347826086956522 0.04347826086956522 0.04347826086956522 0.04347826086956522 0.04347826086956522 0.04347826086956522 0.04347826086956522 0.04347826086956522 0.04347826086956522 0.04347826086956522 0.04347826086956522 0.04347826086956522 0.04347826086956522 0.04347826086956522 0.04347826086956522 0.04347826086956522 0.04347826086956522 0.04347826086956522 0.04347826086956522 0.04347826086956522 0.04347826086956522 0.04347826086956522 0.04347826086956522 0.04347826086956522 0.04347826086956522 0.04347826086956522 0.04347826086956522 0.04347826086956522 0.04347826086956522 0.04347826086956522 0.04347826086956522 0.04347826086956522 0.04347826086956522 0.04347826086956522 0.04347826086956522 0.04347826086956522 0.04347826086956522 0.04347826086956522 0.04347826086956522 0.04347826086956522 0.04347826086956522 0.04347826086956522 0.04347826086956522 0.04347826086956522 0.04347826086956522 0.04347826086956522 0.04347826086956522 0.04347826086956522 0.04347826086956522 0.04347826086956522 0.04347826086956522 0.04347826086956522 0.04347826086956522 0.04347826086956522 0.04347826086956522 0.04347826086956522 0.04347826086956522 0.04347826086956522 0.04347826086956522 0.04347826086956522 0.04347826086956522 0.04347826086956522 0.04347826086956522 0.04347826086956522 0.04347826086956522 0.04347826086956522 0.04347826086956522 0.04347826086956522 0.04347826086956522 0.04347826086956522 0.04347826086956522 0.04347826086956522 0.04347826086956522 0.04347826086956522 0.04347826086956522 0.04347826086956522 0.04347826086956522 0.04347826086956522 0.04347826086956522 0.04347826086956522 0.04347826086956522 0.04347826086956522 0.04347826086956522 0.04347826086956522 0.04347826086956522 0.04347826086956522 0.04347826086956522 0.04347826086956522 0.04347826086956522 0.04347826086956522 0.04347826086956522 0.04347826086956522 0.04347826086956522 0.04347826086956522 0.04347826086956522 0.04347826086956522 0.04347826086956522 0.04347826086956522 0.04347826086956522 0.04347826086956522 0.04347826086956522 0.04347826086956522 0.04347826086956522 0.04347826086956522 0.04347826086956522 0.04347826086956522 0.04347826086956522 0.04347826086956522 0.04347826086956522 0.04347826086956522 0.04347826086956522 0.04347826086956522 0.04347826086956522 0.04347826086956522 0.04347826086956522 0.04347826086956522 0.04347826086956522 0.04347826086956522 0.04347826086956522 0.04347826086956522 0.04347826086956522 0.04347826086956522 0.04347826086956522 0.04347826086956522 0.04347826086956522 0.04347826086956522 0.04347826086956522 0.04347826086956522 0.04347826086956522 0.04347826086956522 0.04347826086956522 0.04347826086956522 0.04347826086956522 0.04347826086956522 0.04347826086956522 0.04347826086956522 0.04347826086956522 0.04347826086956522 0.04347826086956522 0.04347826086956522 0.04347826086956522 0.04347826086956522 0.04347826086956522 0.04347826086956522 0.04347826086956522 0.04347826086956522 0.04347826086956522 0.04347826086956522 0.04347826086956522 0.04347826086956522 0.04347826086956522 0.04347826086956522 0.04347826086956522 0.04347826086956522 0.04347826086956522 0.04347826086956522 0.04347826086956522 0.04347826086956522 0.04347826086956522 0.04347826086956522 0.04347826086956522 0.04347826086956522 0.04347826086956522 0.04347826086956522 0.04347826086956522 0.04347826086956522 0.04347826086956522 0.04347826086956522 0.04347826086956522 0.04347826086956522 0.04347826086956522 0.04347826086956522 0.04347826086956522 0.04347826086956522 0.04347826086956522 0.04347826086956522 0.04347826086956522 0.04347826086956522 0.04347826086956522 0.04347826086956522 0.04347826086956522 0.04347826086956522 0.04347826086956522 0.04347826086956522 0.04347826086956522 0.04347826086956522 0.04347826086956522 0.04347826086956522 0.04347826086956522 0.04347826086956522 0.04347826086956522 0.04347826086956522 0.04347826086956522 0.04347826086956522 0.04347826086956522 0.04347826086956522 0.04347826086956522 0.04347826086956522 0.04347826086956522 0.04347826086956522 0.04347826086956522 0.04347826086956522 0.04347826086956522 0.04347826086956522 0.04347826086956522 0.04347826086956522 0.04347826086956522 0.04347826086956522 0.04347826086956522 0.04347826086956522 0.04347826086956522 0.04347826086956522 0.04347826086956522 0.04347826086956522 0.04347826086956522 0.04347826086956522 0.04347826086956522 0.04347826086956522 0.04347826086956522 0.04347826086956522 0.04347826086956522 0.04347826086956522 0.04347826086956522 0.04347826086956522 0.04347826086956522 0.04347826086956522 0.04347826086956522 0.04347826086956522 0.04347826086956522 0.04347826086956522 0.04347826086956522 0.04347826086956522 0.04347826086956522 0.04347826086956522 0.04347826086956522 0.04347826086956522 0.04347826086956522 0.04347826086956522 0.04166666666666666 0.04166666666666666 0.04166666666666666 0.04166666666666666 0.04166666666666666 0.04166666666666666 0.04166666666666666 0.04166666666666666 0.04166666666666666 0.08333333333333333 0.04166666666666666 0.04166666666666666 0.04166666666666666 0.04166666666666666 0.04166666666666666 0.04166666666666666 0.04166666666666666 0.04166666666666666 0.04166666666666666 0.04166666666666666 0.04166666666666666 0.04166666666666666 0.04166666666666666 0.04347826086956522 0.04347826086956522 0.04347826086956522 0.04347826086956522 0.04347826086956522 0.04347826086956522 0.04347826086956522 0.04347826086956522 0.04347826086956522 0.04347826086956522 0.04347826086956522 0.04347826086956522 0.04347826086956522 0.04347826086956522 0.04347826086956522 0.04347826086956522 0.04347826086956522 0.04347826086956522 0.04347826086956522 0.04347826086956522 0.04347826086956522 0.04347826086956522 0.04347826086956522 0.04347826086956522 0.04347826086956522 0.04347826086956522 0.04347826086956522 0.04347826086956522 0.04347826086956522 0.04347826086956522 0.04347826086956522 0.04347826086956522 0.04347826086956522 0.04347826086956522 0.04347826086956522 0.04347826086956522 0.04347826086956522 0.04347826086956522 0.04347826086956522 0.04347826086956522 0.04347826086956522 0.04347826086956522 0.04347826086956522 0.04347826086956522 0.04347826086956522 0.04347826086956522 0.04347826086956522 0.04347826086956522 0.04347826086956522 0.04347826086956522 0.04347826086956522 0.04347826086956522 0.04347826086956522 0.04347826086956522 0.04347826086956522 0.04347826086956522 0.04347826086956522 0.04347826086956522 0.04347826086956522 0.04347826086956522 0.04347826086956522 0.04347826086956522 0.04347826086956522 0.04347826086956522 0.04347826086956522 0.04347826086956522 0.04347826086956522 0.04347826086956522 0.04347826086956522 0.04347826086956522 0.04347826086956522 0.04347826086956522 0.04347826086956522 0.04347826086956522 0.04347826086956522 0.04347826086956522 0.04347826086956522 0.04347826086956522 0.04347826086956522 0.04347826086956522 0.04347826086956522 0.04347826086956522 0.04347826086956522 0.04347826086956522 0.04347826086956522 0.04347826086956522 0.04347826086956522 0.04347826086956522 0.04347826086956522 0.04347826086956522 0.04347826086956522 0.04347826086956522 0.04347826086956522 0.04347826086956522 0.04347826086956522 0.04347826086956522 0.04347826086956522 0.04347826086956522 0.04347826086956522 0.04347826086956522 0.04347826086956522 0.04347826086956522 0.04347826086956522 0.04347826086956522 0.04347826086956522 0.04347826086956522 0.04347826086956522 0.04347826086956522 0.04347826086956522 0.04347826086956522 0.04347826086956522 0.04347826086956522 0.04347826086956522 0.04347826086956522 0.04347826086956522 0.04347826086956522 0.04347826086956522 0.04347826086956522 0.04347826086956522 0.04347826086956522 0.04347826086956522 0.04347826086956522 0.04347826086956522 0.04347826086956522 0.04347826086956522 0.04347826086956522 0.04347826086956522 0.04347826086956522 0.04347826086956522 0.04347826086956522 0.04347826086956522 0.04347826086956522 0.04347826086956522 0.04347826086956522 0.04347826086956522 0.04347826086956522 0.04347826086956522 0.04347826086956522 0.04347826086956522 0.04347826086956522 0.04347826086956522 0.04347826086956522 0.04347826086956522 0.04347826086956522 0.04347826086956522 0.04347826086956522 0.04347826086956522 0.04347826086956522 0.04347826086956522 0.04347826086956522 0.04347826086956522 0.04347826086956522 0.04347826086956522 0.04347826086956522 0.04347826086956522 0.04347826086956522 0.04347826086956522 0.04347826086956522 0.04347826086956522 0.04347826086956522 0.04347826086956522 0.04347826086956522 0.04347826086956522 0.04347826086956522 0.04347826086956522 0.04347826086956522 0.04347826086956522 0.04347826086956522 0.04347826086956522 0.04347826086956522 0.04347826086956522 0.04347826086956522 0.04347826086956522 0.04347826086956522 0.04347826086956522 0.04347826086956522 0.04347826086956522 0.04347826086956522 0.04347826086956522 0.04347826086956522 0.04347826086956522 0.04347826086956522 0.04347826086956522 0.04347826086956522 0.04347826086956522 0.04347826086956522 0.04347826086956522 0.04347826086956522 0.04347826086956522 0.04347826086956522 0.04347826086956522 0.04347826086956522 0.04347826086956522 0.04347826086956522 0.04347826086956522 0.04347826086956522 0.04347826086956522 0.04347826086956522 0.04347826086956522 0.04347826086956522 0.04347826086956522 0.04347826086956522 0.04347826086956522 0.04347826086956522 0.04347826086956522 0.04347826086956522 0.04347826086956522 0.04347826086956522 0.04347826086956522 0.04347826086956522 0.04347826086956522 0.04347826086956522 0.04347826086956522 0.04347826086956522 0.04347826086956522 0.04347826086956522 0.04347826086956522 0.04347826086956522 0.04347826086956522 0.04347826086956522 0.04347826086956522 0.04347826086956522 0.04347826086956522 0.04347826086956522 0.04347826086956522 0.04347826086956522 0.04347826086956522 0.04347826086956522 0.04347826086956522 0.04347826086956522 0.04347826086956522 0.04347826086956522 0.04347826086956522 0.04347826086956522 0.04347826086956522 0.04347826086956522 0.04347826086956522 0.04347826086956522 0.04347826086956522 0.04347826086956522 0.04347826086956522 0.04347826086956522 0.04347826086956522 0.04347826086956522 0.04347826086956522 0.04347826086956522 0.04347826086956522 0.04347826086956522 0.04347826086956522 0.04347826086956522 0.04347826086956522 0.04347826086956522 0.04347826086956522 0.04347826086956522 0.04347826086956522 0.04347826086956522 0.04347826086956522 0.04347826086956522 0.04347826086956522 0.04347826086956522 0.04347826086956522 0.04347826086956522 0.04347826086956522 0.04347826086956522 0.04347826086956522 0.04347826086956522 0.04347826086956522 0.04347826086956522 0.04347826086956522 0.04347826086956522 0.04347826086956522 0.04347826086956522 0.04347826086956522 0.04347826086956522 0.04347826086956522 0.04347826086956522 0.04347826086956522 0.04347826086956522 0.04347826086956522 0.04347826086956522 0.04347826086956522 0.04347826086956522 0.04347826086956522 0.04347826086956522 0.04347826086956522 0.04347826086956522 0.04347826086956522 0.04347826086956522 0.04347826086956522 0.04347826086956522 0.04347826086956522 0.04347826086956522 0.04347826086956522 0.04347826086956522 0.04347826086956522 0.04347826086956522 0.04347826086956522 0.04347826086956522 0.04347826086956522 0.04347826086956522 0.04347826086956522 0.04347826086956522 0.04347826086956522 0.04347826086956522 0.04347826086956522 0.04347826086956522 0.04347826086956522 0.04347826086956522 0.04347826086956522 0.04347826086956522 0.04347826086956522 0.04347826086956522 0.04347826086956522 0.04347826086956522 0.04347826086956522 0.04347826086956522 0.04347826086956522 0.04347826086956522 0.04347826086956522 0.04347826086956522 0.04347826086956522 0.04347826086956522 0.04347826086956522 0.04347826086956522 0.04347826086956522 0.04347826086956522 0.04347826086956522 0.04347826086956522 0.04347826086956522 0.04347826086956522 0.04347826086956522 0.04347826086956522 0.04347826086956522 0.04347826086956522 0.04347826086956522 0.04347826086956522 0.04347826086956522 0.04347826086956522 0.04347826086956522 0.04347826086956522 0.04347826086956522 0.04347826086956522 0.04347826086956522 0.04347826086956522 0.04347826086956522 0.04347826086956522 0.04347826086956522 0.04347826086956522 0.04347826086956522 0.04347826086956522 0.04347826086956522 0.04347826086956522 0.04347826086956522 0.04347826086956522 0.04347826086956522 0.04347826086956522 0.04347826086956522 0.04347826086956522 0.04347826086956522 0.04347826086956522 0.04347826086956522 0.04347826086956522 0.04347826086956522 0.04347826086956522 0.04347826086956522 0.04347826086956522 0.04347826086956522 0.04347826086956522 0.04347826086956522 0.04347826086956522 0.04347826086956522 0.04347826086956522 0.04347826086956522 0.04347826086956522 0.04347826086956522 0.04347826086956522 0.04347826086956522 0.04347826086956522 0.04347826086956522 0.04347826086956522 0.04347826086956522 0.04347826086956522 0.04347826086956522 0.04347826086956522 0.04347826086956522 0.04347826086956522 0.04347826086956522 0.04347826086956522 0.04347826086956522 0.04347826086956522 0.04347826086956522 0.04347826086956522 0.04347826086956522 0.04347826086956522 0.04347826086956522 0.04347826086956522 0.04347826086956522 0.04347826086956522 0.04347826086956522 0.04347826086956522 0.04347826086956522 0.04347826086956522 0.04347826086956522 0.04347826086956522 0.04347826086956522 0.04347826086956522 0.04347826086956522 0.04347826086956522 0.04347826086956522 0.04347826086956522 0.04347826086956522 0.04347826086956522 0.04347826086956522 0.04347826086956522 0.04347826086956522 0.04347826086956522 0.04347826086956522 0.04347826086956522 0.04347826086956522 0.04347826086956522 0.04347826086956522 0.04347826086956522 0.04347826086956522 0.04347826086956522 0.04347826086956522 0.04347826086956522 0.04347826086956522 0.04347826086956522 0.04347826086956522 0.04347826086956522 0.04347826086956522 0.04347826086956522 0.04347826086956522 0.04347826086956522 0.04347826086956522 0.04347826086956522 0.04347826086956522 0.04347826086956522 0.04347826086956522 0.04347826086956522 0.04347826086956522 0.04347826086956522 0.04347826086956522 0.04347826086956522 0.04347826086956522 0.04347826086956522 0.04347826086956522 0.04347826086956522 0.04347826086956522 0.04347826086956522 0.04347826086956522 0.04347826086956522 0.04347826086956522 0.04347826086956522 0.04347826086956522 0.04347826086956522 0.04347826086956522 0.04347826086956522 0.04347826086956522 0.04347826086956522 0.04347826086956522 0.04347826086956522 0.04347826086956522 0.04347826086956522 0.04347826086956522 0.04347826086956522 0.04347826086956522 0.04347826086956522 0.04347826086956522 0.04347826086956522 0.04347826086956522 0.04347826086956522 0.04347826086956522 0.04347826086956522 0.04347826086956522 0.04347826086956522 0.04347826086956522 0.04347826086956522 0.04347826086956522 0.04347826086956522 0.04347826086956522 0.04347826086956522 0.04347826086956522 0.04347826086956522 0.04347826086956522 0.04347826086956522 0.04347826086956522 0.04347826086956522 0.04347826086956522 0.04347826086956522 0.04347826086956522 0.04347826086956522 0.04347826086956522 0.04347826086956522 0.04347826086956522 0.04347826086956522 0.04347826086956522 0.04347826086956522 0.04347826086956522 0.04347826086956522 0.04347826086956522 0.04347826086956522 0.04347826086956522 0.04347826086956522 0.04347826086956522 0.04347826086956522 0.04347826086956522 0.04347826086956522 0.04347826086956522 0.04347826086956522 0.04347826086956522 0.04347826086956522 0.04347826086956522 0.04347826086956522 0.04347826086956522 0.04347826086956522 0.04347826086956522 0.04347826086956522 0.04347826086956522 0.04347826086956522 0.04347826086956522 0.04347826086956522 0.04347826086956522 0.04347826086956522 0.04347826086956522 0.04347826086956522 0.04347826086956522 0.04347826086956522 0.04347826086956522 0.04347826086956522 0.04347826086956522 0.04347826086956522 0.04347826086956522 0.04347826086956522 0.04347826086956522 0.04347826086956522 0.04347826086956522 0.04347826086956522 0.04347826086956522 0.04347826086956522 0.04347826086956522 0.04347826086956522 0.04347826086956522 0.04347826086956522 0.04347826086956522 0.04347826086956522 0.04347826086956522 0.04347826086956522 0.04347826086956522 0.04347826086956522 0.04347826086956522 0.04347826086956522 0.04347826086956522 0.04347826086956522 0.04347826086956522 0.04347826086956522 0.04347826086956522 0.04347826086956522 0.04347826086956522 0.04347826086956522 0.04347826086956522 0.04347826086956522 0.04347826086956522 0.04347826086956522 0.04347826086956522 0.04347826086956522 0.04347826086956522 0.04347826086956522 0.04347826086956522 0.04347826086956522 0.04347826086956522 0.04347826086956522 0.04347826086956522 0.04347826086956522 0.04347826086956522 0.04347826086956522 0.04347826086956522 0.04347826086956522 0.04347826086956522 0.04347826086956522 0.04347826086956522 0.04347826086956522 0.04347826086956522 0.04347826086956522 0.04347826086956522 0.04347826086956522 0.04347826086956522 0.04347826086956522 0.04347826086956522 0.04347826086956522 0.04347826086956522 0.04347826086956522 0.04347826086956522 0.04347826086956522 0.04347826086956522 0.04347826086956522 0.04347826086956522 0.04347826086956522 0.04166666666666666 0.04166666666666666 0.04166666666666666 0.04166666666666666 0.04166666666666666 0.04166666666666666 0.04166666666666666 0.04166666666666666 0.04166666666666666 0.04166666666666666 0.04166666666666666 0.04166666666666666 0.04166666666666666 0.04166666666666666 0.04166666666666666 0.08333333333333333 0.04166666666666666 0.04166666666666666 0.04166666666666666 0.04166666666666666 0.04166666666666666 0.04166666666666666 0.04166666666666666 0.04 0.04 0.04 0.04 0.04 0.04 0.04 0.04 0.04 0.04 0.04 0.04 0.04 0.04 0.04 0.04 0.04 0.04 0.12 0.04 0.04 0.04 0.04 0.04347826086956522 0.04347826086956522 0.04347826086956522 0.04347826086956522 0.04347826086956522 0.04347826086956522 0.04347826086956522 0.04347826086956522 0.04347826086956522 0.04347826086956522 0.04347826086956522 0.04347826086956522 0.04347826086956522 0.04347826086956522 0.04347826086956522 0.04347826086956522 0.04347826086956522 0.04347826086956522 0.04347826086956522 0.04347826086956522 0.04347826086956522 0.04347826086956522 0.04347826086956522 0.04166666666666666 0.04166666666666666 0.04166666666666666 0.04166666666666666 0.04166666666666666 0.04166666666666666 0.04166666666666666 0.04166666666666666 0.04166666666666666 0.04166666666666666 0.04166666666666666 0.04166666666666666 0.04166666666666666 0.04166666666666666 0.04166666666666666 0.04166666666666666 0.04166666666666666 0.04166666666666666 0.04166666666666666 0.04166666666666666 0.08333333333333333 0.04166666666666666 0.04166666666666666 0.04166666666666666 0.04166666666666666 0.04166666666666666 0.04166666666666666 0.04166666666666666 0.04166666666666666 0.04166666666666666 0.04166666666666666 0.04166666666666666 0.04166666666666666 0.08333333333333333 0.04166666666666666 0.04166666666666666 0.04166666666666666 0.04166666666666666 0.04166666666666666 0.04166666666666666 0.04166666666666666 0.04166666666666666 0.04166666666666666 0.04166666666666666 0.04166666666666666 0.04166666666666666 0.04347826086956522 0.04347826086956522 0.04347826086956522 0.04347826086956522 0.04347826086956522 0.04347826086956522 0.04347826086956522 0.04347826086956522 0.04347826086956522 0.04347826086956522 0.04347826086956522 0.04347826086956522 0.04347826086956522 0.04347826086956522 0.04347826086956522 0.04347826086956522 0.04347826086956522 0.04347826086956522 0.04347826086956522 0.04347826086956522 0.04347826086956522 0.04347826086956522 0.04347826086956522 0.04347826086956522 0.04347826086956522 0.04347826086956522 0.04347826086956522 0.04347826086956522 0.04347826086956522 0.04347826086956522 0.04347826086956522 0.04347826086956522 0.04347826086956522 0.04347826086956522 0.04347826086956522 0.04347826086956522 0.04347826086956522 0.04347826086956522 0.04347826086956522 0.04347826086956522 0.04347826086956522 0.04347826086956522 0.04347826086956522 0.04347826086956522 0.04347826086956522 0.04347826086956522 0.04347826086956522 0.04347826086956522 0.04347826086956522 0.04347826086956522 0.04347826086956522 0.04347826086956522 0.04347826086956522 0.04347826086956522 0.04347826086956522 0.04347826086956522 0.04347826086956522 0.04347826086956522 0.04347826086956522 0.04347826086956522 0.04347826086956522 0.04347826086956522 0.04347826086956522 0.04347826086956522 0.04347826086956522 0.04347826086956522 0.04347826086956522 0.04347826086956522 0.04347826086956522 0.04347826086956522 0.04347826086956522 0.04347826086956522 0.04347826086956522 0.04347826086956522 0.04347826086956522 0.04347826086956522 0.04347826086956522 0.04347826086956522 0.04347826086956522 0.04347826086956522 0.04347826086956522 0.04347826086956522 0.04347826086956522 0.04347826086956522 0.04347826086956522 0.04347826086956522 0.04347826086956522 0.04347826086956522 0.04347826086956522 0.04347826086956522 0.04347826086956522 0.04347826086956522 0.04347826086956522 0.04347826086956522 0.04347826086956522 0.04347826086956522 0.04347826086956522 0.04347826086956522 0.04347826086956522 0.04347826086956522 0.04347826086956522 0.04347826086956522 0.04347826086956522 0.04347826086956522 0.04347826086956522 0.04347826086956522 0.04347826086956522 0.04347826086956522 0.04347826086956522 0.04347826086956522 0.04347826086956522 0.04347826086956522 0.04347826086956522 0.04347826086956522 0.04347826086956522 0.04347826086956522 0.04347826086956522 0.04347826086956522 0.04347826086956522 0.04347826086956522 0.04347826086956522 0.04347826086956522 0.04347826086956522 0.04347826086956522 0.04347826086956522 0.04347826086956522 0.04347826086956522 0.04347826086956522 0.04347826086956522 0.04347826086956522 0.04347826086956522 0.04347826086956522 0.04347826086956522 0.04347826086956522 0.04347826086956522 0.04347826086956522 0.04347826086956522 0.04347826086956522 0.04347826086956522 0.04347826086956522 0.04347826086956522 0.04347826086956522 0.04347826086956522 0.04347826086956522 0.04347826086956522 0.04347826086956522 0.04347826086956522 0.04347826086956522 0.04347826086956522 0.04347826086956522 0.04347826086956522 0.04347826086956522 0.04347826086956522 0.04347826086956522 0.04347826086956522 0.04347826086956522 0.04347826086956522 0.04347826086956522 0.04347826086956522 0.04347826086956522 0.04347826086956522 0.04347826086956522 0.04347826086956522 0.04347826086956522 0.04347826086956522 0.04347826086956522 0.04347826086956522 0.04347826086956522 0.04347826086956522 0.04347826086956522 0.04347826086956522 0.04347826086956522 0.04347826086956522 0.04347826086956522 0.04347826086956522 0.04347826086956522 0.04347826086956522 0.04347826086956522 0.04347826086956522 0.04347826086956522 0.04347826086956522 0.04347826086956522 0.04347826086956522 0.04347826086956522 0.04166666666666666 0.04166666666666666 0.04166666666666666 0.04166666666666666 0.04166666666666666 0.04166666666666666 0.04166666666666666 0.04166666666666666 0.04166666666666666 0.04166666666666666 0.04166666666666666 0.04166666666666666 0.04166666666666666 0.04166666666666666 0.04166666666666666 0.04166666666666666 0.04166666666666666 0.04166666666666666 0.04166666666666666 0.08333333333333333 0.04166666666666666 0.04166666666666666 0.04166666666666666 0.04347826086956522 0.04347826086956522 0.04347826086956522 0.04347826086956522 0.04347826086956522 0.04347826086956522 0.04347826086956522 0.04347826086956522 0.04347826086956522 0.04347826086956522 0.04347826086956522 0.04347826086956522 0.04347826086956522 0.04347826086956522 0.04347826086956522 0.04347826086956522 0.04347826086956522 0.04347826086956522 0.04347826086956522 0.04347826086956522 0.04347826086956522 0.04347826086956522 0.04347826086956522 0.04166666666666666 0.04166666666666666 0.04166666666666666 0.04166666666666666 0.04166666666666666 0.04166666666666666 0.04166666666666666 0.04166666666666666 0.04166666666666666 0.04166666666666666 0.04166666666666666 0.04166666666666666 0.04166666666666666 0.04166666666666666 0.04166666666666666 0.04166666666666666 0.04166666666666666 0.04166666666666666 0.04166666666666666 0.04166666666666666 0.04166666666666666 0.08333333333333333 0.04166666666666666 0.04347826086956522 0.04347826086956522 0.04347826086956522 0.04347826086956522 0.04347826086956522 0.04347826086956522 0.04347826086956522 0.04347826086956522 0.04347826086956522 0.04347826086956522 0.04347826086956522 0.04347826086956522 0.04347826086956522 0.04347826086956522 0.04347826086956522 0.04347826086956522 0.04347826086956522 0.04347826086956522 0.04347826086956522 0.04347826086956522 0.04347826086956522 0.04347826086956522 0.04347826086956522 0.04347826086956522 0.04347826086956522 0.04347826086956522 0.04347826086956522 0.04347826086956522 0.04347826086956522 0.04347826086956522 0.04347826086956522 0.04347826086956522 0.04347826086956522 0.04347826086956522 0.04347826086956522 0.04347826086956522 0.04347826086956522 0.04347826086956522 0.04347826086956522 0.04347826086956522 0.04347826086956522 0.04347826086956522 0.04347826086956522 0.04347826086956522 0.04347826086956522 0.04347826086956522 0.04347826086956522 0.04347826086956522 0.04347826086956522 0.04347826086956522 0.04347826086956522 0.04347826086956522 0.04347826086956522 0.04347826086956522 0.04347826086956522 0.04347826086956522 0.04347826086956522 0.04347826086956522 0.04347826086956522 0.04347826086956522 0.04347826086956522 0.04347826086956522 0.04347826086956522 0.04347826086956522 0.04347826086956522 0.04347826086956522 0.04347826086956522 0.04347826086956522 0.04347826086956522 0.04347826086956522 0.04347826086956522 0.04347826086956522 0.04347826086956522 0.04347826086956522 0.04347826086956522 0.04347826086956522 0.04347826086956522 0.04347826086956522 0.04347826086956522 0.04347826086956522 0.04347826086956522 0.04347826086956522 0.04347826086956522 0.04347826086956522 0.04347826086956522 0.04347826086956522 0.04347826086956522 0.04347826086956522 0.04347826086956522 0.04347826086956522 0.04347826086956522 0.04347826086956522 0.04347826086956522 0.04347826086956522 0.04347826086956522 0.04347826086956522 0.04347826086956522 0.04347826086956522 0.04347826086956522 0.04347826086956522 0.04347826086956522 0.04347826086956522 0.04347826086956522 0.04347826086956522 0.04347826086956522 0.04347826086956522 0.04347826086956522 0.04347826086956522 0.04347826086956522 0.04347826086956522 0.04347826086956522 0.04347826086956522 0.04347826086956522 0.04347826086956522 0.04347826086956522 0.04347826086956522 0.04347826086956522 0.04347826086956522 0.04347826086956522 0.04347826086956522 0.04347826086956522 0.04347826086956522 0.04347826086956522 0.04347826086956522 0.04347826086956522 0.04347826086956522 0.04347826086956522 0.04347826086956522 0.04347826086956522 0.04347826086956522 0.04347826086956522 0.04347826086956522 0.04347826086956522 0.04347826086956522 0.04347826086956522 0.04347826086956522 0.04347826086956522 0.04347826086956522 0.04347826086956522 0.04347826086956522 0.04347826086956522 0.04347826086956522 0.04347826086956522 0.04347826086956522 0.04347826086956522 0.04347826086956522 0.04347826086956522 0.04347826086956522 0.04347826086956522 0.04347826086956522 0.04347826086956522 0.04347826086956522 0.04347826086956522 0.04347826086956522 0.04347826086956522 0.04347826086956522 0.04347826086956522 0.04347826086956522 0.04347826086956522 0.04347826086956522 0.04347826086956522 0.04347826086956522 0.04347826086956522 0.04347826086956522 0.04347826086956522 0.04347826086956522 0.04347826086956522 0.04347826086956522 0.04347826086956522 0.04347826086956522 0.04347826086956522 0.04347826086956522 0.04347826086956522 0.04347826086956522 0.04347826086956522 0.04347826086956522 0.04347826086956522 0.04347826086956522 0.04347826086956522 0.04347826086956522 0.04347826086956522 0.04347826086956522 0.04347826086956522 0.04347826086956522 0.04347826086956522 0.04347826086956522 0.04347826086956522 0.04347826086956522 0.04347826086956522 0.04347826086956522 0.04347826086956522 0.04347826086956522 0.04347826086956522 0.04347826086956522 0.04347826086956522 0.04347826086956522 0.04347826086956522 0.04347826086956522 0.04347826086956522 0.04347826086956522 0.04347826086956522 0.04347826086956522 0.04347826086956522 0.04347826086956522 0.04347826086956522 0.04347826086956522 0.04347826086956522 0.04347826086956522 0.04347826086956522 0.04347826086956522 0.04347826086956522 0.04347826086956522 0.04347826086956522 0.04347826086956522 0.04347826086956522 0.04347826086956522 0.04347826086956522 0.04347826086956522 0.04347826086956522 0.04347826086956522 0.04347826086956522 