<?xml version="1.0" encoding="ISO-8859-1"?>
<smile version="1.0" id="Unnamed" numsamples="1000" discsamples="10000">
	<nodes>
		<cpt id="flight_number">
			<state id="CPZ5695" />
			<state id="State__unobserved" />
			<probabilities>0.9944751381215469 0.005524861878453038</probabilities>
		</cpt>
		<cpt id="aircraft">
			<state id="Embraer_175__twin_jet___E170_Q___track_or_photos_" />
			<state id="Embraer_175__twin_jet___E170_R___track_or_photos_" />
			<probabilities>0.9889502762430938 0.01104972375690608</probabilities>
		</cpt>
		<cpt id="scheduled_altitude">
			<state id="State_26000_feet" />
			<state id="State_28000_feet" />
			<state id="State_30000_feet" />
			<state id="State_32000_feet" />
			<state id="State_33000_feet" />
			<state id="State_34000_feet" />
			<state id="State_36000_feet" />
			<state id="State_38000_feet" />
			<state id="Unspecified" />
			<parents>aircraft</parents>
			<probabilities>0.0106951871657754 0.0106951871657754 0.08021390374331551 0.1016042780748663 0.0160427807486631 0.53475935828877 0.1443850267379679 0.0106951871657754 0.0909090909090909 0.1 0.2 0.1 0.1 0.1 0.1 0.1 0.1 0.1</probabilities>
		</cpt>
		<cpt id="average_arrival">
			<state id="State_01_23PM_CDT" />
			<state id="State_03_53PM_CST" />
			<state id="State_04_53PM_CDT" />
			<state id="State_12_23PM_CST" />
			<parents>aircraft scheduled_altitude</parents>
			<probabilities>0.4 0.2 0.2 0.2 0.2 0.2 0.4 0.2 0.3888888888888888 0.2222222222222222 0.2777777777777778 0.1111111111111111 0.4545454545454546 0.09090909090909091 0.4090909090909091 0.04545454545454546 0.1666666666666667 0.1666666666666667 0.5 0.1666666666666667 0.3883495145631067 0.145631067961165 0.4174757281553398 0.04854368932038834 0.4 0.03333333333333333 0.2333333333333333 0.3333333333333333 0.2 0.2 0.2 0.4 0.25 0.1 0.5 0.15 0.25 0.25 0.25 0.25 0.4 0.2 0.2 0.2 0.25 0.25 0.25 0.25 0.25 0.25 0.25 0.25 0.25 0.25 0.25 0.25 0.25 0.25 0.25 0.25 0.25 0.25 0.25 0.25 0.25 0.25 0.25 0.25 0.25 0.25 0.25 0.25</probabilities>
		</cpt>
		<cpt id="average_departure">
			<state id="State_01_25PM_CST" />
			<state id="State_02_25PM_CDT" />
			<state id="State_10_34AM_EST" />
			<state id="State_11_34AM_EDT" />
			<parents>average_arrival</parents>
			<probabilities>0.01333333333333333 0.01333333333333333 0.01333333333333333 0.9600000000000001 0.8695652173913043 0.04347826086956522 0.04347826086956522 0.04347826086956522 0.01315789473684211 0.9605263157894737 0.01315789473684211 0.01315789473684211 0.04761904761904762 0.04761904761904762 0.8571428571428571 0.04761904761904762</probabilities>
		</cpt>
		<cpt id="destination">
			<state id="Minneapolis_St_Paul_Intl__KMSP___track_or_info_" />
			<state id="San_Antonio_Intl__KSAT___track_or_info_" />
			<parents>average_departure</parents>
			<probabilities>0.04761904761904762 0.9523809523809523 0.01351351351351351 0.9864864864864865 0.9473684210526315 0.05263157894736842 0.9863013698630136 0.0136986301369863</probabilities>
		</cpt>
		<cpt id="origin">
			<state id="Minneapolis_St_Paul_Intl__KMSP___track_or_info_" />
			<state id="Newark_Liberty_Intl__KEWR___track_or_info_" />
			<parents>destination</parents>
			<probabilities>0.01111111111111111 0.9888888888888889 0.9892473118279571 0.01075268817204301</probabilities>
		</cpt>
		<cpt id="route">
			<state id="COATE_J36_FNT_J106_GRB__Decode_" />
			<state id="ELIOT_J60_DIMMO_J60_IOW_ALO_KASPR4__Decode_" />
			<state id="ELIOT_J80_ETX_RAV_J64_EWC_DJB_J34_BAE_EAU8__Decode_" />
			<state id="GAYEL_J95_BUF_YWT_J63_ASP_J63_TVC_J522_GRB_EAU8__Decode_" />
			<state id="GAYEL_J95_BUF_YWT_J63_ASP_SAW_EAU__Decode_" />
			<state id="GAYEL_J95_BUF_YWT_J63_TALIS_J63_TVC_J522_GRB_EAU8__Decode_" />
			<state id="GAYEL_J95_BUF_YWT_J63_TVC_J522_GRB__Decode_" />
			<state id="GAYEL_J95_BUF_YWT_J63_TVC_J522_GRB_EAU8__Decode_" />
			<state id="GAYEL_J95_CFB_J95_BUF_YWT_J63_TVC_J522_GRB_EAU8__Decode_" />
			<state id="GAYEL_J95_KELIE_J95_BUF_YWT_J63_TVC_J522_GRB_EAU8__Decode_" />
			<state id="GAYEL_J95_VIEEW_J95_BUF_YWT_J63_TVC_J522_GRB__Decode_" />
			<state id="ORSKY4_OVR_GAG_ABI_STV1__Decode_" />
			<state id="ORSKY4_OVR_J21_GOSSL_J21_ICT_J21_ACT_MARCS9__Decode_" />
			<state id="ORSKY4_OVR_J21_GOSSL_J21_ICT_J21_ADM_J21_ACT_MARCS9__Decode_" />
			<state id="ORSKY4_OVR_J21_ICT_J21_ACT__Decode_" />
			<state id="ORSKY4_OVR_J21_ICT_J21_ACT_MARCS9__Decode_" />
			<state id="ORSKY4_OVR_J21_ICT_J21_ADM_J21_ACT_MARCS9__Decode_" />
			<state id="ORSKY4_OVR_J21_ICT_J21_FUZ_J21_ACT_MARCS9__Decode_" />
			<state id="ORSKY4_OVR_J21_ICT_J21_IRW_J21_ACT_MARCS9__Decode_" />
			<state id="ORSKY4_OVR_J21_ICT_J26_PNH_J17_ABI_STV1__Decode_" />
			<state id="ORSKY4_OVR_J21_JUDGE_J21_ICT_J21_ACT__Decode_" />
			<state id="ORSKY4_OVR_J21_JUDGE_J21_ICT_J21_ACT_MARCS9__Decode_" />
			<state id="ORSKY4_OVR_J21_PEABO_J21_ICT_J21_ACT_MARCS9__Decode_" />
			<state id="ORSKY4_OVR_J21_PEABO_J21_ICT_J21_FUZ_J21_ACT_MARCS9__Decode_" />
			<state id="ORSKY4_OVR_ORSKY4_OMA_J21__Decode_" />
			<state id="RST4_ALO_BRL_ARG_TXK_ACT_MARCS9__Decode_" />
			<state id="RST4_ALO_J233_CAPPR_J233_SKBOZ_J233_STL_J101_LFK_MARCS9__Decode_" />
			<state id="SCHEP3_OBH_J197_GLD_PNH_ABI_STV1__Decode_" />
			<state id="ZMBRO3_ODI_J30_SIBER_DBQ_MZV_J232_IRK_J87_CVE_ACT_MARCS9__Decode_" />
			<parents>origin</parents>
			<probabilities>0.008333333333333333 0.008333333333333333 0.008333333333333333 0.008333333333333333 0.008333333333333333 0.008333333333333333 0.008333333333333333 0.008333333333333333 0.008333333333333333 0.008333333333333333 0.008333333333333333 0.01666666666666667 0.03333333333333333 0.01666666666666667 0.03333333333333333 0.525 0.01666666666666667 0.025 0.025 0.01666666666666667 0.01666666666666667 0.04166666666666666 0.03333333333333333 0.01666666666666667 0.01666666666666667 0.01666666666666667 0.01666666666666667 0.025 0.01666666666666667 0.0170940170940171 0.0170940170940171 0.0170940170940171 0.05128205128205129 0.0170940170940171 0.0170940170940171 0.02564102564102564 0.6068376068376069 0.02564102564102564 0.03418803418803419 0.0170940170940171 0.008547008547008548 0.008547008547008548 0.008547008547008548 0.008547008547008548 0.008547008547008548 0.008547008547008548 0.008547008547008548 0.008547008547008548 0.008547008547008548 0.008547008547008548 0.008547008547008548 0.008547008547008548 0.008547008547008548 0.008547008547008548 0.008547008547008548 0.008547008547008548 0.008547008547008548 0.008547008547008548</probabilities>
		</cpt>
		<cpt id="scheduled_departure">
			<state id="State_02_25PM_CDT" />
			<state id="State_02_26PM_CDT" />
			<state id="State_02_27PM_CDT" />
			<state id="State_02_28PM_CDT" />
			<state id="State_02_29PM_CDT" />
			<state id="State_02_34PM_CDT" />
			<state id="State_02_41PM_CDT" />
			<state id="State_02_42PM_CDT" />
			<state id="State_02_42PM_CST" />
			<state id="State_02_44PM_CST" />
			<state id="State_02_45PM_CDT" />
			<state id="State_11_33AM_EDT" />
			<state id="State_11_35AM_EDT" />
			<state id="State_11_36AM_EDT" />
			<state id="State_11_37AM_EDT" />
			<state id="State_11_38AM_EDT" />
			<state id="State_11_40AM_EDT" />
			<state id="State_11_41AM_EDT" />
			<state id="State_11_41AM_EST" />
			<state id="State_11_42AM_EDT" />
			<state id="State_11_42AM_EST" />
			<state id="State_11_43AM_EDT" />
			<state id="State_11_43AM_EST" />
			<state id="State_12_02PM_EDT" />
			<parents>average_departure</parents>
			<probabilities>0.02325581395348837 0.02325581395348837 0.02325581395348837 0.02325581395348837 0.02325581395348837 0.02325581395348837 0.02325581395348837 0.02325581395348837 0.2790697674418605 0.2093023255813953 0.02325581395348837 0.02325581395348837 0.02325581395348837 0.02325581395348837 0.02325581395348837 0.02325581395348837 0.02325581395348837 0.02325581395348837 0.02325581395348837 0.02325581395348837 0.02325581395348837 0.02325581395348837 0.02325581395348837 0.02325581395348837 0.125 0.03125 0.125 0.1458333333333333 0.1145833333333333 0.04166666666666666 0.0625 0.1666666666666667 0.01041666666666667 0.01041666666666667 0.03125 0.01041666666666667 0.01041666666666667 0.01041666666666667 0.01041666666666667 0.01041666666666667 0.01041666666666667 0.01041666666666667 0.01041666666666667 0.01041666666666667 0.01041666666666667 0.01041666666666667 0.01041666666666667 0.01041666666666667 0.02439024390243903 0.02439024390243903 0.02439024390243903 0.02439024390243903 0.02439024390243903 0.02439024390243903 0.02439024390243903 0.02439024390243903 0.02439024390243903 0.02439024390243903 0.02439024390243903 0.02439024390243903 0.02439024390243903 0.02439024390243903 0.02439024390243903 0.02439024390243903 0.02439024390243903 0.02439024390243903 0.1707317073170732 0.02439024390243903 0.2439024390243902 0.02439024390243903 0.07317073170731708 0.02439024390243903 0.01052631578947368 0.01052631578947368 0.01052631578947368 0.01052631578947368 0.01052631578947368 0.01052631578947368 0.01052631578947368 0.01052631578947368 0.01052631578947368 0.01052631578947368 0.01052631578947368 0.08421052631578947 0.03157894736842105 0.1684210526315789 0.2 0.1263157894736842 0.06315789473684211 0.06315789473684211 0.01052631578947368 0.05263157894736842 0.01052631578947368 0.04210526315789474 0.01052631578947368 0.02105263157894737</probabilities>
		</cpt>
		<cpt id="status">
			<state id="Landed_10_weeks_ago___track_log_and_graph_" />
			<state id="Landed_11_weeks_ago___track_log_and_graph_" />
			<state id="Landed_12_weeks_ago___track_log_and_graph_" />
			<state id="Landed_13_weeks_ago___track_log_and_graph_" />
			<state id="Landed_14_weeks_ago___track_log_and_graph_" />
			<state id="Landed_15_weeks_ago___track_log_and_graph_" />
			<state id="Landed_16_weeks_ago___track_log_and_graph_" />
			<state id="Landed_17_weeks_ago___track_log_and_graph_" />
			<state id="Landed_3_weeks_ago___track_log_and_graph_" />
			<state id="Landed_4_weeks_ago___track_log_and_graph_" />
			<state id="Landed_5_weeks_ago___track_log_and_graph_" />
			<state id="Landed_6_weeks_ago___track_log_and_graph_" />
			<state id="Landed_7_weeks_ago___track_log_and_graph_" />
			<state id="Landed_8_weeks_ago___track_log_and_graph_" />
			<state id="Landed_9_weeks_ago___track_log_and_graph_" />
			<state id="Landed_over_a_week_ago___track_log_and_graph_" />
			<parents>scheduled_departure</parents>
			<probabilities>0.2222222222222222 0.03703703703703704 0.03703703703703704 0.03703703703703704 0.03703703703703704 0.03703703703703704 0.03703703703703704 0.03703703703703704 0.03703703703703704 0.03703703703703704 0.03703703703703704 0.03703703703703704 0.07407407407407407 0.07407407407407407 0.1851851851851852 0.03703703703703704 0.1111111111111111 0.1111111111111111 0.05555555555555555 0.05555555555555555 0.05555555555555555 0.05555555555555555 0.05555555555555555 0.05555555555555555 0.05555555555555555 0.05555555555555555 0.05555555555555555 0.05555555555555555 0.05555555555555555 0.05555555555555555 0.05555555555555555 0.05555555555555555 0.03703703703703704 0.03703703703703704 0.03703703703703704 0.03703703703703704 0.03703703703703704 0.03703703703703704 0.03703703703703704 0.03703703703703704 0.07407407407407407 0.2222222222222222 0.03703703703703704 0.07407407407407407 0.1851851851851852 0.03703703703703704 0.03703703703703704 0.03703703703703704 0.03448275862068966 0.03448275862068966 0.03448275862068966 0.03448275862068966 0.03448275862068966 0.03448275862068966 0.03448275862068966 0.03448275862068966 0.03448275862068966 0.03448275862068966 0.06896551724137931 0.1724137931034483 0.06896551724137931 0.2413793103448276 0.03448275862068966 0.06896551724137931 0.03846153846153846 0.03846153846153846 0.03846153846153846 0.03846153846153846 0.03846153846153846 0.03846153846153846 0.03846153846153846 0.03846153846153846 0.1153846153846154 0.07692307692307693 0.2307692307692308 0.03846153846153846 0.03846153846153846 0.03846153846153846 0.1153846153846154 0.03846153846153846 0.2105263157894737 0.05263157894736842 0.05263157894736842 0.05263157894736842 0.05263157894736842 0.05263157894736842 0.05263157894736842 0.05263157894736842 0.05263157894736842 0.05263157894736842 0.05263157894736842 0.05263157894736842 0.05263157894736842 0.05263157894736842 0.05263157894736842 0.05263157894736842 0.04761904761904762 0.2857142857142857 0.04761904761904762 0.04761904761904762 0.04761904761904762 0.04761904761904762 0.04761904761904762 0.04761904761904762 0.04761904761904762 0.04761904761904762 0.04761904761904762 0.04761904761904762 0.04761904761904762 0.04761904761904762 0.04761904761904762 0.04761904761904762 0.03225806451612903 0.06451612903225806 0.1935483870967742 0.2580645161290323 0.09677419354838709 0.03225806451612903 0.03225806451612903 0.03225806451612903 0.03225806451612903 0.03225806451612903 0.03225806451612903 0.03225806451612903 0.03225806451612903 0.03225806451612903 0.03225806451612903 0.03225806451612903 0.03703703703703704 0.03703703703703704 0.03703703703703704 0.03703703703703704 0.1851851851851852 0.2592592592592592 0.03703703703703704 0.07407407407407407 0.03703703703703704 0.03703703703703704 0.03703703703703704 0.03703703703703704 0.03703703703703704 0.03703703703703704 0.03703703703703704 0.03703703703703704 0.04166666666666666 0.04166666666666666 0.04166666666666666 0.04166666666666666 0.04166666666666666 0.08333333333333333 0.3333333333333333 0.04166666666666666 0.04166666666666666 0.04166666666666666 0.04166666666666666 0.04166666666666666 0.04166666666666666 0.04166666666666666 0.04166666666666666 0.04166666666666666 0.05555555555555555 0.05555555555555555 0.1666666666666667 0.05555555555555555 0.05555555555555555 0.05555555555555555 0.05555555555555555 0.05555555555555555 0.05555555555555555 0.05555555555555555 0.05555555555555555 0.05555555555555555 0.05555555555555555 0.05555555555555555 0.05555555555555555 0.05555555555555555 0.04347826086956522 0.04347826086956522 0.04347826086956522 0.04347826086956522 0.04347826086956522 0.04347826086956522 0.04347826086956522 0.04347826086956522 0.04347826086956522 0.04347826086956522 0.08695652173913043 0.3043478260869565 0.04347826086956522 0.04347826086956522 0.04347826086956522 0.04347826086956522 0.05555555555555555 0.05555555555555555 0.05555555555555555 0.05555555555555555 0.05555555555555555 0.05555555555555555 0.05555555555555555 0.05555555555555555 0.05555555555555555 0.05555555555555555 0.05555555555555555 0.05555555555555555 0.1111111111111111 0.1111111111111111 0.05555555555555555 0.05555555555555555 0.03225806451612903 0.03225806451612903 0.03225806451612903 0.03225806451612903 0.03225806451612903 0.03225806451612903 0.03225806451612903 0.03225806451612903 0.09677419354838709 0.06451612903225806 0.2258064516129032 0.06451612903225806 0.1935483870967742 0.03225806451612903 0.03225806451612903 0.03225806451612903 0.05882352941176471 0.1470588235294118 0.02941176470588235 0.02941176470588235 0.02941176470588235 0.02941176470588235 0.02941176470588235 0.02941176470588235 0.05882352941176471 0.2058823529411765 0.02941176470588235 0.02941176470588235 0.05882352941176471 0.1764705882352941 0.02941176470588235 0.02941176470588235 0.1851851851851852 0.03703703703703704 0.03703703703703704 0.03703703703703704 0.03703703703703704 0.03703703703703704 0.03703703703703704 0.03703703703703704 0.03703703703703704 0.03703703703703704 0.03703703703703704 0.03703703703703704 0.03703703703703704 0.07407407407407407 0.2592592592592592 0.03703703703703704 0.04761904761904762 0.09523809523809523 0.2380952380952381 0.04761904761904762 0.04761904761904762 0.04761904761904762 0.04761904761904762 0.04761904761904762 0.04761904761904762 0.04761904761904762 0.04761904761904762 0.04761904761904762 0.04761904761904762 0.04761904761904762 0.04761904761904762 0.04761904761904762 0.04761904761904762 0.04761904761904762 0.09523809523809523 0.2380952380952381 0.04761904761904762 0.04761904761904762 0.04761904761904762 0.04761904761904762 0.04761904761904762 0.04761904761904762 0.04761904761904762 0.04761904761904762 0.04761904761904762 0.04761904761904762 0.04761904761904762 0.04761904761904762 0.04545454545454546 0.04545454545454546 0.04545454545454546 0.04545454545454546 0.04545454545454546 0.09090909090909091 0.2727272727272727 0.04545454545454546 0.04545454545454546 0.04545454545454546 0.04545454545454546 0.04545454545454546 0.04545454545454546 0.04545454545454546 0.04545454545454546 0.04545454545454546 0.15 0.1 0.05 0.05 0.05 0.05 0.05 0.05 0.05 0.05 0.05 0.05 0.05 0.05 0.1 0.05 0.04 0.04 0.04 0.04 0.12 0.24 0.08 0.08 0.04 0.04 0.04 0.04 0.04 0.04 0.04 0.04 0.05263157894736842 0.05263157894736842 0.05263157894736842 0.1052631578947368 0.1578947368421053 0.05263157894736842 0.05263157894736842 0.05263157894736842 0.05263157894736842 0.05263157894736842 0.05263157894736842 0.05263157894736842 0.05263157894736842 0.05263157894736842 0.05263157894736842 0.05263157894736842 0.05555555555555555 0.05555555555555555 0.05555555555555555 0.05555555555555555 0.1666666666666667 0.05555555555555555 0.05555555555555555 0.05555555555555555 0.05555555555555555 0.05555555555555555 0.05555555555555555 0.05555555555555555 0.05555555555555555 0.05555555555555555 0.05555555555555555 0.05555555555555555 0.05882352941176471 0.05882352941176471 0.1176470588235294 0.05882352941176471 0.05882352941176471 0.05882352941176471 0.05882352941176471 0.05882352941176471 0.05882352941176471 0.05882352941176471 0.05882352941176471 0.05882352941176471 0.05882352941176471 0.05882352941176471 0.05882352941176471 0.05882352941176471</probabilities>
		</cpt>
		<cpt id="date">
			<state id="Friday__02_April_2010" />
			<state id="Friday__05_March_2010" />
			<state id="Friday__07_May_2010" />
			<state id="Friday__09_April_2010" />
			<state id="Friday__12_March_2010" />
			<state id="Friday__14_May_2010" />
			<state id="Friday__16_April_2010" />
			<state id="Friday__19_March_2010" />
			<state id="Friday__21_May_2010" />
			<state id="Friday__23_April_2010" />
			<state id="Friday__26_February_2010" />
			<state id="Friday__26_March_2010" />
			<state id="Friday__28_May_2010" />
			<state id="Friday__30_April_2010" />
			<state id="Monday__01_March_2010" />
			<state id="Monday__03_May_2010" />
			<state id="Monday__05_April_2010" />
			<state id="Monday__08_March_2010" />
			<state id="Monday__10_May_2010" />
			<state id="Monday__12_April_2010" />
			<state id="Monday__15_March_2010" />
			<state id="Monday__17_May_2010" />
			<state id="Monday__19_April_2010" />
			<state id="Monday__22_March_2010" />
			<state id="Monday__24_May_2010" />
			<state id="Monday__26_April_2010" />
			<state id="Monday__29_March_2010" />
			<state id="Saturday__01_May_2010" />
			<state id="Saturday__03_April_2010" />
			<state id="Saturday__06_March_2010" />
			<state id="Saturday__08_May_2010" />
			<state id="Saturday__10_April_2010" />
			<state id="Saturday__13_March_2010" />
			<state id="Saturday__15_May_2010" />
			<state id="Saturday__17_April_2010" />
			<state id="Saturday__20_March_2010" />
			<state id="Saturday__22_May_2010" />
			<state id="Saturday__24_April_2010" />
			<state id="Saturday__27_February_2010" />
			<state id="Saturday__27_March_2010" />
			<state id="Sunday__02_May_2010" />
			<state id="Sunday__04_April_2010" />
			<state id="Sunday__07_March_2010" />
			<state id="Sunday__09_May_2010" />
			<state id="Sunday__11_April_2010" />
			<state id="Sunday__14_March_2010" />
			<state id="Sunday__16_May_2010" />
			<state id="Sunday__18_April_2010" />
			<state id="Sunday__21_March_2010" />
			<state id="Sunday__23_May_2010" />
			<state id="Sunday__25_April_2010" />
			<state id="Sunday__28_February_2010" />
			<state id="Sunday__28_March_2010" />
			<state id="Thursday__01_April_2010" />
			<state id="Thursday__04_March_2010" />
			<state id="Thursday__06_May_2010" />
			<state id="Thursday__08_April_2010" />
			<state id="Thursday__11_March_2010" />
			<state id="Thursday__13_May_2010" />
			<state id="Thursday__15_April_2010" />
			<state id="Thursday__18_March_2010" />
			<state id="Thursday__20_May_2010" />
			<state id="Thursday__22_April_2010" />
			<state id="Thursday__25_February_2010" />
			<state id="Thursday__25_March_2010" />
			<state id="Thursday__27_May_2010" />
			<state id="Thursday__29_April_2010" />
			<state id="Tuesday__02_March_2010" />
			<state id="Tuesday__04_May_2010" />
			<state id="Tuesday__06_April_2010" />
			<state id="Tuesday__09_March_2010" />
			<state id="Tuesday__11_May_2010" />
			<state id="Tuesday__13_April_2010" />
			<state id="Tuesday__16_March_2010" />
			<state id="Tuesday__18_May_2010" />
			<state id="Tuesday__20_April_2010" />
			<state id="Tuesday__23_February_2010" />
			<state id="Tuesday__23_March_2010" />
			<state id="Tuesday__25_May_2010" />
			<state id="Tuesday__27_April_2010" />
			<state id="Tuesday__30_March_2010" />
			<state id="Wednesday__03_March_2010" />
			<state id="Wednesday__05_May_2010" />
			<state id="Wednesday__07_April_2010" />
			<state id="Wednesday__09_June_2010" />
			<state id="Wednesday__10_March_2010" />
			<state id="Wednesday__12_May_2010" />
			<state id="Wednesday__14_April_2010" />
			<state id="Wednesday__17_March_2010" />
			<state id="Wednesday__19_May_2010" />
			<state id="Wednesday__21_April_2010" />
			<state id="Wednesday__24_February_2010" />
			<state id="Wednesday__24_March_2010" />
			<state id="Wednesday__26_May_2010" />
			<state id="Wednesday__28_April_2010" />
			<state id="Wednesday__31_March_2010" />
			<parents>status</parents>
			<probabilities>0.008928571428571428 0.008928571428571428 0.008928571428571428 0.02678571428571428 0.008928571428571428 0.008928571428571428 0.008928571428571428 0.008928571428571428 0.008928571428571428 0.008928571428571428 0.008928571428571428 0.008928571428571428 0.008928571428571428 0.008928571428571428 0.008928571428571428 0.008928571428571428 0.008928571428571428 0.008928571428571428 0.008928571428571428 0.03571428571428571 0.008928571428571428 0.008928571428571428 0.008928571428571428 0.008928571428571428 0.008928571428571428 0.008928571428571428 0.008928571428571428 0.008928571428571428 0.008928571428571428 0.008928571428571428 0.008928571428571428 0.02678571428571428 0.008928571428571428 0.008928571428571428 0.008928571428571428 0.008928571428571428 0.008928571428571428 0.008928571428571428 0.008928571428571428 0.008928571428571428 0.008928571428571428 0.008928571428571428 0.008928571428571428 0.008928571428571428 0.03571428571428571 0.008928571428571428 0.008928571428571428 0.008928571428571428 0.008928571428571428 0.008928571428571428 0.008928571428571428 0.008928571428571428 0.008928571428571428 0.008928571428571428 0.008928571428571428 0.008928571428571428 0.02678571428571428 0.008928571428571428 0.008928571428571428 0.008928571428571428 0.008928571428571428 0.008928571428571428 0.008928571428571428 0.008928571428571428 0.008928571428571428 0.008928571428571428 0.008928571428571428 0.008928571428571428 0.008928571428571428 0.008928571428571428 0.008928571428571428 0.008928571428571428 0.02678571428571428 0.008928571428571428 0.008928571428571428 0.008928571428571428 0.008928571428571428 0.008928571428571428 0.008928571428571428 0.008928571428571428 0.008928571428571428 0.008928571428571428 0.008928571428571428 0.02678571428571428 0.008928571428571428 0.008928571428571428 0.008928571428571428 0.008928571428571428 0.008928571428571428 0.008928571428571428 0.008928571428571428 0.008928571428571428 0.008928571428571428 0.008928571428571428 0.008928571428571428 0.008928571428571428 0.02752293577981652 0.009174311926605505 0.009174311926605505 0.009174311926605505 0.009174311926605505 0.009174311926605505 0.009174311926605505 0.009174311926605505 0.009174311926605505 0.009174311926605505 0.009174311926605505 0.009174311926605505 0.009174311926605505 0.009174311926605505 0.009174311926605505 0.009174311926605505 0.02752293577981652 0.009174311926605505 0.009174311926605505 0.009174311926605505 0.009174311926605505 0.009174311926605505 0.009174311926605505 0.009174311926605505 0.009174311926605505 0.009174311926605505 0.009174311926605505 0.009174311926605505 0.02752293577981652 0.009174311926605505 0.009174311926605505 0.009174311926605505 0.009174311926605505 0.009174311926605505 0.009174311926605505 0.009174311926605505 0.009174311926605505 0.009174311926605505 0.009174311926605505 0.009174311926605505 0.009174311926605505 0.01834862385321101 0.009174311926605505 0.009174311926605505 0.009174311926605505 0.009174311926605505 0.009174311926605505 0.009174311926605505 0.009174311926605505 0.009174311926605505 0.009174311926605505 0.009174311926605505 0.009174311926605505 0.02752293577981652 0.009174311926605505 0.009174311926605505 0.009174311926605505 0.009174311926605505 0.009174311926605505 0.009174311926605505 0.009174311926605505 0.009174311926605505 0.009174311926605505 0.009174311926605505 0.009174311926605505 0.009174311926605505 0.009174311926605505 0.009174311926605505 0.009174311926605505 0.02752293577981652 0.009174311926605505 0.009174311926605505 0.009174311926605505 0.009174311926605505 0.009174311926605505 0.009174311926605505 0.009174311926605505 0.009174311926605505 0.009174311926605505 0.009174311926605505 0.009174311926605505 0.009174311926605505 0.009174311926605505 0.009174311926605505 0.009174311926605505 0.009174311926605505 0.009174311926605505 0.009174311926605505 0.009174311926605505 0.009174311926605505 0.009174311926605505 0.009174311926605505 0.009174311926605505 0.009174311926605505 0.009174311926605505 0.02752293577981652 0.009174311926605505 0.009174311926605505 0.009174311926605505 0.009174311926605505 0.009174311926605505 0.009174311926605505 0.009174311926605505 0.009174311926605505 0.009174311926605505 0.009174311926605505 0.009174311926605505 0.02752293577981652 0.009174311926605505 0.009174311926605505 0.009174311926605505 0.009174311926605505 0.009174311926605505 0.009174311926605505 0.009174311926605505 0.009174311926605505 0.009174311926605505 0.009174311926605505 0.009174311926605505 0.009174311926605505 0.009174311926605505 0.009174311926605505 0.02752293577981652 0.009174311926605505 0.009174311926605505 0.009174311926605505 0.009174311926605505 0.009174311926605505 0.009174311926605505 0.009174311926605505 0.009174311926605505 0.009174311926605505 0.009174311926605505 0.009174311926605505 0.009174311926605505 0.02752293577981652 0.009174311926605505 0.009174311926605505 0.009174311926605505 0.009174311926605505 0.009174311926605505 0.009174311926605505 0.009174311926605505 0.009174311926605505 0.009174311926605505 0.009174311926605505 0.009174311926605505 0.009174311926605505 0.01834862385321101 0.009174311926605505 0.009174311926605505 0.009174311926605505 0.009174311926605505 0.009174311926605505 0.009174311926605505 0.009174311926605505 0.009174311926605505 0.009174311926605505 0.009174311926605505 0.009174311926605505 0.02752293577981652 0.009174311926605505 0.009174311926605505 0.009174311926605505 0.009174311926605505 0.009174311926605505 0.009174311926605505 0.009174311926605505 0.009174311926605505 0.009174311926605505 0.009174311926605505 0.009174311926605505 0.009174311926605505 0.009174311926605505 0.009174311926605505 0.009174311926605505 0.02752293577981652 0.009174311926605505 0.009174311926605505 0.009174311926605505 0.009174311926605505 0.009174311926605505 0.009174311926605505 0.009174311926605505 0.009174311926605505 0.009174311926605505 0.009174311926605505 0.009174311926605505 0.02752293577981652 0.009174311926605505 0.009174311926605505 0.009174311926605505 0.009259259259259259 0.009259259259259259 0.009259259259259259 0.009259259259259259 0.009259259259259259 0.009259259259259259 0.009259259259259259 0.02777777777777778 0.009259259259259259 0.009259259259259259 0.009259259259259259 0.009259259259259259 0.009259259259259259 0.009259259259259259 0.009259259259259259 0.009259259259259259 0.009259259259259259 0.009259259259259259 0.009259259259259259 0.009259259259259259 0.009259259259259259 0.009259259259259259 0.009259259259259259 0.02777777777777778 0.009259259259259259 0.009259259259259259 0.009259259259259259 0.009259259259259259 0.009259259259259259 0.009259259259259259 0.009259259259259259 0.009259259259259259 0.009259259259259259 0.009259259259259259 0.009259259259259259 0.02777777777777778 0.009259259259259259 0.009259259259259259 0.009259259259259259 0.009259259259259259 0.009259259259259259 0.009259259259259259 0.009259259259259259 0.009259259259259259 0.009259259259259259 0.009259259259259259 0.009259259259259259 0.009259259259259259 0.01851851851851852 0.009259259259259259 0.009259259259259259 0.009259259259259259 0.009259259259259259 0.009259259259259259 0.009259259259259259 0.009259259259259259 0.009259259259259259 0.009259259259259259 0.009259259259259259 0.009259259259259259 0.01851851851851852 0.009259259259259259 0.009259259259259259 0.009259259259259259 0.009259259259259259 0.009259259259259259 0.009259259259259259 0.009259259259259259 0.009259259259259259 0.009259259259259259 0.009259259259259259 0.009259259259259259 0.009259259259259259 0.009259259259259259 0.009259259259259259 0.009259259259259259 0.009259259259259259 0.02777777777777778 0.009259259259259259 0.009259259259259259 0.009259259259259259 0.009259259259259259 0.009259259259259259 0.009259259259259259 0.009259259259259259 0.009259259259259259 0.009259259259259259 0.009259259259259259 0.02777777777777778 0.009259259259259259 0.009259259259259259 0.009259259259259259 0.009259259259259259 0.009259259259259259 0.009259259259259259 0.009259259259259259 0.009259259259259259 0.009259259259259259 0.009259259259259259 0.009259259259259259 0.02777777777777778 0.009259259259259259 0.009259259259259259 0.009259259259259259 0.009259259259259259 0.009259259259259259 0.009259259259259259 0.009259259259259259 0.009259259259259259 0.009259259259259259 0.009259259259259259 0.009259259259259259 0.009259259259259259 0.009259259259259259 0.009259259259259259 0.009259259259259259 0.01851851851851852 0.009259259259259259 0.009259259259259259 0.009259259259259259 0.009259259259259259 0.009259259259259259 0.009259259259259259 0.009259259259259259 0.009259259259259259 0.009259259259259259 0.009259259259259259 0.009259259259259259 0.02777777777777778 0.009259259259259259 0.009259259259259259 0.009259259259259259 0.009259259259259259 0.009259259259259259 0.009259259259259259 0.009259259259259259 0.009259259259259259 0.009259259259259259 0.009259259259259259 0.009259259259259259 0.009259259259259259 0.01851851851851852 0.009259259259259259 0.009259259259259259 0.009259259259259259 0.009259259259259259 0.009259259259259259 0.009259259259259259 0.009259259259259259 0.009259259259259259 0.009259259259259259 0.009259259259259259 0.009259259259259259 0.02777777777777778 0.009259259259259259 0.009259259259259259 0.009259259259259259 0.009259259259259259 0.009259259259259259 0.009259259259259259 0.009259259259259259 0.009259259259259259 0.009259259259259259 0.009259259259259259 0.009259259259259259 0.009259259259259259 0.009259259259259259 0.009259259259259259 0.009259259259259259 0.02777777777777778 0.009259259259259259 0.009259259259259259 0.009259259259259259 0.009259259259259259 0.009259259259259259 0.009259259259259259 0.009259259259259259 0.009259259259259259 0.009259259259259259 0.009259259259259259 0.009259259259259259 0.02777777777777778 0.009259259259259259 0.009259259259259259 0.009259259259259259 0.009259259259259259 0.009259259259259259 0.009259259259259259 0.009259259259259259 0.009259259259259259 0.009259259259259259 0.009259259259259259 0.009174311926605505 0.02752293577981652 0.009174311926605505 0.009174311926605505 0.009174311926605505 0.009174311926605505 0.009174311926605505 0.009174311926605505 0.009174311926605505 0.009174311926605505 0.009174311926605505 0.009174311926605505 0.009174311926605505 0.009174311926605505 0.009174311926605505 0.009174311926605505 0.009174311926605505 0.02752293577981652 0.009174311926605505 0.009174311926605505 0.009174311926605505 0.009174311926605505 0.009174311926605505 0.009174311926605505 0.009174311926605505 0.009174311926605505 0.009174311926605505 0.009174311926605505 0.009174311926605505 0.02752293577981652 0.009174311926605505 0.009174311926605505 0.009174311926605505 0.009174311926605505 0.009174311926605505 0.009174311926605505 0.009174311926605505 0.009174311926605505 0.009174311926605505 0.009174311926605505 0.009174311926605505 0.009174311926605505 0.01834862385321101 0.009174311926605505 0.009174311926605505 0.009174311926605505 0.009174311926605505 0.009174311926605505 0.009174311926605505 0.009174311926605505 0.009174311926605505 0.009174311926605505 0.009174311926605505 0.009174311926605505 0.02752293577981652 0.009174311926605505 0.009174311926605505 0.009174311926605505 0.009174311926605505 0.009174311926605505 0.009174311926605505 0.009174311926605505 0.009174311926605505 0.009174311926605505 0.009174311926605505 0.009174311926605505 0.009174311926605505 0.009174311926605505 0.009174311926605505 0.009174311926605505 0.02752293577981652 0.009174311926605505 0.009174311926605505 0.009174311926605505 0.009174311926605505 0.009174311926605505 0.009174311926605505 0.009174311926605505 0.009174311926605505 0.009174311926605505 0.009174311926605505 0.02752293577981652 0.009174311926605505 0.009174311926605505 0.009174311926605505 0.009174311926605505 0.009174311926605505 0.009174311926605505 0.009174311926605505 0.009174311926605505 0.009174311926605505 0.009174311926605505 0.009174311926605505 0.009174311926605505 0.009174311926605505 0.009174311926605505 0.009174311926605505 0.009174311926605505 0.009174311926605505 0.009174311926605505 0.009174311926605505 0.009174311926605505 0.009174311926605505 0.009174311926605505 0.009174311926605505 0.009174311926605505 0.02752293577981652 0.009174311926605505 0.009174311926605505 0.009174311926605505 0.02752293577981652 0.009174311926605505 0.009174311926605505 0.009174311926605505 0.009174311926605505 0.009174311926605505 0.009174311926605505 0.009174311926605505 0.009174311926605505 0.009174311926605505 0.009174311926605505 0.009174311926605505 0.009174311926605505 0.009174311926605505 0.009174311926605505 0.009174311926605505 0.009174311926605505 0.009174311926605505 0.009174311926605505 0.009174311926605505 0.009174311926605505 0.009174311926605505 0.009174311926605505 0.009174311926605505 0.02752293577981652 0.009174311926605505 0.009174311926605505 0.009174311926605505 0.009174311926605505 0.009174311926605505 0.009174311926605505 0.009174311926605505 0.009174311926605505 0.009174311926605505 0.009174311926605505 0.009174311926605505 0.009174311926605505 0.01834862385321101 0.009174311926605505 0.009174311926605505 0.009174311926605505 0.009174311926605505 0.009174311926605505 0.009174311926605505 0.009174311926605505 0.009174311926605505 0.009174311926605505 0.009174311926605505 0.009174311926605505 0.02752293577981652 0.009174311926605505 0.009174311926605505 0.009174311926605505 0.02752293577981652 0.009174311926605505 0.009174311926605505 0.009174311926605505 0.009174311926605505 0.009174311926605505 0.009174311926605505 0.009174311926605505 0.009174311926605505 0.009174311926605505 0.009174311926605505 0.009174311926605505 0.009174311926605505 0.009174311926605505 0.009174311926605505 0.009174311926605505 0.009174311926605505 0.009174311926605505 0.009174311926605505 0.009174311926605505 0.009174311926605505 0.009174311926605505 0.009174311926605505 0.009174311926605505 0.02752293577981652 0.009174311926605505 0.009174311926605505 0.009174311926605505 0.009174311926605505 0.01020408163265306 0.01020408163265306 0.01020408163265306 0.01020408163265306 0.01020408163265306 0.01020408163265306 0.01020408163265306 0.01020408163265306 0.01020408163265306 0.01020408163265306 0.01020408163265306 0.01020408163265306 0.01020408163265306 0.01020408163265306 0.01020408163265306 0.01020408163265306 0.01020408163265306 0.01020408163265306 0.01020408163265306 0.01020408163265306 0.01020408163265306 0.01020408163265306 0.01020408163265306 0.01020408163265306 0.01020408163265306 0.01020408163265306 0.01020408163265306 0.01020408163265306 0.01020408163265306 0.01020408163265306 0.01020408163265306 0.01020408163265306 0.01020408163265306 0.01020408163265306 0.01020408163265306 0.01020408163265306 0.01020408163265306 0.01020408163265306 0.01020408163265306 0.01020408163265306 0.01020408163265306 0.01020408163265306 0.01020408163265306 0.01020408163265306 0.01020408163265306 0.01020408163265306 0.01020408163265306 0.01020408163265306 0.01020408163265306 0.01020408163265306 0.01020408163265306 0.01020408163265306 0.01020408163265306 0.01020408163265306 0.01020408163265306 0.01020408163265306 0.01020408163265306 0.01020408163265306 0.01020408163265306 0.01020408163265306 0.01020408163265306 0.01020408163265306 0.01020408163265306 0.01020408163265306 0.01020408163265306 0.01020408163265306 0.01020408163265306 0.01020408163265306 0.01020408163265306 0.01020408163265306 0.01020408163265306 0.01020408163265306 0.01020408163265306 0.01020408163265306 0.01020408163265306 0.01020408163265306 0.03061224489795918 0.01020408163265306 0.01020408163265306 0.01020408163265306 0.01020408163265306 0.01020408163265306 0.01020408163265306 0.01020408163265306 0.01020408163265306 0.01020408163265306 0.01020408163265306 0.01020408163265306 0.01020408163265306 0.01020408163265306 0.01020408163265306 0.01020408163265306 0.01020408163265306 0.01020408163265306 0.01020408163265306 0.01020408163265306 0.009803921568627451 0.009803921568627451 0.009803921568627451 0.009803921568627451 0.009803921568627451 0.009803921568627451 0.009803921568627451 0.009803921568627451 0.009803921568627451 0.009803921568627451 0.009803921568627451 0.009803921568627451 0.02941176470588235 0.009803921568627451 0.009803921568627451 0.009803921568627451 0.009803921568627451 0.009803921568627451 0.009803921568627451 0.009803921568627451 0.009803921568627451 0.009803921568627451 0.009803921568627451 0.009803921568627451 0.009803921568627451 0.009803921568627451 0.009803921568627451 0.009803921568627451 0.009803921568627451 0.009803921568627451 0.009803921568627451 0.009803921568627451 0.009803921568627451 0.009803921568627451 0.009803921568627451 0.009803921568627451 0.009803921568627451 0.009803921568627451 0.009803921568627451 0.009803921568627451 0.009803921568627451 0.009803921568627451 0.009803921568627451 0.009803921568627451 0.009803921568627451 0.009803921568627451 0.009803921568627451 0.009803921568627451 0.009803921568627451 0.009803921568627451 0.009803921568627451 0.009803921568627451 0.009803921568627451 0.009803921568627451 0.009803921568627451 0.009803921568627451 0.009803921568627451 0.009803921568627451 0.009803921568627451 0.009803921568627451 0.009803921568627451 0.009803921568627451 0.009803921568627451 0.009803921568627451 0.009803921568627451 0.02941176470588235 0.009803921568627451 0.009803921568627451 0.009803921568627451 0.009803921568627451 0.009803921568627451 0.009803921568627451 0.009803921568627451 0.009803921568627451 0.009803921568627451 0.009803921568627451 0.009803921568627451 0.009803921568627451 0.009803921568627451 0.009803921568627451 0.009803921568627451 0.009803921568627451 0.009803921568627451 0.009803921568627451 0.009803921568627451 0.009803921568627451 0.009803921568627451 0.009803921568627451 0.009803921568627451 0.009803921568627451 0.009803921568627451 0.009803921568627451 0.009803921568627451 0.02941176470588235 0.009803921568627451 0.009803921568627451 0.009174311926605505 0.009174311926605505 0.009174311926605505 0.009174311926605505 0.009174311926605505 0.009174311926605505 0.009174311926605505 0.009174311926605505 0.02752293577981652 0.009174311926605505 0.009174311926605505 0.009174311926605505 0.009174311926605505 0.009174311926605505 0.009174311926605505 0.009174311926605505 0.009174311926605505 0.009174311926605505 0.009174311926605505 0.009174311926605505 0.009174311926605505 0.009174311926605505 0.009174311926605505 0.009174311926605505 0.02752293577981652 0.009174311926605505 0.009174311926605505 0.009174311926605505 0.009174311926605505 0.009174311926605505 0.009174311926605505 0.009174311926605505 0.009174311926605505 0.009174311926605505 0.009174311926605505 0.009174311926605505 0.02752293577981652 0.009174311926605505 0.009174311926605505 0.009174311926605505 0.009174311926605505 0.009174311926605505 0.009174311926605505 0.009174311926605505 0.009174311926605505 0.009174311926605505 0.009174311926605505 0.009174311926605505 0.009174311926605505 0.02752293577981652 0.009174311926605505 0.009174311926605505 0.009174311926605505 0.009174311926605505 0.009174311926605505 0.009174311926605505 0.009174311926605505 0.009174311926605505 0.009174311926605505 0.009174311926605505 0.009174311926605505 0.02752293577981652 0.009174311926605505 0.009174311926605505 0.009174311926605505 0.009174311926605505 0.009174311926605505 0.009174311926605505 0.009174311926605505 0.009174311926605505 0.009174311926605505 0.009174311926605505 0.009174311926605505 0.009174311926605505 0.009174311926605505 0.009174311926605505 0.009174311926605505 0.009174311926605505 0.01834862385321101 0.009174311926605505 0.009174311926605505 0.009174311926605505 0.009174311926605505 0.009174311926605505 0.009174311926605505 0.009174311926605505 0.009174311926605505 0.009174311926605505 0.009174311926605505 0.02752293577981652 0.009174311926605505 0.009174311926605505 0.009174311926605505 0.009174311926605505 0.009174311926605505 0.009174311926605505 0.009174311926605505 0.009174311926605505 0.009174311926605505 0.009174311926605505 0.009174311926605505 0.02752293577981652 0.009174311926605505 0.009174311926605505 0.009174311926605505 0.009174311926605505 0.009174311926605505 0.009174311926605505 0.009174311926605505 0.009174311926605505 0.009174311926605505 0.009174311926605505 0.009174311926605505 0.009174311926605505 0.009174311926605505 0.009174311926605505 0.009174311926605505 0.02752293577981652 0.009174311926605505 0.009174311926605505 0.009174311926605505 0.009174311926605505 0.009174311926605505 0.009174311926605505 0.009174311926605505 0.009174311926605505 0.009174311926605505 0.009174311926605505 0.009174311926605505 0.02752293577981652 0.009174311926605505 0.009174311926605505 0.009174311926605505 0.009174311926605505 0.009174311926605505 0.009174311926605505 0.009174311926605505 0.009174311926605505 0.009174311926605505 0.009174311926605505 0.009174311926605505 0.009174311926605505 0.02752293577981652 0.009174311926605505 0.009174311926605505 0.009174311926605505 0.009174311926605505 0.009174311926605505 0.009174311926605505 0.009174311926605505 0.009174311926605505 0.009174311926605505 0.009174311926605505 0.009174311926605505 0.02752293577981652 0.009174311926605505 0.009174311926605505 0.009174311926605505 0.009174311926605505 0.009174311926605505 0.009174311926605505 0.009174311926605505 0.009174311926605505 0.009174311926605505 0.009174311926605505 0.009174311926605505 0.009174311926605505 0.009174311926605505 0.009174311926605505 0.009174311926605505 0.01834862385321101 0.009174311926605505 0.009174311926605505 0.009174311926605505 0.009174311926605505 0.009174311926605505 0.009174311926605505 0.009174311926605505 0.009174311926605505 0.009174311926605505 0.009174311926605505 0.009174311926605505 0.02752293577981652 0.009174311926605505 0.009174311926605505 0.009174311926605505 0.009174311926605505 0.009174311926605505 0.009174311926605505 0.009174311926605505 0.009174311926605505 0.009174311926605505 0.009259259259259259 0.009259259259259259 0.01851851851851852 0.009259259259259259 0.009259259259259259 0.009259259259259259 0.009259259259259259 0.009259259259259259 0.009259259259259259 0.009259259259259259 0.009259259259259259 0.009259259259259259 0.009259259259259259 0.009259259259259259 0.009259259259259259 0.009259259259259259 0.009259259259259259 0.009259259259259259 0.02777777777777778 0.009259259259259259 0.009259259259259259 0.009259259259259259 0.009259259259259259 0.009259259259259259 0.009259259259259259 0.009259259259259259 0.009259259259259259 0.009259259259259259 0.009259259259259259 0.009259259259259259 0.02777777777777778 0.009259259259259259 0.009259259259259259 0.009259259259259259 0.009259259259259259 0.009259259259259259 0.009259259259259259 0.009259259259259259 0.009259259259259259 0.009259259259259259 0.009259259259259259 0.009259259259259259 0.009259259259259259 0.02777777777777778 0.009259259259259259 0.009259259259259259 0.009259259259259259 0.009259259259259259 0.009259259259259259 0.009259259259259259 0.009259259259259259 0.009259259259259259 0.009259259259259259 0.009259259259259259 0.009259259259259259 0.01851851851851852 0.009259259259259259 0.009259259259259259 0.009259259259259259 0.009259259259259259 0.009259259259259259 0.009259259259259259 0.009259259259259259 0.009259259259259259 0.009259259259259259 0.009259259259259259 0.009259259259259259 0.009259259259259259 0.009259259259259259 0.009259259259259259 0.009259259259259259 0.02777777777777778 0.009259259259259259 0.009259259259259259 0.009259259259259259 0.009259259259259259 0.009259259259259259 0.009259259259259259 0.009259259259259259 0.009259259259259259 0.009259259259259259 0.009259259259259259 0.02777777777777778 0.009259259259259259 0.009259259259259259 0.009259259259259259 0.009259259259259259 0.009259259259259259 0.009259259259259259 0.009259259259259259 0.009259259259259259 0.009259259259259259 0.009259259259259259 0.009259259259259259 0.009259259259259259 0.009259259259259259 0.009174311926605505 0.009174311926605505 0.009174311926605505 0.009174311926605505 0.009174311926605505 0.009174311926605505 0.009174311926605505 0.009174311926605505 0.009174311926605505 0.009174311926605505 0.009174311926605505 0.009174311926605505 0.009174311926605505 0.02752293577981652 0.009174311926605505 0.02752293577981652 0.009174311926605505 0.009174311926605505 0.009174311926605505 0.009174311926605505 0.009174311926605505 0.009174311926605505 0.009174311926605505 0.009174311926605505 0.009174311926605505 0.009174311926605505 0.009174311926605505 0.02752293577981652 0.009174311926605505 0.009174311926605505 0.009174311926605505 0.009174311926605505 0.009174311926605505 0.009174311926605505 0.009174311926605505 0.009174311926605505 0.009174311926605505 0.009174311926605505 0.009174311926605505 0.009174311926605505 0.01834862385321101 0.009174311926605505 0.009174311926605505 0.009174311926605505 0.009174311926605505 0.009174311926605505 0.009174311926605505 0.009174311926605505 0.009174311926605505 0.009174311926605505 0.009174311926605505 0.009174311926605505 0.009174311926605505 0.009174311926605505 0.009174311926605505 0.009174311926605505 0.009174311926605505 0.009174311926605505 0.009174311926605505 0.009174311926605505 0.009174311926605505 0.009174311926605505 0.009174311926605505 0.009174311926605505 0.009174311926605505 0.009174311926605505 0.02752293577981652 0.009174311926605505 0.02752293577981652 0.009174311926605505 0.009174311926605505 0.009174311926605505 0.009174311926605505 0.009174311926605505 0.009174311926605505 0.009174311926605505 0.009174311926605505 0.009174311926605505 0.009174311926605505 0.009174311926605505 0.009174311926605505 0.009174311926605505 0.009174311926605505 0.009174311926605505 0.009174311926605505 0.009174311926605505 0.009174311926605505 0.009174311926605505 0.009174311926605505 0.009174311926605505 0.009174311926605505 0.009174311926605505 0.009174311926605505 0.009174311926605505 0.02752293577981652 0.009174311926605505 0.009090909090909091 0.009090909090909091 0.009090909090909091 0.009090909090909091 0.009090909090909091 0.009090909090909091 0.009090909090909091 0.009090909090909091 0.009090909090909091 0.02727272727272727 0.009090909090909091 0.009090909090909091 0.009090909090909091 0.009090909090909091 0.009090909090909091 0.009090909090909091 0.009090909090909091 0.009090909090909091 0.009090909090909091 0.009090909090909091 0.009090909090909091 0.009090909090909091 0.009090909090909091 0.009090909090909091 0.009090909090909091 0.02727272727272727 0.009090909090909091 0.009090909090909091 0.009090909090909091 0.009090909090909091 0.009090909090909091 0.009090909090909091 0.009090909090909091 0.009090909090909091 0.009090909090909091 0.009090909090909091 0.009090909090909091 0.02727272727272727 0.009090909090909091 0.009090909090909091 0.009090909090909091 0.009090909090909091 0.009090909090909091 0.009090909090909091 0.009090909090909091 0.009090909090909091 0.009090909090909091 0.009090909090909091 0.009090909090909091 0.009090909090909091 0.02727272727272727 0.009090909090909091 0.009090909090909091 0.009090909090909091 0.009090909090909091 0.009090909090909091 0.009090909090909091 0.009090909090909091 0.009090909090909091 0.009090909090909091 0.009090909090909091 0.009090909090909091 0.02727272727272727 0.009090909090909091 0.009090909090909091 0.009090909090909091 0.009090909090909091 0.009090909090909091 0.009090909090909091 0.009090909090909091 0.009090909090909091 0.009090909090909091 0.009090909090909091 0.009090909090909091 0.009090909090909091 0.009090909090909091 0.009090909090909091 0.009090909090909091 0.009090909090909091 0.02727272727272727 0.009090909090909091 0.009090909090909091 0.009090909090909091 0.009090909090909091 0.009090909090909091 0.009090909090909091 0.009090909090909091 0.009090909090909091 0.009090909090909091 0.009090909090909091 0.02727272727272727 0.009090909090909091 0.009090909090909091 0.009090909090909091 0.009090909090909091 0.009090909090909091 0.009174311926605505 0.009174311926605505 0.009174311926605505 0.009174311926605505 0.009174311926605505 0.009174311926605505 0.02752293577981652 0.009174311926605505 0.009174311926605505 0.009174311926605505 0.009174311926605505 0.009174311926605505 0.009174311926605505 0.009174311926605505 0.009174311926605505 0.009174311926605505 0.009174311926605505 0.009174311926605505 0.009174311926605505 0.009174311926605505 0.009174311926605505 0.009174311926605505 0.01834862385321101 0.009174311926605505 0.009174311926605505 0.009174311926605505 0.009174311926605505 0.009174311926605505 0.009174311926605505 0.009174311926605505 0.009174311926605505 0.009174311926605505 0.009174311926605505 0.009174311926605505 0.02752293577981652 0.009174311926605505 0.009174311926605505 0.009174311926605505 0.009174311926605505 0.009174311926605505 0.009174311926605505 0.009174311926605505 0.009174311926605505 0.009174311926605505 0.009174311926605505 0.009174311926605505 0.009174311926605505 0.02752293577981652 0.009174311926605505 0.009174311926605505 0.009174311926605505 0.009174311926605505 0.009174311926605505 0.009174311926605505 0.009174311926605505 0.009174311926605505 0.009174311926605505 0.009174311926605505 0.009174311926605505 0.02752293577981652 0.009174311926605505 0.009174311926605505 0.009174311926605505 0.009174311926605505 0.009174311926605505 0.009174311926605505 0.009174311926605505 0.009174311926605505 0.009174311926605505 0.009174311926605505 0.009174311926605505 0.009174311926605505 0.009174311926605505 0.009174311926605505 0.009174311926605505 0.02752293577981652 0.009174311926605505 0.009174311926605505 0.009174311926605505 0.009174311926605505 0.009174311926605505 0.009174311926605505 0.009174311926605505 0.009174311926605505 0.009174311926605505 0.009174311926605505 0.009174311926605505 0.02752293577981652 0.009174311926605505 0.009174311926605505 0.009174311926605505 0.009174311926605505 0.009174311926605505 0.009174311926605505 0.009174311926605505 0.009174311926605505 0.01030927835051546 0.01030927835051546 0.01030927835051546 0.01030927835051546 0.01030927835051546 0.01030927835051546 0.01030927835051546 0.01030927835051546 0.01030927835051546 0.01030927835051546 0.01030927835051546 0.01030927835051546 0.01030927835051546 0.01030927835051546 0.01030927835051546 0.01030927835051546 0.01030927835051546 0.01030927835051546 0.01030927835051546 0.01030927835051546 0.01030927835051546 0.01030927835051546 0.01030927835051546 0.01030927835051546 0.01030927835051546 0.01030927835051546 0.01030927835051546 0.01030927835051546 0.01030927835051546 0.01030927835051546 0.01030927835051546 0.01030927835051546 0.01030927835051546 0.01030927835051546 0.01030927835051546 0.01030927835051546 0.01030927835051546 0.01030927835051546 0.01030927835051546 0.01030927835051546 0.01030927835051546 0.01030927835051546 0.01030927835051546 0.01030927835051546 0.01030927835051546 0.01030927835051546 0.01030927835051546 0.01030927835051546 0.01030927835051546 0.01030927835051546 0.01030927835051546 0.01030927835051546 0.01030927835051546 0.01030927835051546 0.01030927835051546 0.01030927835051546 0.01030927835051546 0.01030927835051546 0.01030927835051546 0.01030927835051546 0.01030927835051546 0.01030927835051546 0.01030927835051546 0.01030927835051546 0.01030927835051546 0.01030927835051546 0.01030927835051546 0.01030927835051546 0.01030927835051546 0.01030927835051546 0.01030927835051546 0.01030927835051546 0.01030927835051546 0.01030927835051546 0.01030927835051546 0.01030927835051546 0.01030927835051546 0.01030927835051546 0.01030927835051546 0.01030927835051546 0.01030927835051546 0.01030927835051546 0.01030927835051546 0.01030927835051546 0.02061855670103093 0.01030927835051546 0.01030927835051546 0.01030927835051546 0.01030927835051546 0.01030927835051546 0.01030927835051546 0.01030927835051546 0.01030927835051546 0.01030927835051546 0.01030927835051546 0.01030927835051546</probabilities>
		</cpt>
		<cpt id="duration">
			<state id="State_1_hour_54_minutes" />
			<state id="State_1_minute" />
			<state id="State_2_hours_10_minutes" />
			<state id="State_2_hours_12_minutes" />
			<state id="State_2_hours_13_minutes" />
			<state id="State_2_hours_14_minutes" />
			<state id="State_2_hours_15_minutes" />
			<state id="State_2_hours_16_minutes" />
			<state id="State_2_hours_17_minutes" />
			<state id="State_2_hours_18_minutes" />
			<state id="State_2_hours_19_minutes" />
			<state id="State_2_hours_20_minutes" />
			<state id="State_2_hours_21_minutes" />
			<state id="State_2_hours_22_minutes" />
			<state id="State_2_hours_23_minutes" />
			<state id="State_2_hours_24_minutes" />
			<state id="State_2_hours_25_minutes" />
			<state id="State_2_hours_26_minutes" />
			<state id="State_2_hours_27_minutes" />
			<state id="State_2_hours_28_minutes" />
			<state id="State_2_hours_29_minutes" />
			<state id="State_2_hours_30_minutes" />
			<state id="State_2_hours_31_minutes" />
			<state id="State_2_hours_32_minutes" />
			<state id="State_2_hours_33_minutes" />
			<state id="State_2_hours_34_minutes" />
			<state id="State_2_hours_35_minutes" />
			<state id="State_2_hours_36_minutes" />
			<state id="State_2_hours_37_minutes" />
			<state id="State_2_hours_38_minutes" />
			<state id="State_2_hours_39_minutes" />
			<state id="State_2_hours_40_minutes" />
			<state id="State_2_hours_41_minutes" />
			<state id="State_2_hours_42_minutes" />
			<state id="State_2_hours_43_minutes" />
			<state id="State_2_hours_44_minutes" />
			<state id="State_2_hours_45_minutes" />
			<state id="State_2_hours_46_minutes" />
			<state id="State_2_hours_47_minutes" />
			<state id="State_2_hours_48_minutes" />
			<state id="State_2_hours_49_minutes" />
			<state id="State_2_hours_50_minutes" />
			<state id="State_2_hours_52_minutes" />
			<state id="State_2_hours_53_minutes" />
			<state id="State_2_hours_54_minutes" />
			<state id="State_2_hours_55_minutes" />
			<state id="State_2_hours_56_minutes" />
			<state id="State_2_hours_6_minutes" />
			<state id="State_2_hours_8_minutes" />
			<state id="State_2_hours_9_minutes" />
			<state id="State_2_minutes" />
			<state id="State_3_hours_0_minutes" />
			<state id="State_3_hours_1_minute" />
			<state id="State_3_hours_7_minutes" />
			<state id="State_4_minutes" />
			<parents>scheduled_altitude origin</parents>
			<probabilities>0.01818181818181818 0.01818181818181818 0.01818181818181818 0.01818181818181818 0.01818181818181818 0.01818181818181818 0.01818181818181818 0.01818181818181818 0.01818181818181818 0.01818181818181818 0.01818181818181818 0.01818181818181818 0.01818181818181818 0.01818181818181818 0.01818181818181818 0.01818181818181818 0.01818181818181818 0.01818181818181818 0.01818181818181818 0.01818181818181818 0.01818181818181818 0.01818181818181818 0.01818181818181818 0.01818181818181818 0.01818181818181818 0.01818181818181818 0.01818181818181818 0.01818181818181818 0.01818181818181818 0.01818181818181818 0.01818181818181818 0.01818181818181818 0.01818181818181818 0.01818181818181818 0.01818181818181818 0.01818181818181818 0.01818181818181818 0.01818181818181818 0.01818181818181818 0.01818181818181818 0.01818181818181818 0.01818181818181818 0.01818181818181818 0.01818181818181818 0.01818181818181818 0.01818181818181818 0.01818181818181818 0.01818181818181818 0.01818181818181818 0.01818181818181818 0.01818181818181818 0.01818181818181818 0.01818181818181818 0.01818181818181818 0.01818181818181818 0.01785714285714286 0.01785714285714286 0.01785714285714286 0.01785714285714286 0.01785714285714286 0.01785714285714286 0.01785714285714286 0.01785714285714286 0.01785714285714286 0.01785714285714286 0.01785714285714286 0.01785714285714286 0.01785714285714286 0.01785714285714286 0.01785714285714286 0.01785714285714286 0.01785714285714286 0.01785714285714286 0.01785714285714286 0.01785714285714286 0.01785714285714286 0.01785714285714286 0.01785714285714286 0.01785714285714286 0.01785714285714286 0.01785714285714286 0.01785714285714286 0.01785714285714286 0.01785714285714286 0.01785714285714286 0.01785714285714286 0.01785714285714286 0.01785714285714286 0.01785714285714286 0.03571428571428571 0.01785714285714286 0.01785714285714286 0.01785714285714286 0.01785714285714286 0.01785714285714286 0.01785714285714286 0.01785714285714286 0.01785714285714286 0.01785714285714286 0.01785714285714286 0.01785714285714286 0.01785714285714286 0.01785714285714286 0.01785714285714286 0.01785714285714286 0.01785714285714286 0.01785714285714286 0.01785714285714286 0.01785714285714286 0.01785714285714286 0.01785714285714286 0.01785714285714286 0.01785714285714286 0.01785714285714286 0.01785714285714286 0.01785714285714286 0.01785714285714286 0.01785714285714286 0.01785714285714286 0.01785714285714286 0.01785714285714286 0.01785714285714286 0.01785714285714286 0.01785714285714286 0.01785714285714286 0.01785714285714286 0.01785714285714286 0.01785714285714286 0.01785714285714286 0.01785714285714286 0.03571428571428571 0.01785714285714286 0.01785714285714286 0.01785714285714286 0.01785714285714286 0.01785714285714286 0.01785714285714286 0.01785714285714286 0.01785714285714286 0.01785714285714286 0.01785714285714286 0.01785714285714286 0.01785714285714286 0.01785714285714286 0.01785714285714286 0.01785714285714286 0.01785714285714286 0.01785714285714286 0.01785714285714286 0.01785714285714286 0.01785714285714286 0.01785714285714286 0.01785714285714286 0.01785714285714286 0.01785714285714286 0.01785714285714286 0.01785714285714286 0.01785714285714286 0.01785714285714286 0.01785714285714286 0.01785714285714286 0.01785714285714286 0.01785714285714286 0.01785714285714286 0.01785714285714286 0.01785714285714286 0.01785714285714286 0.01785714285714286 0.01785714285714286 0.01785714285714286 0.01785714285714286 0.01785714285714286 0.01785714285714286 0.01785714285714286 0.01785714285714286 0.01785714285714286 0.01785714285714286 0.01785714285714286 0.01785714285714286 0.01785714285714286 0.01785714285714286 0.01785714285714286 0.01785714285714286 0.01785714285714286 0.01785714285714286 0.01785714285714286 0.01785714285714286 0.01785714285714286 0.01785714285714286 0.01785714285714286 0.01785714285714286 0.01785714285714286 0.01785714285714286 0.01785714285714286 0.01785714285714286 0.01785714285714286 0.01785714285714286 0.01785714285714286 0.01785714285714286 0.03571428571428571 0.01785714285714286 0.01785714285714286 0.01785714285714286 0.01785714285714286 0.01785714285714286 0.01785714285714286 0.01785714285714286 0.01785714285714286 0.01785714285714286 0.01785714285714286 0.01785714285714286 0.01785714285714286 0.01785714285714286 0.01785714285714286 0.01785714285714286 0.01785714285714286 0.01785714285714286 0.01785714285714286 0.01785714285714286 0.01785714285714286 0.01612903225806452 0.01612903225806452 0.01612903225806452 0.01612903225806452 0.01612903225806452 0.01612903225806452 0.01612903225806452 0.01612903225806452 0.01612903225806452 0.01612903225806452 0.01612903225806452 0.01612903225806452 0.01612903225806452 0.01612903225806452 0.03225806451612903 0.01612903225806452 0.01612903225806452 0.01612903225806452 0.03225806451612903 0.01612903225806452 0.01612903225806452 0.01612903225806452 0.01612903225806452 0.01612903225806452 0.01612903225806452 0.01612903225806452 0.01612903225806452 0.01612903225806452 0.01612903225806452 0.01612903225806452 0.01612903225806452 0.03225806451612903 0.01612903225806452 0.01612903225806452 0.01612903225806452 0.01612903225806452 0.04838709677419355 0.01612903225806452 0.03225806451612903 0.01612903225806452 0.01612903225806452 0.01612903225806452 0.01612903225806452 0.01612903225806452 0.03225806451612903 0.01612903225806452 0.01612903225806452 0.01612903225806452 0.01612903225806452 0.01612903225806452 0.01612903225806452 0.01612903225806452 0.01612903225806452 0.01612903225806452 0.01612903225806452 0.01612903225806452 0.01612903225806452 0.01612903225806452 0.01612903225806452 0.01612903225806452 0.01612903225806452 0.01612903225806452 0.01612903225806452 0.01612903225806452 0.01612903225806452 0.01612903225806452 0.01612903225806452 0.01612903225806452 0.01612903225806452 0.01612903225806452 0.01612903225806452 0.01612903225806452 0.01612903225806452 0.01612903225806452 0.01612903225806452 0.01612903225806452 0.01612903225806452 0.01612903225806452 0.01612903225806452 0.03225806451612903 0.01612903225806452 0.01612903225806452 0.01612903225806452 0.01612903225806452 0.01612903225806452 0.03225806451612903 0.03225806451612903 0.01612903225806452 0.03225806451612903 0.01612903225806452 0.01612903225806452 0.01612903225806452 0.03225806451612903 0.01612903225806452 0.01612903225806452 0.03225806451612903 0.03225806451612903 0.01612903225806452 0.01612903225806452 0.01612903225806452 0.01612903225806452 0.01612903225806452 0.01612903225806452 0.01612903225806452 0.01612903225806452 0.01612903225806452 0.01612903225806452 0.01612903225806452 0.01612903225806452 0.01612903225806452 0.015625 0.015625 0.015625 0.015625 0.015625 0.015625 0.015625 0.015625 0.015625 0.015625 0.015625 0.015625 0.015625 0.015625 0.015625 0.015625 0.015625 0.046875 0.03125 0.015625 0.015625 0.015625 0.015625 0.015625 0.03125 0.015625 0.015625 0.015625 0.015625 0.03125 0.03125 0.015625 0.015625 0.015625 0.015625 0.015625 0.015625 0.015625 0.015625 0.015625 0.015625 0.015625 0.015625 0.015625 0.015625 0.015625 0.03125 0.015625 0.015625 0.03125 0.015625 0.015625 0.03125 0.015625 0.015625 0.015625 0.015625 0.015625 0.015625 0.015625 0.03125 0.015625 0.015625 0.015625 0.015625 0.015625 0.015625 0.015625 0.015625 0.015625 0.015625 0.03125 0.015625 0.015625 0.03125 0.015625 0.015625 0.015625 0.03125 0.015625 0.015625 0.015625 0.015625 0.015625 0.015625 0.015625 0.03125 0.03125 0.015625 0.03125 0.015625 0.015625 0.03125 0.015625 0.015625 0.015625 0.015625 0.015625 0.03125 0.015625 0.015625 0.015625 0.015625 0.015625 0.015625 0.015625 0.015625 0.015625 0.015625 0.015625 0.01754385964912281 0.01754385964912281 0.01754385964912281 0.01754385964912281 0.01754385964912281 0.01754385964912281 0.01754385964912281 0.01754385964912281 0.01754385964912281 0.01754385964912281 0.01754385964912281 0.01754385964912281 0.01754385964912281 0.01754385964912281 0.01754385964912281 0.01754385964912281 0.01754385964912281 0.01754385964912281 0.01754385964912281 0.01754385964912281 0.01754385964912281 0.01754385964912281 0.01754385964912281 0.01754385964912281 0.03508771929824561 0.01754385964912281 0.01754385964912281 0.01754385964912281 0.01754385964912281 0.03508771929824561 0.01754385964912281 0.01754385964912281 0.01754385964912281 0.01754385964912281 0.01754385964912281 0.01754385964912281 0.01754385964912281 0.01754385964912281 0.01754385964912281 0.01754385964912281 0.01754385964912281 0.01754385964912281 0.01754385964912281 0.01754385964912281 0.01754385964912281 0.01754385964912281 0.01754385964912281 0.01754385964912281 0.01754385964912281 0.01754385964912281 0.01754385964912281 0.01754385964912281 0.01754385964912281 0.01754385964912281 0.01754385964912281 0.01818181818181818 0.01818181818181818 0.01818181818181818 0.01818181818181818 0.01818181818181818 0.01818181818181818 0.01818181818181818 0.01818181818181818 0.01818181818181818 0.01818181818181818 0.01818181818181818 0.01818181818181818 0.01818181818181818 0.01818181818181818 0.01818181818181818 0.01818181818181818 0.01818181818181818 0.01818181818181818 0.01818181818181818 0.01818181818181818 0.01818181818181818 0.01818181818181818 0.01818181818181818 0.01818181818181818 0.01818181818181818 0.01818181818181818 0.01818181818181818 0.01818181818181818 0.01818181818181818 0.01818181818181818 0.01818181818181818 0.01818181818181818 0.01818181818181818 0.01818181818181818 0.01818181818181818 0.01818181818181818 0.01818181818181818 0.01818181818181818 0.01818181818181818 0.01818181818181818 0.01818181818181818 0.01818181818181818 0.01818181818181818 0.01818181818181818 0.01818181818181818 0.01818181818181818 0.01818181818181818 0.01818181818181818 0.01818181818181818 0.01818181818181818 0.01818181818181818 0.01818181818181818 0.01818181818181818 0.01818181818181818 0.01818181818181818 0.009009009009009009 0.009009009009009009 0.02702702702702703 0.01801801801801802 0.01801801801801802 0.009009009009009009 0.009009009009009009 0.009009009009009009 0.01801801801801802 0.009009009009009009 0.009009009009009009 0.02702702702702703 0.03603603603603604 0.04504504504504504 0.01801801801801802 0.04504504504504504 0.009009009009009009 0.03603603603603604 0.05405405405405406 0.02702702702702703 0.01801801801801802 0.04504504504504504 0.03603603603603604 0.01801801801801802 0.04504504504504504 0.02702702702702703 0.01801801801801802 0.02702702702702703 0.009009009009009009 0.01801801801801802 0.009009009009009009 0.009009009009009009 0.009009009009009009 0.009009009009009009 0.03603603603603604 0.01801801801801802 0.009009009009009009 0.009009009009009009 0.009009009009009009 0.009009009009009009 0.009009009009009009 0.01801801801801802 0.009009009009009009 0.009009009009009009 0.009009009009009009 0.009009009009009009 0.01801801801801802 0.01801801801801802 0.01801801801801802 0.009009009009009009 0.009009009009009009 0.009009009009009009 0.009009009009009009 0.009009009009009009 0.009009009009009009 0.02040816326530612 0.01020408163265306 0.01020408163265306 0.01020408163265306 0.01020408163265306 0.01020408163265306 0.02040816326530612 0.02040816326530612 0.01020408163265306 0.02040816326530612 0.02040816326530612 0.03061224489795918 0.01020408163265306 0.02040816326530612 0.0510204081632653 0.01020408163265306 0.02040816326530612 0.02040816326530612 0.02040816326530612 0.04081632653061224 0.01020408163265306 0.01020408163265306 0.01020408163265306 0.03061224489795918 0.02040816326530612 0.01020408163265306 0.04081632653061224 0.01020408163265306 0.03061224489795918 0.03061224489795918 0.02040816326530612 0.01020408163265306 0.01020408163265306 0.02040816326530612 0.04081632653061224 0.03061224489795918 0.03061224489795918 0.01020408163265306 0.01020408163265306 0.03061224489795918 0.01020408163265306 0.01020408163265306 0.03061224489795918 0.01020408163265306 0.01020408163265306 0.02040816326530612 0.01020408163265306 0.01020408163265306 0.01020408163265306 0.01020408163265306 0.01020408163265306 0.02040816326530612 0.01020408163265306 0.01020408163265306 0.01020408163265306 0.01639344262295082 0.01639344262295082 0.01639344262295082 0.01639344262295082 0.01639344262295082 0.01639344262295082 0.03278688524590164 0.01639344262295082 0.01639344262295082 0.01639344262295082 0.01639344262295082 0.01639344262295082 0.03278688524590164 0.03278688524590164 0.03278688524590164 0.01639344262295082 0.03278688524590164 0.01639344262295082 0.01639344262295082 0.01639344262295082 0.01639344262295082 0.01639344262295082 0.01639344262295082 0.01639344262295082 0.01639344262295082 0.01639344262295082 0.01639344262295082 0.01639344262295082 0.01639344262295082 0.03278688524590164 0.01639344262295082 0.01639344262295082 0.01639344262295082 0.01639344262295082 0.01639344262295082 0.01639344262295082 0.01639344262295082 0.01639344262295082 0.01639344262295082 0.01639344262295082 0.01639344262295082 0.01639344262295082 0.01639344262295082 0.01639344262295082 0.01639344262295082 0.01639344262295082 0.01639344262295082 0.01639344262295082 0.01639344262295082 0.01639344262295082 0.01639344262295082 0.01639344262295082 0.01639344262295082 0.01639344262295082 0.01639344262295082 0.01333333333333333 0.01333333333333333 0.01333333333333333 0.01333333333333333 0.01333333333333333 0.01333333333333333 0.01333333333333333 0.01333333333333333 0.04 0.04 0.02666666666666667 0.01333333333333333 0.01333333333333333 0.02666666666666667 0.02666666666666667 0.01333333333333333 0.05333333333333334 0.01333333333333333 0.04 0.05333333333333334 0.01333333333333333 0.01333333333333333 0.02666666666666667 0.01333333333333333 0.01333333333333333 0.01333333333333333 0.01333333333333333 0.01333333333333333 0.02666666666666667 0.01333333333333333 0.01333333333333333 0.02666666666666667 0.01333333333333333 0.01333333333333333 0.01333333333333333 0.01333333333333333 0.01333333333333333 0.01333333333333333 0.01333333333333333 0.01333333333333333 0.01333333333333333 0.01333333333333333 0.01333333333333333 0.01333333333333333 0.01333333333333333 0.01333333333333333 0.01333333333333333 0.01333333333333333 0.02666666666666667 0.01333333333333333 0.01333333333333333 0.01333333333333333 0.01333333333333333 0.02666666666666667 0.01333333333333333 0.01818181818181818 0.01818181818181818 0.01818181818181818 0.01818181818181818 0.01818181818181818 0.01818181818181818 0.01818181818181818 0.01818181818181818 0.01818181818181818 0.01818181818181818 0.01818181818181818 0.01818181818181818 0.01818181818181818 0.01818181818181818 0.01818181818181818 0.01818181818181818 0.01818181818181818 0.01818181818181818 0.01818181818181818 0.01818181818181818 0.01818181818181818 0.01818181818181818 0.01818181818181818 0.01818181818181818 0.01818181818181818 0.01818181818181818 0.01818181818181818 0.01818181818181818 0.01818181818181818 0.01818181818181818 0.01818181818181818 0.01818181818181818 0.01818181818181818 0.01818181818181818 0.01818181818181818 0.01818181818181818 0.01818181818181818 0.01818181818181818 0.01818181818181818 0.01818181818181818 0.01818181818181818 0.01818181818181818 0.01818181818181818 0.01818181818181818 0.01818181818181818 0.01818181818181818 0.01818181818181818 0.01818181818181818 0.01818181818181818 0.01818181818181818 0.01818181818181818 0.01818181818181818 0.01818181818181818 0.01818181818181818 0.01818181818181818 0.01785714285714286 0.01785714285714286 0.01785714285714286 0.01785714285714286 0.01785714285714286 0.01785714285714286 0.01785714285714286 0.01785714285714286 0.01785714285714286 0.01785714285714286 0.01785714285714286 0.01785714285714286 0.01785714285714286 0.01785714285714286 0.01785714285714286 0.01785714285714286 0.03571428571428571 0.01785714285714286 0.01785714285714286 0.01785714285714286 0.01785714285714286 0.01785714285714286 0.01785714285714286 0.01785714285714286 0.01785714285714286 0.01785714285714286 0.01785714285714286 0.01785714285714286 0.01785714285714286 0.01785714285714286 0.01785714285714286 0.01785714285714286 0.01785714285714286 0.01785714285714286 0.01785714285714286 0.01785714285714286 0.01785714285714286 0.01785714285714286 0.01785714285714286 0.01785714285714286 0.01785714285714286 0.01785714285714286 0.01785714285714286 0.01785714285714286 0.01785714285714286 0.01785714285714286 0.01785714285714286 0.01785714285714286 0.01785714285714286 0.01785714285714286 0.01785714285714286 0.01785714285714286 0.01785714285714286 0.01785714285714286 0.01785714285714286 0.01538461538461539 0.03076923076923077 0.01538461538461539 0.01538461538461539 0.01538461538461539 0.01538461538461539 0.01538461538461539 0.01538461538461539 0.03076923076923077 0.01538461538461539 0.01538461538461539 0.01538461538461539 0.01538461538461539 0.01538461538461539 0.01538461538461539 0.01538461538461539 0.01538461538461539 0.01538461538461539 0.03076923076923077 0.01538461538461539 0.01538461538461539 0.01538461538461539 0.01538461538461539 0.03076923076923077 0.03076923076923077 0.01538461538461539 0.04615384615384616 0.01538461538461539 0.01538461538461539 0.01538461538461539 0.01538461538461539 0.01538461538461539 0.01538461538461539 0.01538461538461539 0.01538461538461539 0.01538461538461539 0.01538461538461539 0.03076923076923077 0.01538461538461539 0.01538461538461539 0.01538461538461539 0.01538461538461539 0.01538461538461539 0.01538461538461539 0.01538461538461539 0.01538461538461539 0.01538461538461539 0.01538461538461539 0.01538461538461539 0.01538461538461539 0.03076923076923077 0.01538461538461539 0.01538461538461539 0.01538461538461539 0.03076923076923077 0.01639344262295082 0.01639344262295082 0.01639344262295082 0.01639344262295082 0.01639344262295082 0.01639344262295082 0.03278688524590164 0.01639344262295082 0.03278688524590164 0.01639344262295082 0.01639344262295082 0.01639344262295082 0.03278688524590164 0.01639344262295082 0.01639344262295082 0.01639344262295082 0.03278688524590164 0.03278688524590164 0.01639344262295082 0.01639344262295082 0.01639344262295082 0.01639344262295082 0.03278688524590164 0.01639344262295082 0.01639344262295082 0.01639344262295082 0.01639344262295082 0.01639344262295082 0.01639344262295082 0.01639344262295082 0.01639344262295082 0.01639344262295082 0.01639344262295082 0.01639344262295082 0.01639344262295082 0.01639344262295082 0.01639344262295082 0.01639344262295082 0.01639344262295082 0.01639344262295082 0.01639344262295082 0.01639344262295082 0.01639344262295082 0.01639344262295082 0.01639344262295082 0.01639344262295082 0.01639344262295082 0.01639344262295082 0.01639344262295082 0.01639344262295082 0.01639344262295082 0.01639344262295082 0.01639344262295082 0.01639344262295082 0.01639344262295082</probabilities>
		</cpt>
		<cpt id="actual_departure">
			<state id="State_01_11PM_EDT" />
			<state id="State_02_00PM_EDT" />
			<state id="State_02_13PM_CDT" />
			<state id="State_02_22PM_CDT" />
			<state id="State_02_23PM_CDT" />
			<state id="State_02_24PM_CDT" />
			<state id="State_02_25PM_CDT" />
			<state id="State_02_26PM_CDT" />
			<state id="State_02_27PM_CDT" />
			<state id="State_02_28PM_CDT" />
			<state id="State_02_30PM_CDT" />
			<state id="State_02_31PM_CDT" />
			<state id="State_02_32PM_CDT" />
			<state id="State_02_33PM_CDT" />
			<state id="State_02_33PM_CST" />
			<state id="State_02_34PM_CDT" />
			<state id="State_02_35PM_CDT" />
			<state id="State_02_36PM_CDT" />
			<state id="State_02_36PM_CST" />
			<state id="State_02_37PM_CDT" />
			<state id="State_02_37PM_CST" />
			<state id="State_02_38PM_CDT" />
			<state id="State_02_38PM_CST" />
			<state id="State_02_39PM_CDT" />
			<state id="State_02_40PM_CST" />
			<state id="State_02_41PM_CDT" />
			<state id="State_02_41PM_CST" />
			<state id="State_02_42PM_CDT" />
			<state id="State_02_42PM_CST" />
			<state id="State_02_43PM_CDT" />
			<state id="State_02_44PM_CDT" />
			<state id="State_02_45PM_CDT" />
			<state id="State_02_46PM_CDT" />
			<state id="State_02_46PM_CST" />
			<state id="State_02_48PM_CDT" />
			<state id="State_02_50PM_CST" />
			<state id="State_02_51PM_CST" />
			<state id="State_02_53PM_CDT" />
			<state id="State_02_54PM_CST" />
			<state id="State_02_55PM_CDT" />
			<state id="State_02_56PM_CST" />
			<state id="State_03_01PM_CST" />
			<state id="State_03_05PM_EDT" />
			<state id="State_03_13PM_CDT" />
			<state id="State_03_43PM_CST" />
			<state id="State_10_30AM_CDT" />
			<state id="State_10_45AM_CDT" />
			<state id="State_11_27AM_EDT" />
			<state id="State_11_28AM_EDT" />
			<state id="State_11_29AM_EDT" />
			<state id="State_11_30AM_EDT" />
			<state id="State_11_31AM_EDT" />
			<state id="State_11_31AM_EST" />
			<state id="State_11_32AM_EDT" />
			<state id="State_11_33AM_EDT" />
			<state id="State_11_33AM_EST" />
			<state id="State_11_34AM_EDT" />
			<state id="State_11_35AM_EDT" />
			<state id="State_11_36AM_EDT" />
			<state id="State_11_36AM_EST" />
			<state id="State_11_37AM_EDT" />
			<state id="State_11_38AM_EDT" />
			<state id="State_11_38AM_EST" />
			<state id="State_11_39AM_EDT" />
			<state id="State_11_41AM_EDT" />
			<state id="State_11_41AM_EST" />
			<state id="State_11_42AM_EDT" />
			<state id="State_11_42AM_EST" />
			<state id="State_11_44AM_EDT" />
			<state id="State_11_45AM_EDT" />
			<state id="State_11_46AM_EDT" />
			<state id="State_11_46AM_EST" />
			<state id="State_11_47AM_EDT" />
			<state id="State_11_48AM_EDT" />
			<state id="State_11_48AM_EST" />
			<state id="State_11_49AM_EST" />
			<state id="State_11_50AM_EDT" />
			<state id="State_11_55AM_EST" />
			<state id="State_11_57AM_EDT" />
			<state id="State_12_00PM_EST" />
			<state id="State_12_04PM_EST" />
			<state id="State_12_07PM_EDT" />
			<state id="State_12_09PM_EDT" />
			<state id="State_12_11PM_EDT" />
			<state id="State_12_16PM_EST" />
			<state id="State_12_18PM_EDT" />
			<state id="State_12_20PM_EDT" />
			<state id="State_12_21PM_EDT" />
			<state id="State_12_28PM_EST" />
			<state id="State_12_35PM_EDT" />
			<state id="State_12_42PM_EST" />
			<state id="State_12_43PM_EST" />
			<state id="State_12_54PM_EDT" />
			<state id="State_12_55PM_EDT" />
			<parents>average_departure</parents>
			<probabilities>0.008849557522123894 0.008849557522123894 0.008849557522123894 0.008849557522123894 0.008849557522123894 0.008849557522123894 0.008849557522123894 0.008849557522123894 0.008849557522123894 0.008849557522123894 0.008849557522123894 0.008849557522123894 0.008849557522123894 0.008849557522123894 0.01769911504424779 0.008849557522123894 0.008849557522123894 0.008849557522123894 0.02654867256637168 0.008849557522123894 0.01769911504424779 0.008849557522123894 0.01769911504424779 0.008849557522123894 0.01769911504424779 0.008849557522123894 0.03539823008849558 0.008849557522123894 0.03539823008849558 0.008849557522123894 0.008849557522123894 0.008849557522123894 0.008849557522123894 0.01769911504424779 0.008849557522123894 0.01769911504424779 0.01769911504424779 0.008849557522123894 0.01769911504424779 0.008849557522123894 0.01769911504424779 0.01769911504424779 0.008849557522123894 0.008849557522123894 0.01769911504424779 0.008849557522123894 0.008849557522123894 0.008849557522123894 0.008849557522123894 0.008849557522123894 0.008849557522123894 0.008849557522123894 0.008849557522123894 0.008849557522123894 0.008849557522123894 0.008849557522123894 0.008849557522123894 0.008849557522123894 0.008849557522123894 0.008849557522123894 0.008849557522123894 0.008849557522123894 0.008849557522123894 0.008849557522123894 0.008849557522123894 0.008849557522123894 0.008849557522123894 0.008849557522123894 0.008849557522123894 0.008849557522123894 0.008849557522123894 0.008849557522123894 0.008849557522123894 0.008849557522123894 0.008849557522123894 0.008849557522123894 0.008849557522123894 0.008849557522123894 0.008849557522123894 0.008849557522123894 0.008849557522123894 0.008849557522123894 0.008849557522123894 0.008849557522123894 0.008849557522123894 0.008849557522123894 0.008849557522123894 0.008849557522123894 0.008849557522123894 0.008849557522123894 0.008849557522123894 0.008849557522123894 0.008849557522123894 0.008849557522123894 0.006024096385542169 0.006024096385542169 0.01204819277108434 0.03012048192771084 0.01204819277108434 0.01204819277108434 0.03012048192771084 0.03012048192771084 0.01807228915662651 0.03012048192771084 0.03614457831325302 0.01204819277108434 0.03012048192771084 0.02409638554216868 0.006024096385542169 0.01204819277108434 0.01807228915662651 0.03614457831325302 0.006024096385542169 0.01204819277108434 0.006024096385542169 0.04216867469879519 0.006024096385542169 0.01807228915662651 0.006024096385542169 0.02409638554216868 0.006024096385542169 0.01204819277108434 0.006024096385542169 0.03012048192771084 0.01204819277108434 0.01807228915662651 0.01807228915662651 0.006024096385542169 0.01204819277108434 0.006024096385542169 0.006024096385542169 0.02409638554216868 0.006024096385542169 0.01204819277108434 0.006024096385542169 0.006024096385542169 0.006024096385542169 0.01204819277108434 0.006024096385542169 0.01204819277108434 0.01204819277108434 0.006024096385542169 0.006024096385542169 0.006024096385542169 0.006024096385542169 0.006024096385542169 0.006024096385542169 0.006024096385542169 0.006024096385542169 0.006024096385542169 0.006024096385542169 0.006024096385542169 0.006024096385542169 0.006024096385542169 0.006024096385542169 0.006024096385542169 0.006024096385542169 0.006024096385542169 0.006024096385542169 0.006024096385542169 0.006024096385542169 0.006024096385542169 0.006024096385542169 0.006024096385542169 0.006024096385542169 0.006024096385542169 0.006024096385542169 0.006024096385542169 0.006024096385542169 0.006024096385542169 0.006024096385542169 0.006024096385542169 0.006024096385542169 0.006024096385542169 0.006024096385542169 0.006024096385542169 0.006024096385542169 0.006024096385542169 0.006024096385542169 0.006024096385542169 0.006024096385542169 0.006024096385542169 0.006024096385542169 0.006024096385542169 0.006024096385542169 0.006024096385542169 0.006024096385542169 0.006024096385542169 0.009009009009009009 0.009009009009009009 0.009009009009009009 0.009009009009009009 0.009009009009009009 0.009009009009009009 0.009009009009009009 0.009009009009009009 0.009009009009009009 0.009009009009009009 0.009009009009009009 0.009009009009009009 0.009009009009009009 0.009009009009009009 0.009009009009009009 0.009009009009009009 0.009009009009009009 0.009009009009009009 0.009009009009009009 0.009009009009009009 0.009009009009009009 0.009009009009009009 0.009009009009009009 0.009009009009009009 0.009009009009009009 0.009009009009009009 0.009009009009009009 0.009009009009009009 0.009009009009009009 0.009009009009009009 0.009009009009009009 0.009009009009009009 0.009009009009009009 0.009009009009009009 0.009009009009009009 0.009009009009009009 0.009009009009009009 0.009009009009009009 0.009009009009009009 0.009009009009009009 0.009009009009009009 0.009009009009009009 0.009009009009009009 0.009009009009009009 0.009009009009009009 0.009009009009009009 0.009009009009009009 0.009009009009009009 0.009009009009009009 0.009009009009009009 0.009009009009009009 0.009009009009009009 0.01801801801801802 0.009009009009009009 0.009009009009009009 0.01801801801801802 0.009009009009009009 0.009009009009009009 0.009009009009009009 0.02702702702702703 0.009009009009009009 0.009009009009009009 0.01801801801801802 0.009009009009009009 0.009009009009009009 0.01801801801801802 0.009009009009009009 0.01801801801801802 0.009009009009009009 0.009009009009009009 0.009009009009009009 0.01801801801801802 0.009009009009009009 0.009009009009009009 0.01801801801801802 0.01801801801801802 0.009009009009009009 0.01801801801801802 0.009009009009009009 0.01801801801801802 0.01801801801801802 0.009009009009009009 0.009009009009009009 0.009009009009009009 0.01801801801801802 0.009009009009009009 0.009009009009009009 0.009009009009009009 0.01801801801801802 0.009009009009009009 0.01801801801801802 0.01801801801801802 0.009009009009009009 0.009009009009009009 0.01212121212121212 0.01212121212121212 0.006060606060606061 0.006060606060606061 0.006060606060606061 0.006060606060606061 0.006060606060606061 0.006060606060606061 0.006060606060606061 0.006060606060606061 0.006060606060606061 0.006060606060606061 0.006060606060606061 0.006060606060606061 0.006060606060606061 0.006060606060606061 0.006060606060606061 0.006060606060606061 0.006060606060606061 0.006060606060606061 0.006060606060606061 0.006060606060606061 0.006060606060606061 0.006060606060606061 0.006060606060606061 0.006060606060606061 0.006060606060606061 0.006060606060606061 0.006060606060606061 0.006060606060606061 0.006060606060606061 0.006060606060606061 0.006060606060606061 0.006060606060606061 0.006060606060606061 0.006060606060606061 0.006060606060606061 0.006060606060606061 0.006060606060606061 0.006060606060606061 0.006060606060606061 0.006060606060606061 0.01212121212121212 0.006060606060606061 0.006060606060606061 0.006060606060606061 0.006060606060606061 0.01212121212121212 0.01212121212121212 0.01212121212121212 0.0303030303030303 0.02424242424242424 0.006060606060606061 0.0303030303030303 0.03636363636363636 0.006060606060606061 0.0303030303030303 0.02424242424242424 0.02424242424242424 0.006060606060606061 0.0303030303030303 0.0303030303030303 0.006060606060606061 0.0303030303030303 0.0303030303030303 0.006060606060606061 0.01818181818181818 0.006060606060606061 0.01818181818181818 0.01212121212121212 0.02424242424242424 0.006060606060606061 0.01818181818181818 0.01818181818181818 0.006060606060606061 0.006060606060606061 0.01212121212121212 0.006060606060606061 0.01212121212121212 0.006060606060606061 0.006060606060606061 0.01212121212121212 0.01212121212121212 0.01212121212121212 0.006060606060606061 0.01212121212121212 0.01212121212121212 0.01212121212121212 0.006060606060606061 0.01212121212121212 0.006060606060606061 0.006060606060606061 0.01212121212121212 0.01212121212121212</probabilities>
		</cpt>
		<cpt id="scheduled_arrival">
			<state id="State_01_02PM_CST" />
			<state id="State_01_06PM_CDT" />
			<state id="State_01_07PM_CDT" />
			<state id="State_01_08PM_CDT" />
			<state id="State_01_09PM_CST" />
			<state id="State_01_10PM_CDT" />
			<state id="State_01_12PM_CDT" />
			<state id="State_01_13PM_CDT" />
			<state id="State_01_14PM_CDT" />
			<state id="State_01_15PM_CDT" />
			<state id="State_01_16PM_CDT" />
			<state id="State_01_19PM_CDT" />
			<state id="State_01_20PM_CDT" />
			<state id="State_01_21PM_CDT" />
			<state id="State_01_22PM_CDT" />
			<state id="State_01_23PM_CDT" />
			<state id="State_01_24PM_CDT" />
			<state id="State_01_25PM_CDT" />
			<state id="State_01_27PM_CDT" />
			<state id="State_01_28PM_CDT" />
			<state id="State_01_29PM_CDT" />
			<state id="State_01_29PM_CST" />
			<state id="State_01_30PM_CDT" />
			<state id="State_01_30PM_CST" />
			<state id="State_01_31PM_CDT" />
			<state id="State_01_31PM_CST" />
			<state id="State_01_32PM_CST" />
			<state id="State_01_47PM_CDT" />
			<state id="State_04_56PM_CDT" />
			<state id="State_04_57PM_CDT" />
			<state id="State_04_58PM_CDT" />
			<state id="State_05_00PM_CDT" />
			<state id="State_05_01PM_CDT" />
			<state id="State_05_02PM_CDT" />
			<state id="State_05_03PM_CDT" />
			<state id="State_05_04PM_CDT" />
			<state id="State_05_05PM_CDT" />
			<state id="State_05_06PM_CDT" />
			<state id="State_05_07PM_CDT" />
			<state id="State_05_08PM_CDT" />
			<state id="State_05_09PM_CDT" />
			<state id="State_05_10PM_CDT" />
			<state id="State_05_11PM_CDT" />
			<state id="State_05_12PM_CDT" />
			<state id="State_05_16PM_CDT" />
			<state id="State_05_17PM_CDT" />
			<state id="State_05_19PM_CDT" />
			<state id="State_05_20PM_CDT" />
			<state id="State_05_20PM_CST" />
			<state id="State_05_22PM_CST" />
			<state id="State_05_23PM_CDT" />
			<state id="State_05_24PM_CST" />
			<state id="State_05_32PM_CDT" />
			<parents>aircraft scheduled_departure</parents>
