<?xml version="1.0" encoding="ISO-8859-1"?>
<smile version="1.0" id="Unnamed" numsamples="1000" discsamples="10000">
	<nodes>
		<cpt id="Destination">
			<state id="Albany_Intl__KALB___track_or_info_" />
			<state id="Amsterdam_Schiphol__EHAM___AMS___track_or_info_" />
			<state id="Bahrain_Int_l__OBBI___BAH___track_or_info_" />
			<state id="Baltimore_Washington_Intl__KBWI___track_or_info_" />
			<state id="Barajas_Int_l__LEMD___MAD___track_or_info_" />
			<state id="Ben_Gurion_Int_l__LLBG___TLV___track_or_info_" />
			<state id="Bermuda_Int_l__TXKF___BDA___track_or_info_" />
			<state id="Bishop_Intl__KFNT___track_or_info_" />
			<state id="Boston_Logan_Intl__KBOS___track_or_info_" />
			<state id="Bradley_Intl__KBDL___track_or_info_" />
			<state id="Buffalo_Niagara_Intl__KBUF___track_or_info_" />
			<state id="Charles_de_Gaulle_Roissy__LFPG___CDG___track_or_info_" />
			<state id="Charlotte_Douglas_Intl__KCLT___track_or_info_" />
			<state id="Chicago_O_Hare_Intl__KORD___track_or_info_" />
			<state id="Cleveland_Hopkins_Intl__KCLE___track_or_info_" />
			<state id="Dallas_Fort_Worth_Intl__KDFW___track_or_info_" />
			<state id="Denver_Intl__KDEN___track_or_info_" />
			<state id="Des_Moines_Intl__KDSM___track_or_info_" />
			<state id="Detroit_Metro_Wayne_Co__KDTW___track_or_info_" />
			<state id="Flamingo_Int_l__TNCB___BON___track_or_info_" />
			<state id="Gate_A19___Detroit_Metro_Wayne_Co__KDTW___track_or_info_" />
			<state id="Gate_B14__bag_claim_6____Chicago_O_Hare_Intl__KORD___track_or_info_" />
			<state id="Gate_B16__bag_claim_6____Chicago_O_Hare_Intl__KORD___track_or_info_" />
			<state id="Gate_B5__bag_claim_6____Chicago_O_Hare_Intl__KORD___track_or_info_" />
			<state id="Gate_B6__bag_claim_6____Chicago_O_Hare_Intl__KORD___track_or_info_" />
			<state id="Gate_C21__bag_claim_6____Chicago_O_Hare_Intl__KORD___track_or_info_" />
			<state id="Gate_C24__bag_claim_6____Chicago_O_Hare_Intl__KORD___track_or_info_" />
			<state id="Gate_C25__bag_claim_6____Chicago_O_Hare_Intl__KORD___track_or_info_" />
			<state id="Gate_H11A__bag_claim_5____Chicago_O_Hare_Intl__KORD___track_or_info_" />
			<state id="General_Mitchell_Intl__KMKE___track_or_info_" />
			<state id="Greater_Rochester_Intl__KROC___track_or_info_" />
			<state id="Greenville_Spartanburg_Intl__KGSP___track_or_info_" />
			<state id="Hartsfield_Jackson_Intl__KATL___track_or_info_" />
			<state id="Hollywood_Int_l__KFLL___track_or_info_" />
			<state id="Houston_Bush_Int_ctl__KIAH___track_or_info_" />
			<state id="Jacksonville_Intl__KJAX___track_or_info_" />
			<state id="John_F_Kennedy_Intl__KJFK___track_or_info_" />
			<state id="La_Guardia__KLGA___track_or_info_" />
			<state id="Lambert_St_Louis_Intl__KSTL___track_or_info_" />
			<state id="Leonardo_da_Vinci_Int_l__Fiumicino_Int_l___LIRF___FCO___track_or_info_" />
			<state id="Liege__EBLG___LGG___track_or_info_" />
			<state id="Lisbon___Lisboa_Portela__Lisbon___LPPT___LIS___track_or_info_" />
			<state id="London_Heathrow__EGLL___LHR___track_or_info_" />
			<state id="Los_Angeles_Intl__KLAX___track_or_info_" />
			<state id="Louisville_Intl__KSDF___track_or_info_" />
			<state id="Luis_Munoz_Marin_Intl__TJSJ___SJU___track_or_info_" />
			<state id="Manchester__KMHT___track_or_info_" />
			<state id="Mc_Carran_Intl__KLAS___track_or_info_" />
			<state id="Memphis_Intl__KMEM___track_or_info_" />
			<state id="Milan_Rastislav_Stefanik__Bratislava___LZIB___BTS___track_or_info_" />
			<state id="Minneapolis_St_Paul_Intl__KMSP___track_or_info_" />
			<state id="Montgomery_Rgnl__KMGM___track_or_info_" />
			<state id="Montreal_Trudeau__CYUL___track_or_info_" />
			<state id="Munich_Int_l__EDDM___MUC___track_or_info_" />
			<state id="N_Kentucky_Intl__KCVG___track_or_info_" />
			<state id="Nantucket_Memorial__KACK___track_or_info_" />
			<state id="New_Orleans_Intl__KMSY___track_or_info_" />
			<state id="Norfolk_Intl__KORF___track_or_info_" />
			<state id="Northwest_Arkansas_Rgnl__KXNA___track_or_info_" />
			<state id="Orlando_Intl__KMCO___track_or_info_" />
			<state id="Oscoda_Wurtsmith__KOSC___track_or_info_" />
			<state id="Philadelphia_Intl__KPHL___track_or_info_" />
			<state id="Piarco_Int_l__TTPP___POS___track_or_info_" />
			<state id="Piedmont_Triad_Intl__KGSO___track_or_info_" />
			<state id="Pittsburgh_Intl__KPIT___track_or_info_" />
			<state id="Port_Columbus_Intl__KCMH___track_or_info_" />
			<state id="Portland_Intl_Jetport__KPWM___track_or_info_" />
			<state id="Porto___Oporto__LPPR___OPO___track_or_info_" />
			<state id="Queen_Beatrix_Int_l__TNCA___AUA___track_or_info_" />
			<state id="Reagan_National__KDCA___track_or_info_" />
			<state id="Rickenbacker_Intl__KLCK___track_or_info_" />
			<state id="Rzeszow_Jasionka__EPRZ___RZE___track_or_info_" />
			<state id="San_Francisco_Intl__KSFO___track_or_info_" />
			<state id="Terminal_1___Lisbon___Lisboa_Portela__Lisbon___LPPT___LIS___track_or_info_" />
			<state id="Terminal_1___Mc_Carran_Intl__KLAS___track_or_info_" />
			<state id="Terminal_3___Ben_Gurion_Int_l__LLBG___TLV___track_or_info_" />
			<state id="Terminal_A___Boston_Logan_Intl__KBOS___track_or_info_" />
			<state id="Terminal_C___Houston_Bush_Int_ctl__KIAH___track_or_info_" />
			<state id="Terminal_N___Hartsfield_Jackson_Intl__KATL___track_or_info_" />
			<state id="Toronto_Pearson_Int_l__CYYZ___track_or_info_" />
			<state id="Vitoria__LEVT___VIT___track_or_info_" />
			<state id="Washington_Dulles_Intl__KIAD___track_or_info_" />
			<state id="Westover_Arb_Metropolitan__KCEF___track_or_info_" />
			<state id="Zurich__Kloten___LSZH___ZRH___track_or_info_" />
			<probabilities>0.00303030303030303 0.001818181818181818 0.01212121212121212 0.004848484848484849 0.003636363636363636 0.05636363636363637 0.003636363636363636 0.001212121212121212 0.02181818181818182 0.03393939393939394 0.001212121212121212 0.01393939393939394 0.02363636363636364 0.08484848484848485 0.007272727272727273 0.0296969696969697 0.001818181818181818 0.03151515151515152 0.02545454545454546 0.01575757575757576 0.001212121212121212 0.002424242424242424 0.001212121212121212 0.001212121212121212 0.001212121212121212 0.001212121212121212 0.001818181818181818 0.001818181818181818 0.002424242424242424 0.007272727272727273 0.00303030303030303 0.01878787878787879 0.0103030303030303 0.001818181818181818 0.01090909090909091 0.04848484848484849 0.002424242424242424 0.002424242424242424 0.003636363636363636 0.0503030303030303 0.06121212121212121 0.04666666666666667 0.03272727272727273 0.007272727272727273 0.0103030303030303 0.001818181818181818 0.001212121212121212 0.001212121212121212 0.06484848484848485 0.001212121212121212 0.001212121212121212 0.001212121212121212 0.006666666666666666 0.001818181818181818 0.003636363636363636 0.004242424242424242 0.001818181818181818 0.004242424242424242 0.004242424242424242 0.00303030303030303 0.001818181818181818 0.003636363636363636 0.01575757575757576 0.00303030303030303 0.002424242424242424 0.004848484848484849 0.001818181818181818 0.001818181818181818 0.001212121212121212 0.04181818181818182 0.001212121212121212 0.00303030303030303 0.001212121212121212 0.006666666666666666 0.001818181818181818 0.01212121212121212 0.002424242424242424 0.001818181818181818 0.002424242424242424 0.03696969696969697 0.001818181818181818 0.03454545454545455 0.001818181818181818 0.001818181818181818</probabilities>
		</cpt>
		<cpt id="Flight_No_">
			<state id="AAL1369" />
			<state id="AAL9603" />
			<state id="AAL9633" />
			<state id="AFR019" />
			<state id="AWE1613" />
			<state id="AZA643" />
			<state id="BTA2010" />
			<state id="BTA2017" />
			<state id="BTA2028" />
			<state id="BTA2053" />
			<state id="BTA2112" />
			<state id="BTA2127" />
			<state id="BTA2164" />
			<state id="BTA2321" />
			<state id="BTA2491" />
			<state id="BTA2506" />
			<state id="BTA2509" />
			<state id="BTA2525" />
			<state id="BTA2553" />
			<state id="BTA2627" />
			<state id="BTA2719" />
			<state id="BTA2810" />
			<state id="BTA2819" />
			<state id="BTA2823" />
			<state id="BTA2860" />
			<state id="BTA2951" />
			<state id="BTA2956" />
			<state id="BTA3013" />
			<state id="BTA3020" />
			<state id="BTA3039" />
			<state id="BTA3095" />
			<state id="BTA3124" />
			<state id="BTA3136" />
			<state id="BTA7476" />
			<state id="BTA8049" />
			<state id="CJC3207" />
			<state id="CJC3208" />
			<state id="CJC3214" />
			<state id="CJC3215" />
			<state id="CJC3255" />
			<state id="CJC3399" />
			<state id="CJC3499" />
			<state id="CKS329" />
			<state id="CKS343" />
			<state id="CKS625" />
			<state id="CKS9746" />
			<state id="COA1119" />
			<state id="COA1149" />
			<state id="COA1553" />
			<state id="COA1655" />
			<state id="COA1811" />
			<state id="COA1878" />
			<state id="COA1932" />
			<state id="COA1939" />
			<state id="COA1940" />
			<state id="COA1991" />
			<state id="COA5037" />
			<state id="COA5041" />
			<state id="COA5056" />
			<state id="COA5061" />
			<state id="COA5062" />
			<state id="COA5086" />
			<state id="COA5090" />
			<state id="COA5106" />
			<state id="COA9974" />
			<state id="COA9980" />
			<state id="COM643" />
			<state id="CPZ5725" />
			<state id="DAL2259" />
			<state id="DAL369A" />
			<state id="DAL8840" />
			<state id="DAL9860" />
			<state id="ELY028" />
			<state id="ELY26" />
			<state id="ELY28" />
			<state id="FDX1237" />
			<state id="FDX1386" />
			<state id="FDX1390" />
			<state id="FDX649" />
			<state id="FDX835" />
			<state id="FDX880" />
			<state id="FDX9024" />
			<state id="GJS7434" />
			<state id="JZA633" />
			<state id="JZA635" />
			<state id="JZA637" />
			<state id="LOT24" />
			<state id="PDT4579" />
			<state id="SWR19" />
			<state id="TAP104" />
			<state id="TAP104P" />
			<state id="UAL380" />
			<state id="UAL651" />
			<state id="UAL718" />
			<state id="UAL9828" />
			<state id="UCA1001" />
			<state id="UCA8680" />
			<state id="UCA8684" />
			<state id="UCA8688" />
			<state id="UCA8720" />
			<state id="UCA8825" />
			<state id="UCA8832" />
			<state id="UPS2071" />
			<state id="UPS2077" />
			<state id="UPS3085" />
			<state id="UPS8221" />
			<state id="UPS9205" />
			<state id="UPS9207" />
			<state id="VIR18Z" />
			<parents>Destination</parents>
			<probabilities>0.008849557522123894 0.008849557522123894 0.008849557522123894 0.008849557522123894 0.008849557522123894 0.008849557522123894 0.008849557522123894 0.008849557522123894 0.008849557522123894 0.008849557522123894 0.008849557522123894 0.008849557522123894 0.008849557522123894 0.008849557522123894 0.008849557522123894 0.008849557522123894 0.008849557522123894 0.008849557522123894 0.008849557522123894 0.008849557522123894 0.008849557522123894 0.008849557522123894 0.008849557522123894 0.008849557522123894 0.008849557522123894 0.008849557522123894 0.008849557522123894 0.008849557522123894 0.008849557522123894 0.008849557522123894 0.008849557522123894 0.008849557522123894 0.008849557522123894 0.008849557522123894 0.008849557522123894 0.008849557522123894 0.008849557522123894 0.008849557522123894 0.008849557522123894 0.008849557522123894 0.008849557522123894 0.02654867256637168 0.008849557522123894 0.008849557522123894 0.008849557522123894 0.008849557522123894 0.008849557522123894 0.008849557522123894 0.008849557522123894 0.008849557522123894 0.008849557522123894 0.008849557522123894 0.008849557522123894 0.008849557522123894 0.008849557522123894 0.008849557522123894 0.008849557522123894 0.008849557522123894 0.008849557522123894 0.008849557522123894 0.008849557522123894 0.008849557522123894 0.008849557522123894 0.008849557522123894 0.008849557522123894 0.008849557522123894 0.008849557522123894 0.008849557522123894 0.008849557522123894 0.008849557522123894 0.008849557522123894 0.008849557522123894 0.008849557522123894 0.008849557522123894 0.008849557522123894 0.008849557522123894 0.008849557522123894 0.008849557522123894 0.008849557522123894 0.008849557522123894 0.008849557522123894 0.008849557522123894 0.008849557522123894 0.008849557522123894 0.008849557522123894 0.008849557522123894 0.008849557522123894 0.008849557522123894 0.008849557522123894 0.008849557522123894 0.008849557522123894 0.008849557522123894 0.008849557522123894 0.008849557522123894 0.008849557522123894 0.008849557522123894 0.008849557522123894 0.008849557522123894 0.008849557522123894 0.02654867256637168 0.008849557522123894 0.008849557522123894 0.008849557522123894 0.008849557522123894 0.008849557522123894 0.008849557522123894 0.008849557522123894 0.008849557522123894 0.008849557522123894 0.009009009009009009 0.009009009009009009 0.009009009009009009 0.009009009009009009 0.009009009009009009 0.009009009009009009 0.009009009009009009 0.009009009009009009 0.009009009009009009 0.009009009009009009 0.009009009009009009 0.009009009009009009 0.009009009009009009 0.009009009009009009 0.009009009009009009 0.009009009009009009 0.009009009009009009 0.009009009009009009 0.009009009009009009 0.009009009009009009 0.009009009009009009 0.009009009009009009 0.009009009009009009 0.009009009009009009 0.009009009009009009 0.009009009009009009 0.009009009009009009 0.009009009009009009 0.009009009009009009 0.009009009009009009 0.009009009009009009 0.009009009009009009 0.009009009009009009 0.009009009009009009 0.009009009009009009 0.009009009009009009 0.009009009009009009 0.009009009009009009 0.009009009009009009 0.009009009009009009 0.009009009009009009 0.009009009009009009 0.01801801801801802 0.01801801801801802 0.009009009009009009 0.009009009009009009 0.009009009009009009 0.009009009009009009 0.009009009009009009 0.009009009009009009 0.009009009009009009 0.009009009009009009 0.009009009009009009 0.009009009009009009 0.009009009009009009 0.009009009009009009 0.009009009009009009 0.009009009009009009 0.009009009009009009 0.009009009009009009 0.009009009009009009 0.009009009009009009 0.009009009009009009 0.009009009009009009 0.009009009009009009 0.009009009009009009 0.009009009009009009 0.009009009009009009 0.009009009009009009 0.009009009009009009 0.009009009009009009 0.009009009009009009 0.009009009009009009 0.009009009009009009 0.009009009009009009 0.009009009009009009 0.009009009009009009 0.009009009009009009 0.009009009009009009 0.009009009009009009 0.009009009009009009 0.009009009009009009 0.009009009009009009 0.009009009009009009 0.009009009009009009 0.009009009009009009 0.009009009009009009 0.009009009009009009 0.009009009009009009 0.009009009009009009 0.009009009009009009 0.009009009009009009 0.009009009009009009 0.009009009009009009 0.009009009009009009 0.009009009009009009 0.009009009009009009 0.009009009009009009 0.009009009009009009 0.009009009009009009 0.009009009009009009 0.009009009009009009 0.009009009009009009 0.009009009009009009 0.009009009009009009 0.009009009009009009 0.009009009009009009 0.009009009009009009 0.009009009009009009 0.0078125 0.0078125 0.0078125 0.0078125 0.0078125 0.0078125 0.0078125 0.0078125 0.0078125 0.0078125 0.0078125 0.0078125 0.0078125 0.0078125 0.0078125 0.0078125 0.0078125 0.0078125 0.0078125 0.0078125 0.0078125 0.0078125 0.0078125 0.0078125 0.0078125 0.0078125 0.0078125 0.0078125 0.0078125 0.0078125 0.0078125 0.0078125 0.0078125 0.0078125 0.0078125 0.0078125 0.0078125 0.0078125 0.0078125 0.0078125 0.0078125 0.0078125 0.0703125 0.0234375 0.078125 0.0078125 0.0078125 0.0078125 0.0078125 0.0078125 0.0078125 0.0078125 0.0078125 0.0078125 0.0078125 0.0078125 0.0078125 0.0078125 0.0078125 0.0078125 0.0078125 0.0078125 0.0078125 0.0078125 0.0078125 0.0078125 0.0078125 0.0078125 0.0078125 0.0078125 0.0078125 0.0078125 0.0078125 0.0078125 0.0078125 0.0078125 0.0078125 0.0078125 0.0078125 0.0078125 0.0078125 0.0078125 0.0078125 0.0078125 0.0078125 0.0078125 0.0078125 0.0078125 0.0078125 0.0078125 0.0078125 0.0078125 0.0078125 0.0078125 0.0078125 0.0078125 0.0078125 0.0078125 0.0078125 0.0078125 0.0078125 0.0078125 0.0078125 0.0078125 0.0078125 0.0078125 0.0078125 0.0078125 0.0078125 0.008620689655172414 0.008620689655172414 0.008620689655172414 0.008620689655172414 0.008620689655172414 0.008620689655172414 0.008620689655172414 0.008620689655172414 0.008620689655172414 0.008620689655172414 0.008620689655172414 0.008620689655172414 0.008620689655172414 0.008620689655172414 0.008620689655172414 0.008620689655172414 0.008620689655172414 0.008620689655172414 0.008620689655172414 0.008620689655172414 0.05172413793103448 0.008620689655172414 0.008620689655172414 0.008620689655172414 0.008620689655172414 0.008620689655172414 0.008620689655172414 0.008620689655172414 0.008620689655172414 0.008620689655172414 0.008620689655172414 0.008620689655172414 0.008620689655172414 0.008620689655172414 0.008620689655172414 0.008620689655172414 0.008620689655172414 0.008620689655172414 0.008620689655172414 0.008620689655172414 0.008620689655172414 0.008620689655172414 0.008620689655172414 0.008620689655172414 0.008620689655172414 0.008620689655172414 0.008620689655172414 0.008620689655172414 0.008620689655172414 0.008620689655172414 0.008620689655172414 0.008620689655172414 0.01724137931034483 0.008620689655172414 0.01724137931034483 0.008620689655172414 0.008620689655172414 0.008620689655172414 0.008620689655172414 0.008620689655172414 0.008620689655172414 0.008620689655172414 0.008620689655172414 0.008620689655172414 0.008620689655172414 0.008620689655172414 0.008620689655172414 0.008620689655172414 0.008620689655172414 0.008620689655172414 0.008620689655172414 0.008620689655172414 0.008620689655172414 0.008620689655172414 0.008620689655172414 0.008620689655172414 0.008620689655172414 0.008620689655172414 0.008620689655172414 0.008620689655172414 0.008620689655172414 0.008620689655172414 0.008620689655172414 0.008620689655172414 0.008620689655172414 0.008620689655172414 0.008620689655172414 0.008620689655172414 0.008620689655172414 0.008620689655172414 0.008620689655172414 0.008620689655172414 0.008620689655172414 0.008620689655172414 0.008620689655172414 0.008620689655172414 0.008620689655172414 0.008620689655172414 0.008620689655172414 0.008620689655172414 0.008620689655172414 0.008620689655172414 0.008620689655172414 0.008620689655172414 0.008620689655172414 0.008620689655172414 0.008620689655172414 0.008620689655172414 0.008620689655172414 0.008771929824561403 0.008771929824561403 0.008771929824561403 0.008771929824561403 0.008771929824561403 0.008771929824561403 0.008771929824561403 0.008771929824561403 0.008771929824561403 0.008771929824561403 0.008771929824561403 0.008771929824561403 0.008771929824561403 0.008771929824561403 0.008771929824561403 0.008771929824561403 0.008771929824561403 0.008771929824561403 0.008771929824561403 0.008771929824561403 0.008771929824561403 0.008771929824561403 0.008771929824561403 0.008771929824561403 0.008771929824561403 0.008771929824561403 0.008771929824561403 0.008771929824561403 0.008771929824561403 0.008771929824561403 0.008771929824561403 0.008771929824561403 0.008771929824561403 0.008771929824561403 0.008771929824561403 0.008771929824561403 0.008771929824561403 0.008771929824561403 0.008771929824561403 0.008771929824561403 0.008771929824561403 0.008771929824561403 0.008771929824561403 0.008771929824561403 0.008771929824561403 0.008771929824561403 0.008771929824561403 0.008771929824561403 0.008771929824561403 0.008771929824561403 0.008771929824561403 0.008771929824561403 0.008771929824561403 0.008771929824561403 0.008771929824561403 0.008771929824561403 0.008771929824561403 0.008771929824561403 0.008771929824561403 0.008771929824561403 0.05263157894736842 0.008771929824561403 0.008771929824561403 0.008771929824561403 0.008771929824561403 0.008771929824561403 0.008771929824561403 0.008771929824561403 0.008771929824561403 0.008771929824561403 0.008771929824561403 0.008771929824561403 0.008771929824561403 0.008771929824561403 0.008771929824561403 0.008771929824561403 0.008771929824561403 0.008771929824561403 0.008771929824561403 0.008771929824561403 0.008771929824561403 0.008771929824561403 0.008771929824561403 0.008771929824561403 0.008771929824561403 0.008771929824561403 0.008771929824561403 0.008771929824561403 0.008771929824561403 0.008771929824561403 0.008771929824561403 0.008771929824561403 0.008771929824561403 0.008771929824561403 0.008771929824561403 0.008771929824561403 0.008771929824561403 0.008771929824561403 0.008771929824561403 0.008771929824561403 0.008771929824561403 0.008771929824561403 0.008771929824561403 0.008771929824561403 0.008771929824561403 0.008771929824561403 0.008771929824561403 0.008771929824561403 0.008771929824561403 0.004975124378109453 0.004975124378109453 0.004975124378109453 0.004975124378109453 0.004975124378109453 0.004975124378109453 0.004975124378109453 0.004975124378109453 0.004975124378109453 0.004975124378109453 0.004975124378109453 0.004975124378109453 0.004975124378109453 0.004975124378109453 0.004975124378109453 0.004975124378109453 0.004975124378109453 0.004975124378109453 0.004975124378109453 0.004975124378109453 0.004975124378109453 0.004975124378109453 0.004975124378109453 0.004975124378109453 0.004975124378109453 0.004975124378109453 0.004975124378109453 0.004975124378109453 0.004975124378109453 0.004975124378109453 0.004975124378109453 0.004975124378109453 0.004975124378109453 0.004975124378109453 0.004975124378109453 0.004975124378109453 0.004975124378109453 0.004975124378109453 0.004975124378109453 0.004975124378109453 0.004975124378109453 0.004975124378109453 0.004975124378109453 0.004975124378109453 0.004975124378109453 0.004975124378109453 0.004975124378109453 0.004975124378109453 0.004975124378109453 0.004975124378109453 0.004975124378109453 0.004975124378109453 0.004975124378109453 0.004975124378109453 0.004975124378109453 0.004975124378109453 0.004975124378109453 0.004975124378109453 0.004975124378109453 0.004975124378109453 0.004975124378109453 0.004975124378109453 0.01492537313432836 0.004975124378109453 0.004975124378109453 0.004975124378109453 0.004975124378109453 0.004975124378109453 0.004975124378109453 0.004975124378109453 0.004975124378109453 0.004975124378109453 0.02487562189054726 0.0945273631840796 0.3432835820895522 0.004975124378109453 0.004975124378109453 0.004975124378109453 0.004975124378109453 0.004975124378109453 0.004975124378109453 0.004975124378109453 0.004975124378109453 0.004975124378109453 0.004975124378109453 0.004975124378109453 0.004975124378109453 0.004975124378109453 0.004975124378109453 0.004975124378109453 0.004975124378109453 0.004975124378109453 0.004975124378109453 0.004975124378109453 0.004975124378109453 0.004975124378109453 0.004975124378109453 0.004975124378109453 0.004975124378109453 0.004975124378109453 0.004975124378109453 0.004975124378109453 0.004975124378109453 0.004975124378109453 0.004975124378109453 0.004975124378109453 0.004975124378109453 0.004975124378109453 0.004975124378109453 0.008771929824561403 0.008771929824561403 0.008771929824561403 0.008771929824561403 0.008771929824561403 0.008771929824561403 0.008771929824561403 0.008771929824561403 0.008771929824561403 0.008771929824561403 0.008771929824561403 0.008771929824561403 0.008771929824561403 0.008771929824561403 0.008771929824561403 0.008771929824561403 0.008771929824561403 0.008771929824561403 0.008771929824561403 0.008771929824561403 0.008771929824561403 0.008771929824561403 0.008771929824561403 0.008771929824561403 0.008771929824561403 0.008771929824561403 0.008771929824561403 0.008771929824561403 0.008771929824561403 0.008771929824561403 0.008771929824561403 0.008771929824561403 0.008771929824561403 0.008771929824561403 0.008771929824561403 0.008771929824561403 0.008771929824561403 0.008771929824561403 0.008771929824561403 0.008771929824561403 0.008771929824561403 0.008771929824561403 0.008771929824561403 0.008771929824561403 0.008771929824561403 0.008771929824561403 0.008771929824561403 0.008771929824561403 0.008771929824561403 0.05263157894736842 0.008771929824561403 0.008771929824561403 0.008771929824561403 0.008771929824561403 0.008771929824561403 0.008771929824561403 0.008771929824561403 0.008771929824561403 0.008771929824561403 0.008771929824561403 0.008771929824561403 0.008771929824561403 0.008771929824561403 0.008771929824561403 0.008771929824561403 0.008771929824561403 0.008771929824561403 0.008771929824561403 0.008771929824561403 0.008771929824561403 0.008771929824561403 0.008771929824561403 0.008771929824561403 0.008771929824561403 0.008771929824561403 0.008771929824561403 0.008771929824561403 0.008771929824561403 0.008771929824561403 0.008771929824561403 0.008771929824561403 0.008771929824561403 0.008771929824561403 0.008771929824561403 0.008771929824561403 0.008771929824561403 0.008771929824561403 0.008771929824561403 0.008771929824561403 0.008771929824561403 0.008771929824561403 0.008771929824561403 0.008771929824561403 0.008771929824561403 0.008771929824561403 0.008771929824561403 0.008771929824561403 0.008771929824561403 0.008771929824561403 0.008771929824561403 0.008771929824561403 0.008771929824561403 0.008771929824561403 0.008771929824561403 0.008771929824561403 0.008771929824561403 0.008771929824561403 0.008771929824561403 0.008771929824561403 0.009090909090909091 0.009090909090909091 0.009090909090909091 0.009090909090909091 0.009090909090909091 0.009090909090909091 0.009090909090909091 0.009090909090909091 0.009090909090909091 0.009090909090909091 0.009090909090909091 0.009090909090909091 0.009090909090909091 0.009090909090909091 0.009090909090909091 0.009090909090909091 0.009090909090909091 0.009090909090909091 0.009090909090909091 0.009090909090909091 0.009090909090909091 0.009090909090909091 0.009090909090909091 0.009090909090909091 0.009090909090909091 0.009090909090909091 0.009090909090909091 0.009090909090909091 0.009090909090909091 0.009090909090909091 0.009090909090909091 0.009090909090909091 0.009090909090909091 0.009090909090909091 0.009090909090909091 0.009090909090909091 0.009090909090909091 0.009090909090909091 0.009090909090909091 0.009090909090909091 0.009090909090909091 0.009090909090909091 0.009090909090909091 0.009090909090909091 0.009090909090909091 0.009090909090909091 0.009090909090909091 0.009090909090909091 0.009090909090909091 0.009090909090909091 0.009090909090909091 0.009090909090909091 0.009090909090909091 0.009090909090909091 0.009090909090909091 0.009090909090909091 0.009090909090909091 0.009090909090909091 0.009090909090909091 0.009090909090909091 0.009090909090909091 0.009090909090909091 0.009090909090909091 0.009090909090909091 0.009090909090909091 0.009090909090909091 0.009090909090909091 0.009090909090909091 0.009090909090909091 0.009090909090909091 0.009090909090909091 0.01818181818181818 0.009090909090909091 0.009090909090909091 0.009090909090909091 0.009090909090909091 0.009090909090909091 0.009090909090909091 0.009090909090909091 0.009090909090909091 0.009090909090909091 0.009090909090909091 0.009090909090909091 0.009090909090909091 0.009090909090909091 0.009090909090909091 0.009090909090909091 0.009090909090909091 0.009090909090909091 0.009090909090909091 0.009090909090909091 0.009090909090909091 0.009090909090909091 0.009090909090909091 0.009090909090909091 0.009090909090909091 0.009090909090909091 0.009090909090909091 0.009090909090909091 0.009090909090909091 0.009090909090909091 0.009090909090909091 0.009090909090909091 0.009090909090909091 0.009090909090909091 0.009090909090909091 0.009090909090909091 0.009090909090909091 0.009090909090909091 0.006944444444444444 0.006944444444444444 0.006944444444444444 0.006944444444444444 0.006944444444444444 0.006944444444444444 0.01388888888888889 0.006944444444444444 0.006944444444444444 0.006944444444444444 0.006944444444444444 0.006944444444444444 0.006944444444444444 0.006944444444444444 0.006944444444444444 0.006944444444444444 0.006944444444444444 0.006944444444444444 0.006944444444444444 0.006944444444444444 0.006944444444444444 0.006944444444444444 0.006944444444444444 0.006944444444444444 0.006944444444444444 0.006944444444444444 0.006944444444444444 0.006944444444444444 0.006944444444444444 0.006944444444444444 0.006944444444444444 0.03472222222222222 0.006944444444444444 0.006944444444444444 0.006944444444444444 0.006944444444444444 0.08333333333333333 0.006944444444444444 0.04861111111111111 0.0625 0.006944444444444444 0.006944444444444444 0.006944444444444444 0.006944444444444444 0.006944444444444444 0.006944444444444444 0.01388888888888889 0.006944444444444444 0.006944444444444444 0.006944444444444444 0.006944444444444444 0.006944444444444444 0.006944444444444444 0.006944444444444444 0.006944444444444444 0.006944444444444444 0.006944444444444444 0.006944444444444444 0.006944444444444444 0.006944444444444444 0.006944444444444444 0.006944444444444444 0.006944444444444444 0.006944444444444444 0.006944444444444444 0.02777777777777778 0.006944444444444444 0.006944444444444444 0.006944444444444444 0.006944444444444444 0.006944444444444444 0.006944444444444444 0.006944444444444444 0.006944444444444444 0.006944444444444444 0.006944444444444444 0.006944444444444444 0.006944444444444444 0.006944444444444444 0.006944444444444444 0.006944444444444444 0.006944444444444444 0.006944444444444444 0.006944444444444444 0.006944444444444444 0.006944444444444444 0.006944444444444444 0.006944444444444444 0.006944444444444444 0.006944444444444444 0.006944444444444444 0.006944444444444444 0.006944444444444444 0.006944444444444444 0.006944444444444444 0.006944444444444444 0.006944444444444444 0.006944444444444444 0.006944444444444444 0.006944444444444444 0.006944444444444444 0.006944444444444444 0.006944444444444444 0.006944444444444444 0.006944444444444444 0.006944444444444444 0.01388888888888889 0.006944444444444444 0.006944444444444444 0.006097560975609756 0.006097560975609756 0.006097560975609756 0.006097560975609756 0.006097560975609756 0.006097560975609756 0.006097560975609756 0.006097560975609756 0.006097560975609756 0.006097560975609756 0.006097560975609756 0.006097560975609756 0.006097560975609756 0.006097560975609756 0.006097560975609756 0.006097560975609756 0.006097560975609756 0.006097560975609756 0.006097560975609756 0.006097560975609756 0.006097560975609756 0.006097560975609756 0.006097560975609756 0.006097560975609756 0.006097560975609756 0.006097560975609756 0.006097560975609756 0.006097560975609756 0.006097560975609756 0.006097560975609756 0.006097560975609756 0.006097560975609756 0.006097560975609756 0.006097560975609756 0.006097560975609756 0.006097560975609756 0.006097560975609756 0.006097560975609756 0.006097560975609756 0.006097560975609756 0.006097560975609756 0.006097560975609756 0.006097560975609756 0.006097560975609756 0.006097560975609756 0.006097560975609756 0.006097560975609756 0.006097560975609756 0.006097560975609756 0.006097560975609756 0.006097560975609756 0.006097560975609756 0.006097560975609756 0.006097560975609756 0.006097560975609756 0.006097560975609756 0.006097560975609756 0.006097560975609756 0.006097560975609756 0.006097560975609756 0.006097560975609756 0.006097560975609756 0.006097560975609756 0.006097560975609756 0.006097560975609756 0.006097560975609756 0.006097560975609756 0.006097560975609756 0.006097560975609756 0.006097560975609756 0.006097560975609756 0.006097560975609756 0.006097560975609756 0.006097560975609756 0.006097560975609756 0.006097560975609756 0.006097560975609756 0.006097560975609756 0.006097560975609756 0.006097560975609756 0.006097560975609756 0.006097560975609756 0.006097560975609756 0.006097560975609756 0.006097560975609756 0.006097560975609756 0.006097560975609756 0.006097560975609756 0.006097560975609756 0.006097560975609756 0.006097560975609756 0.006097560975609756 0.006097560975609756 0.006097560975609756 0.006097560975609756 0.006097560975609756 0.04878048780487805 0.03658536585365854 0.05487804878048781 0.2195121951219512 0.006097560975609756 0.006097560975609756 0.006097560975609756 0.006097560975609756 0.006097560975609756 0.006097560975609756 0.006097560975609756 0.006097560975609756 0.006097560975609756 0.009090909090909091 0.009090909090909091 0.009090909090909091 0.009090909090909091 0.009090909090909091 0.009090909090909091 0.009090909090909091 0.009090909090909091 0.01818181818181818 0.009090909090909091 0.009090909090909091 0.009090909090909091 0.009090909090909091 0.009090909090909091 0.009090909090909091 0.009090909090909091 0.009090909090909091 0.009090909090909091 0.009090909090909091 0.009090909090909091 0.009090909090909091 0.009090909090909091 0.009090909090909091 0.009090909090909091 0.009090909090909091 0.009090909090909091 0.009090909090909091 0.009090909090909091 0.009090909090909091 0.009090909090909091 0.009090909090909091 0.009090909090909091 0.009090909090909091 0.009090909090909091 0.009090909090909091 0.009090909090909091 0.009090909090909091 0.009090909090909091 0.009090909090909091 0.009090909090909091 0.009090909090909091 0.009090909090909091 0.009090909090909091 0.009090909090909091 0.009090909090909091 0.009090909090909091 0.009090909090909091 0.009090909090909091 0.009090909090909091 0.009090909090909091 0.009090909090909091 0.009090909090909091 0.009090909090909091 0.009090909090909091 0.009090909090909091 0.009090909090909091 0.009090909090909091 0.009090909090909091 0.009090909090909091 0.009090909090909091 0.009090909090909091 0.009090909090909091 0.009090909090909091 0.009090909090909091 0.009090909090909091 0.009090909090909091 0.009090909090909091 0.009090909090909091 0.009090909090909091 0.009090909090909091 0.009090909090909091 0.009090909090909091 0.009090909090909091 0.009090909090909091 0.009090909090909091 0.009090909090909091 0.009090909090909091 0.009090909090909091 0.009090909090909091 0.009090909090909091 0.009090909090909091 0.009090909090909091 0.009090909090909091 0.009090909090909091 0.009090909090909091 0.009090909090909091 0.009090909090909091 0.009090909090909091 0.009090909090909091 0.009090909090909091 0.009090909090909091 0.009090909090909091 0.009090909090909091 0.009090909090909091 0.009090909090909091 0.009090909090909091 0.009090909090909091 0.009090909090909091 0.009090909090909091 0.009090909090909091 0.009090909090909091 0.009090909090909091 0.009090909090909091 0.009090909090909091 0.009090909090909091 0.009090909090909091 0.009090909090909091 0.009090909090909091 0.009090909090909091 0.007633587786259542 0.007633587786259542 0.007633587786259542 0.1374045801526718 0.007633587786259542 0.007633587786259542 0.007633587786259542 0.007633587786259542 0.007633587786259542 0.007633587786259542 0.007633587786259542 0.007633587786259542 0.007633587786259542 0.007633587786259542 0.007633587786259542 0.007633587786259542 0.007633587786259542 0.007633587786259542 0.007633587786259542 0.007633587786259542 0.007633587786259542 0.007633587786259542 0.007633587786259542 0.007633587786259542 0.007633587786259542 0.007633587786259542 0.007633587786259542 0.007633587786259542 0.007633587786259542 0.007633587786259542 0.007633587786259542 0.007633587786259542 0.007633587786259542 0.007633587786259542 0.007633587786259542 0.007633587786259542 0.007633587786259542 0.007633587786259542 0.007633587786259542 0.007633587786259542 0.007633587786259542 0.007633587786259542 0.007633587786259542 0.007633587786259542 0.007633587786259542 0.007633587786259542 0.007633587786259542 0.007633587786259542 0.007633587786259542 0.007633587786259542 0.007633587786259542 0.007633587786259542 0.007633587786259542 0.007633587786259542 0.007633587786259542 0.007633587786259542 0.007633587786259542 0.007633587786259542 0.04580152671755725 0.007633587786259542 0.007633587786259542 0.007633587786259542 0.007633587786259542 0.007633587786259542 0.007633587786259542 0.007633587786259542 0.007633587786259542 0.007633587786259542 0.007633587786259542 0.007633587786259542 0.007633587786259542 0.007633587786259542 0.007633587786259542 0.007633587786259542 0.007633587786259542 0.007633587786259542 0.007633587786259542 0.007633587786259542 0.007633587786259542 0.007633587786259542 0.007633587786259542 0.007633587786259542 0.007633587786259542 0.007633587786259542 0.007633587786259542 0.007633587786259542 0.007633587786259542 0.007633587786259542 0.007633587786259542 0.007633587786259542 0.007633587786259542 0.007633587786259542 0.007633587786259542 0.007633587786259542 0.007633587786259542 0.007633587786259542 0.007633587786259542 0.007633587786259542 0.007633587786259542 0.007633587786259542 0.007633587786259542 0.007633587786259542 0.007633587786259542 0.007633587786259542 0.007633587786259542 0.007633587786259542 0.007633587786259542 0.007633587786259542 0.007633587786259542 0.006802721088435374 0.006802721088435374 0.006802721088435374 0.006802721088435374 0.04081632653061224 0.006802721088435374 0.006802721088435374 0.006802721088435374 0.06122448979591837 0.006802721088435374 0.006802721088435374 0.006802721088435374 0.006802721088435374 0.1496598639455782 0.006802721088435374 0.006802721088435374 0.006802721088435374 0.006802721088435374 0.006802721088435374 0.006802721088435374 0.006802721088435374 0.03401360544217687 0.006802721088435374 0.006802721088435374 0.006802721088435374 0.006802721088435374 0.006802721088435374 0.006802721088435374 0.006802721088435374 0.006802721088435374 0.006802721088435374 0.006802721088435374 0.006802721088435374 0.006802721088435374 0.006802721088435374 0.006802721088435374 0.006802721088435374 0.006802721088435374 0.006802721088435374 0.006802721088435374 0.006802721088435374 0.006802721088435374 0.006802721088435374 0.006802721088435374 0.006802721088435374 0.006802721088435374 0.006802721088435374 0.006802721088435374 0.006802721088435374 0.006802721088435374 0.006802721088435374 0.006802721088435374 0.006802721088435374 0.006802721088435374 0.006802721088435374 0.006802721088435374 0.006802721088435374 0.006802721088435374 0.006802721088435374 0.006802721088435374 0.006802721088435374 0.006802721088435374 0.006802721088435374 0.006802721088435374 0.006802721088435374 0.006802721088435374 0.006802721088435374 0.006802721088435374 0.006802721088435374 0.006802721088435374 0.006802721088435374 0.006802721088435374 0.006802721088435374 0.006802721088435374 0.006802721088435374 0.006802721088435374 0.006802721088435374 0.006802721088435374 0.006802721088435374 0.006802721088435374 0.006802721088435374 0.006802721088435374 0.006802721088435374 0.006802721088435374 0.006802721088435374 0.006802721088435374 0.006802721088435374 0.006802721088435374 0.006802721088435374 0.006802721088435374 0.006802721088435374 0.006802721088435374 0.006802721088435374 0.006802721088435374 0.006802721088435374 0.006802721088435374 0.006802721088435374 0.006802721088435374 0.006802721088435374 0.006802721088435374 0.006802721088435374 0.006802721088435374 0.006802721088435374 0.006802721088435374 0.006802721088435374 0.006802721088435374 0.006802721088435374 0.006802721088435374 0.006802721088435374 0.125 0.004032258064516129 0.004032258064516129 0.004032258064516129 0.004032258064516129 0.004032258064516129 0.004032258064516129 0.004032258064516129 0.004032258064516129 0.004032258064516129 0.004032258064516129 0.004032258064516129 0.004032258064516129 0.004032258064516129 0.004032258064516129 0.004032258064516129 0.01612903225806452 0.008064516129032258 0.004032258064516129 0.004032258064516129 0.004032258064516129 0.004032258064516129 0.004032258064516129 0.004032258064516129 0.004032258064516129 0.004032258064516129 0.004032258064516129 0.02016129032258065 0.004032258064516129 0.004032258064516129 0.004032258064516129 0.004032258064516129 0.02016129032258065 0.004032258064516129 0.004032258064516129 0.004032258064516129 0.004032258064516129 0.004032258064516129 0.004032258064516129 0.004032258064516129 0.004032258064516129 0.004032258064516129 0.004032258064516129 0.004032258064516129 0.004032258064516129 0.004032258064516129 0.004032258064516129 0.004032258064516129 0.004032258064516129 0.004032258064516129 0.004032258064516129 0.004032258064516129 0.004032258064516129 0.004032258064516129 0.004032258064516129 0.004032258064516129 0.004032258064516129 0.004032258064516129 0.004032258064516129 0.004032258064516129 0.004032258064516129 0.004032258064516129 0.004032258064516129 0.004032258064516129 0.004032258064516129 0.004032258064516129 0.004032258064516129 0.004032258064516129 0.004032258064516129 0.004032258064516129 0.004032258064516129 0.004032258064516129 0.004032258064516129 0.004032258064516129 0.004032258064516129 0.004032258064516129 0.004032258064516129 0.004032258064516129 0.004032258064516129 0.004032258064516129 0.004032258064516129 0.004032258064516129 0.004032258064516129 0.004032258064516129 0.004032258064516129 0.004032258064516129 0.004032258064516129 0.004032258064516129 0.004032258064516129 0.004032258064516129 0.004032258064516129 0.008064516129032258 0.3870967741935484 0.008064516129032258 0.004032258064516129 0.004032258064516129 0.004032258064516129 0.004032258064516129 0.004032258064516129 0.004032258064516129 0.004032258064516129 0.004032258064516129 0.004032258064516129 0.004032258064516129 0.004032258064516129 0.004032258064516129 0.004032258064516129 0.004032258064516129 0.004032258064516129 0.008333333333333333 0.008333333333333333 0.008333333333333333 0.008333333333333333 0.008333333333333333 0.008333333333333333 0.008333333333333333 0.008333333333333333 0.008333333333333333 0.008333333333333333 0.008333333333333333 0.008333333333333333 0.008333333333333333 0.008333333333333333 0.008333333333333333 0.008333333333333333 0.008333333333333333 0.008333333333333333 0.008333333333333333 0.008333333333333333 0.008333333333333333 0.008333333333333333 0.008333333333333333 0.008333333333333333 0.008333333333333333 0.008333333333333333 0.008333333333333333 0.008333333333333333 0.008333333333333333 0.008333333333333333 0.008333333333333333 0.008333333333333333 0.008333333333333333 0.008333333333333333 0.008333333333333333 0.008333333333333333 0.008333333333333333 0.008333333333333333 0.008333333333333333 0.008333333333333333 0.008333333333333333 0.008333333333333333 0.008333333333333333 0.008333333333333333 0.008333333333333333 0.008333333333333333 0.008333333333333333 0.008333333333333333 0.008333333333333333 0.008333333333333333 0.008333333333333333 0.008333333333333333 0.008333333333333333 0.008333333333333333 0.008333333333333333 0.008333333333333333 0.008333333333333333 0.008333333333333333 0.008333333333333333 0.008333333333333333 0.008333333333333333 0.05 0.008333333333333333 0.008333333333333333 0.008333333333333333 0.008333333333333333 0.008333333333333333 0.008333333333333333 0.008333333333333333 0.008333333333333333 0.008333333333333333 0.008333333333333333 0.008333333333333333 0.008333333333333333 0.008333333333333333 0.008333333333333333 0.008333333333333333 0.008333333333333333 0.008333333333333333 0.008333333333333333 0.008333333333333333 0.008333333333333333 0.008333333333333333 0.008333333333333333 0.008333333333333333 0.008333333333333333 0.008333333333333333 0.008333333333333333 0.008333333333333333 0.008333333333333333 0.008333333333333333 0.008333333333333333 0.008333333333333333 0.008333333333333333 0.008333333333333333 0.05833333333333333 0.008333333333333333 0.008333333333333333 0.008333333333333333 0.008333333333333333 0.008333333333333333 0.008333333333333333 0.008333333333333333 0.008333333333333333 0.008333333333333333 0.008333333333333333 0.008333333333333333 0.008333333333333333 0.008333333333333333 0.006369426751592357 0.006369426751592357 0.006369426751592357 0.006369426751592357 0.006369426751592357 0.006369426751592357 0.006369426751592357 0.006369426751592357 0.006369426751592357 0.006369426751592357 0.006369426751592357 0.006369426751592357 0.006369426751592357 0.006369426751592357 0.006369426751592357 0.006369426751592357 0.006369426751592357 0.006369426751592357 0.006369426751592357 0.006369426751592357 0.006369426751592357 0.006369426751592357 0.006369426751592357 0.006369426751592357 0.006369426751592357 0.006369426751592357 0.006369426751592357 0.006369426751592357 0.006369426751592357 0.006369426751592357 0.006369426751592357 0.006369426751592357 0.006369426751592357 0.006369426751592357 0.006369426751592357 0.006369426751592357 0.006369426751592357 0.006369426751592357 0.006369426751592357 0.006369426751592357 0.006369426751592357 0.006369426751592357 0.006369426751592357 0.006369426751592357 0.006369426751592357 0.006369426751592357 0.006369426751592357 0.006369426751592357 0.006369426751592357 0.006369426751592357 0.006369426751592357 0.006369426751592357 0.006369426751592357 0.006369426751592357 0.006369426751592357 0.006369426751592357 0.006369426751592357 0.006369426751592357 0.006369426751592357 0.006369426751592357 0.006369426751592357 0.006369426751592357 0.006369426751592357 0.006369426751592357 0.006369426751592357 0.006369426751592357 0.006369426751592357 0.006369426751592357 0.006369426751592357 0.006369426751592357 0.006369426751592357 0.006369426751592357 0.006369426751592357 0.006369426751592357 0.006369426751592357 0.006369426751592357 0.006369426751592357 0.006369426751592357 0.006369426751592357 0.006369426751592357 0.006369426751592357 0.006369426751592357 0.006369426751592357 0.006369426751592357 0.006369426751592357 0.006369426751592357 0.006369426751592357 0.006369426751592357 0.006369426751592357 0.006369426751592357 0.006369426751592357 0.006369426751592357 0.006369426751592357 0.006369426751592357 0.006369426751592357 0.006369426751592357 0.006369426751592357 0.006369426751592357 0.006369426751592357 0.006369426751592357 0.006369426751592357 0.006369426751592357 0.006369426751592357 0.3121019108280255 0.006369426751592357 0.006369426751592357 0.006369426751592357 0.006369426751592357 0.006369426751592357 0.009009009009009009 0.009009009009009009 0.009009009009009009 0.009009009009009009 0.009009009009009009 0.009009009009009009 0.009009009009009009 0.009009009009009009 0.009009009009009009 0.009009009009009009 0.009009009009009009 0.009009009009009009 0.009009009009009009 0.009009009009009009 0.009009009009009009 0.009009009009009009 0.009009009009009009 0.009009009009009009 0.009009009009009009 0.009009009009009009 0.009009009009009009 0.009009009009009009 0.009009009009009009 0.009009009009009009 0.009009009009009009 0.009009009009009009 0.009009009009009009 0.009009009009009009 0.009009009009009009 0.009009009009009009 0.009009009009009009 0.009009009009009009 0.009009009009009009 0.009009009009009009 0.009009009009009009 0.009009009009009009 0.009009009009009009 0.009009009009009009 0.009009009009009009 0.009009009009009009 0.009009009009009009 0.009009009009009009 0.009009009009009009 0.009009009009009009 0.009009009009009009 0.009009009009009009 0.009009009009009009 0.009009009009009009 0.009009009009009009 0.009009009009009009 0.009009009009009009 0.009009009009009009 0.009009009009009009 0.009009009009009009 0.009009009009009009 0.009009009009009009 0.009009009009009009 0.009009009009009009 0.009009009009009009 0.009009009009009009 0.009009009009009009 0.009009009009009009 0.009009009009009009 0.009009009009009009 0.009009009009009009 0.009009009009009009 0.009009009009009009 0.009009009009009009 0.009009009009009009 0.009009009009009009 0.009009009009009009 0.009009009009009009 0.009009009009009009 0.009009009009009009 0.009009009009009009 0.009009009009009009 0.009009009009009009 0.009009009009009009 0.009009009009009009 0.009009009009009009 0.009009009009009009 0.009009009009009009 0.009009009009009009 0.009009009009009009 0.009009009009009009 0.009009009009009009 0.009009009009009009 0.009009009009009009 0.009009009009009009 0.009009009009009009 0.009009009009009009 0.009009009009009009 0.009009009009009009 0.009009009009009009 0.02702702702702703 0.009009009009009009 0.009009009009009009 0.009009009009009009 0.009009009009009009 0.009009009009009009 0.009009009009009009 0.009009009009009009 0.009009009009009009 0.009009009009009009 0.009009009009009009 0.009009009009009009 0.009009009009009009 0.009009009009009009 0.009009009009009009 0.00625 0.00625 0.00625 0.00625 0.00625 0.00625 0.00625 0.00625 0.00625 0.00625 0.00625 0.00625 0.00625 0.00625 0.00625 0.00625 0.00625 0.00625 0.00625 0.00625 0.00625 0.00625 0.00625 0.00625 0.00625 0.00625 0.00625 0.00625 0.00625 0.00625 0.00625 0.00625 0.00625 0.00625 0.00625 0.00625 0.00625 0.00625 0.00625 0.00625 0.00625 0.00625 0.00625 0.00625 0.00625 0.00625 0.00625 0.00625 0.00625 0.00625 0.00625 0.00625 0.00625 0.00625 0.00625 0.00625 0.00625 0.00625 0.00625 0.00625 0.00625 0.00625 0.00625 0.00625 0.00625 0.00625 0.00625 0.00625 0.00625 0.00625 0.00625 0.00625 0.00625 0.00625 0.00625 0.00625 0.00625 0.00625 0.00625 0.00625 0.00625 0.00625 0.00625 0.00625 0.00625 0.00625 0.00625 0.00625 0.00625 0.00625 0.00625 0.00625 0.00625 0.00625 0.00625 0.00625 0.00625 0.00625 0.00625 0.00625 0.00625 0.00625 0.325 0.00625 0.00625 0.00625 0.00625 0.00625 0.00625 0.006666666666666667 0.006666666666666667 0.006666666666666667 0.006666666666666667 0.006666666666666667 0.006666666666666667 0.006666666666666667 0.006666666666666667 0.006666666666666667 0.006666666666666667 0.006666666666666667 0.006666666666666667 0.006666666666666667 0.006666666666666667 0.006666666666666667 0.006666666666666667 0.006666666666666667 0.006666666666666667 0.006666666666666667 0.006666666666666667 0.006666666666666667 0.006666666666666667 0.006666666666666667 0.006666666666666667 0.006666666666666667 0.006666666666666667 0.006666666666666667 0.006666666666666667 0.006666666666666667 0.006666666666666667 0.006666666666666667 0.006666666666666667 0.006666666666666667 0.006666666666666667 0.006666666666666667 0.006666666666666667 0.006666666666666667 0.006666666666666667 0.006666666666666667 0.006666666666666667 0.006666666666666667 0.006666666666666667 0.006666666666666667 0.006666666666666667 0.006666666666666667 0.006666666666666667 0.006666666666666667 0.006666666666666667 0.006666666666666667 0.006666666666666667 0.006666666666666667 0.006666666666666667 0.006666666666666667 0.006666666666666667 0.006666666666666667 0.006666666666666667 0.006666666666666667 0.006666666666666667 0.006666666666666667 0.006666666666666667 0.006666666666666667 0.006666666666666667 0.006666666666666667 0.006666666666666667 0.006666666666666667 0.006666666666666667 0.006666666666666667 0.2666666666666667 0.006666666666666667 0.006666666666666667 0.006666666666666667 0.006666666666666667 0.006666666666666667 0.006666666666666667 0.006666666666666667 0.02 0.006666666666666667 0.006666666666666667 0.006666666666666667 0.006666666666666667 0.006666666666666667 0.006666666666666667 0.006666666666666667 0.006666666666666667 0.006666666666666667 0.006666666666666667 0.006666666666666667 0.006666666666666667 0.006666666666666667 0.006666666666666667 0.006666666666666667 0.006666666666666667 0.006666666666666667 0.006666666666666667 0.006666666666666667 0.006666666666666667 0.006666666666666667 0.006666666666666667 0.006666666666666667 0.006666666666666667 0.006666666666666667 0.006666666666666667 0.006666666666666667 0.006666666666666667 0.006666666666666667 0.006666666666666667 0.006666666666666667 0.006666666666666667 0.006666666666666667 0.007462686567164179 0.007462686567164179 0.007462686567164179 0.007462686567164179 0.007462686567164179 0.007462686567164179 0.007462686567164179 0.007462686567164179 0.007462686567164179 0.007462686567164179 0.007462686567164179 0.007462686567164179 0.007462686567164179 0.007462686567164179 0.007462686567164179 0.007462686567164179 0.007462686567164179 0.007462686567164179 0.007462686567164179 0.007462686567164179 0.007462686567164179 0.007462686567164179 0.007462686567164179 0.007462686567164179 0.007462686567164179 0.007462686567164179 0.007462686567164179 0.007462686567164179 0.007462686567164179 0.007462686567164179 0.007462686567164179 0.007462686567164179 0.007462686567164179 0.007462686567164179 0.007462686567164179 0.007462686567164179 0.007462686567164179 0.007462686567164179 0.007462686567164179 0.007462686567164179 0.007462686567164179 0.007462686567164179 0.007462686567164179 0.007462686567164179 0.007462686567164179 0.007462686567164179 0.007462686567164179 0.007462686567164179 0.1940298507462687 0.007462686567164179 0.007462686567164179 0.007462686567164179 0.007462686567164179 0.007462686567164179 0.007462686567164179 0.007462686567164179 0.007462686567164179 0.007462686567164179 0.007462686567164179 0.007462686567164179 0.007462686567164179 0.007462686567164179 0.007462686567164179 0.007462686567164179 0.007462686567164179 0.007462686567164179 0.007462686567164179 0.007462686567164179 0.007462686567164179 0.007462686567164179 0.007462686567164179 0.007462686567164179 0.007462686567164179 0.007462686567164179 0.007462686567164179 0.007462686567164179 0.007462686567164179 0.007462686567164179 0.007462686567164179 0.007462686567164179 0.007462686567164179 0.007462686567164179 0.007462686567164179 0.007462686567164179 0.007462686567164179 0.007462686567164179 0.007462686567164179 0.007462686567164179 0.007462686567164179 0.007462686567164179 0.007462686567164179 0.007462686567164179 0.007462686567164179 0.007462686567164179 0.007462686567164179 0.007462686567164179 0.007462686567164179 0.007462686567164179 0.007462686567164179 0.007462686567164179 0.007462686567164179 0.007462686567164179 0.007462686567164179 0.007462686567164179 0.007462686567164179 0.007462686567164179 0.007462686567164179 0.007462686567164179 0.007462686567164179 0.009090909090909091 0.009090909090909091 0.009090909090909091 0.009090909090909091 0.009090909090909091 0.009090909090909091 0.009090909090909091 0.009090909090909091 0.009090909090909091 0.009090909090909091 0.009090909090909091 0.009090909090909091 0.009090909090909091 0.009090909090909091 0.009090909090909091 0.009090909090909091 0.009090909090909091 0.009090909090909091 0.009090909090909091 0.009090909090909091 0.009090909090909091 0.009090909090909091 0.009090909090909091 0.009090909090909091 0.009090909090909091 0.009090909090909091 0.009090909090909091 0.009090909090909091 0.009090909090909091 0.009090909090909091 0.009090909090909091 0.009090909090909091 0.009090909090909091 0.009090909090909091 0.009090909090909091 0.009090909090909091 0.009090909090909091 0.009090909090909091 0.009090909090909091 0.009090909090909091 0.009090909090909091 0.009090909090909091 0.009090909090909091 0.009090909090909091 0.009090909090909091 0.009090909090909091 0.009090909090909091 0.009090909090909091 0.009090909090909091 0.009090909090909091 0.009090909090909091 0.009090909090909091 0.009090909090909091 0.009090909090909091 0.009090909090909091 0.009090909090909091 0.009090909090909091 0.009090909090909091 0.009090909090909091 0.009090909090909091 0.009090909090909091 0.009090909090909091 0.009090909090909091 0.009090909090909091 0.009090909090909091 0.009090909090909091 0.009090909090909091 0.009090909090909091 0.01818181818181818 0.009090909090909091 0.009090909090909091 0.009090909090909091 0.009090909090909091 0.009090909090909091 0.009090909090909091 0.009090909090909091 0.009090909090909091 0.009090909090909091 0.009090909090909091 0.009090909090909091 0.009090909090909091 0.009090909090909091 0.009090909090909091 0.009090909090909091 0.009090909090909091 0.009090909090909091 0.009090909090909091 0.009090909090909091 0.009090909090909091 0.009090909090909091 0.009090909090909091 0.009090909090909091 0.009090909090909091 0.009090909090909091 0.009090909090909091 0.009090909090909091 0.009090909090909091 0.009090909090909091 0.009090909090909091 0.009090909090909091 0.009090909090909091 0.009090909090909091 0.009090909090909091 0.009090909090909091 0.009090909090909091 0.009090909090909091 0.009090909090909091 0.009090909090909091 0.009090909090909091 0.008928571428571428 0.008928571428571428 0.008928571428571428 0.008928571428571428 0.008928571428571428 0.008928571428571428 0.008928571428571428 0.008928571428571428 0.008928571428571428 0.008928571428571428 0.008928571428571428 0.008928571428571428 0.008928571428571428 0.008928571428571428 0.008928571428571428 0.008928571428571428 0.008928571428571428 0.008928571428571428 0.008928571428571428 0.008928571428571428 0.008928571428571428 0.008928571428571428 0.008928571428571428 0.008928571428571428 0.008928571428571428 0.008928571428571428 0.008928571428571428 0.008928571428571428 0.008928571428571428 0.008928571428571428 0.008928571428571428 0.008928571428571428 0.008928571428571428 0.008928571428571428 0.008928571428571428 0.008928571428571428 0.008928571428571428 0.008928571428571428 0.008928571428571428 0.008928571428571428 0.008928571428571428 0.008928571428571428 0.008928571428571428 0.008928571428571428 0.008928571428571428 0.008928571428571428 0.008928571428571428 0.008928571428571428 0.008928571428571428 0.008928571428571428 0.008928571428571428 0.008928571428571428 0.008928571428571428 0.008928571428571428 0.008928571428571428 0.008928571428571428 0.008928571428571428 0.008928571428571428 0.008928571428571428 0.008928571428571428 0.008928571428571428 0.008928571428571428 0.008928571428571428 0.008928571428571428 0.008928571428571428 0.008928571428571428 0.008928571428571428 0.008928571428571428 0.008928571428571428 0.008928571428571428 0.008928571428571428 0.008928571428571428 0.008928571428571428 0.008928571428571428 0.008928571428571428 0.008928571428571428 0.008928571428571428 0.008928571428571428 0.008928571428571428 0.008928571428571428 0.008928571428571428 0.008928571428571428 0.008928571428571428 0.008928571428571428 0.008928571428571428 0.008928571428571428 0.008928571428571428 0.008928571428571428 0.008928571428571428 0.008928571428571428 0.008928571428571428 0.008928571428571428 0.01785714285714286 0.02678571428571428 0.008928571428571428 0.008928571428571428 0.008928571428571428 0.008928571428571428 0.008928571428571428 0.008928571428571428 0.008928571428571428 0.008928571428571428 0.008928571428571428 0.008928571428571428 0.008928571428571428 0.008928571428571428 0.008928571428571428 0.008928571428571428 0.008928571428571428 0.009090909090909091 0.009090909090909091 0.009090909090909091 0.009090909090909091 0.009090909090909091 0.009090909090909091 0.009090909090909091 0.009090909090909091 0.009090909090909091 0.009090909090909091 0.009090909090909091 0.009090909090909091 0.009090909090909091 0.009090909090909091 0.009090909090909091 0.009090909090909091 0.009090909090909091 0.009090909090909091 0.009090909090909091 0.009090909090909091 0.009090909090909091 0.009090909090909091 0.009090909090909091 0.009090909090909091 0.009090909090909091 0.009090909090909091 0.009090909090909091 0.009090909090909091 0.009090909090909091 0.009090909090909091 0.009090909090909091 0.009090909090909091 0.009090909090909091 0.009090909090909091 0.009090909090909091 0.009090909090909091 0.009090909090909091 0.009090909090909091 0.009090909090909091 0.009090909090909091 0.009090909090909091 0.009090909090909091 0.009090909090909091 0.009090909090909091 0.009090909090909091 0.009090909090909091 0.009090909090909091 0.009090909090909091 0.009090909090909091 0.009090909090909091 0.009090909090909091 0.009090909090909091 0.009090909090909091 0.009090909090909091 0.009090909090909091 0.009090909090909091 0.009090909090909091 0.009090909090909091 0.009090909090909091 0.009090909090909091 0.009090909090909091 0.009090909090909091 0.009090909090909091 0.009090909090909091 0.009090909090909091 0.009090909090909091 0.009090909090909091 0.009090909090909091 0.009090909090909091 0.009090909090909091 0.009090909090909091 0.009090909090909091 0.009090909090909091 0.009090909090909091 0.009090909090909091 0.009090909090909091 0.009090909090909091 0.009090909090909091 0.009090909090909091 0.009090909090909091 0.009090909090909091 0.009090909090909091 0.009090909090909091 0.009090909090909091 0.009090909090909091 0.009090909090909091 0.009090909090909091 0.009090909090909091 0.009090909090909091 0.009090909090909091 0.009090909090909091 0.009090909090909091 0.01818181818181818 0.009090909090909091 0.009090909090909091 0.009090909090909091 0.009090909090909091 0.009090909090909091 0.009090909090909091 0.009090909090909091 0.009090909090909091 0.009090909090909091 0.009090909090909091 0.009090909090909091 0.009090909090909091 0.009090909090909091 0.009090909090909091 0.009090909090909091 0.009090909090909091 0.009090909090909091 0.009090909090909091 0.009090909090909091 0.009090909090909091 0.009090909090909091 0.009090909090909091 0.009090909090909091 0.009090909090909091 0.009090909090909091 0.009090909090909091 0.009090909090909091 0.009090909090909091 0.009090909090909091 0.009090909090909091 0.009090909090909091 0.009090909090909091 0.009090909090909091 0.009090909090909091 0.009090909090909091 0.009090909090909091 0.009090909090909091 0.009090909090909091 0.009090909090909091 0.009090909090909091 0.009090909090909091 0.009090909090909091 0.009090909090909091 0.009090909090909091 0.009090909090909091 0.009090909090909091 0.009090909090909091 0.009090909090909091 0.009090909090909091 0.009090909090909091 0.009090909090909091 0.009090909090909091 0.009090909090909091 0.009090909090909091 0.009090909090909091 0.009090909090909091 0.009090909090909091 0.009090909090909091 0.009090909090909091 0.009090909090909091 0.009090909090909091 0.009090909090909091 0.009090909090909091 0.009090909090909091 0.009090909090909091 0.009090909090909091 0.009090909090909091 0.009090909090909091 0.009090909090909091 0.009090909090909091 0.009090909090909091 0.009090909090909091 0.009090909090909091 0.009090909090909091 0.009090909090909091 0.009090909090909091 0.009090909090909091 0.009090909090909091 0.009090909090909091 0.009090909090909091 0.009090909090909091 0.009090909090909091 0.009090909090909091 0.009090909090909091 0.009090909090909091 0.009090909090909091 0.009090909090909091 0.009090909090909091 0.009090909090909091 0.009090909090909091 0.009090909090909091 0.009090909090909091 0.009090909090909091 0.009090909090909091 0.009090909090909091 0.009090909090909091 0.009090909090909091 0.009090909090909091 0.009090909090909091 0.009090909090909091 0.009090909090909091 0.009090909090909091 0.009090909090909091 0.009090909090909091 0.009090909090909091 0.009090909090909091 0.009090909090909091 0.009090909090909091 0.01818181818181818 0.009090909090909091 0.009090909090909091 0.009090909090909091 0.009090909090909091 0.009090909090909091 0.009090909090909091 0.009090909090909091 0.009090909090909091 0.009090909090909091 0.009090909090909091 0.009090909090909091 0.009090909090909091 0.009090909090909091 0.009090909090909091 0.009090909090909091 0.009090909090909091 0.009090909090909091 0.009090909090909091 0.009090909090909091 0.009090909090909091 0.009090909090909091 0.009090909090909091 0.009090909090909091 0.009090909090909091 0.009090909090909091 0.009090909090909091 0.009090909090909091 0.009090909090909091 0.009090909090909091 0.009090909090909091 0.009090909090909091 0.009090909090909091 0.009090909090909091 0.009090909090909091 0.009090909090909091 0.009090909090909091 0.009090909090909091 0.009090909090909091 0.009090909090909091 0.009090909090909091 0.009090909090909091 0.009090909090909091 0.009090909090909091 0.009090909090909091 0.009090909090909091 0.009090909090909091 0.009090909090909091 0.009090909090909091 0.009090909090909091 0.009090909090909091 0.009090909090909091 0.009090909090909091 0.009090909090909091 0.009090909090909091 0.009090909090909091 0.009090909090909091 0.009090909090909091 0.009090909090909091 0.009090909090909091 0.009090909090909091 0.009090909090909091 0.009090909090909091 0.009090909090909091 0.009090909090909091 0.009090909090909091 0.009090909090909091 0.009090909090909091 0.009090909090909091 0.009090909090909091 0.009090909090909091 0.009090909090909091 0.009090909090909091 0.009090909090909091 0.009090909090909091 0.009090909090909091 0.009090909090909091 0.009090909090909091 0.009090909090909091 0.009090909090909091 0.009090909090909091 0.009090909090909091 0.009090909090909091 0.009090909090909091 0.009090909090909091 0.009090909090909091 0.009090909090909091 0.009090909090909091 0.009090909090909091 0.009090909090909091 0.009090909090909091 0.009090909090909091 0.009090909090909091 0.009090909090909091 0.009090909090909091 0.009090909090909091 0.009090909090909091 0.009090909090909091 0.009090909090909091 0.009090909090909091 0.009090909090909091 0.009090909090909091 0.009090909090909091 0.009090909090909091 0.009090909090909091 0.009090909090909091 0.009090909090909091 0.009090909090909091 0.009090909090909091 0.009090909090909091 0.01818181818181818 0.009090909090909091 0.009090909090909091 0.009090909090909091 0.009090909090909091 0.009090909090909091 0.009090909090909091 0.009090909090909091 0.009090909090909091 0.009090909090909091 0.009090909090909091 0.009090909090909091 0.009090909090909091 0.009090909090909091 0.009090909090909091 0.009090909090909091 0.009090909090909091 0.009090909090909091 0.009090909090909091 0.009090909090909091 0.009090909090909091 0.009090909090909091 0.009090909090909091 0.009090909090909091 0.009090909090909091 0.009090909090909091 0.009090909090909091 0.009090909090909091 0.009090909090909091 0.009090909090909091 0.009090909090909091 0.009090909090909091 0.009090909090909091 0.009090909090909091 0.009090909090909091 0.009090909090909091 0.009090909090909091 0.009090909090909091 0.009090909090909091 0.009090909090909091 0.009090909090909091 0.009090909090909091 0.009090909090909091 0.009090909090909091 0.009090909090909091 0.009090909090909091 0.009090909090909091 0.009090909090909091 0.009090909090909091 0.009090909090909091 0.009090909090909091 0.009090909090909091 0.009090909090909091 0.009090909090909091 0.009090909090909091 0.009090909090909091 0.009090909090909091 0.009090909090909091 0.009090909090909091 0.009090909090909091 0.009090909090909091 0.009090909090909091 0.009090909090909091 0.009090909090909091 0.009090909090909091 0.009090909090909091 0.009090909090909091 0.009090909090909091 0.009090909090909091 0.009090909090909091 0.009090909090909091 0.009090909090909091 0.009090909090909091 0.009090909090909091 0.009090909090909091 0.009090909090909091 0.009090909090909091 0.009090909090909091 0.009090909090909091 0.009090909090909091 0.009090909090909091 0.009090909090909091 0.009090909090909091 0.009090909090909091 0.009090909090909091 0.009090909090909091 0.009090909090909091 0.009090909090909091 0.009090909090909091 0.009090909090909091 0.009090909090909091 0.009090909090909091 0.009090909090909091 0.009090909090909091 0.009090909090909091 0.009090909090909091 0.009090909090909091 0.009090909090909091 0.009090909090909091 0.009090909090909091 0.009090909090909091 0.009090909090909091 0.009090909090909091 0.009090909090909091 0.009090909090909091 0.009090909090909091 0.009090909090909091 0.009090909090909091 0.01818181818181818 0.009090909090909091 0.009090909090909091 0.009090909090909091 0.009090909090909091 0.009090909090909091 0.009090909090909091 0.009090909090909091 0.009090909090909091 0.009090909090909091 0.009090909090909091 0.009090909090909091 0.009090909090909091 0.009090909090909091 0.009090909090909091 0.009090909090909091 0.009090909090909091 0.009009009009009009 0.009009009009009009 0.009009009009009009 0.009009009009009009 0.009009009009009009 0.009009009009009009 0.009009009009009009 0.009009009009009009 0.009009009009009009 0.009009009009009009 0.009009009009009009 0.009009009009009009 0.009009009009009009 0.009009009009009009 0.009009009009009009 0.009009009009009009 0.009009009009009009 0.009009009009009009 0.009009009009009009 0.009009009009009009 0.009009009009009009 0.009009009009009009 0.009009009009009009 0.009009009009009009 0.009009009009009009 0.009009009009009009 0.009009009009009009 0.009009009009009009 0.009009009009009009 0.009009009009009009 0.009009009009009009 0.009009009009009009 0.009009009009009009 0.009009009009009009 0.009009009009009009 0.009009009009009009 0.009009009009009009 0.009009009009009009 0.009009009009009009 0.009009009009009009 0.009009009009009009 0.009009009009009009 0.009009009009009009 0.009009009009009009 0.009009009009009009 0.009009009009009009 0.009009009009009009 0.009009009009009009 0.009009009009009009 0.009009009009009009 0.009009009009009009 0.009009009009009009 0.009009009009009009 0.009009009009009009 0.009009009009009009 0.009009009009009009 0.009009009009009009 0.009009009009009009 0.009009009009009009 0.009009009009009009 0.009009009009009009 0.009009009009009009 0.009009009009009009 0.009009009009009009 0.009009009009009009 0.009009009009009009 0.009009009009009009 0.009009009009009009 0.009009009009009009 0.009009009009009009 0.009009009009009009 0.009009009009009009 0.009009009009009009 0.009009009009009009 0.009009009009009009 0.009009009009009009 0.009009009009009009 0.009009009009009009 0.009009009009009009 0.009009009009009009 0.009009009009009009 0.009009009009009009 0.009009009009009009 0.009009009009009009 0.009009009009009009 0.009009009009009009 0.009009009009009009 0.009009009009009009 0.009009009009009009 0.009009009009009009 0.009009009009009009 0.02702702702702703 0.009009009009009009 0.009009009009009009 0.009009009009009009 0.009009009009009009 0.009009009009009009 0.009009009009009009 0.009009009009009009 0.009009009009009009 0.009009009009009009 0.009009009009009009 0.009009009009009009 0.009009009009009009 0.009009009009009009 0.009009009009009009 0.009009009009009009 0.009009009009009009 0.009009009009009009 0.009009009009009009 0.009009009009009009 0.009009009009009009 0.009009009009009009 0.009009009009009009 0.009009009009009009 0.009009009009009009 0.009009009009009009 0.009009009009009009 0.009009009009009009 0.009009009009009009 0.009009009009009009 0.009009009009009009 0.009009009009009009 0.009009009009009009 0.009009009009009009 0.009009009009009009 0.009009009009009009 0.009009009009009009 0.009009009009009009 0.009009009009009009 0.009009009009009009 0.009009009009009009 0.009009009009009009 0.009009009009009009 0.009009009009009009 0.009009009009009009 0.009009009009009009 0.009009009009009009 0.009009009009009009 0.009009009009009009 0.009009009009009009 0.009009009009009009 0.009009009009009009 0.009009009009009009 0.009009009009009009 0.009009009009009009 0.009009009009009009 0.009009009009009009 0.009009009009009009 0.009009009009009009 0.009009009009009009 0.009009009009009009 0.009009009009009009 0.009009009009009009 0.009009009009009009 0.009009009009009009 0.009009009009009009 0.009009009009009009 0.009009009009009009 0.009009009009009009 0.009009009009009009 0.009009009009009009 0.009009009009009009 0.009009009009009009 0.009009009009009009 0.009009009009009009 0.009009009009009009 0.009009009009009009 0.009009009009009009 0.009009009009009009 0.009009009009009009 0.009009009009009009 0.009009009009009009 0.009009009009009009 0.009009009009009009 0.009009009009009009 0.009009009009009009 0.009009009009009009 0.009009009009009009 0.009009009009009009 0.009009009009009009 0.009009009009009009 0.009009009009009009 0.009009009009009009 0.009009009009009009 0.009009009009009009 0.009009009009009009 0.009009009009009009 0.009009009009009009 0.009009009009009009 0.009009009009009009 0.009009009009009009 0.009009009009009009 0.009009009009009009 0.009009009009009009 0.009009009009009009 0.009009009009009009 0.009009009009009009 0.009009009009009009 0.009009009009009009 0.01801801801801802 0.01801801801801802 0.009009009009009009 0.009009009009009009 0.009009009009009009 0.009009009009009009 0.009009009009009009 0.009009009009009009 0.009009009009009009 0.009009009009009009 0.009009009009009009 0.009009009009009009 0.009009009009009009 0.009009009009009009 0.009009009009009009 0.009009009009009009 0.009009009009009009 0.009009009009009009 0.03571428571428571 0.008928571428571428 0.008928571428571428 0.008928571428571428 0.008928571428571428 0.008928571428571428 0.008928571428571428 0.008928571428571428 0.008928571428571428 0.008928571428571428 0.008928571428571428 0.008928571428571428 0.008928571428571428 0.008928571428571428 0.008928571428571428 0.008928571428571428 0.008928571428571428 0.008928571428571428 0.008928571428571428 0.008928571428571428 0.008928571428571428 0.008928571428571428 0.008928571428571428 0.008928571428571428 0.008928571428571428 0.008928571428571428 0.008928571428571428 0.008928571428571428 0.008928571428571428 0.008928571428571428 0.008928571428571428 0.008928571428571428 0.008928571428571428 0.008928571428571428 0.008928571428571428 0.008928571428571428 0.008928571428571428 0.008928571428571428 0.008928571428571428 0.008928571428571428 0.008928571428571428 0.008928571428571428 0.008928571428571428 0.008928571428571428 0.008928571428571428 0.008928571428571428 0.008928571428571428 0.008928571428571428 0.008928571428571428 0.008928571428571428 0.008928571428571428 0.008928571428571428 0.008928571428571428 0.008928571428571428 0.008928571428571428 0.008928571428571428 0.008928571428571428 0.008928571428571428 0.008928571428571428 0.008928571428571428 0.008928571428571428 0.008928571428571428 0.008928571428571428 0.008928571428571428 0.008928571428571428 0.008928571428571428 0.008928571428571428 0.008928571428571428 0.008928571428571428 0.008928571428571428 0.008928571428571428 0.008928571428571428 0.008928571428571428 0.008928571428571428 0.008928571428571428 0.008928571428571428 0.008928571428571428 0.008928571428571428 0.008928571428571428 0.008928571428571428 0.008928571428571428 0.008928571428571428 0.008928571428571428 0.008928571428571428 0.008928571428571428 0.008928571428571428 0.008928571428571428 0.008928571428571428 0.008928571428571428 0.008928571428571428 0.008928571428571428 0.008928571428571428 0.008928571428571428 0.008928571428571428 0.008928571428571428 0.008928571428571428 0.008928571428571428 0.008928571428571428 0.008928571428571428 0.008928571428571428 0.008928571428571428 0.008928571428571428 0.008928571428571428 0.008928571428571428 0.008928571428571428 0.008928571428571428 0.008928571428571428 0.008928571428571428 0.008928571428571428 0.008333333333333333 0.008333333333333333 0.008333333333333333 0.008333333333333333 0.008333333333333333 0.008333333333333333 0.008333333333333333 0.008333333333333333 0.008333333333333333 0.008333333333333333 0.008333333333333333 0.008333333333333333 0.008333333333333333 0.008333333333333333 0.008333333333333333 0.008333333333333333 0.008333333333333333 0.008333333333333333 0.008333333333333333 0.008333333333333333 0.008333333333333333 0.008333333333333333 0.008333333333333333 0.008333333333333333 0.1 0.008333333333333333 0.008333333333333333 0.008333333333333333 0.008333333333333333 0.008333333333333333 0.008333333333333333 0.008333333333333333 0.008333333333333333 0.008333333333333333 0.008333333333333333 0.008333333333333333 0.008333333333333333 0.008333333333333333 0.008333333333333333 0.008333333333333333 0.008333333333333333 0.008333333333333333 0.008333333333333333 0.008333333333333333 0.008333333333333333 0.008333333333333333 0.008333333333333333 0.008333333333333333 0.008333333333333333 0.008333333333333333 0.008333333333333333 0.008333333333333333 0.008333333333333333 0.008333333333333333 0.008333333333333333 0.008333333333333333 0.008333333333333333 0.008333333333333333 0.008333333333333333 0.008333333333333333 0.008333333333333333 0.008333333333333333 0.008333333333333333 0.008333333333333333 0.008333333333333333 0.008333333333333333 0.008333333333333333 0.008333333333333333 0.008333333333333333 0.008333333333333333 0.008333333333333333 0.008333333333333333 0.008333333333333333 0.008333333333333333 0.008333333333333333 0.008333333333333333 0.008333333333333333 0.008333333333333333 0.008333333333333333 0.008333333333333333 0.008333333333333333 0.008333333333333333 0.008333333333333333 0.008333333333333333 0.008333333333333333 0.008333333333333333 0.008333333333333333 0.008333333333333333 0.008333333333333333 0.008333333333333333 0.008333333333333333 0.008333333333333333 0.008333333333333333 0.008333333333333333 0.008333333333333333 0.008333333333333333 0.008333333333333333 0.008333333333333333 0.008333333333333333 0.008333333333333333 0.008333333333333333 0.008333333333333333 0.008333333333333333 0.008333333333333333 0.008333333333333333 0.008333333333333333 0.008333333333333333 0.008333333333333333 0.008333333333333333 0.008849557522123894 0.008849557522123894 0.008849557522123894 0.008849557522123894 0.008849557522123894 0.008849557522123894 0.008849557522123894 0.008849557522123894 0.008849557522123894 0.008849557522123894 0.008849557522123894 0.008849557522123894 0.008849557522123894 0.008849557522123894 0.008849557522123894 0.008849557522123894 0.008849557522123894 0.008849557522123894 0.008849557522123894 0.008849557522123894 0.008849557522123894 0.008849557522123894 0.008849557522123894 0.008849557522123894 0.008849557522123894 0.008849557522123894 0.04424778761061947 0.008849557522123894 0.008849557522123894 0.008849557522123894 0.008849557522123894 0.008849557522123894 0.008849557522123894 0.008849557522123894 0.008849557522123894 0.008849557522123894 0.008849557522123894 0.008849557522123894 0.008849557522123894 0.008849557522123894 0.008849557522123894 0.008849557522123894 0.008849557522123894 0.008849557522123894 0.008849557522123894 0.008849557522123894 0.008849557522123894 0.008849557522123894 0.008849557522123894 0.008849557522123894 0.008849557522123894 0.008849557522123894 0.008849557522123894 0.008849557522123894 0.008849557522123894 0.008849557522123894 0.008849557522123894 0.008849557522123894 0.008849557522123894 0.008849557522123894 0.008849557522123894 0.008849557522123894 0.008849557522123894 0.008849557522123894 0.008849557522123894 0.008849557522123894 0.008849557522123894 0.008849557522123894 0.008849557522123894 0.008849557522123894 0.008849557522123894 0.008849557522123894 0.008849557522123894 0.008849557522123894 0.008849557522123894 0.008849557522123894 0.008849557522123894 0.008849557522123894 0.008849557522123894 0.008849557522123894 0.008849557522123894 0.008849557522123894 0.008849557522123894 0.008849557522123894 0.008849557522123894 0.008849557522123894 0.008849557522123894 0.008849557522123894 0.008849557522123894 0.008849557522123894 0.008849557522123894 0.008849557522123894 0.008849557522123894 0.008849557522123894 0.008849557522123894 0.008849557522123894 0.008849557522123894 0.008849557522123894 0.008849557522123894 0.008849557522123894 0.008849557522123894 0.008849557522123894 0.008849557522123894 0.008849557522123894 0.008849557522123894 0.008849557522123894 0.008849557522123894 0.008849557522123894 0.008849557522123894 0.007194244604316547 0.007194244604316547 0.007194244604316547 0.007194244604316547 0.007194244604316547 0.007194244604316547 0.007194244604316547 0.007194244604316547 0.007194244604316547 0.007194244604316547 0.007194244604316547 0.007194244604316547 0.007194244604316547 0.007194244604316547 0.007194244604316547 0.007194244604316547 0.04316546762589928 0.007194244604316547 0.007194244604316547 0.1870503597122302 0.007194244604316547 0.007194244604316547 0.007194244604316547 0.007194244604316547 0.007194244604316547 0.007194244604316547 0.007194244604316547 0.007194244604316547 0.007194244604316547 0.007194244604316547 0.007194244604316547 0.007194244604316547 0.007194244604316547 0.007194244604316547 0.007194244604316547 0.007194244604316547 0.007194244604316547 0.007194244604316547 0.007194244604316547 0.007194244604316547 0.007194244604316547 0.007194244604316547 0.007194244604316547 0.007194244604316547 0.007194244604316547 0.007194244604316547 0.007194244604316547 0.007194244604316547 0.007194244604316547 0.007194244604316547 0.007194244604316547 0.007194244604316547 0.007194244604316547 0.007194244604316547 0.007194244604316547 0.007194244604316547 0.007194244604316547 0.007194244604316547 0.007194244604316547 0.007194244604316547 0.007194244604316547 0.007194244604316547 0.007194244604316547 0.007194244604316547 0.007194244604316547 0.007194244604316547 0.007194244604316547 0.007194244604316547 0.007194244604316547 0.007194244604316547 0.007194244604316547 0.007194244604316547 0.007194244604316547 0.007194244604316547 0.007194244604316547 0.007194244604316547 0.007194244604316547 0.007194244604316547 0.007194244604316547 0.007194244604316547 0.007194244604316547 0.007194244604316547 0.007194244604316547 0.007194244604316547 0.007194244604316547 0.007194244604316547 0.007194244604316547 0.007194244604316547 0.007194244604316547 0.007194244604316547 0.007194244604316547 0.007194244604316547 0.007194244604316547 0.007194244604316547 0.007194244604316547 0.007194244604316547 0.007194244604316547 0.007194244604316547 0.007194244604316547 0.007194244604316547 0.007194244604316547 0.007194244604316547 0.007194244604316547 0.007194244604316547 0.007194244604316547 0.007194244604316547 0.007194244604316547 0.007194244604316547 0.007194244604316547 0.008 0.008 0.008 0.008 0.008 0.008 0.008 0.008 0.008 0.008 0.008 0.024 0.008 0.008 0.008 0.008 0.008 0.008 0.008 0.04 0.008 0.008 0.008 0.008 0.008 0.008 0.008 0.008 0.04 0.008 0.008 0.008 0.008 0.008 0.024 0.008 0.008 0.008 0.008 0.008 0.008 0.008 0.008 0.008 0.008 0.008 0.008 0.016 0.008 0.008 0.008 0.008 0.008 0.008 0.008 0.008 0.008 0.008 0.008 0.008 0.008 0.008 0.008 0.008 0.008 0.008 0.008 0.008 0.008 0.032 0.008 0.008 0.008 0.008 0.008 0.008 0.008 0.008 0.008 0.008 0.008 0.008 0.008 0.008 0.008 0.008 0.008 0.008 0.008 0.008 0.008 0.008 0.008 0.008 0.008 0.008 0.008 0.008 0.008 0.008 0.008 0.008 0.008 0.008 0.008 0.008 0.008 0.008 0.008 0.009009009009009009 0.009009009009009009 0.009009009009009009 0.009009009009009009 0.009009009009009009 0.009009009009009009 0.009009009009009009 0.009009009009009009 0.009009009009009009 0.009009009009009009 0.009009009009009009 0.009009009009009009 0.009009009009009009 0.009009009009009009 0.009009009009009009 0.009009009009009009 0.009009009009009009 0.009009009009009009 0.009009009009009009 0.009009009009009009 0.009009009009009009 0.009009009009009009 0.009009009009009009 0.009009009009009009 0.009009009009009009 0.009009009009009009 0.009009009009009009 0.009009009009009009 0.009009009009009009 0.009009009009009009 0.009009009009009009 0.009009009009009009 0.009009009009009009 0.009009009009009009 0.009009009009009009 0.009009009009009009 0.009009009009009009 0.009009009009009009 0.009009009009009009 0.009009009009009009 0.009009009009009009 0.009009009009009009 0.009009009009009009 0.009009009009009009 0.009009009009009009 0.009009009009009009 0.009009009009009009 0.009009009009009009 0.009009009009009009 0.009009009009009009 0.009009009009009009 0.009009009009009009 0.009009009009009009 0.02702702702702703 0.009009009009009009 0.009009009009009009 0.009009009009009009 0.009009009009009009 0.009009009009009009 0.009009009009009009 0.009009009009009009 0.009009009009009009 0.009009009009009009 0.009009009009009009 0.009009009009009009 0.009009009009009009 0.009009009009009009 0.009009009009009009 0.009009009009009009 0.009009009009009009 0.009009009009009009 0.009009009009009009 0.009009009009009009 0.009009009009009009 0.009009009009009009 0.009009009009009009 0.009009009009009009 0.009009009009009009 0.009009009009009009 0.009009009009009009 0.009009009009009009 0.009009009009009009 0.009009009009009009 0.009009009009009009 0.009009009009009009 0.009009009009009009 0.009009009009009009 0.009009009009009009 0.009009009009009009 0.009009009009009009 0.009009009009009009 0.009009009009009009 0.009009009009009009 0.009009009009009009 0.009009009009009009 0.009009009009009009 0.009009009009009009 0.009009009009009009 0.009009009009009009 0.009009009009009009 0.009009009009009009 0.009009009009009009 0.009009009009009009 0.009009009009009009 0.009009009009009009 0.009009009009009009 0.009009009009009009 0.009009009009009009 0.009009009009009009 0.007936507936507936 0.007936507936507936 0.007936507936507936 0.007936507936507936 0.007936507936507936 0.007936507936507936 0.007936507936507936 0.007936507936507936 0.007936507936507936 0.007936507936507936 0.007936507936507936 0.007936507936507936 0.007936507936507936 0.007936507936507936 0.007936507936507936 0.007936507936507936 0.007936507936507936 0.007936507936507936 0.007936507936507936 0.007936507936507936 0.007936507936507936 0.007936507936507936 0.007936507936507936 0.007936507936507936 0.007936507936507936 0.007936507936507936 0.007936507936507936 0.007936507936507936 0.007936507936507936 0.007936507936507936 0.007936507936507936 0.007936507936507936 0.007936507936507936 0.007936507936507936 0.007936507936507936 0.007936507936507936 0.007936507936507936 0.007936507936507936 0.007936507936507936 0.007936507936507936 0.007936507936507936 0.007936507936507936 0.007936507936507936 0.007936507936507936 0.007936507936507936 0.007936507936507936 0.007936507936507936 0.007936507936507936 0.007936507936507936 0.007936507936507936 0.01587301587301587 0.007936507936507936 0.007936507936507936 0.007936507936507936 0.007936507936507936 0.01587301587301587 0.007936507936507936 0.007936507936507936 0.007936507936507936 0.1031746031746032 0.007936507936507936 0.007936507936507936 0.007936507936507936 0.007936507936507936 0.007936507936507936 0.01587301587301587 0.007936507936507936 0.007936507936507936 0.007936507936507936 0.007936507936507936 0.007936507936507936 0.007936507936507936 0.007936507936507936 0.007936507936507936 0.007936507936507936 0.007936507936507936 0.007936507936507936 0.007936507936507936 0.007936507936507936 0.007936507936507936 0.007936507936507936 0.007936507936507936 0.007936507936507936 0.007936507936507936 0.007936507936507936 0.007936507936507936 0.007936507936507936 0.007936507936507936 0.007936507936507936 0.007936507936507936 0.007936507936507936 0.007936507936507936 0.007936507936507936 0.007936507936507936 0.007936507936507936 0.007936507936507936 0.007936507936507936 0.007936507936507936 0.007936507936507936 0.007936507936507936 0.007936507936507936 0.007936507936507936 0.007936507936507936 0.02380952380952381 0.007936507936507936 0.007936507936507936 0.007936507936507936 0.007936507936507936 0.007936507936507936 0.005319148936170213 0.005319148936170213 0.005319148936170213 0.005319148936170213 0.005319148936170213 0.005319148936170213 0.005319148936170213 0.005319148936170213 0.005319148936170213 0.3510638297872341 0.005319148936170213 0.005319148936170213 0.005319148936170213 0.005319148936170213 0.0797872340425532 0.005319148936170213 0.005319148936170213 0.005319148936170213 0.005319148936170213 0.005319148936170213 0.005319148936170213 0.005319148936170213 0.005319148936170213 0.005319148936170213 0.005319148936170213 0.005319148936170213 0.005319148936170213 0.005319148936170213 0.005319148936170213 0.005319148936170213 0.005319148936170213 0.005319148936170213 0.005319148936170213 0.005319148936170213 0.005319148936170213 0.005319148936170213 0.005319148936170213 0.005319148936170213 0.005319148936170213 0.005319148936170213 0.005319148936170213 0.005319148936170213 0.005319148936170213 0.005319148936170213 0.005319148936170213 0.005319148936170213 0.005319148936170213 0.005319148936170213 0.005319148936170213 0.005319148936170213 0.005319148936170213 0.005319148936170213 0.005319148936170213 0.005319148936170213 0.005319148936170213 0.005319148936170213 0.005319148936170213 0.005319148936170213 0.005319148936170213 0.005319148936170213 0.005319148936170213 0.005319148936170213 0.005319148936170213 0.005319148936170213 0.005319148936170213 0.005319148936170213 0.005319148936170213 0.005319148936170213 0.005319148936170213 0.005319148936170213 0.005319148936170213 0.005319148936170213 0.005319148936170213 0.005319148936170213 0.005319148936170213 0.005319148936170213 0.005319148936170213 0.005319148936170213 0.005319148936170213 0.005319148936170213 0.005319148936170213 0.005319148936170213 0.005319148936170213 0.005319148936170213 0.005319148936170213 0.005319148936170213 0.005319148936170213 0.005319148936170213 0.005319148936170213 0.005319148936170213 0.005319148936170213 0.005319148936170213 0.005319148936170213 0.005319148936170213 0.005319148936170213 0.005319148936170213 0.005319148936170213 0.005319148936170213 0.005319148936170213 0.005319148936170213 0.005319148936170213 0.005319148936170213 0.005319148936170213 0.005319148936170213 0.005319148936170213 0.005319148936170213 0.005319148936170213 0.005319148936170213 0.005319148936170213 0.008928571428571428 0.008928571428571428 0.02678571428571428 0.008928571428571428 0.008928571428571428 0.008928571428571428 0.008928571428571428 0.008928571428571428 0.008928571428571428 0.008928571428571428 0.008928571428571428 0.008928571428571428 0.008928571428571428 0.008928571428571428 0.008928571428571428 0.008928571428571428 0.008928571428571428 0.008928571428571428 0.008928571428571428 0.008928571428571428 0.008928571428571428 0.008928571428571428 0.008928571428571428 0.008928571428571428 0.008928571428571428 0.008928571428571428 0.008928571428571428 0.008928571428571428 0.008928571428571428 0.008928571428571428 0.008928571428571428 0.008928571428571428 0.008928571428571428 0.008928571428571428 0.008928571428571428 0.008928571428571428 0.008928571428571428 0.008928571428571428 0.008928571428571428 0.008928571428571428 0.008928571428571428 0.008928571428571428 0.008928571428571428 0.008928571428571428 0.008928571428571428 0.008928571428571428 0.008928571428571428 0.008928571428571428 0.008928571428571428 0.008928571428571428 0.008928571428571428 0.008928571428571428 0.008928571428571428 0.008928571428571428 0.008928571428571428 0.008928571428571428 0.008928571428571428 0.008928571428571428 0.008928571428571428 0.008928571428571428 0.008928571428571428 0.008928571428571428 0.008928571428571428 0.008928571428571428 0.008928571428571428 0.008928571428571428 0.008928571428571428 0.008928571428571428 0.008928571428571428 0.008928571428571428 0.008928571428571428 0.008928571428571428 0.008928571428571428 0.008928571428571428 0.008928571428571428 0.008928571428571428 0.008928571428571428 0.008928571428571428 0.008928571428571428 0.008928571428571428 0.01785714285714286 0.008928571428571428 0.008928571428571428 0.008928571428571428 0.008928571428571428 0.008928571428571428 0.008928571428571428 0.008928571428571428 0.008928571428571428 0.008928571428571428 0.008928571428571428 0.008928571428571428 0.008928571428571428 0.008928571428571428 0.008928571428571428 0.008928571428571428 0.008928571428571428 0.008928571428571428 0.008928571428571428 0.008928571428571428 0.008928571428571428 0.008928571428571428 0.008928571428571428 0.008928571428571428 0.008928571428571428 0.008928571428571428 0.008928571428571428 0.008928571428571428 0.008928571428571428 0.008928571428571428 0.01785714285714286 0.008928571428571428 0.008928571428571428 0.008928571428571428 0.008928571428571428 0.008928571428571428 0.008928571428571428 0.008928571428571428 0.008928571428571428 0.008928571428571428 0.008928571428571428 0.008928571428571428 0.008928571428571428 0.008928571428571428 0.008928571428571428 0.008928571428571428 0.008928571428571428 0.008928571428571428 0.008928571428571428 0.008928571428571428 0.008928571428571428 0.008928571428571428 0.008928571428571428 0.008928571428571428 0.008928571428571428 0.008928571428571428 0.008928571428571428 0.008928571428571428 0.008928571428571428 0.008928571428571428 0.008928571428571428 0.008928571428571428 0.008928571428571428 0.008928571428571428 0.008928571428571428 0.008928571428571428 0.008928571428571428 0.008928571428571428 0.008928571428571428 0.008928571428571428 0.008928571428571428 0.008928571428571428 0.008928571428571428 0.008928571428571428 0.008928571428571428 0.008928571428571428 0.008928571428571428 0.008928571428571428 0.008928571428571428 0.008928571428571428 0.008928571428571428 0.008928571428571428 0.008928571428571428 0.008928571428571428 0.008928571428571428 0.008928571428571428 0.008928571428571428 0.008928571428571428 0.008928571428571428 0.008928571428571428 0.008928571428571428 0.008928571428571428 0.008928571428571428 0.008928571428571428 0.008928571428571428 0.008928571428571428 0.008928571428571428 0.008928571428571428 0.008928571428571428 0.02678571428571428 0.008928571428571428 0.008928571428571428 0.008928571428571428 0.008928571428571428 0.008928571428571428 0.008928571428571428 0.008928571428571428 0.008928571428571428 0.008928571428571428 0.008928571428571428 0.008928571428571428 0.008928571428571428 0.008928571428571428 0.008928571428571428 0.008928571428571428 0.008928571428571428 0.008928571428571428 0.008928571428571428 0.008928571428571428 0.008928571428571428 0.008928571428571428 0.008928571428571428 0.008928571428571428 0.008928571428571428 0.008928571428571428 0.008928571428571428 0.008928571428571428 0.008928571428571428 0.008928571428571428 0.008928571428571428 0.008928571428571428 0.008928571428571428 0.008928571428571428 0.008928571428571428 0.008928571428571428 0.008928571428571428 0.008928571428571428 0.008928571428571428 0.008771929824561403 0.008771929824561403 0.008771929824561403 0.008771929824561403 0.008771929824561403 0.008771929824561403 0.008771929824561403 0.008771929824561403 0.008771929824561403 0.008771929824561403 0.008771929824561403 0.008771929824561403 0.008771929824561403 0.008771929824561403 0.008771929824561403 0.04385964912280702 0.008771929824561403 0.008771929824561403 0.008771929824561403 0.008771929824561403 0.008771929824561403 0.008771929824561403 0.008771929824561403 0.008771929824561403 0.008771929824561403 0.008771929824561403 0.008771929824561403 0.008771929824561403 0.008771929824561403 0.008771929824561403 0.008771929824561403 0.008771929824561403 0.008771929824561403 0.008771929824561403 0.008771929824561403 0.008771929824561403 0.008771929824561403 0.008771929824561403 0.008771929824561403 0.008771929824561403 0.008771929824561403 0.008771929824561403 0.008771929824561403 0.008771929824561403 0.008771929824561403 0.008771929824561403 0.008771929824561403 0.008771929824561403 0.008771929824561403 0.008771929824561403 0.008771929824561403 0.008771929824561403 0.008771929824561403 0.008771929824561403 0.008771929824561403 0.008771929824561403 0.008771929824561403 0.008771929824561403 0.008771929824561403 0.008771929824561403 0.008771929824561403 0.008771929824561403 0.008771929824561403 0.008771929824561403 0.008771929824561403 0.008771929824561403 0.008771929824561403 0.008771929824561403 0.008771929824561403 0.008771929824561403 0.008771929824561403 0.008771929824561403 0.008771929824561403 0.008771929824561403 0.008771929824561403 0.008771929824561403 0.008771929824561403 0.008771929824561403 0.008771929824561403 0.008771929824561403 0.008771929824561403 0.008771929824561403 0.01754385964912281 0.008771929824561403 0.008771929824561403 0.008771929824561403 0.008771929824561403 0.008771929824561403 0.008771929824561403 0.008771929824561403 0.008771929824561403 0.008771929824561403 0.008771929824561403 0.008771929824561403 0.008771929824561403 0.008771929824561403 0.008771929824561403 0.008771929824561403 0.008771929824561403 0.008771929824561403 0.008771929824561403 0.008771929824561403 0.008771929824561403 0.008771929824561403 0.008771929824561403 0.008771929824561403 0.008771929824561403 0.008771929824561403 0.008771929824561403 0.005235602094240838 0.005235602094240838 0.005235602094240838 0.005235602094240838 0.005235602094240838 0.4345549738219895 0.005235602094240838 0.005235602094240838 0.005235602094240838 0.005235602094240838 0.005235602094240838 0.005235602094240838 0.005235602094240838 0.005235602094240838 0.005235602094240838 0.005235602094240838 0.005235602094240838 0.005235602094240838 0.005235602094240838 0.005235602094240838 0.005235602094240838 0.005235602094240838 0.005235602094240838 0.005235602094240838 0.005235602094240838 0.005235602094240838 0.005235602094240838 0.005235602094240838 0.005235602094240838 0.005235602094240838 0.005235602094240838 0.005235602094240838 0.005235602094240838 0.005235602094240838 0.005235602094240838 0.005235602094240838 0.005235602094240838 0.005235602094240838 0.005235602094240838 0.005235602094240838 0.005235602094240838 0.005235602094240838 0.005235602094240838 0.005235602094240838 0.005235602094240838 0.005235602094240838 0.005235602094240838 0.005235602094240838 0.005235602094240838 0.005235602094240838 0.005235602094240838 0.005235602094240838 0.005235602094240838 0.005235602094240838 0.005235602094240838 0.005235602094240838 0.005235602094240838 0.005235602094240838 0.005235602094240838 0.005235602094240838 0.005235602094240838 0.005235602094240838 0.005235602094240838 0.005235602094240838 0.005235602094240838 0.005235602094240838 0.005235602094240838 0.005235602094240838 0.005235602094240838 0.005235602094240838 0.005235602094240838 0.005235602094240838 0.005235602094240838 0.005235602094240838 0.005235602094240838 0.005235602094240838 0.005235602094240838 0.005235602094240838 0.005235602094240838 0.005235602094240838 0.005235602094240838 0.005235602094240838 0.005235602094240838 0.005235602094240838 0.005235602094240838 0.005235602094240838 0.005235602094240838 0.005235602094240838 0.005235602094240838 0.005235602094240838 0.005235602094240838 0.005235602094240838 0.005235602094240838 0.005235602094240838 0.005235602094240838 0.005235602094240838 0.005235602094240838 0.005235602094240838 0.005235602094240838 0.005235602094240838 0.005235602094240838 0.005235602094240838 0.005235602094240838 0.005235602094240838 0.005235602094240838 0.005235602094240838 0.005235602094240838 0.005235602094240838 0.005235602094240838 0.004784688995215311 0.004784688995215311 0.004784688995215311 0.004784688995215311 0.004784688995215311 0.004784688995215311 0.004784688995215311 0.004784688995215311 0.004784688995215311 0.004784688995215311 0.004784688995215311 0.004784688995215311 0.004784688995215311 0.004784688995215311 0.004784688995215311 0.004784688995215311 0.004784688995215311 0.004784688995215311 0.004784688995215311 0.004784688995215311 0.004784688995215311 0.004784688995215311 0.004784688995215311 0.004784688995215311 0.004784688995215311 0.004784688995215311 0.004784688995215311 0.004784688995215311 0.004784688995215311 0.004784688995215311 0.004784688995215311 0.004784688995215311 0.004784688995215311 0.004784688995215311 0.004784688995215311 0.004784688995215311 0.004784688995215311 0.004784688995215311 0.004784688995215311 0.004784688995215311 0.004784688995215311 0.004784688995215311 0.2057416267942584 0.1148325358851675 0.1722488038277512 0.004784688995215311 0.004784688995215311 0.004784688995215311 0.004784688995215311 0.004784688995215311 0.004784688995215311 0.004784688995215311 0.004784688995215311 0.004784688995215311 0.004784688995215311 0.004784688995215311 0.004784688995215311 0.004784688995215311 0.004784688995215311 0.004784688995215311 0.004784688995215311 0.004784688995215311 0.004784688995215311 0.004784688995215311 0.004784688995215311 0.004784688995215311 0.004784688995215311 0.004784688995215311 0.004784688995215311 0.004784688995215311 0.004784688995215311 0.004784688995215311 0.004784688995215311 0.004784688995215311 0.004784688995215311 0.004784688995215311 0.004784688995215311 0.004784688995215311 0.004784688995215311 0.004784688995215311 0.004784688995215311 0.004784688995215311 0.004784688995215311 0.004784688995215311 0.004784688995215311 0.004784688995215311 0.004784688995215311 0.004784688995215311 0.004784688995215311 0.004784688995215311 0.004784688995215311 0.004784688995215311 0.004784688995215311 0.004784688995215311 0.004784688995215311 0.004784688995215311 0.004784688995215311 0.004784688995215311 0.004784688995215311 0.004784688995215311 0.004784688995215311 0.004784688995215311 0.004784688995215311 0.004784688995215311 0.004784688995215311 0.004784688995215311 0.004784688995215311 0.004784688995215311 0.004784688995215311 0.005405405405405406 0.005405405405405406 0.005405405405405406 0.005405405405405406 0.005405405405405406 0.005405405405405406 0.005405405405405406 0.005405405405405406 0.005405405405405406 0.005405405405405406 0.005405405405405406 0.005405405405405406 0.005405405405405406 0.005405405405405406 