<?xml version="1.0" encoding="ISO-8859-1"?>
<smile version="1.0" id="Network1" numsamples="1000" discsamples="10000">
	<nodes>
		<cpt id="Events">
			<state id="Rain" />
			<state id="Rain_Thunderstorm" />
			<state id="Fog" />
			<state id="Fog_Snow" />
			<state id="Fog_Rain_Thunderstorm" />
			<state id="Snow" />
			<state id="None" />
			<probabilities>0.2525252525252525 0.07070707070707072 0.0101010101010101 0.0101010101010101 0.0101010101010101 0.0202020202020202 0.6262626262626262</probabilities>
		</cpt>
		<cpt id="Temperature">
			<state id="Temp_0_4C" />
			<state id="Temp_5_9C" />
			<state id="Temp_10_14C" />
			<state id="Temp_15_19C" />
			<state id="Temp_20_24C" />
			<state id="Temp_25_29" />
			<parents>Events</parents>
			<probabilities>0.03228679853771686 0.2256065115213135 0.4522157186493883 0.1293477332722197 0.1293477332722197 0.03119550474714194 0 0.1111022220444409 0.3333366667333347 0.1111122222444449 0.2222244444888898 0.2222244444888898 0 0 0 1 0 0 0.1666666666666667 0.1666666666666667 0.1666666666666667 0.1666666666666667 0.1666666666666667 0.1666666666666667 0 1 0 0 0 0 0 1 0 0 0 0 0.01312625250501002 0.07905811623246492 0.2234468937875751 0.4218436873747494 0.157314629258517 0.1052104208416835</probabilities>
		</cpt>
		<cpt id="Delay">
			<state id="Normal" />
			<state id="Low_Delay" />
			<state id="High_Delay" />
			<parents>Temperature</parents>
			<probabilities>0.9 0.1 0 0.2 0.8 0 0.5 0.5 0 0.3333333333333333 0.3333333333333333 0.3333333333333333 0.3333333333333333 0.3333333333333333 0.3333333333333333 0.3333333333333333 0.3333333333333333 0.3333333333333333</probabilities>
		</cpt>
		<cpt id="Temperature_1">
			<state id="Temp_0_4C" />
			<state id="Temp_5_9C" />
			<state id="Temp_10_14C" />
			<state id="Temp_15_19C" />
			<state id="Temp_20_24C" />
			<state id="Temp_25_29" />
			<parents>Events</parents>
			<probabilities>0.03228679853771686 0.2256065115213135 0.4522157186493883 0.1293477332722197 0.1293477332722197 0.03119550474714194 0 0.1111022220444409 0.3333366667333347 0.1111122222444449 0.2222244444888898 0.2222244444888898 0 0 0 1 0 0 0.1666666666666667 0.1666666666666667 0.1666666666666667 0.1666666666666667 0.1666666666666667 0.1666666666666667 0 1 0 0 0 0 0 1 0 0 0 0 0.01312625250501002 0.07905811623246492 0.2234468937875751 0.4218436873747494 0.157314629258517 0.1052104208416835</probabilities>
		</cpt>
		<cpt id="Delay_1">
			<state id="Normal" />
			<state id="Low_Delay" />
			<state id="High_Delay" />
			<parents>Temperature_1 Delay</parents>
			<probabilities>0.9 0.1 0 0.9 0.1 0 0.9 0.1 0 0.2 0.8 0 0.2 0.8 0 0.2 0.8 0 0.5 0.5 0 0.5 0.5 0 0.5 0.5 0 0.3333333333333333 0.3333333333333333 0.3333333333333333 0.3333333333333333 0.3333333333333333 0.3333333333333333 0.3333333333333333 0.3333333333333333 0.3333333333333333 0.3333333333333333 0.3333333333333333 0.3333333333333333 0.3333333333333333 0.3333333333333333 0.3333333333333333 0.3333333333333333 0.3333333333333333 0.3333333333333333 0.3333333333333333 0.3333333333333333 0.3333333333333333 0.3333333333333333 0.3333333333333333 0.3333333333333333 0.3333333333333333 0.3333333333333333 0.3333333333333333</probabilities>
		</cpt>
		<cpt id="Temperature_2">
			<state id="Temp_0_4C" />
			<state id="Temp_5_9C" />
			<state id="Temp_10_14C" />
			<state id="Temp_15_19C" />
			<state id="Temp_20_24C" />
			<state id="Temp_25_29" />
			<parents>Events</parents>
			<probabilities>0.03228679853771686 0.2256065115213135 0.4522157186493883 0.1293477332722197 0.1293477332722197 0.03119550474714194 0 0.1111022220444409 0.3333366667333347 0.1111122222444449 0.2222244444888898 0.2222244444888898 0 0 0 1 0 0 0.1666666666666667 0.1666666666666667 0.1666666666666667 0.1666666666666667 0.1666666666666667 0.1666666666666667 0 1 0 0 0 0 0 1 0 0 0 0 0.01312625250501002 0.07905811623246492 0.2234468937875751 0.4218436873747494 0.157314629258517 0.1052104208416835</probabilities>
		</cpt>
		<cpt id="Delay_2">
			<state id="Normal" />
			<state id="Low_Delay" />
			<state id="High_Delay" />
			<parents>Temperature_2 Delay_1</parents>
			<probabilities>0.9 0.1 0 0.9 0.1 0 0.9 0.1 0 0.2 0.8 0 0.2 0.8 0 0.2 0.8 0 0.5 0.5 0 0.5 0.5 0 0.5 0.5 0 0.3333333333333333 0.3333333333333333 0.3333333333333333 0.3333333333333333 0.3333333333333333 0.3333333333333333 0.3333333333333333 0.3333333333333333 0.3333333333333333 0.3333333333333333 0.3333333333333333 0.3333333333333333 0.3333333333333333 0.3333333333333333 0.3333333333333333 0.3333333333333333 0.3333333333333333 0.3333333333333333 0.3333333333333333 0.3333333333333333 0.3333333333333333 0.3333333333333333 0.3333333333333333 0.3333333333333333 0.3333333333333333 0.3333333333333333 0.3333333333333333</probabilities>
		</cpt>
		<cpt id="Temperature_3">
			<state id="Temp_0_4C" />
			<state id="Temp_5_9C" />
			<state id="Temp_10_14C" />
			<state id="Temp_15_19C" />
			<state id="Temp_20_24C" />
			<state id="Temp_25_29" />
			<parents>Events</parents>
			<probabilities>0.03228679853771686 0.2256065115213135 0.4522157186493883 0.1293477332722197 0.1293477332722197 0.03119550474714194 0 0.1111022220444409 0.3333366667333347 0.1111122222444449 0.2222244444888898 0.2222244444888898 0 0 0 1 0 0 0.1666666666666667 0.1666666666666667 0.1666666666666667 0.1666666666666667 0.1666666666666667 0.1666666666666667 0 1 0 0 0 0 0 1 0 0 0 0 0.01312625250501002 0.07905811623246492 0.2234468937875751 0.4218436873747494 0.157314629258517 0.1052104208416835</probabilities>
		</cpt>
		<cpt id="Delay_3">
			<state id="Normal" />
			<state id="Low_Delay" />
			<state id="High_Delay" />
			<parents>Temperature_3 Delay_2</parents>
			<probabilities>0.9 0.1 0 0.9 0.1 0 0.9 0.1 0 0.2 0.8 0 0.2 0.8 0 0.2 0.8 0 0.5 0.5 0 0.5 0.5 0 0.5 0.5 0 0.3333333333333333 0.3333333333333333 0.3333333333333333 0.3333333333333333 0.3333333333333333 0.3333333333333333 0.3333333333333333 0.3333333333333333 0.3333333333333333 0.3333333333333333 0.3333333333333333 0.3333333333333333 0.3333333333333333 0.3333333333333333 0.3333333333333333 0.3333333333333333 0.3333333333333333 0.3333333333333333 0.3333333333333333 0.3333333333333333 0.3333333333333333 0.3333333333333333 0.3333333333333333 0.3333333333333333 0.3333333333333333 0.3333333333333333 0.3333333333333333</probabilities>
		</cpt>
		<cpt id="Temperature_4">
			<state id="Temp_0_4C" />
			<state id="Temp_5_9C" />
			<state id="Temp_10_14C" />
			<state id="Temp_15_19C" />
			<state id="Temp_20_24C" />
			<state id="Temp_25_29" />
			<parents>Events</parents>
			<probabilities>0.03228679853771686 0.2256065115213135 0.4522157186493883 0.1293477332722197 0.1293477332722197 0.03119550474714194 0 0.1111022220444409 0.3333366667333347 0.1111122222444449 0.2222244444888898 0.2222244444888898 0 0 0 1 0 0 0.1666666666666667 0.1666666666666667 0.1666666666666667 0.1666666666666667 0.1666666666666667 0.1666666666666667 0 1 0 0 0 0 0 1 0 0 0 0 0.01312625250501002 0.07905811623246492 0.2234468937875751 0.4218436873747494 0.157314629258517 0.1052104208416835</probabilities>
		</cpt>
		<cpt id="Delay_4">
			<state id="Normal" />
			<state id="Low_Delay" />
			<state id="High_Delay" />
			<parents>Temperature_4 Delay_3</parents>
			<probabilities>0.9 0.1 0 0.9 0.1 0 0.9 0.1 0 0.2 0.8 0 0.2 0.8 0 0.2 0.8 0 0.5 0.5 0 0.5 0.5 0 0.5 0.5 0 0.3333333333333333 0.3333333333333333 0.3333333333333333 0.3333333333333333 0.3333333333333333 0.3333333333333333 0.3333333333333333 0.3333333333333333 0.3333333333333333 0.3333333333333333 0.3333333333333333 0.3333333333333333 0.3333333333333333 0.3333333333333333 0.3333333333333333 0.3333333333333333 0.3333333333333333 0.3333333333333333 0.3333333333333333 0.3333333333333333 0.3333333333333333 0.3333333333333333 0.3333333333333333 0.3333333333333333 0.3333333333333333 0.3333333333333333 0.3333333333333333</probabilities>
		</cpt>
	</nodes>
	<extensions>
		<genie version="1.0" app="GeNIe 2.0.3717.0" name="Network1 unrolled" faultnameformat="nodestate">
			<node id="Events">
				<name>Events</name>
				<interior color="ffffff" />
				<outline color="000080" />
				<font color="000000" name="Arial" size="8" />
				<position>474 176 570 248</position>
			</node>
			<node id="Temperature">
				<name>Average Temp</name>
				<interior color="ffffff" />
				<outline color="000080" />
				<font color="000000" name="Arial" size="8" />
				<position>457 388 594 437</position>
			</node>
			<node id="Delay">
				<name>Delay</name>
				<interior color="ffffff" />
				<outline color="000080" />
				<font color="000000" name="Arial" size="8" />
				<position>488 507 566 543</position>
			</node>
			<textbox>
				<caption>Slice0</caption>
				<font color="404040" name="Arial" size="7" />
				<position>378 568 403 580</position>
			</textbox>
			<textbox>
				<caption>Slice1</caption>
				<font color="404040" name="Arial" size="7" />
				<position>738 568 763 580</position>
			</textbox>
			<textbox>
				<caption>Slice2</caption>
				<font color="404040" name="Arial" size="7" />
				<position>1098 568 1123 580</position>
			</textbox>
			<textbox>
				<caption>Slice3</caption>
				<font color="404040" name="Arial" size="7" />
				<position>1458 568 1483 580</position>
			</textbox>
			<textbox>
				<caption>Slice4</caption>
				<font color="404040" name="Arial" size="7" />
				<position>1818 568 1843 580</position>
			</textbox>
			<node id="Temperature_1">
				<name>Average Temp (t=1)</name>
				<interior color="ffffff" />
				<outline color="000080" />
				<font color="000000" name="Arial" size="8" />
				<position>817 408 954 457</position>
			</node>
			<node id="Delay_1">
				<name>Delay (t=1)</name>
				<interior color="ffffff" />
				<outline color="000080" />
				<font color="000000" name="Arial" size="8" />
				<position>848 527 926 563</position>
			</node>
			<node id="Temperature_2">
				<name>Average Temp (t=2)</name>
				<interior color="ffffff" />
				<outline color="000080" />
				<font color="000000" name="Arial" size="8" />
				<position>1177 388 1314 437</position>
			</node>
			<node id="Delay_2">
				<name>Delay (t=2)</name>
				<interior color="ffffff" />
				<outline color="000080" />
				<font color="000000" name="Arial" size="8" />
				<position>1208 507 1286 543</position>
			</node>
			<node id="Temperature_3">
				<name>Average Temp (t=3)</name>
				<interior color="ffffff" />
				<outline color="000080" />
				<font color="000000" name="Arial" size="8" />
				<position>1537 408 1674 457</position>
			</node>
			<node id="Delay_3">
				<name>Delay (t=3)</name>
				<interior color="ffffff" />
				<outline color="000080" />
				<font color="000000" name="Arial" size="8" />
				<position>1568 527 1646 563</position>
			</node>
			<node id="Temperature_4">
				<name>Average Temp (t=4)</name>
				<interior color="ffffff" />
				<outline color="000080" />
				<font color="000000" name="Arial" size="8" />
				<position>1897 388 2034 437</position>
			</node>
			<node id="Delay_4">
				<name>Delay (t=4)</name>
				<interior color="ffffff" />
				<outline color="000080" />
				<font color="000000" name="Arial" size="8" />
				<position>1928 507 2006 543</position>
			</node>
		</genie>
	</extensions>
</smile>
