<?xml version="1.0" encoding="ISO-8859-1"?>
<smile version="1.0" id="Unnamed" numsamples="1000" discsamples="10000">
	<nodes>
		<cpt id="Flight_No_">
			<state id="CJC3215" />
			<state id="COA1932" />
			<state id="COA5090" />
			<state id="DAL369A" />
			<state id="GJS7434" />
			<probabilities>0.01607384328096547 0.126034639549049 0.3559459970218808 0.3052777787552409 0.1966677413928638</probabilities>
		</cpt>
		<cpt id="Temp_Max">
			<state id="State16" />
			<state id="State31" />
			<parents>Flight_No_</parents>
			<probabilities>0.4945529433445415 0.5054470566554586 0.84824527719749 0.1517547228025101 0.6620210269535921 0.3379789730464078 0.7325219007645321 0.2674780992354679 0.004352592775500853 0.9956474072244992</probabilities>
		</cpt>
		<cpt id="Date">
			<state id="State_31_03_2010" />
			<state id="State_31_05_2010" />
			<parents>Temp_Max</parents>
			<probabilities>0.4328008508699883 0.5671991491300117 0.73442400592854 0.26557599407146</probabilities>
		</cpt>
		<cpt id="Temp_Ave">
			<state id="State12" />
			<state id="State25" />
			<parents>Date</parents>
			<probabilities>0.3015087411184559 0.6984912588815441 0.7462255291482007 0.2537744708517994</probabilities>
		</cpt>
		<cpt id="Temp_Min">
			<state id="State8" />
			<state id="State18" />
			<parents>Date</parents>
			<probabilities>0.3658615884809645 0.6341384115190354 0.3535304107538415 0.6464695892461585</probabilities>
		</cpt>
		<cpt id="DP_Max">
			<state id="State6" />
			<state id="State18" />
			<parents>Date</parents>
			<probabilities>0.6978574429351866 0.3021425570648134 0.3043397338464915 0.6956602661535086</probabilities>
		</cpt>
		<cpt id="DP_Ave">
			<state id="State4" />
			<state id="State15" />
			<parents>Date</parents>
			<probabilities>0.1823428743999762 0.8176571256000238 0.625542904095943 0.3744570959040571</probabilities>
		</cpt>
		<cpt id="DP_Min">
			<state id="State3" />
			<state id="State12" />
			<parents>Date</parents>
			<probabilities>0.3070653839086668 0.6929346160913333 0.5799305510899788 0.4200694489100211</probabilities>
		</cpt>
		<cpt id="Humid_Max">
			<state id="State76" />
			<state id="State78" />
			<parents>Date</parents>
			<probabilities>0.5741535212193781 0.4258464787806219 0.411355402633846 0.5886445973661542</probabilities>
		</cpt>
		<cpt id="Humidity_Ave">
			<state id="State57" />
			<state id="State64" />
			<parents>Date</parents>
			<probabilities>0.3877058886854988 0.6122941113145011 0.4685716631764929 0.5314283368235072</probabilities>
		</cpt>
		<cpt id="Humidity_Min">
			<state id="State36" />
			<state id="State51" />
			<parents>Date</parents>
			<probabilities>0.6176837120418418 0.3823162879581581 0.1378976723006856 0.8621023276993144</probabilities>
		</cpt>
		<cpt id="Press_Max">
			<state id="State1016" />
			<state id="State__unobserved" />
			<probabilities>0.6411414123170507 0.3588585876829493</probabilities>
		</cpt>
		<cpt id="Press_Ave">
			<state id="State1007" />
			<state id="State1014" />
			<parents>Date</parents>
			<probabilities>0.529823095137625 0.4701769048623751 0.2246768383136209 0.7753231616863793</probabilities>
		</cpt>
		<cpt id="Press_Min">
			<state id="State999" />
			<state id="State1013" />
			<parents>Date</parents>
			<probabilities>0.4707133572299987 0.5292866427700013 0.8874411566913706 0.1125588433086294</probabilities>
		</cpt>
		<cpt id="Visib_Max">
			<state id="State16" />
			<state id="State__unobserved" />
			<probabilities>0.2158418598176436 0.7841581401823563</probabilities>
		</cpt>
		<cpt id="Visib_Ave">
			<state id="State15" />
			<state id="State16" />
			<parents>Date</parents>
			<probabilities>0.3127127040885718 0.687287295911428 0.2375614748983121 0.7624385251016879</probabilities>
		</cpt>
		<cpt id="Visib_Min">
			<state id="State8" />
			<state id="State11" />
			<parents>Date</parents>
			<probabilities>0.4981844447919119 0.5018155552080881 0.2210015694113411 0.7789984305886588</probabilities>
		</cpt>
		<cpt id="Wind_Max">
			<state id="State32" />
			<state id="State35" />
			<parents>Date</parents>
			<probabilities>0.2667094504645027 0.7332905495354973 0.1662691438609248 0.8337308561390752</probabilities>
		</cpt>
		<cpt id="Wind_Ave">
			<state id="State9" />
			<state id="State21" />
			<parents>Date</parents>
			<probabilities>0.1631242801798476 0.8368757198201524 0.9447335485147385 0.05526645148526164</probabilities>
		</cpt>
		<cpt id="Gust_Sp">
			<state id="State42" />
			<state id="State__unobserved" />
			<probabilities>0.7320568967388682 0.2679431032611319</probabilities>
		</cpt>
		<cpt id="Precip__cm_">
			<state id="State3" />
			<state id="State5" />
			<parents>Date</parents>
			<probabilities>0.7372670807446943 0.2627329192553056 0.8274667516129358 0.1725332483870642</probabilities>
		</cpt>
		<cpt id="Events">
			<state id="Rain" />
			<state id="State__unobserved" />
			<probabilities>0.2669827047301623 0.7330172952698376</probabilities>
		</cpt>
		<cpt id="Aircraft_Mod_">
			<state id="Boeing_737_800__twin_jet___B738_Q___track_or_photos_" />
			<state id="Boeing_777_200__twin_jet___H_B772_Q___track_or_photos_" />
			<state id="Canadair_Regional_Jet_CRJ_700__twin_jet___CRJ7_Q___track_or_photos_" />
			<state id="de_Havilland_Dash_8_400__twin_turboprop___DH8D_G___track_or_photos_" />
			<state id="de_Havilland_Dash_8_400__twin_turboprop___DH8D_R___track_or_photos_" />
			<state id="Unknown" />
			<parents>Flight_No_</parents>
			<probabilities>0.04513733863391611 0.1793744122896118 0.1789140093880902 0.2477690517937734 0.07683607348552672 0.2719691144090819 0.03445289067257761 0.2673073323182933 0.3191140787633225 0.03919966547135406 0.242333209391582 0.09759282338287038 0.1791746634300169 0.07477445182440537 0.2362098797116931 0.2054754331087975 0.1740960567034305 0.1302695152216567 0.02077260853826574 0.3451489120331434 0.08670550521548161 0.07129302958785631 0.4478764401125138 0.02820350451273911 0.2264218498949182 0.3144082733732781 0.03784144289034171 0.1335453685970973 0.02826728534537884 0.2595157798989861</probabilities>
		</cpt>
		<cpt id="Origin">
			<state id="State__KEWR___track_or_info_" />
			<state id="State__unobserved" />
			<probabilities>1 0</probabilities>
		</cpt>
		<cpt id="Destination">
			<state id="Baltimore_Washington_Intl__KBWI___track_or_info_" />
			<state id="Ben_Gurion_Int_l__LLBG___TLV___track_or_info_" />
			<state id="Boston_Logan_Intl__KBOS___track_or_info_" />
			<state id="Hartsfield_Jackson_Intl__KATL___track_or_info_" />
			<state id="Lambert_St_Louis_Intl__KSTL___track_or_info_" />
			<state id="Minneapolis_St_Paul_Intl__KMSP___track_or_info_" />
			<state id="Montreal_Trudeau__CYUL___track_or_info_" />
			<state id="N_Kentucky_Intl__KCVG___track_or_info_" />
			<parents>Flight_No_</parents>
			<probabilities>0.1701545808656569 0.05082360870944027 0.07739951352418435 0.04793434447748145 0.07988329498600168 0.139116797659489 0.1418487796235906 0.2928390801541559 0.002124766833459367 0.03777010225166325 0.06060276041110393 0.03746520016472378 0.599122902038118 0.08810947994189829 0.02194485232668003 0.1528599360323534 0.1320921207205147 4.239800500537357e-005 0.01361659520845768 0.03057073185284582 0.3445406180311621 0.145181945215972 0.04424550914110916 0.2897100818249331 0.05981147211969005 0.03225851885764994 0.03175006479546672 0.009200204408336804 0.386446728097306 0.08590255105607349 0.08447151222365593 0.3101589484418211 0.3289099280435477 0.02610130377175381 0.05254703615094054 0.03952616201960976 0.3722255655339765 0.06993302624067133 0.03908511817508292 0.07167186006441736</probabilities>
		</cpt>
		<cpt id="Altitude__ft__">
			<state id="State_17000_feet" />
			<state id="State_21000_feet" />
			<state id="State_31000_feet" />
			<state id="State_34000_feet" />
			<state id="State_40000_feet" />
			<state id="State_6000_feet" />
			<state id="State_9000_feet" />
			<state id="Unspecified" />
			<parents>Aircraft_Mod_ Destination</parents>
			<probabilities>0.1678638811704878 0.09637129262276895 0.03615851612394919 0.1198989535519626 0.131149566879534 0.2216684501526884 0.1072808911324842 0.1196084483661251 0.1638240755730833 0.03795180910313052 0.1290548802141278 0.03549043266597559 0.2506510994228133 0.09520685265507849 0.1379704441345088 0.1498504062312822 0.3286080989539182 0.05091537187915022 0.05601776520911209 0.02346737558482626 0.3082134633251791 0.1130590673277597 0.06293218782125343 0.0567866698988009 0.1170352206961007 0.006925262185020338 0.02891895495411997 0.1098075124643007 0.1961352108660074 0.2522704705109444 0.2086108320654719 0.08029653625803453 0.3049204330124363 0.1057840210607268 0.1184264198056583 0.1276933490703753 0.1077340582876551 0.1338047350971737 0.03986546787974384 0.06177151578623071 0.1199731166064856 0.1883294447751611 0.1715236371077367 0.006005022051058786 0.03130640247902291 0.1861886992304759 0.1291655802749359 0.1675080974751231 0.1732344067221741 0.20686591319007 0.007430190253609991 0.1557406302161553 0.2117377294935975 0.047407498087451 0.1011487513903188 0.0964348806466233 0.1517753300022314 0.1760775750689548 0.09312139196025533 0.139634969764963 0.09975460886556888 0.1084328047739403 0.09076195064638819 0.1404413689176979 0.2342194767308833 0.05788034850367445 0.1044897227349253 0.117950437073647 0.05070060161511834 0.1338565082680142 0.1893076711523609 0.1115952339213765 0.02281131563305434 0.09127665415551622 0.02286342813775557 0.1904682786193401 0.06952672776053259 0.113677557343757 0.2849435636397724 0.2044324747102717 0.08935815325569048 0.1476651491818199 0.1741813138105293 0.09100491064174172 0.1064642879086581 0.0765093441982143 0.2599035180251257 0.05491332297822048 0.2642130276900038 0.1084397655419566 0.05264239873978344 0.01799371838034497 0.2427597719408817 0.1511783089203475 0.01494535399871423 0.1478276547879676 0.2603833840363699 0.151387271520734 0.145369176927317 0.06626756416591428 0.157133556234554 0.03687056731012079 0.05901514547992907 0.123573334325061 0.00112975459406739 0.05048418439924878 0.2181341948793875 0.1524603701239816 0.1714549586579324 0.2209889143483776 0.01649806784190853 0.1688495551550963 0.02278826151337859 0.1513097297352593 0.1454359934412523 0.003199635020737073 0.1953103589055728 0.1762673448544571 0.2318582517349353 0.07383042479440752 0.2054609929967312 0.1094782125802643 0.1308365168485883 0.0529200273985158 0.1785499383499533 0.1291510414040828 0.05721298896339476 0.1363902814584695 0.1507823012256229 0.1621414170520229 0.1200915530779212 0.1146307868761401 0.004622569178144746 0.2283679655853691 0.1418313356395969 0.077532071365182 0.09577012083541817 0.1477686418844995 0.001435909610005641 0.2405124822394573 0.002730897696272151 0.1586432771510541 0.1862969787963741 0.166841691786919 0.02095440343432465 0.269166248032282 0.08988069682735692 0.09651564450630423 0.03965559706788807 0.1571245207710853 0.2987047259147667 0.02799816344599203 0.2061045057392368 0.1969766077723052 0.04672427774650913 0.08833376251512935 0.1076144353452704 0.1396552342092058 0.1766851089515664 0.03790606772077705 0.3518944790237613 0.01344228054630663 0.1645712586780302 0.1847409985448063 0.121001106195221 0.03281669380628965 0.01494528383885772 0.1165878993667274 0.07065326628394678 0.1450586067654761 0.1247787789502774 0.2089405121813812 0.1081392231839988 0.154939522566968 0.1720353404183078 0.01545474964964404 0.1526736208513325 0.1967036040164132 0.0431978367231227 0.1669862737247809 0.04719707758191602 0.1460099769632697 0.1449301331928167 0.1023014769463483 0.06240999245780762 0.2409269170636028 0.01867832412096609 0.1170975981369741 0.2355305311373067 0.1675034336894644 0.1055737176246489 0.05227948576922942 0.0011230827464575 0.1851459564752971 0.1617616495365771 0.117811681776744 0.1027596547935812 0.1370722496560567 0.06957527650003881 0.2247504485152474 0.1315019700143882 0.1364057531387196 0.01152112328960812 0.1078323637254288 0.1783294919251111 0.1978304168375339 0.03746790747757877 0.1991109735916316 0.2001723773019862 0.1478500789121276 0.0740710350192733 0.1386570057240654 0.1139633129949502 0.03920564118401323 0.1450053862011308 0.1410751626624532 0.1505799434848275 0.1059178928026219 0.1159621037856628 0.1425320038279645 0.1253994118499953 0.169249302435074 0.07312307541009269 0.1172362664037613 0.02643320610721382 0.2147999477576018 0.1908750077004356 0.1476394244037246 0.1003791573622416 0.03613316875281084 0.2230480764553972 0.0606920114605744 0.2901450895324446 0.09761103385813155 0.1255536928885397 0.06585101580667979 0.02763045322253534 0.1919914217202399 0.2007133416128266 0.0005039513586027109 0.2273330708570967 0.1624535448506525 0.1348215836142712 0.07162809397374872 0.0959394471120178 0.03048467159668689 0.1407566147394279 0.1365829732560983 0.1899810840015516 0.1844037969308148 0.05366586715723698 0.1532628232083249 0.09155462367861993 0.1719279879307014 0.08179056935183925 0.07341324774091099 0.07098201340743317 0.0393385332226599 0.06583651830588723 0.1338481595187347 0.1705716249811105 0.2181168703842694 0.1845579636051404 0.1167483165747648 0.2295006378830541 0.1532377219565498 0.05045265047226358 0.05298333961029768 0.1632190969555706 0.1055349208365703 0.2449772455172295 9.438676846472565e-005 0.2674583712444595 0.105979960533211 0.1765183792571983 0.08156804434438571 0.03880252109572908 0.1405481889585731 0.1179285791841898 0.07119595538225357 0.2563777967808135 0.01659479880103942 0.1755108851525388 0.02079572762925592 0.1639310923031785 0.188878477711234 0.1767793179573131 0.001131903664626865 0.09841769743933246 0.3639740854689647 0.1098410501978095 0.0477201591284353 0.1368036984513115 0.08796271946649095 0.07146638024468598 0.08381420960296969 0.3973842069813406 0.138329825849091 0.04507251367798625 0.0359621488627432 0.07842238921258908 0.06641747948435177 0.1852118435792828 0.05319959235261527 0.1913475983081543 0.1414795624957678 0.1290112842304814 0.1392736122466967 0.1960914481219902 0.09818957483041656 0.05906834191071737 0.04553857785577573 0.03998503515692959 0.07787946214752672 0.07035554902836665 0.2651515949259325 0.1841758712084463 0.03666301260878579 0.225451100015665 0.1003383749083475 0.1042661959179392 0.1427771616302556 0.1174167842618085 0.04368596618672221 0.1347518196676933 0.1939519446190111 0.1774994821052509 0.08565064561131924 0.06651807093021835 0.2326564917136176 0.0533321993730006 0.03837407454165522 0.2329794805672529 0.1070619236870348 0.2471907574136373 0.02188700177358322 0.04882084072808011 0.06803681280339825 0.04740078957304089 0.05689223958018769 0.195371351868533 0.1869122129614449 0.204747604648044 0.1918181478372714 0.2075442096519973 0.09312819950303496 0.1563782976215205 0.07622621579906576 0.2383306348985292 0.07074109330332161 0.08401690181764283 0.07363444740488778 0.383426161797816 0.1361932000578083 0.01293505944893662 0.1278421040001656 0.07975394944968227 0.04529822478849245 0.01840418241168219 0.1961471180454166 0.3218288599349031 0.07229203243563734 0.02607232003342632 0.04567777582840239 0.2557208518373853 0.01364684377528387 0.2111204534094402 0.05364086274552164 0.1506266286330037 0.1491967607746524 0.07984295161046204 0.01506897880161333 0.2154143156696465 0.1894699883323844 0.1768550039671415 0.02352537221109617 0.001459615679984241 0.1045396748332028 0.07860642220576579 0.2228826350774998 0.1819607952794024 0.05499420235564989 0.1320350835915913 0.2235215709769039</probabilities>
		</cpt>
		<cpt id="Speed">
			<state id="State_267_kts" />
			<state id="State_306_kts" />
			<state id="State_334_kts" />
			<state id="State_336_kts" />
			<state id="State_338_kts" />
			<state id="State_340_kts" />
			<state id="State_343_kts" />
			<state id="State_351_kts" />
			<state id="State_442_kts" />
			<state id="State_454_kts" />
			<state id="State_505_kts" />
			<state id="Unspecified" />
			<parents>Flight_No_ Altitude__ft__</parents>
			<probabilities>0.004240110962553797 0.0001149589288260237 0.003125544434270276 0.01557027819302517 0.03912147939984453 0.008640771913493278 0.02783884108850147 0.0004237419623034351 0.003988016550753287 0.000464500283527523 0.003190072139013487 0.8932816841438878 0.1236732563035758 0.0009087359404179071 0.002824015713900234 0.111427759663052 0.2171188625711706 0.01261192668132085 0.06881159760082253 0.001162234928204308 0.009595016686352308 0.0008784093655999742 6.894575809103084e-005 0.4509192387874926 0.09616970650727111 0.0005834264957729238 0.003285714422214573 0.1523142293787559 0.04117091988357165 0.007299924243128558 0.05577541556732178 0.0003318034727884048 0.005772581571890651 0.001571099936800823 0.00547361270934141 0.6302515658111423 0.05185842257300955 0.0001171465585099385 0.00100585511544823 0.04581557627910825 0.286726192816968 0.01025167389454535 0.07987368831796114 0.001073611435606588 0.004860577024232361 0.002539769181154635 0.007459003478539892 0.5084184833249161 0.0463772310106978 0.0002484819257736207 0.005824940321214877 0.06159437406990432 0.06488525257844004 0.006521625473574734 0.03703292635441736 0.0007872809215935101 0.01712949609911375 0.000100435818224167 0.001211534665565292 0.7582864207614806 0.01307715723229374 0.001054523935573917 0.006976398171091226 0.08282167979730412 0.1460459456994047 0.005991339225305824 0.04758260535184531 0.0007685138673921017 0.02369250777327751 0.001059572250210203 0.002133499089751795 0.6687962576065495 0.01025214687239343 0.001029424062930027 0.002483792884972676 0.09702838338739001 0.09145568670521563 0.002489646234607737 0.06389860159694615 0.001213298569382192 0.01379929948867019 0.001258520436553922 0.003286555151305508 0.7118046446096324 0.0173989360898672 0.0003633692570178357 0.001406741278945459 0.08828431966032295 0.04326361324556895 0.002694516450974032 0.03586535726971304 0.0005380574904337508 0.005570917869755768 0.0003212272689200257 0.00194460502142371 0.8023483390970573 0.003703196983318949 9.66997989113944e-005 0.001067556989383937 0.04614602695746951 0.02164803658618332 0.002369193675958498 0.04799831750024938 4.963648782293995e-005 0.001742075841568724 0.0004844074548494103 0.000667063855542998 0.8740277878687409 0.08838862959966451 0.0006569466789648009 0.0009541671973856941 0.08134092771153086 0.1503796849850981 0.01190022049256552 0.05245104977188286 0.0007674076676248201 0.004454947921048904 0.0006649752403822758 0.0040622653620786 0.6039787773717731 0.08890969193547958 0.0005026806048561545 0.001178782144696332 0.1190162406870812 0.1214379630540937 0.007296196153797516 0.02170136677363947 0.0003696849956867657 0.00294231682385179 0.001186185847524168 0.002654237626365154 0.632804653352928 0.1784870739220419 0.0003052386547024539 0.001812487634149297 0.007148344255283237 0.09560305095282644 0.01919672712716325 0.0222592005901046 0.0008984151429312786 0.01751463336231685 0.00138350081333941 0.006369801206370376 0.6490215263387709 0.1315107528919247 0.001486812521030746 0.005451361517518956 0.006002918774438966 0.2871447829784842 0.01803663258271224 0.05676368667331602 0.0003863842767284667 0.02418626202004678 0.0007406982207086709 0.002051280284461819 0.4662384272586286 0.07349654555905467 0.0001724373064663674 0.003917260661663819 0.07322056649624245 0.03566628293454213 0.00454150305472646 0.01593051186669105 0.0005940200331239955 0.01419563812767324 0.0007137104085452664 0.002422819496741588 0.7751287040545289 0.08057589397343738 0.0002204810079890911 0.0001469956160545987 0.0289550525673639 0.1463544424627348 0.007689179542940712 0.01718965374111827 0.0003454153233405948 0.01559159910450403 0.001577674546843812 0.003593132525237833 0.697760479588435 0.2088799770805957 0.0002147026984998576 0.007053540852903393 0.02087150779080394 0.03687483413520183 0.01284528763797687 0.1305905203406244 0.001561908564886101 0.02670462995513195 0.0008193464308427543 0.003483044610335556 0.5501006999021978 0.02315245675054801 0.0004399128207349054 0.0006897548515074885 0.008085533696837594 0.06986607646657113 0.008217887781621939 0.01264181993916836 0.0002565801198609885 0.002255379341738199 0.0001720769139515294 0.001370429462705126 0.8728520918547548 0.02190878935491001 0.0005345384237626013 0.001002368824312715 0.01445514700090042 0.01695583065585382 0.004684707367481926 0.0154053891326048 9.671521925176414e-005 0.01358987192258469 0.000886792380644297 0.0040593880558422 0.9064204616618508 0.02704803070238675 0.000961690960385823 0.004307446425899798 0.1439404891497461 0.04985051650329245 0.003060064560644123 0.07150049495304602 0.0002451095402189516 0.01542910984921543 0.0003518561192826744 0.0004783042831354869 0.6828268869527465 0.02267274103236392 0.0005367108172807323 0.002260360222826678 0.00932574327652063 0.04637905187817981 0.006018063299561086 0.06560065241407292 0.0002343590570655312 0.009472613363521072 0.0001675589573212254 0.0006401475225910154 0.8366919981586953 0.04242927814098169 0.0008357595885708245 0.004478994910138879 0.1338372555979253 0.1108424729406119 0.008787794186189361 0.06328225664734315 0.0006899851189631835 0.01656422564073691 0.001445136416584123 0.0009985687885609813 0.6158082720233936 0.1006547721615344 4.432445423974241e-005 0.004772878128241285 0.06476019947164267 0.1220458028077025 0.002586035281410218 0.04147148198374372 5.56034508669282e-005 0.002174187993416198 0.0009362232069751252 0.0001393606376951946 0.660359130422532 0.1141427763274124 0.0003014791585033953 0.001501149477388111 0.113665138603599 0.04958671623958912 0.0100467327970333 0.07554078408199998 0.0001133423622239851 0.0175545124452986 0.001528520865206925 0.003541779400194471 0.6124770682415508 0.05738916764046253 0.0003688718970065397 0.0008635050048635376 0.1606597350487934 0.1482670814142351 0.00806280023068447 0.07042960692487826 0.0007617960850447206 0.003030842055249625 0.001065729323143147 0.003574703238867622 0.545526161136771 0.08822730353919744 0.0003998020513440715 0.002474870299158711 0.05811325331514523 0.01658673702118245 0.002521339500953524 0.01696597142327043 0.0005534750122716 0.0007030693938653294 0.0006972981346838358 0.002568392831936491 0.810188487476991 0.05490935882392831 0.0006270951953500388 0.003227689429749632 0.0918911052241099 0.03256216920219517 0.01057092180760647 0.05325464007272778 0.0001930649233705815 0.002552465769372321 0.0004223923261064213 0.001931045319113091 0.7478580519063702 0.1276530932928235 0.0003931041795809289 0.005386789522864931 0.007668163526173511 0.02790323251493464 0.006321149159147437 0.02311091292527763 0.000710725705097137 0.01282462657486831 0.0009489344124568532 0.004582484652787844 0.7824967835339873 0.1187903786886302 0.0001391511812055604 0.004173801568784976 0.06225094762994528 0.02084078831293263 0.01216784024531724 0.03118394729166306 8.72553652183876e-006 0.01314014441384914 0.0007134080663603707 0.004732788771540026 0.7318580782932496 0.01372307897049182 0.000546111699029914 0.002297700706026117 0.03052583953985295 0.06608749790539363 0.007206470371837351 0.04025020252055808 0.0004567351950669909 0.009751481138487646 0.0003824044910692343 0.002772295213678068 0.8260001822485081 0.1300279487387631 0.001091532902198555 0.005455686466337596 0.06736579916948991 0.02541073087904084 0.001019825331594329 0.06850530352242527 0.0006203980950073445 0.01117507531603565 0.002331989628540056 0.002814725329872083 0.6841809846206953 0.06956398468288205 0.0003838437690052295 0.003308757277479132 0.03257661895786761 0.05711269923489589 0.006547446628141817 0.04325903115044216 0.0001900087198638586 0.001568813710907006 3.163952404898324e-005 0.0001464444452765509 0.7853107118991898 0.2021975811647254 0.0003628300879055155 0.009176254928692796 0.06506953147726728 0.1049731158794677 0.00997383883398506 0.1062523476123261 0.001579352111894465 0.006007864294124527 0.001834581136494707 0.001092116398392533 0.491480586074724 0.07582675642909638 0.000404142455678377 0.002649516171828602 0.03719089035169979 0.1047786339387597 0.004639752426551779 0.05157523955388975 0.0001229823609363911 0.007021349029381544 0.001105304808991634 0.0005556264878201296 0.7141298059853659 0.2322205890318659 0.001858124309373688 0.01041923973136155 0.05998796804975053 0.1707760429125118 0.008056176866462596 0.1374792523744705 0.001267227514320167 0.002232008251724313 0.0003488470691641404 0.009804379558657072 0.3655501443303378 0.1181168955178888 0.001421717401535437 0.01431305258522493 0.03013239858225058 0.3723590178851853 0.02743653701225528 0.005065005370779565 0.0008341891743113754 0.005742904459542374 0.004642818343582651 0.001788346156981123 0.4181471175104627 0.1643661701087778 0.0007718777684719341 0.01784770211146258 0.3511990165876827 0.1678935555755225 0.02174663440154934 0.09968057002863416 0.003812643459390639 0.01822772777400431 0.002149440676310447 0.008858586850371148 0.1434460746578225 0.08653365257984592 0.0001406311256881828 0.002667320253899216 0.004785300465230407 0.08896558480388064 0.009038428094925794 0.03287036265187341 9.45337295757454e-005 0.00335296439163742 7.120945496128093e-005 0.0001493337196794404 0.7713306787288027 0.03419090204107748 0.0001591288297871743 0.007077812506034602 0.04021974276029027 0.1132842255465567 0.01295431125397792 0.04584360692274114 0.0008256068357371323 0.009165985012810893 0.000545427620515042 0.003153478928943624 0.732579771741528 0.1194640511124034 0.0004793475722717283 0.00163500692767231 0.08844785455457205 0.02424806607593592 0.01411085297565939 0.01599295716984183 0.0003933062754097386 0.0205011626537376 0.001252550354960726 0.00472387681196253 0.7087509675155728 0.1316777210376173 0.0001380180014942879 0.002428978302249929 0.03681712431109128 0.1506145528434267 0.009129373462693782 0.006480544608069419 0.000237536490601015 0.0134399061099227 0.001339938696626068 0.001554340852678709 0.646141965283529</probabilities>
		</cpt>
		<cpt id="Delay__min_">
			<state id="State_00_00" />
			<state id="State_01_00" />
			<state id="State_03_00" />
			<state id="State_08_00" />
			<state id="State_14_00" />
			<state id="State_17_00" />
			<state id="State_26_00" />
			<state id="State_39_00" />
			<state id="State_49_00" />
			<parents>Flight_No_ Speed</parents>
			<probabilities>0.1899468029065917 0.1797148031719044 0.154727999792754 0.03214708569745541 0.05292085297396627 0.06516432253733415 0.07555051451893899 0.153913965410502 0.09591365299055285 0.05340263438648404 0.1327964187600809 0.1263955832220568 0.1586892972841197 0.1352570081434669 0.0837949097367592 0.02791922529392385 0.1421137399768085 0.1396311831963003 0.1101111020064712 0.1777381974342592 0.1446854506040984 0.06239461405301588 0.1512434629904451 0.1224439743280722 0.09567234549848765 0.1177340861780242 0.01797676690712627 0.01668862640164395 0.02906177741526485 0.1259245784930308 0.0668617265445801 0.1372264878473611 0.1792287024141513 0.1371342835250847 0.2266814853526162 0.08119233200626683 0.2098443583869423 0.1757493742855899 0.06897829307657437 0.1515628396203459 0.1142048548597413 0.07168811655242019 0.02926656180652523 0.1598436569643238 0.01886194444753715 0.1308269359043302 0.1258257764274379 0.1483943114273156 0.1219504854116559 0.1576408338905447 0.02586417557058901 0.1362092267806963 0.01661467061007921 0.1366735839773509 0.1611638231687289 0.2308867851386996 0.1131160971871571 0.02346240666364697 0.06026891150384767 0.09894172553285087 0.07762047590011297 0.05144495757036761 0.1830948173345882 0.1601107808744582 0.07074927071909086 0.002643651502041047 0.1240284422814278 0.005435130052426773 0.2374906016626428 0.1317316466624084 0.07603604829903177 0.1917744279464722 0.2322604560100086 0.002437513725956685 0.004485347952326615 0.1245083280666784 0.1617729703163162 0.1443150395366669 0.1357423948610073 0.03013311833365188 0.1643448311973874 0.04903405427233531 0.1724327389247604 0.1588188808704404 0.1489776186414378 0.02901654943689959 0.09195779200761194 0.05073637577225718 0.08016484475098198 0.2188611453232754 0.06072090863727326 0.1304821147123138 0.1210629057768526 0.03796171302465265 0.1396043546155001 0.08427242338370002 0.1830429124092035 0.1113103380625736 0.1315423293779305 0.1609196651717854 0.1408545547667176 0.1562430521830529 0.001398367464278531 0.1220033792423505 0.1211176873163246 0.09138806014452243 0.04537877541054866 0.1606964583004196 0.1659210188579373 0.05853869293579093 0.1583901182386725 0.05788571342356313 0.09818729080746409 0.04331191581529172 0.1128140321152218 0.1702814003872932 0.1346698174187654 0.05541318691486687 0.02981568373776927 0.1791778038328044 0.2712167183801303 0.06132535404890957 0.2007294260921022 0.0628857221917503 0.07439718997360086 0.06503891482806629 0.1357694585907297 0.01424316802033183 0.130273985596251 0.1680028390131568 0.1027327693944801 0.1172801679229251 0.1007850105062396 0.01624631201025605 0.2146662889456299 0.04252918775336097 0.09789002772001659 0.1183889051587797 0.02560832424721434 0.07596790016478026 0.07962616707236124 0.1509818578407046 0.2222985706908582 0.1867090593519242 0.1700629414876824 0.1585820091699622 0.003828012291202255 0.006040200804188754 0.1921745404882932 0.1465000051775516 0.1333987477463454 0.130433441171807 0.05898010166296729 0.05296603438303901 0.140530218252205 0.1665344635798112 0.1435909790958998 0.07472896513872457 0.004648926862645168 0.0737350315173325 0.1708460092208596 0.1724193719494833 0.1814705234884824 0.236688996575167 0.1207857251086923 0.099975596243774 0.08058669088184781 0.09215272235127528 0.07013769471005321 0.05314060512318451 0.06506144551752344 0.01031688026039852 0.1212019657939152 0.1197474650145926 0.1076990707804496 0.08892642320390917 0.1323858773963438 0.07797477111757481 0.1915349693351555 0.1502125770976609 0.1860113317400008 0.1015702345286869 0.179472862346121 0.1799628484994275 0.06854903515749974 0.1759685006049738 0.03235484641094301 0.02283279060067987 0.05327755011166768 0.08810825581755988 0.1363713912748165 0.01119586609398717 0.2439578120050746 0.0877965183544669 0.097779903008818 0.270229722507715 0.04632318118517106 0.01823734975239099 0.1303975818321561 0.1114866750992788 0.07409909112745126 0.06188277788494309 0.1593383804292916 0.02980875762964089 0.1822087244752039 0.02653327275987149 0.2242447387621629 0.06451448881551435 0.01706076955218982 0.004160760184181272 0.1855803722675733 0.1107950142850812 0.2135365260865456 0.1055914775477396 0.1662441177958867 0.1325164734652884 0.09781358688651404 0.1884617089120288 0.06147410730772727 0.10330895415415 0.166867041924088 0.05172244774535056 0.07141877443577335 0.09956106697073835 0.1593723116636296 0.1581827942911928 0.01425601160778725 0.1455963942136312 0.1268481327094885 0.1160673064226603 0.1824343422058036 0.0568585381141179 0.1992171843963718 0.0005392960389467021 0.2589347888523819 0.1066818609795827 0.1560492756983383 0.0383466523227468 0.1314929661815358 0.1671624441263925 0.07602942471694558 0.04558169265285686 0.01972089446921951 0.06946919317235656 0.1182772933987262 0.07899296226037553 0.1449930194305505 0.1842537829048426 0.2459575085025792 0.01294822448304402 0.02315919626783223 0.1219488195796933 0.04247605248795616 0.01795946312885837 0.2243934256162661 0.01160705975299107 0.02318738736373383 0.2329041499352461 0.1932274290170274 0.1476885889315644 0.1065564437663567 0.04703756581882895 0.08255117723001908 0.1434005270243224 0.1489026344837033 0.04355183539749636 0.1933390804913872 0.09755797466664848 0.08771405661444472 0.1559451482731495 0.09769119351484967 0.01787580997567267 0.2012482617386583 0.259752381761609 0.2907203152089236 0.03499038902003527 0.04941167357253034 0.01106064621128302 0.03724932899643803 0.01356780735267682 0.165737779708772 0.01010506424674427 0.06116378880900466 0.2182642646566214 0.05159839323520057 0.2857445630648238 0.005813482587826747 0.1880048563383299 0.1774817554009343 0.1578192203278231 0.09737321700338295 0.1504886943565486 0.1452235523732284 0.08608299177458031 0.009521471957461811 0.1575945564730154 0.0184145403330251 0.02953776022968068 0.1384968253222075 0.1214038234590977 0.06103377976498357 0.1499866295119749 0.1139265887047602 0.09559554734080551 0.1535182502977902 0.1365007953686999 0.01365866319597693 0.1529441261966132 0.02326262601604853 0.1167597754139951 0.1770216013863293 0.07019805038705078 0.1467126305720317 0.1884297560225905 0.111012770809364 0.05528010298874671 0.04560233653931708 0.1573729987693318 0.02828999299227553 0.2686815896594668 0.08629424751280672 0.1503283966399011 0.06153449026137731 0.1466158446367769 0.1609593001334962 0.1709772946257441 0.2113996788981198 0.05189372371982885 0.005133871861991158 0.1954391997790841 0.09187874570275742 0.07697436195715895 0.03534382332181933 0.1502291439802902 0.09877742563195076 0.05270787730310835 0.1212698010908328 0.2098231103720726 0.04184167935505969 0.1300093650381505 0.01125168027443682 0.1840899169540982 0.02676200206259901 0.2381958201844277 0.1645958854568776 0.08487484152320128 0.1738333013034484 0.09100591875722884 0.08552732295640132 0.1305495987241115 0.004655309031704427 0.1247865379188483 0.1094409785134151 0.07854672275042351 0.1741925819479923 0.1258120167170536 0.1143371016285224 0.06819928410555914 0.09417785995005476 0.110506916468131 0.1056662677610753 0.09775376937232815 0.1793548109810615 0.06127930476856767 0.03901611596745431 0.06142237862640555 0.1624898866889027 0.1507834993775631 0.1422339664566417 0.1696509487677262 0.1169958993265974 0.1635236704026756 0.06988181139966983 0.1381259388540917 0.02332994800442336 0.1097346683858351 0.1603211515787272 0.04843596328025367 0.002445971579003581 0.2131158131329785 0.04321812397621779 0.1343193974420594 0.1942740546728474 0.09679182435615881 0.08698013395395329 0.1240163502143158 0.1048383306724654 0.2466621878787275 0.01412486280089419 0.02607326292554203 0.2282918580541878 0.0333044705497383 0.09270347905343379 0.2277937958778875 0.07293091310129209 0.05811516975829668 0.1031927907575968 0.1742566919709633 0.0169372974777471 0.0836902004970021 0.2284911299446221 0.03397743309772207 0.07139602862808868 0.2238001566130167 0.06425827101324119 0.1569928539146013 0.0533202349697043 0.210594250770527 0.05239036637732174 0.1785688263118692 0.04163269052020235 0.02491864528789244 0.04711671664731685 0.2344654152005649 0.1300842506876839 0.1152220366029533 0.1520941939601572 0.1461180582880816 0.03246404406752693 0.1361356696890029 0.1253150998880408 0.05879830474266745 0.1037683420738858 0.008168775347968959 0.04576538155305041 0.2163771349058679 0.01780194913237453 0.2075817393742496 0.1698540805735297 0.06965630763280506 0.1264932171906079 0.1383014142895457 0.3114357219845378 0.02642182471653443 0.05300817224765641 0.1091605644400348 0.1215035236273242 0.04274902177622733 0.1181471551812136 0.009758991473975145 0.2078150245524962 0.1058246071680241 0.1113370382981273 0.1673997982935381 0.07116986826138788 0.1517589156737038 0.01649914076196592 0.1857586240983069 0.04002657072483309 0.150225436720113 0.2222364157890273 0.09308222342298726 0.06559276235407528 0.1722774985017956 0.03884098666717335 0.235211400634483 0.06322546058397334 0.02556131844692007 0.08397193359956488 0.06822803961473976 0.04583115684442188 0.02509765036911942 0.1429080504704817 0.1176652871101716 0.19067842563813 0.008998197821565909 0.2069215138902871 0.1936716782410827 0.01189345262820562 0.1353612913412603 0.1370243899428278 0.1694805841570996 0.1560465791170864 0.1742598817161763 0.07024610914532345 0.04824227030410378 0.09744544164791695 0.1080922598355129 0.04525369494330339 0.133776111127356 0.03212646361772921 0.1447435215583313 0.03560472834676061 0.1567119103408304 0.1856113711120457 0.1580799391181305 0.001997953134910765 0.1900991961014095 0.0438633616566011 0.05957132968876678 0.2100798202212402 0.1747571340375534 0.003465959611729005 0.1105431700913626 0.2056220754564267 0.1421360982401361 0.1991017243714973 0.1605319527636033 0.03823828490975936 0.1285282330144594 0.08460634284148154 0.006310302171422816 0.1678280250177879 0.07271903666985224 0.01321384583190659 0.1253994172352343 0.1884207949694074 0.02322584937292111 0.1607460667480182 0.0503185830560821 0.1576333501081316 0.08559502771927882 0.1954470649590199 0.1402363356708699 0.04792999667047303 0.1614365975653561 0.0922967050809943 0.01867735071115386 0.1384090503486527 0.1571913181154861 0.1754014150435586 0.06842123079345533 0.1213123987918352 0.1740685952544983 0.1563479235805214 0.1006407876354527 0.1315588689446637 0.02255636027294759 0.04798786946639694 0.1182891328605489 0.1272380631931353 0.02865487489853437 0.02970720652297065 0.1332798267815784 0.1827861748883545 0.1557729763021345 0.1224771695506372 0.13151946923182 0.157744439825006 0.0580578619989643</probabilities>
		</cpt>
		<cpt id="Duration">
			<state id="State_1_hour_20_minutes" />
			<state id="State_1_hour_47_minutes" />
			<state id="State_1_hour_8_minutes" />
			<state id="State_2_hours_13_minutes" />
			<state id="State_2_hours_23_minutes" />
			<state id="State_2_hours_3_minutes" />
			<state id="State_36_minutes" />
			<state id="State_40_minutes" />
			<state id="State_41_minutes" />
			<state id="State_46_minutes" />
			<state id="State_47_minutes" />
			<state id="State_48_minutes" />
			<state id="State_9_hours_59_minutes" />
			<parents>Delay__min_ Altitude__ft__</parents>
			<probabilities>0.0002260973731207472 0.1054075868150403 0.07783852350730829 0.13001737111533 0.06273688394966148 0.10409732301908 0.149094870358855 0.09120600118163161 0.05287313342058023 0.02495394494587493 0.04188208369475294 0.06197982206485123 0.09768635855391314 0.003743864580096843 0.1244422134097951 0.04111832063486003 0.1218581269539392 0.08743346206389625 0.124016514364481 0.04880923468918222 0.131864857210653 0.05750320023971555 0.02793049057449299 0.01316539871921071 0.1057161236625513 0.112398192897126 0.02275790744006597 0.02059549944874714 0.1396260782145836 0.08374617811579639 0.1406625124488079 0.06897749186471593 0.02045383676677181 0.01848238849740007 0.09557509649015593 0.1334041696288248 0.01587448728128152 0.1183356865047341 0.1215086672981148 0.03227801137507647 0.1241267910582202 0.08309798366556734 0.003165129239178653 0.1026865086017132 0.1386291116771857 0.0708174568825766 0.09016616168739541 0.1309166634235798 0.1454235942084916 0.002027000674523968 0.06749280634503703 0.009172781161453968 0.01188042551122792 0.01757729227589252 0.02844905552369418 0.03327726171172294 0.1509238812310968 0.1098078218530869 0.1233144371441011 0.1322879319319422 0.1315548017388724 0.09998430198842118 0.01286688068390173 0.05965815331706937 0.08841775508897065 0.05280857530352741 0.0430668086567082 0.1164571298239294 0.08905208143598696 0.04873750829909455 0.1339320761252754 0.04192198865947094 0.06339272240399831 0.1524368181500992 0.1569525467886139 0.01015125150363542 0.02028944514200229 0.07080104770765811 0.1525150598392713 0.1281668922928428 0.07061063066451255 0.03795339956189293 0.008525768089813798 0.1272938385194022 0.01535258711037494 0.160926410654539 0.02798592170037024 0.009349934111504988 0.07552622733254277 0.1716346605261669 0.01415866959676562 0.04967468060573688 0.160743334658177 0.05853665799341845 0.163770394799869 0.07672634594619432 0.07280992416313979 0.01322124803036131 0.01439673606695659 0.1459313903938632 0.04403088783567051 0.04957832697456801 0.009541862463166686 0.1410382100688782 0.06792023758978598 0.05655545155499388 0.05702375650485717 0.0002355640346285789 0.08244002422707286 0.08837873811726035 0.1273685139712919 0.08728430737297623 0.09065102218121296 0.1206146552776208 0.03284931283837755 0.1042036821950328 0.08447473413488899 0.1052938831217731 0.07353832068024092 0.09403191617374308 0.06655266592918523 0.1021359821574309 0.008127500710642228 0.07766067936509942 0.1254278124569872 0.08158091322433657 0.1005394263467999 0.03436306909245807 0.02226497947633977 0.1084828512649636 0.1268182925374214 0.05076402396871407 0.0555623834899724 0.1509554418229314 0.04658608307424413 0.03289064304428462 0.03116465087119967 0.1061934139547744 0.06075413434454853 0.05832349262068047 0.1428965856178049 0.08449473825177475 0.05259611640164928 0.1094367786406808 0.01498612800846334 0.0492661208716302 0.1829948631662565 0.01000549161439289 0.06918027091592337 0.03634782900742156 0.08474110927358054 0.1678993013147695 0.03315298093926469 0.1594801604348225 0.06400250843580722 0.01850645737698707 0.04987109900388659 0.1421976125850067 0.1030470011516402 0.08897247177980457 0.1207755751187896 0.009929755501148916 0.08226881864129511 0.02582584577729742 0.06224909417766168 0.1084021836432126 0.01989239181015308 0.08917585062493774 0.09739230018516565 0.09708456288210698 0.1118665569035179 0.1110909177049581 0.02132093132573068 0.03465495311588324 0.1248117453551161 0.1161498850870584 0.09816168173120644 0.003430666444927723 0.0567377296893045 0.01881651946495872 0.1126477310210647 0.09322611927416667 0.1839567034833182 0.01339538187974598 0.1312893514353204 0.00473433769969937 0.01764977188422408 0.02186800856481481 0.1517666971817838 0.1535754700207383 0.1941195193218707 0.0403891590576209 0.001711053734490488 0.01254488340835382 0.07299966232801936 0.1010786559202206 0.06476819423979778 0.05757403732364744 0.1099275843924142 0.04099712513568834 0.1111185991680854 0.1249949019345364 0.0727248377265535 0.09195718792849973 0.08228656399261675 0.1105012273190179 0.02347462423971649 0.008596460679205401 0.007429137098194945 0.04462497277650692 0.1142398155570529 0.01322499757030765 0.06548769565990018 0.1009658007288138 0.154436318964834 0.01022558062673521 0.04298975036643957 0.1590389493951675 0.09722366031923116 0.09872714427605674 0.09138617666075981 0.09484496161087599 0.08530832172949635 0.04527553653417326 0.1592059540209076 0.007481929258019537 0.006543528782650214 0.003803889863855393 0.05371709816827736 0.1560627624827737 0.1742761109915655 0.04541777524675882 0.1122372913196613 0.05582483999098515 0.1094329644019924 0.03419041312463054 0.1407127057586378 0.1605051631879793 0.03264441217327352 0.02875860235018263 0.07447602017252858 0.03381056959386133 0.01284766086876741 0.2024720856144497 0.02331592101582453 0.0969257114332881 0.04990777030458419 0.08343832925680836 0.01945278165143999 0.08825819473607599 0.09182976860674119 0.124275739935865 0.1028147700572644 0.09255964911541005 0.05489271985298364 0.1273277611327756 0.1191896826110446 0.02274972011594372 0.04529503113002802 0.02791585179761923 0.1210309068913533 0.07470080810568978 0.07782855694311913 0.1282013474063327 0.05959753566117883 0.1180243603827491 0.08958436983674596 0.0668355820134309 0.03763530226985194 0.1600419429260631 0.001721824929047876 0.05627713378207121 0.008520328852366324 0.1367074917636389 0.01827189535209547 0.0182415090489444 0.04996376243806097 0.06053796825937532 0.005112766811839193 0.02439364693303202 0.08272199128302304 0.0330583400195367 0.1929377537898436 0.08718790007189883 0.1455698606496239 0.1452951135790874 0.1172075242908556 0.1240206086700064 0.1724523217534505 0.09357444913178276 0.06252580120180959 0.06489824971537472 0.008939564599445699 0.100555325401408 0.02446126465496561 0.03253460109365659 0.04437345509711707 0.07827343034809547 0.07618340404203168 0.0222940625770921 0.0380888470658703 0.121804954857869 0.05074522931647861 0.0772216053349747 0.07265134956868913 0.07023079108345914 0.0254584020322217 0.1267258403811137 0.1376409124682909 0.07507723403674052 0.1242156106294297 0.05784516064777048 0.07604873197153927 0.07245829981541684 0.08481378492544289 0.1100694176064161 0.05200964225392612 0.08713092769064396 0.1233421478631136 0.06942108801857026 0.02495309326088236 0.1109681966272574 0.06027705741288668 0.04662912048689202 0.08187849206701239 0.07564439798429561 0.1025794277860874 0.01017760045974063 0.1002029101904624 0.08931392527103516 0.0549295018797475 0.1350084062362485 0.02817352757669116 0.1113174620239331 0.1170197549391492 0.06318202038173761 0.04184429864261914 0.07060676662825272 0.107502944974646 0.005528240260530759 0.04131602372202576 0.1120452713044646 0.1117797554242614 0.04220905382821577 0.04155435620110484 0.04164886682171753 0.1290274027434334 0.1458356617483736 0.0904119707961331 0.06084880691407708 0.07029164526101626 0.01655956455105321 0.1109855573878073 0.02208772728127232 0.08884969614207892 0.08052895187380148 0.02567982983289623 0.1189657493550976 0.1219744182863451 0.01717587569013015 0.1400520438183047 0.09144237073446569 0.0913045272110937 0.0743936878356537 0.1406716996884349 0.0930326490143656 0.1073741480034591 0.05607062239425147 0.1364467559262771 0.04644745538746538 0.008818380756913321 0.02383814179216343 0.13709682389064 0.08470242575376774 0.1135603023080376 0.004485971754574702 0.0474546233296498 0.0469179284043458 0.1447881346242321 0.06388953404953474 0.1402943968962272 0.05764024960169623 0.1254869860577728 0.08144478217067265 0.04626358716694624 0.03988130234679237 0.1069033010580042 0.04740430490834921 0.04426007988472553 0.0548254128307009 0.07839994605644639 0.06083927165035444 0.08382034620896965 0.1292160717746005 0.08341601500830174 0.02484686535812926 0.09572256759562037 0.03661396141915865 0.01546126699813298 0.1680427813785472 0.09709518668982317 0.02010856280549926 0.1064171570564165 0.01843029818619293 0.08797382048833513 0.1056315273608056 0.07232159459077681 0.05650294016269798 0.0325356607721851 0.1156328708279905 0.1060773126834468 0.07081484788269286 0.01638216478671658 0.1045761841162861 0.1060431039103656 0.1070776742315082 0.0208934202392816 0.0902667105911905 0.06244402805706814 0.1198401904549977 0.1003771547764259 0.02588792441961815 0.07283892102144243 0.06556646509467132 0.07904898363422915 0.08045616791610853 0.09512493252021234 0.08893896055028641 0.09831614072446794 0.1112562480467492 0.1443090376684356 0.1108067033630703 0.03088091092067832 0.1020467117953589 0.05613492037708054 0.02513181229582629 0.01810853082247691 0.0447578998867443 0.1484261231585111 0.04308250549242263 0.08785727916645186 0.07720131700619409 0.0114248953891261 0.1434051805336261 0.00330095218002171 0.0517825044200767 0.06275309733135293 0.1199213520710772 0.01605622879819067 0.0449583570325962 0.09195888078501271 0.006510984068665962 0.1927261263875341 0.1785781046653488 0.07662333633737087 0.04108392749273948 0.01408169482417849 0.0473630977038032 0.05876378523442122 0.1011431926876786 0.08437191024443172 0.1183894034275126 0.1423657763262703 0.07119277210405292 0.02797143986536428 0.1307907309860635 0.1186478351842731 0.04383443391921056 0.1078532851861258 0.01210008068793997 0.05841202795139357 0.1306122139309147 0.1106834616340219 0.09906345524335253 0.02940225937086994 0.06352181750910715 0.1101152260627182 0.05912313385766376 0.09050952812601285 0.06941176991478054 0.05919174052509887 0.1142694698214052 0.0524310502625096 0.05592275639968664 0.1380596411936847 0.1051462010543222 0.04101048207078078 0.07421431138285567 0.09867323032052849 0.07119165897109368 0.07060686775237707 0.04982838690823278 0.02175168509622617 0.1068942587662969 0.07572661442790363 0.09354017444376726 0.008639759277249626 0.1094867964931252 0.1032158543335553 0.0004945548626774651 0.17137569044452 0.002472698622285288 0.0375301844188603 0.1827104859276618 0.05531138938970278 0.1470607814942661 0.01243501586442533 0.02120398579541554 0.1208236121886692 0.0750421226724145 0.04348510809397688 0.04029343252531511 0.1324687241189452 0.1180532184699214 0.00969495494026789 0.0365653157144778 0.1020270756271272 0.0592144947022915 0.1259342095209649 0.1151937456302131 0.1017647781457974 0.05564637317407309 0.07386689515811878 0.06927890157586247 0.02872951198730873 0.1162285793190647 0.1323543115116563 0.06452623085305413 0.0762565024763332 0.06293934271846362 0.04629477798501046 0.0988449735838325 0.07326882151142471 0.04682442636956443 0.1025872381700465 0.1188771837029452 0.1033962324350174 0.08490247611417268 0.001359860003716591 0.05058400284874903 0.07383293435680352 0.1027495218380462 0.08319943902264412 0.1219020177179579 0.05145475560596777 0.0583299118143687 0.08305139605427342 0.05633830509617244 0.03854574906256898 0.06398193977666138 0.09961360643445003 0.1223297138875809 0.05674078171356264 0.01054282512889556 0.1141960018328489 0.1229530348680228 0.09807086970110807 0.01766257526866999 0.1159732011751848 0.1085812330392727 0.06118232295027166 0.07326606105060347 0.07163116264123877 0.04247532595865817 0.1036214910141873 0.1276046440670264 0.02789448525866533 0.05937998926287615 0.0688260945106515 0.1166947111090501 0.05870740935337979 0.08013506978411865 0.06921721353387202 0.1025021470952754 0.0001597165418642441 0.0761599293011299 0.028619259286459 0.06354309461333188 0.1484847000312726 0.02857200217127928 0.09000744692704754 0.142619236610166 0.1181735628700739 0.1040461054447727 0.02789558557345567 0.1079417684030764 0.02211545984190183 0.02243408189764511 0.02488986946993457 0.03595620949350364 0.1462170384352438 0.05059141186842417 0.04572115067149704 0.05250821471686622 0.1891539510271176 0.09628835143413446 0.1675401817905674 0.03864231095008788 0.1547432132263694 0.03657882818550479 0.02125547079156712 0.1733119625152874 0.009339491323819235 0.03697133642707853 0.0522122192646745 0.05462089094028812 0.1243986086498324 0.1465767309615228 0.06926989197499643 0.001177507164320229 0.1195438485747389 0.01642410531363008 0.09597861773851675 0.1191763171631421 0.09375012241859178 0.01128208122427614 0.08651380747408614 0.1422951916006478 0.1091668758277232 0.0908842923518623 0.06126634570772584 0.0533822972212226 0.103972821931397 0.01590712402717829 0.1293398927061557 0.09449369916910401 0.04407758285081799 0.04206074490872649 0.01192855305138846 0.0367507880173183 0.1666704855603143 0.1294246456060396 0.08614711535245631 0.0138126345788011 0.1805194082403365 0.03451051711297457 0.03026393284556678 0.03003533906164424 0.1118631765675984 0.1070788521919316 0.06833509480649895 0.111557734384696 0.03198190778079854 0.1168336190141423 0.1048559477218604 0.03855820811215404 0.05182291153194903 0.02519103202924086 0.1011601361862735 0.1007260406112121 0.09584658334168678 0.09998551960052804 0.007902446889840993 0.0601619035315706 0.04848453205894138 0.1203553966346378 0.1595514556049792 0.03170927953197809 0.06719519194309463 0.1356079028266449 0.05012128000119894 0.09659152187263201 0.02648698616226674 0.04206273751154301 0.002456945336656797 0.1109358962758943 0.06509813884911891 0.1163515181506242 0.1106516526411899 0.1691722886664754 0.1016193427705987 0.1201694771743457 0.05395951535210969 0.01797166181549569 0.01176397405977301 0.07778685139617486 0.02511144767313001 0.1687681676671292 0.1462031301479463 0.02254849523745667 0.09818925806103107 0.02616195321270782 0.1185529997885889 0.05228798408097343 0.04091676160790062 0.0187086902355974 0.1031902581080622 0.1654181558625074 0.01394269831696897 0.03883741578203922 0.1190691643088994 0.02309509926343521 0.1334243983773361 0.08034508093121427 0.1195436186515465 0.1314782547872208 0.06577233161144354 0.05258571310478243 0.00242136684917744 0.1042184327444452 0.1241935944469116 0.005015529141548349 0.05850889951795739 0.07826255641517964 0.07899979465746435 0.06863978012611777 0.113100369688777 0.0905705064658493 0.052656803284471 0.05503189149906169 0.06640469612497872 0.09691593642234644 0.07387692367118114 0.07680198913805388 0.09022985298856195 0.06593045303581226 0.0933816829471954 0.01193689393572403 0.09737781924069841 0.03546518879785369 0.0802135232783842 0.1143344644870419 0.06896852342813974 0.03629526734847952 0.1245841627797549 0.1710965203372841 0.01590210830939865 0.08451339207423336 0.07489922374901817 0.1154392440539867 0.08099699308689899 0.06393470736798668 0.1032328611647101 0.1010061417654556 0.1711980677983642 6.557021285439359e-005 0.06939575633461417 0.1330326154970103 0.003708448060228946 0.03134677493163125 0.05174359597724063 0.07049517163206329 0.06771593025898606 0.1048504312879986 0.09960524050477722 0.07890085239785748 0.09629802492477098 0.08533994680016795 0.006474236955561999 0.01872994917490358 0.1215117667094688 0.07614418284659541 0.1036089895197165 0.07032527698713213 0.05292932286618139 0.05219123246188253 0.1123876759930991 0.111511577870424 0.09546447348332768 0.113298521255572 0.01521395974048977 0.01779794631746516 0.07041919622065819 0.1152965192838823 0.07566695928848784 0.09383375770321081 0.0739888575153191 0.07176210137661876 0.09015433393788014 0.06689198236087733 0.09339452760300478 0.02833284799074834 0.01623685634334188 0.1427172536381394 0.07204020527161885 0.0261994660898909 0.07722493523678033 0.1498404572553232 0.07743656886657548 0.08776846402920083 0.06214928630560495 0.08405997026223709 0.1132126027308383 0.150441320796518 0.007632146252856932 0.01627319801569255 0.05992771519629903 0.05733000141028558 0.1028672011942553 0.06739456686779667 0.1057047944009202 0.0826582559322826 0.09034894063441278 0.04788047629503144 0.1571597074193243 0.06611952295877763 0.07580210230421422 0.1014332165041706 0.1291702441785761 0.04392724240092948 0.1211173158416193 0.04265983632227194 0.04322877889140894 0.003835232705722907 0.09047363657246026 0.07719268760549294 0.06482437842388335 0.124711966051215 0.1006583250106337 0.1094321336156465 0.1028970531559 0.07473720611700582 0.002384416256004564 0.1198274378680065 0.01085703334526648 0.1124353975074895 0.004415544289898591 0.06655481911324289 0.1062642892458072 0.04336112501139305 0.06809344151204484 0.0989890660837404 0.09062125107932149 0.01893233654313311 0.03497221444790152 0.04157251368942298 0.1058942874917039 0.1284422996658767 0.08345268134214634 0.03258092501230268 0.1323995159324393 0.1206883421885735 0.02794428724494143 0.09533860727081688 0.1340296969954596 0.03927691565648792 0.08145141681134852 0.008020163952090502 0.1567427302413924 0.07792919710168705 0.06918701207277918 0.08651204426659627 0.05176138905148486 0.1171578542321054 0.05464868510281006 0.06921962459408099 0.07253925319950338 0.1326560731747817 0.1310996202228071 0.03161367052594125 0.03150243900577415 0.03242780298064618 0.02350222660814988 0.03244688104885132 0.1438745797495997 0.1153031958322953 0.09522224620870468 0.0885923868488645 0.1119868177071428 0.0259356287721007 0.01861478404827516 0.1451922525369477 0.08638511365917288 0.003328153463860312 0.1057221491420434 0.08533764448703404 0.1140050208857864 0.07142567376076434 0.03743827617060909 0.1046616012952525 0.08996688407101058 0.1417760782803276 0.07362832798907817 0.01128212115057183 0.08204494410097561 0.03868862454039634 0.1318887027600128 0.1041381987556686 0.1223498571600059 0.06035275018482225 0.02464622561855952 0.08973992691456478 0.09544232584333418 0.02402191670168255 0.04862671199925545 0.07396039482863791 0.03344313183776948 0.006517093617815696 0.09012561178761903 0.009865276976716639 0.1594965719060261 0.1330525620356651 0.09112601267375176 0.04239732855692407 0.1710728106611493 0.1137380916790121 0.02657840143965749 0.1152968627242335 0.068341339479961 0.06295264818822283 0.08340955577372271 0.0837081264723049 0.02132932011487216 0.1296482547506986 0.03296476714955135 0.1295084096770035 0.0330490882591104 0.1012916119097024 0.01840956885042907 0.1200904466501877 0.09445566105641698 0.07507855507142977 0.03042206067265681 0.1099807877191543 0.08314446272260143 0.1056326056072586 0.1816401206775307 0.06475873961156374 0.008233056351954626 0.1187622608438038 0.006129473987423352 0.02926227052868941 0.09249994514951662 0.03471685744617882 0.01067665439279155 0.06434348356155049 0.01706014293748113 0.07626321965713885 0.1350520345824648 0.08313422180877972 0.09746324672206626 0.06962062470764362 0.1400892306719951 0.1725098106001124 0.05392466693177608 0.04514580598002119</probabilities>
		</cpt>
		<cpt id="Actual_Departure">
			<state id="State_01_12PM_EDT" />
			<state id="State_01_52PM_EDT" />
			<state id="State_03_08PM_EDT" />
			<state id="State_03_14PM_EDT" />
			<state id="State_03_33PM_EDT" />
			<state id="State_03_42PM_EDT" />
			<state id="State_04_24PM_EDT" />
			<state id="State_04_35PM_EDT" />
			<state id="State_04_45PM_EDT" />
			<state id="State_05_19AM_EDT" />
			<state id="State_05_20PM_EDT" />
			<state id="State_07_29PM_EDT" />
			<state id="State_10_29PM_EDT" />
			<state id="State_11_25PM_EDT" />
			<state id="State_12_12AM_EDT" />
			<parents>Delay__min_ Duration</parents>
			<probabilities>0.03918123648317071 0.1087925136516734 0.09219837036429408 0.09025903688438765 0.07894687864097931 0.01033318568090859 0.07090292537841793 0.03718234573753521 0.009019203495992969 0.08642503787489445 0.02379312783591785 0.05069067817117518 0.08058098113152877 0.1055578096325601 0.1161366690365639 0.0670762809207818 0.1266611376529907 0.05890346419945146 0.08238230404152955 0.0279565621995049 0.1184610652304493 0.07565014581792372 0.06092038609645015 0.1179003765181598 0.07425621137947977 0.02807726601953707 0.01980710750814958 0.03142582360893661 0.05727201579282099 0.05324985301383439 0.03325395380624081 0.05511366380476094 0.009815321858596035 0.1185788959433303 0.07691021692526991 0.01660282868514829 0.02608007549108023 0.07682105427397652 0.0795665209106781 0.0723814972639914 0.09286661638886831 0.08924438368168487 0.06705031374088444 0.115781417760452 0.06993323946503791 0.08652902931448114 0.05994296794814494 0.08278316413828044 0.05440857762058123 0.03714839739922173 0.1177095927909799 0.1014440515566415 0.1084430249801032 0.02881715524125103 0.02390327363974671 0.01076308885594777 0.09432188890169783 0.05396600889710812 0.08567126725239944 0.05414851146341512 0.03455056087731737 0.01642159352705797 0.1027635860747239 0.09346970476529383 0.1072204544037632 0.1045332249703679 0.06207827702717957 0.09177543937838292 0.02318554663818692 0.07217177294867364 0.09077592111350481 0.07683509914910239 0.04185851409309008 0.06965167607747433 0.01270862895588125 0.02390410171389983 0.03898464129016603 0.1101072253806657 0.08191930093955208 0.01345231604601277 0.0172799394702187 0.1010685448723285 0.05922802176403592 0.07548058556710852 0.07269888249730584 0.1201399011197383 0.119446329820671 0.07447175458710165 0.007032145360669211 0.0847863095705259 0.0583933107079541 0.02564113621370195 0.02433881143458287 0.09778216677499187 0.003014321260249419 0.1092745361010537 0.08193865274070697 0.08827778328749612 0.09057625715347707 0.0009012777444772758 0.08020509459099919 0.1006067453526296 0.1263298159063884 0.09961922093354143 0.0131008697977501 0.04713975988120504 0.1034457213690821 0.02882217272573176 0.0117540731814617 0.0935090847134606 0.1342087977755468 0.04419630289949935 0.05636522572248151 0.06453381271504571 0.06998612229178358 0.03826494076042889 0.03687223124903404 0.0303630428233253 0.09296582923013781 0.1475728826617757 0.002384961955230546 0.002803763037937306 0.08059937047586628 0.04448549184856405 0.06342852608488853 0.1398795616254296 0.1321471711085002 0.009522214091135109 0.05217820647326964 0.08216436399534996 0.02135444678578694 0.1241458662129158 0.1033997831054708 0.0954998721556436 0.04600640104401149 0.03992101240825115 0.006346539071342236 0.06276760369493312 0.02117095307269248 0.01200003797479886 0.08312684533806325 0.1137392839849805 0.1097993980993999 0.1203326592808657 0.005325966221401444 0.006840211519658759 0.09188478444553566 0.1354228969078759 0.1285636979862626 0.06275810999393849 0.04437433369643161 0.1277532346451448 0.08915779245564845 0.002812734804351399 0.02197867042225522 0.06466142934139663 0.01188823018007967 0.04152225994395826 0.111769819945676 0.03984248685083508 0.1173166116578345 0.04546795645950818 0.09117588050410498 0.1079972148024258 0.08228134429034956 0.1013134248883733 0.05073991081138256 0.08727693593346507 0.05264422899156043 0.0768235233215125 0.1106242465926763 0.02810995496194675 0.1141037871897845 0.1101916150835717 0.1119702112868106 0.0001405127977579785 0.03432579741024507 0.09299358817910335 0.02561400394909516 0.003128258602714966 0.01722406174688626 0.08208353860883874 0.06042170308166718 0.06610449773347944 0.03745756044651272 0.03837795931152778 0.08703306943482274 0.08494021226454872 0.07920013137619825 0.06252219841651406 0.1112689665181365 0.09007687812956579 0.1032985414924498 0.05379941415269438 0.02619126728615791 0.08506732859437631 0.13760203751683 0.1564749364521407 0.04500843161934286 0.01664436474341187 0.08239109780174274 0.08765402006683609 0.09046953424646349 0.02233508598265062 0.01000353182875925 0.0100880967422371 0.144347332971729 0.0001442577936515946 0.03422391794220748 0.07754602569762094 0.09728229968112104 0.04250365262949711 0.0513923176023851 0.04374158815605566 0.1134582304720671 0.1011400522523014 0.01023815864288212 0.04504789802877086 0.1012588076952451 0.1075204583242048 0.01103346024574482 0.07705428923072134 0.0911753909933412 0.02020641855172211 0.08694697749394059 0.02151725157237538 0.1109774522526479 0.0872021414610793 0.05026850376891955 0.02176358530530331 0.1013252754832531 0.008658630712863425 0.06951127387386021 0.07746785344771739 0.1249363637856522 0.05957991887403891 0.02576240290349744 0.07322680767910628 0.1040103131722526 0.06379222570743304 0.1222560786019948 0.1250077731483057 0.03097988309186403 0.08777050556561061 0.06711336359678224 0.04850055966670019 0.06818217150671176 0.1235192152229993 0.04238309184745329 0.08433477395683374 0.08497605870289925 0.05471519184147335 0.004831011753003023 0.04361124930036179 0.01181907219700699 0.02795292788714764 0.04441581248810987 0.1169345764703014 0.0009530911481657743 0.0158495527972712 0.11542551548544 0.1412472256665759 0.07138034955509147 0.1338387069726982 0.1102232263015864 0.01673204460117347 0.02626736854181891 0.1382820532056741 0.02333749575296691 0.0171600531259789 0.06184062696946757 0.0874105992928929 0.0797276189956059 0.0004350149343700826 0.0627688871839234 0.1103328035512766 0.08398871016354351 0.1037253719891292 0.08271106787609671 0.05741854602257229 0.03894582522686291 0.05249979448115804 0.04595401857881671 0.06927013399831336 0.06297098073597086 0.06285534936099857 0.02395812288956916 0.1148445842594297 0.0269055383994248 0.06482871078517562 0.0576820398856476 0.1129145141275074 0.02611186470032641 0.04102571502779265 0.1090760195096497 0.07812996046064318 0.06712675690496232 0.05096467430507229 0.08783081762822644 0.07574533175557421 0.03700311848893694 0.1063316220226505 0.1075810602861389 0.1035842196285163 0.07466329851708661 0.01873816948781761 0.01641972954933399 0.04117699127084554 0.1080066182782643 0.07202143450472809 0.09844688355400921 0.08764792395799466 0.05248321599279113 0.002839322920210011 0.07305639154067611 0.002676130990115396 0.0492096319929435 0.1008979328838558 0.04065640556636409 0.05923343137161624 0.03788154353007833 0.07786761725614312 0.04834183806022641 0.06644079774711573 0.04690244333362895 0.1055850593944224 0.04197628376336823 0.1534488313358162 0.04936032674771557 0.11952172602659 0.05170829014534174 0.09858115111574477 0.09520270666702514 0.09969100189678104 0.08650969041519416 0.09510003324650505 0.01223280464672359 0.0008507226253113777 0.1061594273759462 0.02097960221388313 0.09392173351859325 0.09552539455902552 0.01104472649758031 0.1203870299023693 0.01210568517397548 0.06924662880019125 0.03760314359572666 0.04771335892844802 0.0560866564106151 0.04473127399549907 0.01749549980374964 0.1213406298922231 0.006938648452322282 0.07687553291806819 0.1020856548633562 0.1147538764850168 0.01881285048522998 0.08133738162995992 0.06692321920796285 0.1380556445316311 0.05846627531255901 0.002650380921774843 0.1686149785996103 0.02878200898882802 0.0687632871489535 0.01971432277125161 0.1082144891251948 0.01856394466900213 0.03737601010522934 0.1762164966478977 0.007827082381752275 0.1308667873433604 0.09856597474781684 0.04312790061632271 0.0322500606204466 0.003290083219755415 0.0763472252531823 0.1127893234945159 0.04587998402325293 0.05289663209130602 0.07028177771564723 0.1140987683809493 0.07284713672168032 0.07350597691579087 0.06575636913167551 0.0846650827047022 0.03849685609703926 0.08516744835303698 0.06380455505643894 0.04017278084102685 0.04346245005178104 0.0984846540201048 0.00934363529019234 0.05058141027290444 0.1100315732734281 0.09728247383843666 0.08687356144795935 0.1112209187905795 0.02670465727165517 0.06052827476456096 0.04893429507760538 0.05004663261198633 0.07070188498434206 0.09768890486111427 0.03811467344334958 0.04824440095362796 0.09850540386291251 0.1005220058187008 0.04314687934343119 0.008430516509183124 0.0373001340900096 0.02680049994913097 0.1070864653099729 0.09312779864807441 0.1127896677160971 0.03792682115613714 0.04145237353346786 0.06616975167078153 0.1063302395765918 0.07216704186188092 0.06206901389679972 0.04935426619258641 0.04236027807588885 0.09275276918432675 0.1138995868147124 0.07355613078824146 0.05676564878533857 0.09401547516296543 0.09453809513788819 0.0546576313039614 0.02584688988508469 0.02601875819881749 0.09768784505200798 0.05351067337308295 0.06296693814829779 0.1162919986290479 0.1088975647273515 0.05854519006499274 0.07696648469683472 0.03217352048617029 0.13319595040855 0.00451858849494005 0.1238661728684797 0.001881003536290045 0.05044433483539455 0.02703211082041606 0.09712248259023322 0.08838626616581564 0.07091801332607224 0.009760318349411224 0.08639806669476538 0.06868192310768927 0.0100506724311928 0.1050571156177164 0.1098135492004786 0.05760802377527007 0.06535730873867014 0.07516003198905677 0.1000981319996286 0.03115778298511626 0.1141509137451199 0.04035984061399986 0.03895595933639458 0.08920233700832296 0.007948342756578375 0.05789247555915131 0.1266354837136225 0.009727784172892655 0.08335089738815932 0.1235388057523245 0.06725141458215002 0.09093451579956074 0.1131787156081933 0.06274826115848664 0.007093175959387038 0.007287731642855965 0.0143282154379438 0.05379059323278749 0.1009298140371667 0.08131211595531819 0.1218791254216162 0.1049529507458314 0.02781617676472927 0.07736346382086208 0.05921049707300136 0.02081101623718872 0.02850513608053259 0.1025615951851486 0.04661365384009519 0.01783737893208171 0.006382874693853094 0.1394542553240039 0.1008947581310609 0.004444898811890391 0.1412722189381045 0.006386836249780811 0.06051241198062442 0.04961129577228106 0.1174491113368051 0.06513657299320891 0.1238130557004695 0.001634480674673739 0.1042771200175377 0.06991182045442246 0.08158210403912336 0.008424214121559408 0.004418134036580672 0.1253925958484645 0.1449239531539473 0.036526293620521 0.09939253267394942 0.001122597088840414 0.02380854501934146 0.004208948521802518 0.09710306706158818 0.05852367414956725 0.03291264929749724 0.09214466639908497 0.1005783746690827 0.1013183400739521 0.08101672511561206 0.06780802641111063 0.0413305463410573 0.09641053533640887 0.1023207718411051 0.0718830400491535 0.04520323559993038 0.08599352374693473 0.03844064627781265 0.01641380646193347 0.05231532362322951 0.02107940357835632 0.1345948973192623 0.0218415633961069 0.1259079597278433 0.06562996088147893 0.08377862836484308 0.04893823978977223 0.05116155682710139 0.1368182143562411 0.03409790027569733 0.1100382886634327 0.1081021417043512 0.03284573794331011 0.07581734353385204 0.05377060096567982 0.1158684433378802 1.809483139233619e-005 0.02062810778733288 0.04136478456298057 0.1137839187612446 0.06512329818119043 0.06310029603133867 0.09205202625928197 0.07338901716103505 0.05720256651597498 0.06966381402271404 0.03427490738256744 0.0578329691967981 0.1111235848323291 0.02171434986483455 0.09563554089412785 0.05186141503807503 0.08576930716157809 0.02779384968782876 0.03778098256470752 0.1024836138477243 0.0377118973393617 0.08961649064321479 0.1195347110081637 0.1491457306830772 0.05210865229952522 0.1577620021413192 0.01324916653559365 0.0005175852112707085 0.08358493725533162 0.006551004977956405 0.04779544220555122 0.09573296662605713 0.04864286112973035 0.1429144106886884 0.01987121262093344 0.1028472260986286 0.04978459321349465 0.02949220831284221 0.1189322979474791 0.08602822269751813 0.09697252458320987 0.04525595353424258 0.002439535499790416 0.1282634223873483 0.05820091176169565 0.06704175678189808 0.1014641166866471 0.08428456766456666 0.04249220099866297 0.01786356788990776 0.08268325181773897 0.06186219194433651 0.006215477804957959 0.03371958090159859 0.125330048266751 0.09766485595626134 0.1031642589262087 0.04920872504651648 0.1000613847734606 0.05525050032778337 0.06010242007374041 0.05993424261284126 0.1070869982004178 0.03847900304402205 0.00737878609509077 0.1087813861185985 0.02830426666214257 0.02553354299456663 0.1043458013869898 0.04845576862295773 0.05664676434892495 0.1056887920570564 0.06656327440221367 0.03151662314769672 0.01109734395528851 0.08572272024208831 0.0260407138223869 0.1214387878989743 0.0174796680360068 0.05694613068990306 0.001051940060207475 0.1336213348412023 0.133384336488103 0.04546253062730757 0.103823216679713 0.0143590217743162 0.1270306504548683 0.02857473071055348 0.06082936526285551 0.06838333872671304 0.04569368036626796 0.008150339790107318 0.07304794045574618 0.1306735703388854 0.00965743608712487 0.1386251213536613 0.007729647265497029 0.137959410106383 0.002862419205903397 0.114081255771015 0.02389453165076876 0.1237406381448417 0.08607263773460011 0.08013747819848546 0.05151328613939936 0.05762285831543888 0.01127013440032502 0.11186005950527 0.04098184056636602 0.1390273930444739 0.05133374371591534 0.02299681953422348 0.08260490407297363 0.04976080212057231 0.04588360773631064 0.01157252194819922 0.0797430490171659 0.09885108585738701 0.09414356041795347 0.1137796739131896 0.06052383814423547 0.07986117142669222 0.07352077738455236 0.07867994733124904 0.07984032629591756 0.04437928410867634 0.02208889058739971 0.06737146371049885 0.0330741742321707 0.1108750241454307 0.05869712188517742 0.1421914236047056 0.04400231794477389 0.003051960594939685 0.05625845084016207 0.09036121305741665 0.0063791771295887 0.06635116863038852 0.002984353872900149 0.03467741935480281 0.07851072049443823 0.1436739424375358 0.1289115317755689 0.07807581448539994 0.1096444830849615 0.1053145517382766 0.06034922116916807 0.08038853745971206 0.03806570702949157 0.03949616901733515 0.1370716644326244 0.01206470484944311 0.07793876423492058 0.01525112316961024 0.0007152309939140748 0.1156489971773206 0.1137688390562082 0.01620619210161388 0.01797075012077092 0.1034627558462122 0.08993502535325812 0.02493780224052898 0.07250610689454458 0.06309178176825998 0.1005775022462751 0.1385960238586926 0.0001625494985802091 0.0212714079947195 0.1012773681428028 0.1076709817537351 0.05715872507011677 0.02838746382146048 0.07299375539004259 0.1305841009531952 0.01093126031624767 0.1233640381237035 0.006229700228941672 0.1213247430917244 0.1720355678610081 0.03235716947975335 0.04047175336770683 0.01421117086416738 0.05162131941856809 0.1175975720140924 0.007885629093242273 0.03582876311163842 0.005606730206045083 0.1299504818699655 0.02985793282831322 0.02761424444284574 0.1147855093473068 0.147805454346743 0.07873757780917096 0.1389994738253212 0.0005708499210734924 0.1016112859513153 0.08289237245230113 0.04089767391066889 0.06668023469373015 0.09131613172230227 0.06338419688859934 0.01075679807799606 0.004090263782312272 0.04050825520393597 0.06639419932178267 0.1511497905461079 0.05503778512814857 0.1369264384562521 0.08656482387825427 0.08784056485158141 0.06130979165992118 0.0293049299270991 0.01110590505700161 0.007130232277639808 0.1062205129871865 0.04114380616153105 0.1109569912923512 0.008405973251206723 0.08602894250604674 0.0576845326996375 0.09300561675763615 0.07817684265394523 0.07801645933763768 0.01887845283560327 0.02524366569427454 0.09090392705246703 0.1036544006842791 0.06976674251471025 0.06418005700290114 0.08294824630875247 0.04921428881681068 0.05164008647327412 0.05065773866202394 0.08705360248182613 0.02248507950642371 0.1033826741421643 0.0209825962354663 0.03676562652159807 0.1062067862161783 0.0832452247462894 0.09726144600136727 0.02678037311666567 0.0479090441146107 0.07171227445350305 0.1072780011407151 0.1125575604120874 0.0006747262837199728 0.07570498462738483 0.05971667379155758 0.03060645370519219 0.08827778351059072 0.003010893760038902 0.05968350605133013 0.1136179371141207 0.09832023821788255 0.08744490469789769 0.04786104927979838 0.0843418783258526 0.09194097616350523 0.0469765762046089 0.04641272461930689 0.03389374530128712 0.1078946592570305 0.1170032173775269 0.05339779938507582 0.0992365394529547 0.08314965248783614 0.05229571431092873 0.03630214906588127 0.06428977727219799 0.1306815151887631 0.01024761363034426 0.0749684483709311 0.005123806815172131 0.02650781236110161 0.04520770748529831 0.09314396430664561 0.1084442824893422 0.1153159466098684 0.1129006407270914 0.04644245571005405 0.1131056435409583 0.09029442131404916 0.1068735579917072 0.05617077107143572 0.009061124384517467 0.07192989649219714 0.009609040996839919 0.08387596957023191 0.07244053986564983 0.0360655859912331 0.07162052860913203 0.004293877125034492 0.09387173316289363 0.05845306624831165 0.1063152151387825 0.09993697896591443 0.02923499232328181 0.0305926937896857 0.08996781274736027 0.1112215506558648 0.01254922196514203 0.04020657364363619 0.0105443917624421 0.04672438660223418 0.1217067280240622 0.03316851993625623 0.1155061350341323 0.09121931953823748 0.02768619063043176 0.02130935845602294 0.05843432572891856 0.08501555379048249 0.1062361602325015 0.01281579075826139 0.07188913098458585 0.1082907693471357 0.05367721780186105 0.07582528278594845 0.004690543916721333 0.1400773030038457 0.02611084238975273 0.1167222106352928 0.1096368617311774 0.0498574235431607 0.1277681067433013 0.09489851636496603 0.1305916339588034 0.04610049890084456 0.04208688996648356 0.09591125257238278 0.08945680936777216 0.1024777034687624 0.006188424938512019 0.007289833901938016 0.02819326927121152 0.0397580633870808 0.02978471188360329 0.1069146535546978 0.1121226157390882 0.003848072400776636 0.04443098410904129 0.02965034798919979 0.1418026556449988 0.08980023278465464 0.1665182070829485 0.08978241763476345 0.01585548350321283 0.0006354070167959151 0.02180574360439502 0.0005047625834356418 0.128856979975713 0.04747143637627837 0.09090176826433234 0.1311339192217889 0.00685939096409953 0.09731601951829159 0.09367859217156047 0.1364586380422909 0.1162323374922397 0.005515492981619126 0.04566709484871175 0.09408981647523532 0.1049893802382526 0.04651074058542822 0.01295992470778421 0.00196709357684004 0.01571979091152531 0.04354633628612742 0.108715221952691 0.05463257778752508 0.08015370119338344 0.0675822886346491 0.09105079355075933 0.04673735240215059 0.0939335666171537 0.0597711295356107 0.002465944397159605 0.1089464042400226 0.07071025503600176 0.06270644403111049 0.07123216656339995 0.03781581777225539 0.04158537200314628 0.08931099621032015 0.09472202073660012 0.09986928205957052 0.08056026407385108 0.03286179196058982 0.01835093694117444 0.1151132436281174 0.09779020740304079 0.003052671184258983 0.04538278634793975 0.08443525583103281 0.06760483617584558 0.1189029002313431 0.01045743521316926 0.1021000212190246 0.09362898519988985 0.1029388361359437 0.06831534136113442 0.08568842501719171 0.01525781125666631 0.08282054002434086 0.09248846215071015 0.02855617739110835 0.09401689565526057 0.04657246299930182 0.05204631054045844 0.005195347726903395 0.09333390801573827 0.03704047530632776 0.02868075016166731 0.08305310052458099 0.07853704102890868 0.07885320112104295 0.08373571890506897 0.09428756197466753 0.03549974850910115 0.08902062226028856 0.02675145505493996 0.08188905654971357 0.116213982898594 0.05871236617080043 0.1032478263990223 0.03387224258116575 0.007645325860437817 0.03671078106795796 0.1197291113141566 0.06605845228013474 0.09760625591933994 0.05119393853039647 0.03629589895304772 0.09113158049138381 0.08575068518412043 0.0857716388265851 0.05489435173625061 0.1342122687764303 0.04744742731186682 0.001077017207130301 0.001504471507233067 0.09061612089396608 0.04362523721672255 0.001282762315456289 0.04466276556014781 0.02969594760282682 0.07455867317072364 0.07812399784199078 0.04237265754385501 0.1073898427860129 0.08222883725153286 0.07488313658016547 0.1157013880245891 0.06963512957800123 0.01315963222447368 0.1068729650297997 0.1158070272737023 0.09576586291284847 0.04218924082632597 0.1146210395850754 0.05247144205856162 0.02942821475392685 0.03253345742361493 0.03225156940053067 0.06005557221033558 0.1001463133072987 0.09581508145661101 0.1343174059142724 0.06849431525846821 0.1048354982034833 0.002335643621950293 0.03473934306669641 0.1261440097931687 0.0127707265832546 0.05702576063989534 0.1130507065668121 0.05215816180936864 0.1286749957611305 0.04574384933192467 0.03142227350372229 0.1302506585937869 0.03717902590127506 0.01603371339480761 0.118691662220925 0.04262147285188143 0.08484179269888792 0.003391190349159468 0.1086251985824531 0.01850666014909018 0.04367591347902021 0.1464792863250074 0.09393620921446802 0.07485274349251363 0.09093975314664272 0.03813760234637379 0.03362580960533837 0.02431870951969178 0.133818892826795 0.0820237076866313 0.005377001099831897 0.01815471098618306 0.08752780153995962 0.1295519266421908 0.03554251489754969 0.01185758794884022 0.009338282637500082 0.02374542484647207 0.1059491039830498 0.1072109172778959 0.1069905320786751 0.05013979335644686 0.03804885637359901 0.05937436531220811 0.1004870080766463 0.118407349630225 0.04125956623007326 0.06209677070862785 0.1279089767621897 0.1298869949607547 0.09199934639396566 0.0738445793702118 0.009077383511937705 0.06206677101421316 0.06274187722527778 0.02231290527873893 0.1349008410878815 0.1245205455889306 0.03099038511159756 0.01541564182392337 0.07265776845134475 0.03745764461031796 0.004218338808714757 0.05612822926800767 0.05861350907132072 0.04732802502042574 0.04461137085326415 0.1105690213662136 0.09102586605852703 0.06267452807615007 0.04502624902246347 0.1244315371238571 0.06362396080990999 0.05459637141162944 0.09120538065057617 0.01323222007698813 0.03561968437352012 0.1013140468171465 0.03405033876722544 0.06048397866780556 0.04933715577966027 0.03749143065733263 0.09600334760834327 0.1172953819031477 0.05147837854688719 0.02076674471818674 0.113556032372116 0.0613520419519718 0.09498838130698574 0.08231020575311937 0.04133761874655693 0.06301694281468821 0.07653202040597325 0.08331358339521279 0.06721432410154508 0.05879918151829568 0.03324331812311148 0.1048070792675535 0.1044933056053529 0.0136324642247938 0.05611875331720598 0.002560259564250877 0.09529039084841319 0.05187613283978972 0.09598803654473789 0.06282483084591403 0.06896678338612318 0.1008715564176999 0.05240626327101807 0.07546543008601794 0.08297258791460191 0.04273805772842783 0.08457881830735881 0.08664739646813487 0.080736194637957 0.01445264873903533 0.09750058221578666 0.008753784402114457 0.07433524665419089 0.03083003411103761 0.09391139361878682 0.1084599367101722 0.06621162513535941 0.1096943896160755 0.009555551838319512 0.08602923957047128 0.02092184938613718 0.08105282526496876 0.1236492589745153 0.08021645311270476 0.0954886086111337 0.04916613696424285 0.0616489913352946 0.03397761868114666 0.03192014318688655 0.1179326553141961 0.07797079388444164 0.02077548425946547 0.05092500220394766 0.04998770375796268 0.03094476899305929 0.007168941084762553 0.07643622426469988 0.07696519467515126 0.1363073225283161 0.07446418545499545 0.002839735886003983 0.03078236579696791 0.113895681467076 0.01314537870108442 0.1261548027265575 0.1174917522376033 0.09249094022181215 0.006835340820149484 0.05686946392767422 0.0500055383053325 0.08949901561071219 0.03203999013822907 0.07800435203614546 0.09085322061413674 0.1099693070684064 0.047650865226295 0.03815356470343694 0.0606891081185956 0.09916067874611469 0.04483168911177739 0.1159792617262636 0.07945860384673076 0.01265560462488139 0.08875001786501863 0.02751575697802631 0.03497263073647465 0.09352356043396204 0.02332818819761925 0.1022631451070828 0.116058540210784 0.04863582443652938 0.08358701710757195 0.1046749274679369 0.03052423215991992 0.06286712687025006 0.0922730066173075 0.07837042118663527 0.1266999883758068 0.1226316401257328 0.0113332558409784 0.06002169785716187 0.007001433608418326 0.07979387035537171 0.112976093610691 0.1057770545160823 0.03898252547557878 0.00208066953387864 0.110147622922325 0.09632298810516242 0.01326668991433836 0.05720097640351304 0.05576349335496054 0.04833063036935942 0.07056165821748112 0.1269399043273228 0.03795043158924492 0.1219601867700142 0.04565490026272126 0.1306042247939584 0.02811354899849694 0.1147949492016562 0.009060716605471988 0.1158284754876221 0.003999297365532704 0.1124296854893699 0.009420204009088025 0.02435118651265995 0.08401017454629006 0.03255416191561488 0.009310586790619638 0.1172748004561447 0.08473379528101815 0.03011139373735725 0.1378650995527573 0.01263924217176726 0.06442417331808681 0.141921761248661 0.06208665906493718 0.0922375230247787 0.09958336987965331 0.009735988071179464 0.02151127094113449 0.05692403403173166 0.02879829841610111 0.0299878938695392 0.004997982311595344 0.06186737061559394 0.1238566432388398 0.01373709520129729 0.0683323805361945 0.1189133066550984 0.129754178296486 0.01618354238829746 0.1375180751251267 0.09743753572990925 0.04187123785192042 0.06982042573226889 0.1148152755315645 0.00489658369990853 0.08137224967681538 0.02502195735187366 0.01470482910962664 0.1200096499263462 0.04585599746678277 0.06308639322704533 0.1167980338274329 0.1204431427095661 0.08674379068713427 0.01483676169583517 0.05305197766947722 0.02840320106148563 0.1099601563591057 0.07328880616731623 0.03310760319151521 0.04471127737886921 0.04046433262635496 0.01370161848049741 0.131929134040901 0.1333215749434245 0.008744528867598198 0.1055191715905987 0.05100511025813451 0.1516507386897896 0.005936439714278486 0.1478029603295133 0.01179861591378323 0.04701808780742562 0.07797914571910827 0.08002143182688819 0.07610734005270391 0.09942488944859373 0.1111254144586495 0.1088987311385799 0.03850074628682308 0.01726723331117123 0.06009609530216733 0.03960017117640773 0.04002115349153398 0.06024917978015788 0.02121611701218437 0.1000302689763032 0.06946208201872753 0.01301636758184392 0.09614531869890164 0.049636428563026 0.05187318753846905 0.007428394281740532 0.1240655645065436 0.02108047230933993 0.09170711799481571 0.05177900821333534 0.06326888589800675 0.09544682203613346 0.1236496058205654 0.04098370305262144 0.1190858326827991 0.05083329082185807 0.07273680728108574 0.1088887637524908 0.06906600406845143 0.04475001231817389 0.07439447584617175 0.09774261440017278 0.03204121998778527 0.05746936304685308 0.1071466279993713 0.113122681551563 0.04976877107282987 0.09762999148290885 0.005089148078012323 0.04530256850631492 0.02485095060781485 0.1147355249969146 0.06372674132689261 0.09842566251031484 0.1703322356342237 0.06557560741823 0.06795361026898164 0.01548814422400166 0.09004662628616758 0.05739577562099277 0.06068264867180043 0.02158877981060375 0.04441013701523854 0.09190794265378906 0.001817740399282957 0.03591282316256602 0.1072202282794706 0.002546318750602273 0.00191175995085756 0.1049527920586855 0.1004947133574609 0.09068128172787068 0.09984398745427008 0.07156772399530988 0.01254567206649423 0.06649933714869313 0.01755747405175789 0.1313011284638021 0.09801306301922526 0.03864746014807564 0.05621705952742438 0.07789530263193019 0.1116387998387648 0.01692357898371024 0.1146372833197352 0.06375904632090407 0.0003685715931120809 0.1240128232202693 0.02066688422628157 0.01586777494094004 0.07712744514630926 0.118334517113495 0.04723091394229686 0.1221085366558877 0.06676136908991601 0.02266715297644775 0.08075020135771925 0.04062823610618168 0.08507651593598239 0.01643846124343688 0.07750930080913357 0.1181528784567974 0.01951060484025835 0.1090284969124055 0.05241821040923489 0.1170482875003928 0.0921528017489076 0.03681969853884443 0.02752656004305499 0.07800790089378455 0.04893184520386581 0.01976861290567276 0.06808970548507976 0.1070226720051267 0.01287121416816056 0.03364692589238804 0.1302792856968529 0.03436417675807984 0.06174743926700203 0.03744442533950696 0.09426936208884662 0.06312298887279549 0.02869003463430335 0.04768735722530325 0.1180565449142673 0.1429392547466145 0.00115772153616197 0.06239398154448692 0.0776776021169459 0.1279473130680949 0.04127510517037334 0.09361429637669741 0.1190544850044608 0.05275478355265371 0.00846027276428675 0.05119419188497942 0.08185048853315269 0.0566138553398283 0.03925227303573049 0.1186092074910427 0.06814442258110492 0.03195754879090879 0.08971392174161066 0.14046382894882 0.07535272903907969 0.05905318773564459 0.06795676062076199 0.008669871280808034 0.0662796079313914 0.0822950414018543 0.0585949492959955 0.01081900956345106 0.122688759869448 0.06967973715465603 0.09259624152808799 0.0238788050974821 0.02552210871728857 0.08847197143963045 0.06879550157878349 0.1257719293906046 0.1332047127886156 0.07228721957034352 0.02970227641871082 0.03346195387783578 0.02498618978123136 0.001310940166713558 0.004015269567219786 0.1047515397363619 0.1020307205224019 0.1029046806335199 0.08278298581073883 0.1139358186626559 0.03875896924464615 0.002493217602966908 0.1196026064692272 0.06674216749344419 0.09062212117864357 0.01028980485289577 0.06175573228754839 0.08427498077269206 0.03788845597985418 0.05017283491531666 0.09935683437438972 0.09281953330326433 0.08445246405961747 0.04683445880283777 0.02235176284934245 0.1175881424691146 0.06977900433051761 0.1150950058005841 0.02047470475058314 0.05391588185693884 0.08061622268163156 0.01644677585548589 0.0917056369387526 0.01286919679205484 0.009803215137510687 0.0749958567815576 0.1058898552397529 0.09834919765678415 0.1101195408593892 0.02664944281104501 0.05165898443581134 0.06815026695580843 0.1308523711461445 0.02648587210443441 0.1331171963140032 0.09219935494404391 0.05572308737592983 0.0527704264163622 0.03876625746029587 0.06128029727911767 0.1103976445823491 0.05695196473577038 0.04690285158264967 0.04809398185623456 0.03351128034742901 0.05671075936502198 0.127557729080911 0.1264792623285684 0.1114305031876249 0.06219020005568643 0.05735369146721599 0.001696511160055308 0.1277112031954573 0.01528934018571398 0.01092154983968477 0.02309163234232047 0.008689953252598987 0.1314899847773892 0.1058763994143224 0.04696469458830392 0.07115243661156231 0.03289571833498627 0.0004799927352442042 0.08758894459987446 0.09594016955411744 0.08499114607995757 0.1034968119403082 0.06023260188496148 0.0861651823648389 0.04298853855178764 0.1024492602276469 0.08608734570480134 0.05940234418084925 0.03916481264075998 0.05633186470013153 0.06405959402068763 0.05874201451398985 0.05539697852752955 0.07469806823340772 0.0806123835950025 0.08544925921891325 0.06721234845388938 0.1039845379109102 0.08052287321655124 0.06276998153427907 0.02607404165878765 0.002638898558219323 0.1085230456072015 0.07298411025049956 0.09469484590550378 0.01116728218007898 0.1000375331888283 0.006820846211225753 0.01830785555745712 0.1082299626055965 0.0630742925457691 0.08485280966036052 0.1226918247154428 0.03378913761703023 0.05931633991175685 0.06948273704997106 0.09481532280840566 0.04194449721753276 0.09077471282504067 0.01085891654927294 0.08596422363038192 0.08513628072184069 0.002655354745502586 0.09051955891426836 0.08986644060430173 0.004479468005445111 0.09364990879411816 0.04691236669619139 0.09516725436322236 0.08245783593545428 0.1018237834023216 0.1027176978568671 0.07712733498061715 0.0306635748001946 0.1162355726033241 0.06824936070226872 0.01806880226695848 0.06505719123654556 0.09865056327324946 0.09476726104109487 0.00641457599004715 0.07022772824660263 0.07550193517169988 0.05358870689052269 0.01314448130488305 0.04796893358210441 0.07355812426565155 0.0657180869445113 0.1328486764805363 0.1313754453039744 0.06065841055343176 0.003148431151073923 0.02872943425358855 0.1621595375479177 0.0746679069577702 0.00216199087160532 0.0005008867740353081 0.06464506038757223 0.06626527576878732 0.1232590351284982 0.09566937384080818 0.01738792658433696 0.01175550592119139 0.1576157789554085 0.01718906368834918 0.04130339057696299 0.06788759457205276 0.01333013089948564 0.1192826548176156 0.1177134622316598 0.121428285496796 0.08987630599244707 0.1191225331249374 0.0172050758576256 0.01291381449900308 0.1116968896361804 0.05715543813300483 0.02996677474883499 0.06392858572504476 0.05524445099408665 0.07449316856470316 0.09605762685713674 0.03591503336776226 0.1076573826514473 0.1012048869145612 0.0185189083738871 0.09209279804641461 0.05456376356991759 0.006010399781070162 0.1021452179955959 0.00897524964388652 0.0802053290104205 0.1064188122355776 0.0604969719935327 0.08433255490038667 0.1104362365738831 0.05680116450758505 0.04064955510647204 0.07153553738062729 0.01923741504435743 0.0348793778121769 0.07187064749555328 0.09959402805835062 0.08750911953312092 0.1075005323364167 0.02009962544466324 0.07856586833653705 0.05701060832963508 0.05997772914023467 0.01202046396923109 0.1516536374374731 0.1059768156593534 0.07090379392953704 0.08599291197364134 0.04840189955330902 0.07814242884921131 0.03250325926835668 0.1153992780190685 0.02988643156014089 0.02485986322837199 0.06370751773192729 0.07669752578013483 0.04907022605438336 0.05478394698585996 0.01158207456376603 0.1175488514163002 0.09750198753109128 0.132993012260087 0.03024394326132281 0.05812795514459182 0.04639943093859138 0.04811916816591464 0.07634210636437903 0.02400937277713231 0.02931921837729374 0.01554458345539919 0.1065734967987363 0.1328423783419357 0.07285242060345878 0.08276317925666357 0.09050664471081997 0.03376568406896805 0.08108750608808887 0.07566041236641057 0.04632163647739664 0.08171370920990544 0.08438956791994699 0.03938121854494954 0.03407008836424472 0.03734605839911201 0.08400109005700825 0.05155449126799116 0.08792065774497594 0.0895180555235183 0.02607904761048848 0.1145686060853439 0.01400758237502691 0.03038803389554262 0.1351184633534756 0.06379280845074954 0.01766369195030058 0.04731780237202124 0.07471160859832543 0.05170783542111301 0.1200437652526344 0.05041558979525659 0.1170315271910156 0.06873215845522475 0.06842147919348149 0.1139360476970991 0.0940384286887648 0.09989034543953372 0.03992197444330967 0.1462868982086585 0.01810677819470239 0.009339923627532705 0.04536062023687891 0.0783451528827965 0.0386105279398594 0.06790868364931227 0.07686288771692142 0.007273568842668415 0.05211622281353909 0.1120019396184232 0.102040740299067 0.08966144125860999 0.04527403588239979 0.007368719079683889 0.1111305656553196 0.1174263873162477 0.05269118435950658 0.04415643440423884 0.05088812064134494 0.07652962389000639 0.07756899326456858 0.1096627823808575 0.01591837038804032 0.02604383978065124 0.0736387613994577 0.01415710759400449 0.07116306083919613 0.0101108368423543 0.03178452156243677 0.02520691157252801 0.1167271671261478 0.07496732975172638 0.1398625429555922 0.03611151444748201 0.1073181356181227 0.1190600648561431 0.01975219011662311 0.0219737670006934 0.06660858622521865 0.145196263491731</probabilities>
		</cpt>
	</nodes>
	<extensions>
		<genie version="1.0" app="GeNIe 2.0.3717.0" name="CaseFile_Genie_WxFLT_Import_Test" faultnameformat="nodestate">
			<node id="Date">
				<name>Date</name>
				<interior color="e5f6f7" />
				<outline color="000080" />
				<font color="000000" name="Arial" size="8" />
				<position>587 288 659 336</position>
			</node>
			<node id="Temp_Max">
				<name>Temp Max</name>
				<interior color="e5f6f7" />
				<outline color="000080" />
				<font color="000000" name="Arial" size="8" />
				<position>104 12 176 60</position>
			</node>
			<node id="Temp_Ave">
				<name>Temp Ave</name>
				<interior color="e5f6f7" />
				<outline color="000080" />
				<font color="000000" name="Arial" size="8" />
				<position>1059 380 1131 428</position>
			</node>
			<node id="Temp_Min">
				<name>Temp Min</name>
				<interior color="e5f6f7" />
				<outline color="000080" />
				<font color="000000" name="Arial" size="8" />
				<position>983 476 1055 524</position>
			</node>
			<node id="DP_Max">
				<name>DP Max</name>
				<interior color="e5f6f7" />
				<outline color="000080" />
				<font color="000000" name="Arial" size="8" />
				<position>911 537 983 585</position>
			</node>
			<node id="DP_Ave">
				<name>DP Ave</name>
				<interior color="e5f6f7" />
				<outline color="000080" />
				<font color="000000" name="Arial" size="8" />
				<position>833 576 905 624</position>
			</node>
			<node id="DP_Min">
				<name>DP Min</name>
				<interior color="e5f6f7" />
				<outline color="000080" />
				<font color="000000" name="Arial" size="8" />
				<position>751 629 823 677</position>
			</node>
			<node id="Humid_Max">
				<name>Humid Max</name>
				<interior color="e5f6f7" />
				<outline color="000080" />
				<font color="000000" name="Arial" size="8" />
				<position>650 676 722 724</position>
			</node>
			<node id="Humidity_Ave">
				<name>Humidity Ave</name>
				<interior color="e5f6f7" />
				<outline color="000080" />
				<font color="000000" name="Arial" size="8" />
				<position>543 705 615 753</position>
			</node>
			<node id="Humidity_Min">
				<name>Humidity Min</name>
				<interior color="e5f6f7" />
				<outline color="000080" />
				<font color="000000" name="Arial" size="8" />
				<position>449 719 521 767</position>
			</node>
			<node id="Press_Max">
				<name>Press Max</name>
				<interior color="ffffff" />
				<outline color="000080" />
				<font color="000000" name="Arial" size="8" />
				<position>10 10 82 58</position>
			</node>
			<node id="Press_Ave">
				<name>Press Ave</name>
				<interior color="e5f6f7" />
				<outline color="000080" />
				<font color="000000" name="Arial" size="8" />
				<position>975 310 1047 358</position>
			</node>
			<node id="Press_Min">
				<name>Press Min</name>
				<interior color="e5f6f7" />
				<outline color="000080" />
				<font color="000000" name="Arial" size="8" />
				<position>936 205 1008 253</position>
			</node>
			<node id="Visib_Max">
				<name>Visib Max</name>
				<interior color="ffffff" />
				<outline color="000080" />
				<font color="000000" name="Arial" size="8" />
				<position>10 74 82 122</position>
			</node>
			<node id="Visib_Ave">
				<name>Visib Ave</name>
				<interior color="e5f6f7" />
				<outline color="000080" />
				<font color="000000" name="Arial" size="8" />
				<position>757 132 829 180</position>
			</node>
			<node id="Visib_Min">
				<name>Visib Min</name>
				<interior color="e5f6f7" />
				<outline color="000080" />
				<font color="000000" name="Arial" size="8" />
				<position>616 114 688 162</position>
			</node>
			<node id="Wind_Max">
				<name>Wind Max</name>
				<interior color="e5f6f7" />
				<outline color="000080" />
				<font color="000000" name="Arial" size="8" />
				<position>507 143 579 191</position>
			</node>
			<node id="Wind_Ave">
				<name>Wind Ave</name>
				<interior color="e5f6f7" />
				<outline color="000080" />
				<font color="000000" name="Arial" size="8" />
				<position>433 325 505 373</position>
			</node>
			<node id="Gust_Sp">
				<name>Gust Sp</name>
				<interior color="ffffff" />
				<outline color="000080" />
				<font color="000000" name="Arial" size="8" />
				<position>10 138 82 186</position>
			</node>
			<node id="Precip__cm_">
				<name>Precip (cm)</name>
				<interior color="e5f6f7" />
				<outline color="000080" />
				<font color="000000" name="Arial" size="8" />
				<position>434 480 506 528</position>
			</node>
			<node id="Events">
				<name>Events</name>
				<interior color="ffffff" />
				<outline color="000080" />
				<font color="000000" name="Arial" size="8" />
				<position>10 202 82 250</position>
			</node>
			<node id="Flight_No_">
				<name>Flight No.</name>
				<interior color="e5f6f7" />
				<outline color="000080" />
				<font color="000000" name="Arial" size="8" />
				<position>10 266 82 314</position>
			</node>
			<node id="Aircraft_Mod_">
				<name>Aircraft Mod.</name>
				<interior color="e5f6f7" />
				<outline color="000080" />
				<font color="000000" name="Arial" size="8" />
				<position>157 115 229 163</position>
			</node>
			<node id="Origin">
				<name>Origin</name>
				<interior color="ffffff" />
				<outline color="000080" />
				<font color="000000" name="Arial" size="8" />
				<position>10 330 82 378</position>
			</node>
			<node id="Destination">
				<name>Destination</name>
				<interior color="e5f6f7" />
				<outline color="000080" />
				<font color="000000" name="Arial" size="8" />
				<position>125 234 197 282</position>
			</node>
			<node id="Duration">
				<name>Duration</name>
				<interior color="e5f6f7" />
				<outline color="000080" />
				<font color="000000" name="Arial" size="8" />
				<position>359 29 431 77</position>
			</node>
			<node id="Actual_Departure">
				<name>Actual Departure</name>
				<interior color="e5f6f7" />
				<outline color="000080" />
				<font color="000000" name="Arial" size="8" />
				<position>467 51 539 99</position>
			</node>
			<node id="Delay__min_">
				<name>Delay (min)</name>
				<interior color="e5f6f7" />
				<outline color="000080" />
				<font color="000000" name="Arial" size="8" />
				<position>282 406 354 454</position>
			</node>
			<node id="Speed">
				<name>Speed</name>
				<interior color="e5f6f7" />
				<outline color="000080" />
				<font color="000000" name="Arial" size="8" />
				<position>123 598 195 646</position>
			</node>
			<node id="Altitude__ft__">
				<name>Altitude (ft.)</name>
				<interior color="e5f6f7" />
				<outline color="000080" />
				<font color="000000" name="Arial" size="8" />
				<position>233 166 305 214</position>
			</node>
		</genie>
	</extensions>
</smile>
