<?xml version="1.0" encoding="ISO-8859-1"?>
<smile version="1.0" id="Network1" numsamples="1000" discsamples="10000">
	<nodes>
		<cpt id="Events">
			<state id="Rain" />
			<state id="Rain_Thunderstorm" />
			<state id="Fog" />
			<state id="Fog_Snow" />
			<state id="Fog_Rain_Thunderstorm" />
			<state id="Snow" />
			<state id="None" />
			<probabilities>0.2525252525252525 0.07070707070707072 0.0101010101010101 0.0101010101010101 0.0101010101010101 0.0202020202020202 0.6262626262626262</probabilities>
		</cpt>
		<cpt id="MinTemperature">
			<state id="Temp_5_1C" />
			<state id="Temp_0_4C" />
			<state id="Temp_5_9C" />
			<state id="Temp_10_14C" />
			<state id="Temp_15_19C" />
			<state id="Temp_20_24C" />
			<parents>Events</parents>
			<probabilities>0 0.1613226452905812 0.5490981963927856 0.06412825651302605 0.2254509018036072 0 0 0 0.3333333333333333 0.4444444444444444 0 0.2222222222222223 0 0 1 0 0 0 0.1666666666666667 0.1666666666666667 0.1666666666666667 0.1666666666666667 0.1666666666666667 0.1666666666666667 0 0 1 0 0 0 0 1 0 0 0 0 0.01312493738102395 0.1312493738102395 0.2504759042180142 0.4348261697224727 0.105199879771566 0.06512373509668368</probabilities>
		</cpt>
		<cpt id="Delay">
			<state id="Normal" />
			<state id="Low_Delay" />
			<state id="High_Delay" />
			<parents>MinTemperature</parents>
			<probabilities>0.6666666666666666 0.3333333333333333 0 0.31 0.23 0.46 0.3838383838383838 0.4646464646464646 0.1515151515151516 1 0 0 0.3333333333333333 0.3333333333333333 0.3333333333333334 0.3333333333333333 0.3333333333333333 0.3333333333333334</probabilities>
		</cpt>
		<cpt id="MinTemperature_1">
			<state id="Temp_5_1C" />
			<state id="Temp_0_4C" />
			<state id="Temp_5_9C" />
			<state id="Temp_10_14C" />
			<state id="Temp_15_19C" />
			<state id="Temp_20_24C" />
			<parents>Events</parents>
			<probabilities>0 0.1613226452905812 0.5490981963927856 0.06412825651302605 0.2254509018036072 0 0 0 0.3333333333333333 0.4444444444444444 0 0.2222222222222223 0 0 1 0 0 0 0.1666666666666667 0.1666666666666667 0.1666666666666667 0.1666666666666667 0.1666666666666667 0.1666666666666667 0 0 1 0 0 0 0 1 0 0 0 0 0.01312493738102395 0.1312493738102395 0.2504759042180142 0.4348261697224727 0.105199879771566 0.06512373509668368</probabilities>
		</cpt>
		<cpt id="Delay_1">
			<state id="Normal" />
			<state id="Low_Delay" />
			<state id="High_Delay" />
			<parents>MinTemperature_1 Delay</parents>
			<probabilities>0.666666667 0.333333333 0 0.3333333333 0.666666667 0 0 0.33333333 0.666666667 0.31 0.23 0.46 0.23 0.31 0.46 0.46 0.23 0.31 0.38383838 0.46464646 0.15151515 0.46464646 0.38383838 0.15151515 0.15151515 0.46464646 0.38383838 1 0 0 0 1 0 0 0 1 0.3333333333333333 0.3333333333333333 0.3333333333333333 0.3333333333333333 0.3333333333333333 0.3333333333333333 0.3333333333333333 0.3333333333333333 0.3333333333333333 0.3333333333333333 0.3333333333333333 0.3333333333333333 0.3333333333333333 0.3333333333333333 0.3333333333333333 0.3333333333333333 0.3333333333333333 0.3333333333333333</probabilities>
		</cpt>
		<cpt id="MinTemperature_2">
			<state id="Temp_5_1C" />
			<state id="Temp_0_4C" />
			<state id="Temp_5_9C" />
			<state id="Temp_10_14C" />
			<state id="Temp_15_19C" />
			<state id="Temp_20_24C" />
			<parents>Events</parents>
			<probabilities>0 0.1613226452905812 0.5490981963927856 0.06412825651302605 0.2254509018036072 0 0 0 0.3333333333333333 0.4444444444444444 0 0.2222222222222223 0 0 1 0 0 0 0.1666666666666667 0.1666666666666667 0.1666666666666667 0.1666666666666667 0.1666666666666667 0.1666666666666667 0 0 1 0 0 0 0 1 0 0 0 0 0.01312493738102395 0.1312493738102395 0.2504759042180142 0.4348261697224727 0.105199879771566 0.06512373509668368</probabilities>
		</cpt>
		<cpt id="Delay_2">
			<state id="Normal" />
			<state id="Low_Delay" />
			<state id="High_Delay" />
			<parents>MinTemperature_2 Delay_1</parents>
			<probabilities>0.666666667 0.333333333 0 0.3333333333 0.666666667 0 0 0.33333333 0.666666667 0.31 0.23 0.46 0.23 0.31 0.46 0.46 0.23 0.31 0.38383838 0.46464646 0.15151515 0.46464646 0.38383838 0.15151515 0.15151515 0.46464646 0.38383838 1 0 0 0 1 0 0 0 1 0.3333333333333333 0.3333333333333333 0.3333333333333333 0.3333333333333333 0.3333333333333333 0.3333333333333333 0.3333333333333333 0.3333333333333333 0.3333333333333333 0.3333333333333333 0.3333333333333333 0.3333333333333333 0.3333333333333333 0.3333333333333333 0.3333333333333333 0.3333333333333333 0.3333333333333333 0.3333333333333333</probabilities>
		</cpt>
		<cpt id="MinTemperature_3">
			<state id="Temp_5_1C" />
			<state id="Temp_0_4C" />
			<state id="Temp_5_9C" />
			<state id="Temp_10_14C" />
			<state id="Temp_15_19C" />
			<state id="Temp_20_24C" />
			<parents>Events</parents>
			<probabilities>0 0.1613226452905812 0.5490981963927856 0.06412825651302605 0.2254509018036072 0 0 0 0.3333333333333333 0.4444444444444444 0 0.2222222222222223 0 0 1 0 0 0 0.1666666666666667 0.1666666666666667 0.1666666666666667 0.1666666666666667 0.1666666666666667 0.1666666666666667 0 0 1 0 0 0 0 1 0 0 0 0 0.01312493738102395 0.1312493738102395 0.2504759042180142 0.4348261697224727 0.105199879771566 0.06512373509668368</probabilities>
		</cpt>
		<cpt id="Delay_3">
			<state id="Normal" />
			<state id="Low_Delay" />
			<state id="High_Delay" />
			<parents>MinTemperature_3 Delay_2</parents>
			<probabilities>0.666666667 0.333333333 0 0.3333333333 0.666666667 0 0 0.33333333 0.666666667 0.31 0.23 0.46 0.23 0.31 0.46 0.46 0.23 0.31 0.38383838 0.46464646 0.15151515 0.46464646 0.38383838 0.15151515 0.15151515 0.46464646 0.38383838 1 0 0 0 1 0 0 0 1 0.3333333333333333 0.3333333333333333 0.3333333333333333 0.3333333333333333 0.3333333333333333 0.3333333333333333 0.3333333333333333 0.3333333333333333 0.3333333333333333 0.3333333333333333 0.3333333333333333 0.3333333333333333 0.3333333333333333 0.3333333333333333 0.3333333333333333 0.3333333333333333 0.3333333333333333 0.3333333333333333</probabilities>
		</cpt>
		<cpt id="MinTemperature_4">
			<state id="Temp_5_1C" />
			<state id="Temp_0_4C" />
			<state id="Temp_5_9C" />
			<state id="Temp_10_14C" />
			<state id="Temp_15_19C" />
			<state id="Temp_20_24C" />
			<parents>Events</parents>
			<probabilities>0 0.1613226452905812 0.5490981963927856 0.06412825651302605 0.2254509018036072 0 0 0 0.3333333333333333 0.4444444444444444 0 0.2222222222222223 0 0 1 0 0 0 0.1666666666666667 0.1666666666666667 0.1666666666666667 0.1666666666666667 0.1666666666666667 0.1666666666666667 0 0 1 0 0 0 0 1 0 0 0 0 0.01312493738102395 0.1312493738102395 0.2504759042180142 0.4348261697224727 0.105199879771566 0.06512373509668368</probabilities>
		</cpt>
		<cpt id="Delay_4">
			<state id="Normal" />
			<state id="Low_Delay" />
			<state id="High_Delay" />
			<parents>MinTemperature_4 Delay_3</parents>
			<probabilities>0.666666667 0.333333333 0 0.3333333333 0.666666667 0 0 0.33333333 0.666666667 0.31 0.23 0.46 0.23 0.31 0.46 0.46 0.23 0.31 0.38383838 0.46464646 0.15151515 0.46464646 0.38383838 0.15151515 0.15151515 0.46464646 0.38383838 1 0 0 0 1 0 0 0 1 0.3333333333333333 0.3333333333333333 0.3333333333333333 0.3333333333333333 0.3333333333333333 0.3333333333333333 0.3333333333333333 0.3333333333333333 0.3333333333333333 0.3333333333333333 0.3333333333333333 0.3333333333333333 0.3333333333333333 0.3333333333333333 0.3333333333333333 0.3333333333333333 0.3333333333333333 0.3333333333333333</probabilities>
		</cpt>
		<cpt id="MinTemperature_5">
			<state id="Temp_5_1C" />
			<state id="Temp_0_4C" />
			<state id="Temp_5_9C" />
			<state id="Temp_10_14C" />
			<state id="Temp_15_19C" />
			<state id="Temp_20_24C" />
			<parents>Events</parents>
			<probabilities>0 0.1613226452905812 0.5490981963927856 0.06412825651302605 0.2254509018036072 0 0 0 0.3333333333333333 0.4444444444444444 0 0.2222222222222223 0 0 1 0 0 0 0.1666666666666667 0.1666666666666667 0.1666666666666667 0.1666666666666667 0.1666666666666667 0.1666666666666667 0 0 1 0 0 0 0 1 0 0 0 0 0.01312493738102395 0.1312493738102395 0.2504759042180142 0.4348261697224727 0.105199879771566 0.06512373509668368</probabilities>
		</cpt>
		<cpt id="Delay_5">
			<state id="Normal" />
			<state id="Low_Delay" />
			<state id="High_Delay" />
			<parents>MinTemperature_5 Delay_4</parents>
			<probabilities>0.666666667 0.333333333 0 0.3333333333 0.666666667 0 0 0.33333333 0.666666667 0.31 0.23 0.46 0.23 0.31 0.46 0.46 0.23 0.31 0.38383838 0.46464646 0.15151515 0.46464646 0.38383838 0.15151515 0.15151515 0.46464646 0.38383838 1 0 0 0 1 0 0 0 1 0.3333333333333333 0.3333333333333333 0.3333333333333333 0.3333333333333333 0.3333333333333333 0.3333333333333333 0.3333333333333333 0.3333333333333333 0.3333333333333333 0.3333333333333333 0.3333333333333333 0.3333333333333333 0.3333333333333333 0.3333333333333333 0.3333333333333333 0.3333333333333333 0.3333333333333333 0.3333333333333333</probabilities>
		</cpt>
		<cpt id="MinTemperature_6">
			<state id="Temp_5_1C" />
			<state id="Temp_0_4C" />
			<state id="Temp_5_9C" />
			<state id="Temp_10_14C" />
			<state id="Temp_15_19C" />
			<state id="Temp_20_24C" />
			<parents>Events</parents>
			<probabilities>0 0.1613226452905812 0.5490981963927856 0.06412825651302605 0.2254509018036072 0 0 0 0.3333333333333333 0.4444444444444444 0 0.2222222222222223 0 0 1 0 0 0 0.1666666666666667 0.1666666666666667 0.1666666666666667 0.1666666666666667 0.1666666666666667 0.1666666666666667 0 0 1 0 0 0 0 1 0 0 0 0 0.01312493738102395 0.1312493738102395 0.2504759042180142 0.4348261697224727 0.105199879771566 0.06512373509668368</probabilities>
		</cpt>
		<cpt id="Delay_6">
			<state id="Normal" />
			<state id="Low_Delay" />
			<state id="High_Delay" />
			<parents>MinTemperature_6 Delay_5</parents>
			<probabilities>0.666666667 0.333333333 0 0.3333333333 0.666666667 0 0 0.33333333 0.666666667 0.31 0.23 0.46 0.23 0.31 0.46 0.46 0.23 0.31 0.38383838 0.46464646 0.15151515 0.46464646 0.38383838 0.15151515 0.15151515 0.46464646 0.38383838 1 0 0 0 1 0 0 0 1 0.3333333333333333 0.3333333333333333 0.3333333333333333 0.3333333333333333 0.3333333333333333 0.3333333333333333 0.3333333333333333 0.3333333333333333 0.3333333333333333 0.3333333333333333 0.3333333333333333 0.3333333333333333 0.3333333333333333 0.3333333333333333 0.3333333333333333 0.3333333333333333 0.3333333333333333 0.3333333333333333</probabilities>
		</cpt>
		<cpt id="MinTemperature_7">
			<state id="Temp_5_1C" />
			<state id="Temp_0_4C" />
			<state id="Temp_5_9C" />
			<state id="Temp_10_14C" />
			<state id="Temp_15_19C" />
			<state id="Temp_20_24C" />
			<parents>Events</parents>
			<probabilities>0 0.1613226452905812 0.5490981963927856 0.06412825651302605 0.2254509018036072 0 0 0 0.3333333333333333 0.4444444444444444 0 0.2222222222222223 0 0 1 0 0 0 0.1666666666666667 0.1666666666666667 0.1666666666666667 0.1666666666666667 0.1666666666666667 0.1666666666666667 0 0 1 0 0 0 0 1 0 0 0 0 0.01312493738102395 0.1312493738102395 0.2504759042180142 0.4348261697224727 0.105199879771566 0.06512373509668368</probabilities>
		</cpt>
		<cpt id="Delay_7">
			<state id="Normal" />
			<state id="Low_Delay" />
			<state id="High_Delay" />
			<parents>MinTemperature_7 Delay_6</parents>
			<probabilities>0.666666667 0.333333333 0 0.3333333333 0.666666667 0 0 0.33333333 0.666666667 0.31 0.23 0.46 0.23 0.31 0.46 0.46 0.23 0.31 0.38383838 0.46464646 0.15151515 0.46464646 0.38383838 0.15151515 0.15151515 0.46464646 0.38383838 1 0 0 0 1 0 0 0 1 0.3333333333333333 0.3333333333333333 0.3333333333333333 0.3333333333333333 0.3333333333333333 0.3333333333333333 0.3333333333333333 0.3333333333333333 0.3333333333333333 0.3333333333333333 0.3333333333333333 0.3333333333333333 0.3333333333333333 0.3333333333333333 0.3333333333333333 0.3333333333333333 0.3333333333333333 0.3333333333333333</probabilities>
		</cpt>
		<cpt id="MinTemperature_8">
			<state id="Temp_5_1C" />
			<state id="Temp_0_4C" />
			<state id="Temp_5_9C" />
			<state id="Temp_10_14C" />
			<state id="Temp_15_19C" />
			<state id="Temp_20_24C" />
			<parents>Events</parents>
			<probabilities>0 0.1613226452905812 0.5490981963927856 0.06412825651302605 0.2254509018036072 0 0 0 0.3333333333333333 0.4444444444444444 0 0.2222222222222223 0 0 1 0 0 0 0.1666666666666667 0.1666666666666667 0.1666666666666667 0.1666666666666667 0.1666666666666667 0.1666666666666667 0 0 1 0 0 0 0 1 0 0 0 0 0.01312493738102395 0.1312493738102395 0.2504759042180142 0.4348261697224727 0.105199879771566 0.06512373509668368</probabilities>
		</cpt>
		<cpt id="Delay_8">
			<state id="Normal" />
			<state id="Low_Delay" />
			<state id="High_Delay" />
			<parents>MinTemperature_8 Delay_7</parents>
			<probabilities>0.666666667 0.333333333 0 0.3333333333 0.666666667 0 0 0.33333333 0.666666667 0.31 0.23 0.46 0.23 0.31 0.46 0.46 0.23 0.31 0.38383838 0.46464646 0.15151515 0.46464646 0.38383838 0.15151515 0.15151515 0.46464646 0.38383838 1 0 0 0 1 0 0 0 1 0.3333333333333333 0.3333333333333333 0.3333333333333333 0.3333333333333333 0.3333333333333333 0.3333333333333333 0.3333333333333333 0.3333333333333333 0.3333333333333333 0.3333333333333333 0.3333333333333333 0.3333333333333333 0.3333333333333333 0.3333333333333333 0.3333333333333333 0.3333333333333333 0.3333333333333333 0.3333333333333333</probabilities>
		</cpt>
		<cpt id="MinTemperature_9">
			<state id="Temp_5_1C" />
			<state id="Temp_0_4C" />
			<state id="Temp_5_9C" />
			<state id="Temp_10_14C" />
			<state id="Temp_15_19C" />
			<state id="Temp_20_24C" />
			<parents>Events</parents>
			<probabilities>0 0.1613226452905812 0.5490981963927856 0.06412825651302605 0.2254509018036072 0 0 0 0.3333333333333333 0.4444444444444444 0 0.2222222222222223 0 0 1 0 0 0 0.1666666666666667 0.1666666666666667 0.1666666666666667 0.1666666666666667 0.1666666666666667 0.1666666666666667 0 0 1 0 0 0 0 1 0 0 0 0 0.01312493738102395 0.1312493738102395 0.2504759042180142 0.4348261697224727 0.105199879771566 0.06512373509668368</probabilities>
		</cpt>
		<cpt id="Delay_9">
			<state id="Normal" />
			<state id="Low_Delay" />
			<state id="High_Delay" />
			<parents>MinTemperature_9 Delay_8</parents>
			<probabilities>0.666666667 0.333333333 0 0.3333333333 0.666666667 0 0 0.33333333 0.666666667 0.31 0.23 0.46 0.23 0.31 0.46 0.46 0.23 0.31 0.38383838 0.46464646 0.15151515 0.46464646 0.38383838 0.15151515 0.15151515 0.46464646 0.38383838 1 0 0 0 1 0 0 0 1 0.3333333333333333 0.3333333333333333 0.3333333333333333 0.3333333333333333 0.3333333333333333 0.3333333333333333 0.3333333333333333 0.3333333333333333 0.3333333333333333 0.3333333333333333 0.3333333333333333 0.3333333333333333 0.3333333333333333 0.3333333333333333 0.3333333333333333 0.3333333333333333 0.3333333333333333 0.3333333333333333</probabilities>
		</cpt>
		<cpt id="MinTemperature_10">
			<state id="Temp_5_1C" />
			<state id="Temp_0_4C" />
			<state id="Temp_5_9C" />
			<state id="Temp_10_14C" />
			<state id="Temp_15_19C" />
			<state id="Temp_20_24C" />
			<parents>Events</parents>
			<probabilities>0 0.1613226452905812 0.5490981963927856 0.06412825651302605 0.2254509018036072 0 0 0 0.3333333333333333 0.4444444444444444 0 0.2222222222222223 0 0 1 0 0 0 0.1666666666666667 0.1666666666666667 0.1666666666666667 0.1666666666666667 0.1666666666666667 0.1666666666666667 0 0 1 0 0 0 0 1 0 0 0 0 0.01312493738102395 0.1312493738102395 0.2504759042180142 0.4348261697224727 0.105199879771566 0.06512373509668368</probabilities>
		</cpt>
		<cpt id="Delay_10">
			<state id="Normal" />
			<state id="Low_Delay" />
			<state id="High_Delay" />
			<parents>MinTemperature_10 Delay_9</parents>
			<probabilities>0.666666667 0.333333333 0 0.3333333333 0.666666667 0 0 0.33333333 0.666666667 0.31 0.23 0.46 0.23 0.31 0.46 0.46 0.23 0.31 0.38383838 0.46464646 0.15151515 0.46464646 0.38383838 0.15151515 0.15151515 0.46464646 0.38383838 1 0 0 0 1 0 0 0 1 0.3333333333333333 0.3333333333333333 0.3333333333333333 0.3333333333333333 0.3333333333333333 0.3333333333333333 0.3333333333333333 0.3333333333333333 0.3333333333333333 0.3333333333333333 0.3333333333333333 0.3333333333333333 0.3333333333333333 0.3333333333333333 0.3333333333333333 0.3333333333333333 0.3333333333333333 0.3333333333333333</probabilities>
		</cpt>
		<cpt id="MinTemperature_11">
			<state id="Temp_5_1C" />
			<state id="Temp_0_4C" />
			<state id="Temp_5_9C" />
			<state id="Temp_10_14C" />
			<state id="Temp_15_19C" />
			<state id="Temp_20_24C" />
			<parents>Events</parents>
			<probabilities>0 0.1613226452905812 0.5490981963927856 0.06412825651302605 0.2254509018036072 0 0 0 0.3333333333333333 0.4444444444444444 0 0.2222222222222223 0 0 1 0 0 0 0.1666666666666667 0.1666666666666667 0.1666666666666667 0.1666666666666667 0.1666666666666667 0.1666666666666667 0 0 1 0 0 0 0 1 0 0 0 0 0.01312493738102395 0.1312493738102395 0.2504759042180142 0.4348261697224727 0.105199879771566 0.06512373509668368</probabilities>
		</cpt>
		<cpt id="Delay_11">
			<state id="Normal" />
			<state id="Low_Delay" />
			<state id="High_Delay" />
			<parents>MinTemperature_11 Delay_10</parents>
			<probabilities>0.666666667 0.333333333 0 0.3333333333 0.666666667 0 0 0.33333333 0.666666667 0.31 0.23 0.46 0.23 0.31 0.46 0.46 0.23 0.31 0.38383838 0.46464646 0.15151515 0.46464646 0.38383838 0.15151515 0.15151515 0.46464646 0.38383838 1 0 0 0 1 0 0 0 1 0.3333333333333333 0.3333333333333333 0.3333333333333333 0.3333333333333333 0.3333333333333333 0.3333333333333333 0.3333333333333333 0.3333333333333333 0.3333333333333333 0.3333333333333333 0.3333333333333333 0.3333333333333333 0.3333333333333333 0.3333333333333333 0.3333333333333333 0.3333333333333333 0.3333333333333333 0.3333333333333333</probabilities>
		</cpt>
		<cpt id="MinTemperature_12">
			<state id="Temp_5_1C" />
			<state id="Temp_0_4C" />
			<state id="Temp_5_9C" />
			<state id="Temp_10_14C" />
			<state id="Temp_15_19C" />
			<state id="Temp_20_24C" />
			<parents>Events</parents>
			<probabilities>0 0.1613226452905812 0.5490981963927856 0.06412825651302605 0.2254509018036072 0 0 0 0.3333333333333333 0.4444444444444444 0 0.2222222222222223 0 0 1 0 0 0 0.1666666666666667 0.1666666666666667 0.1666666666666667 0.1666666666666667 0.1666666666666667 0.1666666666666667 0 0 1 0 0 0 0 1 0 0 0 0 0.01312493738102395 0.1312493738102395 0.2504759042180142 0.4348261697224727 0.105199879771566 0.06512373509668368</probabilities>
		</cpt>
		<cpt id="Delay_12">
			<state id="Normal" />
			<state id="Low_Delay" />
			<state id="High_Delay" />
			<parents>MinTemperature_12 Delay_11</parents>
			<probabilities>0.666666667 0.333333333 0 0.3333333333 0.666666667 0 0 0.33333333 0.666666667 0.31 0.23 0.46 0.23 0.31 0.46 0.46 0.23 0.31 0.38383838 0.46464646 0.15151515 0.46464646 0.38383838 0.15151515 0.15151515 0.46464646 0.38383838 1 0 0 0 1 0 0 0 1 0.3333333333333333 0.3333333333333333 0.3333333333333333 0.3333333333333333 0.3333333333333333 0.3333333333333333 0.3333333333333333 0.3333333333333333 0.3333333333333333 0.3333333333333333 0.3333333333333333 0.3333333333333333 0.3333333333333333 0.3333333333333333 0.3333333333333333 0.3333333333333333 0.3333333333333333 0.3333333333333333</probabilities>
		</cpt>
		<cpt id="MinTemperature_13">
			<state id="Temp_5_1C" />
			<state id="Temp_0_4C" />
			<state id="Temp_5_9C" />
			<state id="Temp_10_14C" />
			<state id="Temp_15_19C" />
			<state id="Temp_20_24C" />
			<parents>Events</parents>
			<probabilities>0 0.1613226452905812 0.5490981963927856 0.06412825651302605 0.2254509018036072 0 0 0 0.3333333333333333 0.4444444444444444 0 0.2222222222222223 0 0 1 0 0 0 0.1666666666666667 0.1666666666666667 0.1666666666666667 0.1666666666666667 0.1666666666666667 0.1666666666666667 0 0 1 0 0 0 0 1 0 0 0 0 0.01312493738102395 0.1312493738102395 0.2504759042180142 0.4348261697224727 0.105199879771566 0.06512373509668368</probabilities>
		</cpt>
		<cpt id="Delay_13">
			<state id="Normal" />
			<state id="Low_Delay" />
			<state id="High_Delay" />
			<parents>MinTemperature_13 Delay_12</parents>
			<probabilities>0.666666667 0.333333333 0 0.3333333333 0.666666667 0 0 0.33333333 0.666666667 0.31 0.23 0.46 0.23 0.31 0.46 0.46 0.23 0.31 0.38383838 0.46464646 0.15151515 0.46464646 0.38383838 0.15151515 0.15151515 0.46464646 0.38383838 1 0 0 0 1 0 0 0 1 0.3333333333333333 0.3333333333333333 0.3333333333333333 0.3333333333333333 0.3333333333333333 0.3333333333333333 0.3333333333333333 0.3333333333333333 0.3333333333333333 0.3333333333333333 0.3333333333333333 0.3333333333333333 0.3333333333333333 0.3333333333333333 0.3333333333333333 0.3333333333333333 0.3333333333333333 0.3333333333333333</probabilities>
		</cpt>
		<cpt id="MinTemperature_14">
			<state id="Temp_5_1C" />
			<state id="Temp_0_4C" />
			<state id="Temp_5_9C" />
			<state id="Temp_10_14C" />
			<state id="Temp_15_19C" />
			<state id="Temp_20_24C" />
			<parents>Events</parents>
			<probabilities>0 0.1613226452905812 0.5490981963927856 0.06412825651302605 0.2254509018036072 0 0 0 0.3333333333333333 0.4444444444444444 0 0.2222222222222223 0 0 1 0 0 0 0.1666666666666667 0.1666666666666667 0.1666666666666667 0.1666666666666667 0.1666666666666667 0.1666666666666667 0 0 1 0 0 0 0 1 0 0 0 0 0.01312493738102395 0.1312493738102395 0.2504759042180142 0.4348261697224727 0.105199879771566 0.06512373509668368</probabilities>
		</cpt>
		<cpt id="Delay_14">
			<state id="Normal" />
			<state id="Low_Delay" />
			<state id="High_Delay" />
			<parents>MinTemperature_14 Delay_13</parents>
			<probabilities>0.666666667 0.333333333 0 0.3333333333 0.666666667 0 0 0.33333333 0.666666667 0.31 0.23 0.46 0.23 0.31 0.46 0.46 0.23 0.31 0.38383838 0.46464646 0.15151515 0.46464646 0.38383838 0.15151515 0.15151515 0.46464646 0.38383838 1 0 0 0 1 0 0 0 1 0.3333333333333333 0.3333333333333333 0.3333333333333333 0.3333333333333333 0.3333333333333333 0.3333333333333333 0.3333333333333333 0.3333333333333333 0.3333333333333333 0.3333333333333333 0.3333333333333333 0.3333333333333333 0.3333333333333333 0.3333333333333333 0.3333333333333333 0.3333333333333333 0.3333333333333333 0.3333333333333333</probabilities>
		</cpt>
		<cpt id="MinTemperature_15">
			<state id="Temp_5_1C" />
			<state id="Temp_0_4C" />
			<state id="Temp_5_9C" />
			<state id="Temp_10_14C" />
			<state id="Temp_15_19C" />
			<state id="Temp_20_24C" />
			<parents>Events</parents>
			<probabilities>0 0.1613226452905812 0.5490981963927856 0.06412825651302605 0.2254509018036072 0 0 0 0.3333333333333333 0.4444444444444444 0 0.2222222222222223 0 0 1 0 0 0 0.1666666666666667 0.1666666666666667 0.1666666666666667 0.1666666666666667 0.1666666666666667 0.1666666666666667 0 0 1 0 0 0 0 1 0 0 0 0 0.01312493738102395 0.1312493738102395 0.2504759042180142 0.4348261697224727 0.105199879771566 0.06512373509668368</probabilities>
		</cpt>
		<cpt id="Delay_15">
			<state id="Normal" />
			<state id="Low_Delay" />
			<state id="High_Delay" />
			<parents>MinTemperature_15 Delay_14</parents>
			<probabilities>0.666666667 0.333333333 0 0.3333333333 0.666666667 0 0 0.33333333 0.666666667 0.31 0.23 0.46 0.23 0.31 0.46 0.46 0.23 0.31 0.38383838 0.46464646 0.15151515 0.46464646 0.38383838 0.15151515 0.15151515 0.46464646 0.38383838 1 0 0 0 1 0 0 0 1 0.3333333333333333 0.3333333333333333 0.3333333333333333 0.3333333333333333 0.3333333333333333 0.3333333333333333 0.3333333333333333 0.3333333333333333 0.3333333333333333 0.3333333333333333 0.3333333333333333 0.3333333333333333 0.3333333333333333 0.3333333333333333 0.3333333333333333 0.3333333333333333 0.3333333333333333 0.3333333333333333</probabilities>
		</cpt>
		<cpt id="MinTemperature_16">
			<state id="Temp_5_1C" />
			<state id="Temp_0_4C" />
			<state id="Temp_5_9C" />
			<state id="Temp_10_14C" />
			<state id="Temp_15_19C" />
			<state id="Temp_20_24C" />
			<parents>Events</parents>
			<probabilities>0 0.1613226452905812 0.5490981963927856 0.06412825651302605 0.2254509018036072 0 0 0 0.3333333333333333 0.4444444444444444 0 0.2222222222222223 0 0 1 0 0 0 0.1666666666666667 0.1666666666666667 0.1666666666666667 0.1666666666666667 0.1666666666666667 0.1666666666666667 0 0 1 0 0 0 0 1 0 0 0 0 0.01312493738102395 0.1312493738102395 0.2504759042180142 0.4348261697224727 0.105199879771566 0.06512373509668368</probabilities>
		</cpt>
		<cpt id="Delay_16">
			<state id="Normal" />
			<state id="Low_Delay" />
			<state id="High_Delay" />
			<parents>MinTemperature_16 Delay_15</parents>
			<probabilities>0.666666667 0.333333333 0 0.3333333333 0.666666667 0 0 0.33333333 0.666666667 0.31 0.23 0.46 0.23 0.31 0.46 0.46 0.23 0.31 0.38383838 0.46464646 0.15151515 0.46464646 0.38383838 0.15151515 0.15151515 0.46464646 0.38383838 1 0 0 0 1 0 0 0 1 0.3333333333333333 0.3333333333333333 0.3333333333333333 0.3333333333333333 0.3333333333333333 0.3333333333333333 0.3333333333333333 0.3333333333333333 0.3333333333333333 0.3333333333333333 0.3333333333333333 0.3333333333333333 0.3333333333333333 0.3333333333333333 0.3333333333333333 0.3333333333333333 0.3333333333333333 0.3333333333333333</probabilities>
		</cpt>
		<cpt id="MinTemperature_17">
			<state id="Temp_5_1C" />
			<state id="Temp_0_4C" />
			<state id="Temp_5_9C" />
			<state id="Temp_10_14C" />
			<state id="Temp_15_19C" />
			<state id="Temp_20_24C" />
			<parents>Events</parents>
			<probabilities>0 0.1613226452905812 0.5490981963927856 0.06412825651302605 0.2254509018036072 0 0 0 0.3333333333333333 0.4444444444444444 0 0.2222222222222223 0 0 1 0 0 0 0.1666666666666667 0.1666666666666667 0.1666666666666667 0.1666666666666667 0.1666666666666667 0.1666666666666667 0 0 1 0 0 0 0 1 0 0 0 0 0.01312493738102395 0.1312493738102395 0.2504759042180142 0.4348261697224727 0.105199879771566 0.06512373509668368</probabilities>
		</cpt>
		<cpt id="Delay_17">
			<state id="Normal" />
			<state id="Low_Delay" />
			<state id="High_Delay" />
			<parents>MinTemperature_17 Delay_16</parents>
			<probabilities>0.666666667 0.333333333 0 0.3333333333 0.666666667 0 0 0.33333333 0.666666667 0.31 0.23 0.46 0.23 0.31 0.46 0.46 0.23 0.31 0.38383838 0.46464646 0.15151515 0.46464646 0.38383838 0.15151515 0.15151515 0.46464646 0.38383838 1 0 0 0 1 0 0 0 1 0.3333333333333333 0.3333333333333333 0.3333333333333333 0.3333333333333333 0.3333333333333333 0.3333333333333333 0.3333333333333333 0.3333333333333333 0.3333333333333333 0.3333333333333333 0.3333333333333333 0.3333333333333333 0.3333333333333333 0.3333333333333333 0.3333333333333333 0.3333333333333333 0.3333333333333333 0.3333333333333333</probabilities>
		</cpt>
		<cpt id="MinTemperature_18">
			<state id="Temp_5_1C" />
			<state id="Temp_0_4C" />
			<state id="Temp_5_9C" />
			<state id="Temp_10_14C" />
			<state id="Temp_15_19C" />
			<state id="Temp_20_24C" />
			<parents>Events</parents>
			<probabilities>0 0.1613226452905812 0.5490981963927856 0.06412825651302605 0.2254509018036072 0 0 0 0.3333333333333333 0.4444444444444444 0 0.2222222222222223 0 0 1 0 0 0 0.1666666666666667 0.1666666666666667 0.1666666666666667 0.1666666666666667 0.1666666666666667 0.1666666666666667 0 0 1 0 0 0 0 1 0 0 0 0 0.01312493738102395 0.1312493738102395 0.2504759042180142 0.4348261697224727 0.105199879771566 0.06512373509668368</probabilities>
		</cpt>
		<cpt id="Delay_18">
			<state id="Normal" />
			<state id="Low_Delay" />
			<state id="High_Delay" />
			<parents>MinTemperature_18 Delay_17</parents>
			<probabilities>0.666666667 0.333333333 0 0.3333333333 0.666666667 0 0 0.33333333 0.666666667 0.31 0.23 0.46 0.23 0.31 0.46 0.46 0.23 0.31 0.38383838 0.46464646 0.15151515 0.46464646 0.38383838 0.15151515 0.15151515 0.46464646 0.38383838 1 0 0 0 1 0 0 0 1 0.3333333333333333 0.3333333333333333 0.3333333333333333 0.3333333333333333 0.3333333333333333 0.3333333333333333 0.3333333333333333 0.3333333333333333 0.3333333333333333 0.3333333333333333 0.3333333333333333 0.3333333333333333 0.3333333333333333 0.3333333333333333 0.3333333333333333 0.3333333333333333 0.3333333333333333 0.3333333333333333</probabilities>
		</cpt>
		<cpt id="MinTemperature_19">
			<state id="Temp_5_1C" />
			<state id="Temp_0_4C" />
			<state id="Temp_5_9C" />
			<state id="Temp_10_14C" />
			<state id="Temp_15_19C" />
			<state id="Temp_20_24C" />
			<parents>Events</parents>
			<probabilities>0 0.1613226452905812 0.5490981963927856 0.06412825651302605 0.2254509018036072 0 0 0 0.3333333333333333 0.4444444444444444 0 0.2222222222222223 0 0 1 0 0 0 0.1666666666666667 0.1666666666666667 0.1666666666666667 0.1666666666666667 0.1666666666666667 0.1666666666666667 0 0 1 0 0 0 0 1 0 0 0 0 0.01312493738102395 0.1312493738102395 0.2504759042180142 0.4348261697224727 0.105199879771566 0.06512373509668368</probabilities>
		</cpt>
		<cpt id="Delay_19">
			<state id="Normal" />
			<state id="Low_Delay" />
			<state id="High_Delay" />
			<parents>MinTemperature_19 Delay_18</parents>
			<probabilities>0.666666667 0.333333333 0 0.3333333333 0.666666667 0 0 0.33333333 0.666666667 0.31 0.23 0.46 0.23 0.31 0.46 0.46 0.23 0.31 0.38383838 0.46464646 0.15151515 0.46464646 0.38383838 0.15151515 0.15151515 0.46464646 0.38383838 1 0 0 0 1 0 0 0 1 0.3333333333333333 0.3333333333333333 0.3333333333333333 0.3333333333333333 0.3333333333333333 0.3333333333333333 0.3333333333333333 0.3333333333333333 0.3333333333333333 0.3333333333333333 0.3333333333333333 0.3333333333333333 0.3333333333333333 0.3333333333333333 0.3333333333333333 0.3333333333333333 0.3333333333333333 0.3333333333333333</probabilities>
		</cpt>
		<cpt id="MinTemperature_20">
			<state id="Temp_5_1C" />
			<state id="Temp_0_4C" />
			<state id="Temp_5_9C" />
			<state id="Temp_10_14C" />
			<state id="Temp_15_19C" />
			<state id="Temp_20_24C" />
			<parents>Events</parents>
			<probabilities>0 0.1613226452905812 0.5490981963927856 0.06412825651302605 0.2254509018036072 0 0 0 0.3333333333333333 0.4444444444444444 0 0.2222222222222223 0 0 1 0 0 0 0.1666666666666667 0.1666666666666667 0.1666666666666667 0.1666666666666667 0.1666666666666667 0.1666666666666667 0 0 1 0 0 0 0 1 0 0 0 0 0.01312493738102395 0.1312493738102395 0.2504759042180142 0.4348261697224727 0.105199879771566 0.06512373509668368</probabilities>
		</cpt>
		<cpt id="Delay_20">
			<state id="Normal" />
			<state id="Low_Delay" />
			<state id="High_Delay" />
			<parents>MinTemperature_20 Delay_19</parents>
			<probabilities>0.666666667 0.333333333 0 0.3333333333 0.666666667 0 0 0.33333333 0.666666667 0.31 0.23 0.46 0.23 0.31 0.46 0.46 0.23 0.31 0.38383838 0.46464646 0.15151515 0.46464646 0.38383838 0.15151515 0.15151515 0.46464646 0.38383838 1 0 0 0 1 0 0 0 1 0.3333333333333333 0.3333333333333333 0.3333333333333333 0.3333333333333333 0.3333333333333333 0.3333333333333333 0.3333333333333333 0.3333333333333333 0.3333333333333333 0.3333333333333333 0.3333333333333333 0.3333333333333333 0.3333333333333333 0.3333333333333333 0.3333333333333333 0.3333333333333333 0.3333333333333333 0.3333333333333333</probabilities>
		</cpt>
		<cpt id="MinTemperature_21">
			<state id="Temp_5_1C" />
			<state id="Temp_0_4C" />
			<state id="Temp_5_9C" />
			<state id="Temp_10_14C" />
			<state id="Temp_15_19C" />
			<state id="Temp_20_24C" />
			<parents>Events</parents>
			<probabilities>0 0.1613226452905812 0.5490981963927856 0.06412825651302605 0.2254509018036072 0 0 0 0.3333333333333333 0.4444444444444444 0 0.2222222222222223 0 0 1 0 0 0 0.1666666666666667 0.1666666666666667 0.1666666666666667 0.1666666666666667 0.1666666666666667 0.1666666666666667 0 0 1 0 0 0 0 1 0 0 0 0 0.01312493738102395 0.1312493738102395 0.2504759042180142 0.4348261697224727 0.105199879771566 0.06512373509668368</probabilities>
		</cpt>
		<cpt id="Delay_21">
			<state id="Normal" />
			<state id="Low_Delay" />
			<state id="High_Delay" />
			<parents>MinTemperature_21 Delay_20</parents>
			<probabilities>0.666666667 0.333333333 0 0.3333333333 0.666666667 0 0 0.33333333 0.666666667 0.31 0.23 0.46 0.23 0.31 0.46 0.46 0.23 0.31 0.38383838 0.46464646 0.15151515 0.46464646 0.38383838 0.15151515 0.15151515 0.46464646 0.38383838 1 0 0 0 1 0 0 0 1 0.3333333333333333 0.3333333333333333 0.3333333333333333 0.3333333333333333 0.3333333333333333 0.3333333333333333 0.3333333333333333 0.3333333333333333 0.3333333333333333 0.3333333333333333 0.3333333333333333 0.3333333333333333 0.3333333333333333 0.3333333333333333 0.3333333333333333 0.3333333333333333 0.3333333333333333 0.3333333333333333</probabilities>
		</cpt>
		<cpt id="MinTemperature_22">
			<state id="Temp_5_1C" />
			<state id="Temp_0_4C" />
			<state id="Temp_5_9C" />
			<state id="Temp_10_14C" />
			<state id="Temp_15_19C" />
			<state id="Temp_20_24C" />
			<parents>Events</parents>
			<probabilities>0 0.1613226452905812 0.5490981963927856 0.06412825651302605 0.2254509018036072 0 0 0 0.3333333333333333 0.4444444444444444 0 0.2222222222222223 0 0 1 0 0 0 0.1666666666666667 0.1666666666666667 0.1666666666666667 0.1666666666666667 0.1666666666666667 0.1666666666666667 0 0 1 0 0 0 0 1 0 0 0 0 0.01312493738102395 0.1312493738102395 0.2504759042180142 0.4348261697224727 0.105199879771566 0.06512373509668368</probabilities>
		</cpt>
		<cpt id="Delay_22">
			<state id="Normal" />
			<state id="Low_Delay" />
			<state id="High_Delay" />
			<parents>MinTemperature_22 Delay_21</parents>
			<probabilities>0.666666667 0.333333333 0 0.3333333333 0.666666667 0 0 0.33333333 0.666666667 0.31 0.23 0.46 0.23 0.31 0.46 0.46 0.23 0.31 0.38383838 0.46464646 0.15151515 0.46464646 0.38383838 0.15151515 0.15151515 0.46464646 0.38383838 1 0 0 0 1 0 0 0 1 0.3333333333333333 0.3333333333333333 0.3333333333333333 0.3333333333333333 0.3333333333333333 0.3333333333333333 0.3333333333333333 0.3333333333333333 0.3333333333333333 0.3333333333333333 0.3333333333333333 0.3333333333333333 0.3333333333333333 0.3333333333333333 0.3333333333333333 0.3333333333333333 0.3333333333333333 0.3333333333333333</probabilities>
		</cpt>
		<cpt id="MinTemperature_23">
			<state id="Temp_5_1C" />
			<state id="Temp_0_4C" />
			<state id="Temp_5_9C" />
			<state id="Temp_10_14C" />
			<state id="Temp_15_19C" />
			<state id="Temp_20_24C" />
			<parents>Events</parents>
			<probabilities>0 0.1613226452905812 0.5490981963927856 0.06412825651302605 0.2254509018036072 0 0 0 0.3333333333333333 0.4444444444444444 0 0.2222222222222223 0 0 1 0 0 0 0.1666666666666667 0.1666666666666667 0.1666666666666667 0.1666666666666667 0.1666666666666667 0.1666666666666667 0 0 1 0 0 0 0 1 0 0 0 0 0.01312493738102395 0.1312493738102395 0.2504759042180142 0.4348261697224727 0.105199879771566 0.06512373509668368</probabilities>
		</cpt>
		<cpt id="Delay_23">
			<state id="Normal" />
			<state id="Low_Delay" />
			<state id="High_Delay" />
			<parents>MinTemperature_23 Delay_22</parents>
			<probabilities>0.666666667 0.333333333 0 0.3333333333 0.666666667 0 0 0.33333333 0.666666667 0.31 0.23 0.46 0.23 0.31 0.46 0.46 0.23 0.31 0.38383838 0.46464646 0.15151515 0.46464646 0.38383838 0.15151515 0.15151515 0.46464646 0.38383838 1 0 0 0 1 0 0 0 1 0.3333333333333333 0.3333333333333333 0.3333333333333333 0.3333333333333333 0.3333333333333333 0.3333333333333333 0.3333333333333333 0.3333333333333333 0.3333333333333333 0.3333333333333333 0.3333333333333333 0.3333333333333333 0.3333333333333333 0.3333333333333333 0.3333333333333333 0.3333333333333333 0.3333333333333333 0.3333333333333333</probabilities>
		</cpt>
		<cpt id="MinTemperature_24">
			<state id="Temp_5_1C" />
			<state id="Temp_0_4C" />
			<state id="Temp_5_9C" />
			<state id="Temp_10_14C" />
			<state id="Temp_15_19C" />
			<state id="Temp_20_24C" />
			<parents>Events</parents>
			<probabilities>0 0.1613226452905812 0.5490981963927856 0.06412825651302605 0.2254509018036072 0 0 0 0.3333333333333333 0.4444444444444444 0 0.2222222222222223 0 0 1 0 0 0 0.1666666666666667 0.1666666666666667 0.1666666666666667 0.1666666666666667 0.1666666666666667 0.1666666666666667 0 0 1 0 0 0 0 1 0 0 0 0 0.01312493738102395 0.1312493738102395 0.2504759042180142 0.4348261697224727 0.105199879771566 0.06512373509668368</probabilities>
		</cpt>
		<cpt id="Delay_24">
			<state id="Normal" />
			<state id="Low_Delay" />
			<state id="High_Delay" />
			<parents>MinTemperature_24 Delay_23</parents>
			<probabilities>0.666666667 0.333333333 0 0.3333333333 0.666666667 0 0 0.33333333 0.666666667 0.31 0.23 0.46 0.23 0.31 0.46 0.46 0.23 0.31 0.38383838 0.46464646 0.15151515 0.46464646 0.38383838 0.15151515 0.15151515 0.46464646 0.38383838 1 0 0 0 1 0 0 0 1 0.3333333333333333 0.3333333333333333 0.3333333333333333 0.3333333333333333 0.3333333333333333 0.3333333333333333 0.3333333333333333 0.3333333333333333 0.3333333333333333 0.3333333333333333 0.3333333333333333 0.3333333333333333 0.3333333333333333 0.3333333333333333 0.3333333333333333 0.3333333333333333 0.3333333333333333 0.3333333333333333</probabilities>
		</cpt>
		<cpt id="MinTemperature_25">
			<state id="Temp_5_1C" />
			<state id="Temp_0_4C" />
			<state id="Temp_5_9C" />
			<state id="Temp_10_14C" />
			<state id="Temp_15_19C" />
			<state id="Temp_20_24C" />
			<parents>Events</parents>
			<probabilities>0 0.1613226452905812 0.5490981963927856 0.06412825651302605 0.2254509018036072 0 0 0 0.3333333333333333 0.4444444444444444 0 0.2222222222222223 0 0 1 0 0 0 0.1666666666666667 0.1666666666666667 0.1666666666666667 0.1666666666666667 0.1666666666666667 0.1666666666666667 0 0 1 0 0 0 0 1 0 0 0 0 0.01312493738102395 0.1312493738102395 0.2504759042180142 0.4348261697224727 0.105199879771566 0.06512373509668368</probabilities>
		</cpt>
		<cpt id="Delay_25">
			<state id="Normal" />
			<state id="Low_Delay" />
			<state id="High_Delay" />
			<parents>MinTemperature_25 Delay_24</parents>
			<probabilities>0.666666667 0.333333333 0 0.3333333333 0.666666667 0 0 0.33333333 0.666666667 0.31 0.23 0.46 0.23 0.31 0.46 0.46 0.23 0.31 0.38383838 0.46464646 0.15151515 0.46464646 0.38383838 0.15151515 0.15151515 0.46464646 0.38383838 1 0 0 0 1 0 0 0 1 0.3333333333333333 0.3333333333333333 0.3333333333333333 0.3333333333333333 0.3333333333333333 0.3333333333333333 0.3333333333333333 0.3333333333333333 0.3333333333333333 0.3333333333333333 0.3333333333333333 0.3333333333333333 0.3333333333333333 0.3333333333333333 0.3333333333333333 0.3333333333333333 0.3333333333333333 0.3333333333333333</probabilities>
		</cpt>
		<cpt id="MinTemperature_26">
			<state id="Temp_5_1C" />
			<state id="Temp_0_4C" />
			<state id="Temp_5_9C" />
			<state id="Temp_10_14C" />
			<state id="Temp_15_19C" />
			<state id="Temp_20_24C" />
			<parents>Events</parents>
			<probabilities>0 0.1613226452905812 0.5490981963927856 0.06412825651302605 0.2254509018036072 0 0 0 0.3333333333333333 0.4444444444444444 0 0.2222222222222223 0 0 1 0 0 0 0.1666666666666667 0.1666666666666667 0.1666666666666667 0.1666666666666667 0.1666666666666667 0.1666666666666667 0 0 1 0 0 0 0 1 0 0 0 0 0.01312493738102395 0.1312493738102395 0.2504759042180142 0.4348261697224727 0.105199879771566 0.06512373509668368</probabilities>
		</cpt>
		<cpt id="Delay_26">
			<state id="Normal" />
			<state id="Low_Delay" />
			<state id="High_Delay" />
			<parents>MinTemperature_26 Delay_25</parents>
			<probabilities>0.666666667 0.333333333 0 0.3333333333 0.666666667 0 0 0.33333333 0.666666667 0.31 0.23 0.46 0.23 0.31 0.46 0.46 0.23 0.31 0.38383838 0.46464646 0.15151515 0.46464646 0.38383838 0.15151515 0.15151515 0.46464646 0.38383838 1 0 0 0 1 0 0 0 1 0.3333333333333333 0.3333333333333333 0.3333333333333333 0.3333333333333333 0.3333333333333333 0.3333333333333333 0.3333333333333333 0.3333333333333333 0.3333333333333333 0.3333333333333333 0.3333333333333333 0.3333333333333333 0.3333333333333333 0.3333333333333333 0.3333333333333333 0.3333333333333333 0.3333333333333333 0.3333333333333333</probabilities>
		</cpt>
		<cpt id="MinTemperature_27">
			<state id="Temp_5_1C" />
			<state id="Temp_0_4C" />
			<state id="Temp_5_9C" />
			<state id="Temp_10_14C" />
			<state id="Temp_15_19C" />
			<state id="Temp_20_24C" />
			<parents>Events</parents>
			<probabilities>0 0.1613226452905812 0.5490981963927856 0.06412825651302605 0.2254509018036072 0 0 0 0.3333333333333333 0.4444444444444444 0 0.2222222222222223 0 0 1 0 0 0 0.1666666666666667 0.1666666666666667 0.1666666666666667 0.1666666666666667 0.1666666666666667 0.1666666666666667 0 0 1 0 0 0 0 1 0 0 0 0 0.01312493738102395 0.1312493738102395 0.2504759042180142 0.4348261697224727 0.105199879771566 0.06512373509668368</probabilities>
		</cpt>
		<cpt id="Delay_27">
			<state id="Normal" />
			<state id="Low_Delay" />
			<state id="High_Delay" />
			<parents>MinTemperature_27 Delay_26</parents>
			<probabilities>0.666666667 0.333333333 0 0.3333333333 0.666666667 0 0 0.33333333 0.666666667 0.31 0.23 0.46 0.23 0.31 0.46 0.46 0.23 0.31 0.38383838 0.46464646 0.15151515 0.46464646 0.38383838 0.15151515 0.15151515 0.46464646 0.38383838 1 0 0 0 1 0 0 0 1 0.3333333333333333 0.3333333333333333 0.3333333333333333 0.3333333333333333 0.3333333333333333 0.3333333333333333 0.3333333333333333 0.3333333333333333 0.3333333333333333 0.3333333333333333 0.3333333333333333 0.3333333333333333 0.3333333333333333 0.3333333333333333 0.3333333333333333 0.3333333333333333 0.3333333333333333 0.3333333333333333</probabilities>
		</cpt>
		<cpt id="MinTemperature_28">
			<state id="Temp_5_1C" />
			<state id="Temp_0_4C" />
			<state id="Temp_5_9C" />
			<state id="Temp_10_14C" />
			<state id="Temp_15_19C" />
			<state id="Temp_20_24C" />
			<parents>Events</parents>
			<probabilities>0 0.1613226452905812 0.5490981963927856 0.06412825651302605 0.2254509018036072 0 0 0 0.3333333333333333 0.4444444444444444 0 0.2222222222222223 0 0 1 0 0 0 0.1666666666666667 0.1666666666666667 0.1666666666666667 0.1666666666666667 0.1666666666666667 0.1666666666666667 0 0 1 0 0 0 0 1 0 0 0 0 0.01312493738102395 0.1312493738102395 0.2504759042180142 0.4348261697224727 0.105199879771566 0.06512373509668368</probabilities>
		</cpt>
		<cpt id="Delay_28">
			<state id="Normal" />
			<state id="Low_Delay" />
			<state id="High_Delay" />
			<parents>MinTemperature_28 Delay_27</parents>
			<probabilities>0.666666667 0.333333333 0 0.3333333333 0.666666667 0 0 0.33333333 0.666666667 0.31 0.23 0.46 0.23 0.31 0.46 0.46 0.23 0.31 0.38383838 0.46464646 0.15151515 0.46464646 0.38383838 0.15151515 0.15151515 0.46464646 0.38383838 1 0 0 0 1 0 0 0 1 0.3333333333333333 0.3333333333333333 0.3333333333333333 0.3333333333333333 0.3333333333333333 0.3333333333333333 0.3333333333333333 0.3333333333333333 0.3333333333333333 0.3333333333333333 0.3333333333333333 0.3333333333333333 0.3333333333333333 0.3333333333333333 0.3333333333333333 0.3333333333333333 0.3333333333333333 0.3333333333333333</probabilities>
		</cpt>
		<cpt id="MinTemperature_29">
			<state id="Temp_5_1C" />
			<state id="Temp_0_4C" />
			<state id="Temp_5_9C" />
			<state id="Temp_10_14C" />
			<state id="Temp_15_19C" />
			<state id="Temp_20_24C" />
			<parents>Events</parents>
			<probabilities>0 0.1613226452905812 0.5490981963927856 0.06412825651302605 0.2254509018036072 0 0 0 0.3333333333333333 0.4444444444444444 0 0.2222222222222223 0 0 1 0 0 0 0.1666666666666667 0.1666666666666667 0.1666666666666667 0.1666666666666667 0.1666666666666667 0.1666666666666667 0 0 1 0 0 0 0 1 0 0 0 0 0.01312493738102395 0.1312493738102395 0.2504759042180142 0.4348261697224727 0.105199879771566 0.06512373509668368</probabilities>
		</cpt>
		<cpt id="Delay_29">
			<state id="Normal" />
			<state id="Low_Delay" />
			<state id="High_Delay" />
			<parents>MinTemperature_29 Delay_28</parents>
			<probabilities>0.666666667 0.333333333 0 0.3333333333 0.666666667 0 0 0.33333333 0.666666667 0.31 0.23 0.46 0.23 0.31 0.46 0.46 0.23 0.31 0.38383838 0.46464646 0.15151515 0.46464646 0.38383838 0.15151515 0.15151515 0.46464646 0.38383838 1 0 0 0 1 0 0 0 1 0.3333333333333333 0.3333333333333333 0.3333333333333333 0.3333333333333333 0.3333333333333333 0.3333333333333333 0.3333333333333333 0.3333333333333333 0.3333333333333333 0.3333333333333333 0.3333333333333333 0.3333333333333333 0.3333333333333333 0.3333333333333333 0.3333333333333333 0.3333333333333333 0.3333333333333333 0.3333333333333333</probabilities>
		</cpt>
		<cpt id="MinTemperature_30">
			<state id="Temp_5_1C" />
			<state id="Temp_0_4C" />
			<state id="Temp_5_9C" />
			<state id="Temp_10_14C" />
			<state id="Temp_15_19C" />
			<state id="Temp_20_24C" />
			<parents>Events</parents>
			<probabilities>0 0.1613226452905812 0.5490981963927856 0.06412825651302605 0.2254509018036072 0 0 0 0.3333333333333333 0.4444444444444444 0 0.2222222222222223 0 0 1 0 0 0 0.1666666666666667 0.1666666666666667 0.1666666666666667 0.1666666666666667 0.1666666666666667 0.1666666666666667 0 0 1 0 0 0 0 1 0 0 0 0 0.01312493738102395 0.1312493738102395 0.2504759042180142 0.4348261697224727 0.105199879771566 0.06512373509668368</probabilities>
		</cpt>
		<cpt id="Delay_30">
			<state id="Normal" />
			<state id="Low_Delay" />
			<state id="High_Delay" />
			<parents>MinTemperature_30 Delay_29</parents>
			<probabilities>0.666666667 0.333333333 0 0.3333333333 0.666666667 0 0 0.33333333 0.666666667 0.31 0.23 0.46 0.23 0.31 0.46 0.46 0.23 0.31 0.38383838 0.46464646 0.15151515 0.46464646 0.38383838 0.15151515 0.15151515 0.46464646 0.38383838 1 0 0 0 1 0 0 0 1 0.3333333333333333 0.3333333333333333 0.3333333333333333 0.3333333333333333 0.3333333333333333 0.3333333333333333 0.3333333333333333 0.3333333333333333 0.3333333333333333 0.3333333333333333 0.3333333333333333 0.3333333333333333 0.3333333333333333 0.3333333333333333 0.3333333333333333 0.3333333333333333 0.3333333333333333 0.3333333333333333</probabilities>
		</cpt>
		<cpt id="MinTemperature_31">
			<state id="Temp_5_1C" />
			<state id="Temp_0_4C" />
			<state id="Temp_5_9C" />
			<state id="Temp_10_14C" />
			<state id="Temp_15_19C" />
			<state id="Temp_20_24C" />
			<parents>Events</parents>
			<probabilities>0 0.1613226452905812 0.5490981963927856 0.06412825651302605 0.2254509018036072 0 0 0 0.3333333333333333 0.4444444444444444 0 0.2222222222222223 0 0 1 0 0 0 0.1666666666666667 0.1666666666666667 0.1666666666666667 0.1666666666666667 0.1666666666666667 0.1666666666666667 0 0 1 0 0 0 0 1 0 0 0 0 0.01312493738102395 0.1312493738102395 0.2504759042180142 0.4348261697224727 0.105199879771566 0.06512373509668368</probabilities>
		</cpt>
		<cpt id="Delay_31">
			<state id="Normal" />
			<state id="Low_Delay" />
			<state id="High_Delay" />
			<parents>MinTemperature_31 Delay_30</parents>
			<probabilities>0.666666667 0.333333333 0 0.3333333333 0.666666667 0 0 0.33333333 0.666666667 0.31 0.23 0.46 0.23 0.31 0.46 0.46 0.23 0.31 0.38383838 0.46464646 0.15151515 0.46464646 0.38383838 0.15151515 0.15151515 0.46464646 0.38383838 1 0 0 0 1 0 0 0 1 0.3333333333333333 0.3333333333333333 0.3333333333333333 0.3333333333333333 0.3333333333333333 0.3333333333333333 0.3333333333333333 0.3333333333333333 0.3333333333333333 0.3333333333333333 0.3333333333333333 0.3333333333333333 0.3333333333333333 0.3333333333333333 0.3333333333333333 0.3333333333333333 0.3333333333333333 0.3333333333333333</probabilities>
		</cpt>
		<cpt id="MinTemperature_32">
			<state id="Temp_5_1C" />
			<state id="Temp_0_4C" />
			<state id="Temp_5_9C" />
			<state id="Temp_10_14C" />
			<state id="Temp_15_19C" />
			<state id="Temp_20_24C" />
			<parents>Events</parents>
			<probabilities>0 0.1613226452905812 0.5490981963927856 0.06412825651302605 0.2254509018036072 0 0 0 0.3333333333333333 0.4444444444444444 0 0.2222222222222223 0 0 1 0 0 0 0.1666666666666667 0.1666666666666667 0.1666666666666667 0.1666666666666667 0.1666666666666667 0.1666666666666667 0 0 1 0 0 0 0 1 0 0 0 0 0.01312493738102395 0.1312493738102395 0.2504759042180142 0.4348261697224727 0.105199879771566 0.06512373509668368</probabilities>
		</cpt>
		<cpt id="Delay_32">
			<state id="Normal" />
			<state id="Low_Delay" />
			<state id="High_Delay" />
			<parents>MinTemperature_32 Delay_31</parents>
			<probabilities>0.666666667 0.333333333 0 0.3333333333 0.666666667 0 0 0.33333333 0.666666667 0.31 0.23 0.46 0.23 0.31 0.46 0.46 0.23 0.31 0.38383838 0.46464646 0.15151515 0.46464646 0.38383838 0.15151515 0.15151515 0.46464646 0.38383838 1 0 0 0 1 0 0 0 1 0.3333333333333333 0.3333333333333333 0.3333333333333333 0.3333333333333333 0.3333333333333333 0.3333333333333333 0.3333333333333333 0.3333333333333333 0.3333333333333333 0.3333333333333333 0.3333333333333333 0.3333333333333333 0.3333333333333333 0.3333333333333333 0.3333333333333333 0.3333333333333333 0.3333333333333333 0.3333333333333333</probabilities>
		</cpt>
		<cpt id="MinTemperature_33">
			<state id="Temp_5_1C" />
			<state id="Temp_0_4C" />
			<state id="Temp_5_9C" />
			<state id="Temp_10_14C" />
			<state id="Temp_15_19C" />
			<state id="Temp_20_24C" />
			<parents>Events</parents>
			<probabilities>0 0.1613226452905812 0.5490981963927856 0.06412825651302605 0.2254509018036072 0 0 0 0.3333333333333333 0.4444444444444444 0 0.2222222222222223 0 0 1 0 0 0 0.1666666666666667 0.1666666666666667 0.1666666666666667 0.1666666666666667 0.1666666666666667 0.1666666666666667 0 0 1 0 0 0 0 1 0 0 0 0 0.01312493738102395 0.1312493738102395 0.2504759042180142 0.4348261697224727 0.105199879771566 0.06512373509668368</probabilities>
		</cpt>
		<cpt id="Delay_33">
			<state id="Normal" />
			<state id="Low_Delay" />
			<state id="High_Delay" />
			<parents>MinTemperature_33 Delay_32</parents>
			<probabilities>0.666666667 0.333333333 0 0.3333333333 0.666666667 0 0 0.33333333 0.666666667 0.31 0.23 0.46 0.23 0.31 0.46 0.46 0.23 0.31 0.38383838 0.46464646 0.15151515 0.46464646 0.38383838 0.15151515 0.15151515 0.46464646 0.38383838 1 0 0 0 1 0 0 0 1 0.3333333333333333 0.3333333333333333 0.3333333333333333 0.3333333333333333 0.3333333333333333 0.3333333333333333 0.3333333333333333 0.3333333333333333 0.3333333333333333 0.3333333333333333 0.3333333333333333 0.3333333333333333 0.3333333333333333 0.3333333333333333 0.3333333333333333 0.3333333333333333 0.3333333333333333 0.3333333333333333</probabilities>
		</cpt>
		<cpt id="MinTemperature_34">
			<state id="Temp_5_1C" />
			<state id="Temp_0_4C" />
			<state id="Temp_5_9C" />
			<state id="Temp_10_14C" />
			<state id="Temp_15_19C" />
			<state id="Temp_20_24C" />
			<parents>Events</parents>
			<probabilities>0 0.1613226452905812 0.5490981963927856 0.06412825651302605 0.2254509018036072 0 0 0 0.3333333333333333 0.4444444444444444 0 0.2222222222222223 0 0 1 0 0 0 0.1666666666666667 0.1666666666666667 0.1666666666666667 0.1666666666666667 0.1666666666666667 0.1666666666666667 0 0 1 0 0 0 0 1 0 0 0 0 0.01312493738102395 0.1312493738102395 0.2504759042180142 0.4348261697224727 0.105199879771566 0.06512373509668368</probabilities>
		</cpt>
		<cpt id="Delay_34">
			<state id="Normal" />
			<state id="Low_Delay" />
			<state id="High_Delay" />
			<parents>MinTemperature_34 Delay_33</parents>
			<probabilities>0.666666667 0.333333333 0 0.3333333333 0.666666667 0 0 0.33333333 0.666666667 0.31 0.23 0.46 0.23 0.31 0.46 0.46 0.23 0.31 0.38383838 0.46464646 0.15151515 0.46464646 0.38383838 0.15151515 0.15151515 0.46464646 0.38383838 1 0 0 0 1 0 0 0 1 0.3333333333333333 0.3333333333333333 0.3333333333333333 0.3333333333333333 0.3333333333333333 0.3333333333333333 0.3333333333333333 0.3333333333333333 0.3333333333333333 0.3333333333333333 0.3333333333333333 0.3333333333333333 0.3333333333333333 0.3333333333333333 0.3333333333333333 0.3333333333333333 0.3333333333333333 0.3333333333333333</probabilities>
		</cpt>
		<cpt id="MinTemperature_35">
			<state id="Temp_5_1C" />
			<state id="Temp_0_4C" />
			<state id="Temp_5_9C" />
			<state id="Temp_10_14C" />
			<state id="Temp_15_19C" />
			<state id="Temp_20_24C" />
			<parents>Events</parents>
			<probabilities>0 0.1613226452905812 0.5490981963927856 0.06412825651302605 0.2254509018036072 0 0 0 0.3333333333333333 0.4444444444444444 0 0.2222222222222223 0 0 1 0 0 0 0.1666666666666667 0.1666666666666667 0.1666666666666667 0.1666666666666667 0.1666666666666667 0.1666666666666667 0 0 1 0 0 0 0 1 0 0 0 0 0.01312493738102395 0.1312493738102395 0.2504759042180142 0.4348261697224727 0.105199879771566 0.06512373509668368</probabilities>
		</cpt>
		<cpt id="Delay_35">
			<state id="Normal" />
			<state id="Low_Delay" />
			<state id="High_Delay" />
			<parents>MinTemperature_35 Delay_34</parents>
			<probabilities>0.666666667 0.333333333 0 0.3333333333 0.666666667 0 0 0.33333333 0.666666667 0.31 0.23 0.46 0.23 0.31 0.46 0.46 0.23 0.31 0.38383838 0.46464646 0.15151515 0.46464646 0.38383838 0.15151515 0.15151515 0.46464646 0.38383838 1 0 0 0 1 0 0 0 1 0.3333333333333333 0.3333333333333333 0.3333333333333333 0.3333333333333333 0.3333333333333333 0.3333333333333333 0.3333333333333333 0.3333333333333333 0.3333333333333333 0.3333333333333333 0.3333333333333333 0.3333333333333333 0.3333333333333333 0.3333333333333333 0.3333333333333333 0.3333333333333333 0.3333333333333333 0.3333333333333333</probabilities>
		</cpt>
		<cpt id="MinTemperature_36">
			<state id="Temp_5_1C" />
			<state id="Temp_0_4C" />
			<state id="Temp_5_9C" />
			<state id="Temp_10_14C" />
			<state id="Temp_15_19C" />
			<state id="Temp_20_24C" />
			<parents>Events</parents>
			<probabilities>0 0.1613226452905812 0.5490981963927856 0.06412825651302605 0.2254509018036072 0 0 0 0.3333333333333333 0.4444444444444444 0 0.2222222222222223 0 0 1 0 0 0 0.1666666666666667 0.1666666666666667 0.1666666666666667 0.1666666666666667 0.1666666666666667 0.1666666666666667 0 0 1 0 0 0 0 1 0 0 0 0 0.01312493738102395 0.1312493738102395 0.2504759042180142 0.4348261697224727 0.105199879771566 0.06512373509668368</probabilities>
		</cpt>
		<cpt id="Delay_36">
			<state id="Normal" />
			<state id="Low_Delay" />
			<state id="High_Delay" />
			<parents>MinTemperature_36 Delay_35</parents>
			<probabilities>0.666666667 0.333333333 0 0.3333333333 0.666666667 0 0 0.33333333 0.666666667 0.31 0.23 0.46 0.23 0.31 0.46 0.46 0.23 0.31 0.38383838 0.46464646 0.15151515 0.46464646 0.38383838 0.15151515 0.15151515 0.46464646 0.38383838 1 0 0 0 1 0 0 0 1 0.3333333333333333 0.3333333333333333 0.3333333333333333 0.3333333333333333 0.3333333333333333 0.3333333333333333 0.3333333333333333 0.3333333333333333 0.3333333333333333 0.3333333333333333 0.3333333333333333 0.3333333333333333 0.3333333333333333 0.3333333333333333 0.3333333333333333 0.3333333333333333 0.3333333333333333 0.3333333333333333</probabilities>
		</cpt>
		<cpt id="MinTemperature_37">
			<state id="Temp_5_1C" />
			<state id="Temp_0_4C" />
			<state id="Temp_5_9C" />
			<state id="Temp_10_14C" />
			<state id="Temp_15_19C" />
			<state id="Temp_20_24C" />
			<parents>Events</parents>
			<probabilities>0 0.1613226452905812 0.5490981963927856 0.06412825651302605 0.2254509018036072 0 0 0 0.3333333333333333 0.4444444444444444 0 0.2222222222222223 0 0 1 0 0 0 0.1666666666666667 0.1666666666666667 0.1666666666666667 0.1666666666666667 0.1666666666666667 0.1666666666666667 0 0 1 0 0 0 0 1 0 0 0 0 0.01312493738102395 0.1312493738102395 0.2504759042180142 0.4348261697224727 0.105199879771566 0.06512373509668368</probabilities>
		</cpt>
		<cpt id="Delay_37">
			<state id="Normal" />
			<state id="Low_Delay" />
			<state id="High_Delay" />
			<parents>MinTemperature_37 Delay_36</parents>
			<probabilities>0.666666667 0.333333333 0 0.3333333333 0.666666667 0 0 0.33333333 0.666666667 0.31 0.23 0.46 0.23 0.31 0.46 0.46 0.23 0.31 0.38383838 0.46464646 0.15151515 0.46464646 0.38383838 0.15151515 0.15151515 0.46464646 0.38383838 1 0 0 0 1 0 0 0 1 0.3333333333333333 0.3333333333333333 0.3333333333333333 0.3333333333333333 0.3333333333333333 0.3333333333333333 0.3333333333333333 0.3333333333333333 0.3333333333333333 0.3333333333333333 0.3333333333333333 0.3333333333333333 0.3333333333333333 0.3333333333333333 0.3333333333333333 0.3333333333333333 0.3333333333333333 0.3333333333333333</probabilities>
		</cpt>
		<cpt id="MinTemperature_38">
			<state id="Temp_5_1C" />
			<state id="Temp_0_4C" />
			<state id="Temp_5_9C" />
			<state id="Temp_10_14C" />
			<state id="Temp_15_19C" />
			<state id="Temp_20_24C" />
			<parents>Events</parents>
			<probabilities>0 0.1613226452905812 0.5490981963927856 0.06412825651302605 0.2254509018036072 0 0 0 0.3333333333333333 0.4444444444444444 0 0.2222222222222223 0 0 1 0 0 0 0.1666666666666667 0.1666666666666667 0.1666666666666667 0.1666666666666667 0.1666666666666667 0.1666666666666667 0 0 1 0 0 0 0 1 0 0 0 0 0.01312493738102395 0.1312493738102395 0.2504759042180142 0.4348261697224727 0.105199879771566 0.06512373509668368</probabilities>
		</cpt>
		<cpt id="Delay_38">
			<state id="Normal" />
			<state id="Low_Delay" />
			<state id="High_Delay" />
			<parents>MinTemperature_38 Delay_37</parents>
			<probabilities>0.666666667 0.333333333 0 0.3333333333 0.666666667 0 0 0.33333333 0.666666667 0.31 0.23 0.46 0.23 0.31 0.46 0.46 0.23 0.31 0.38383838 0.46464646 0.15151515 0.46464646 0.38383838 0.15151515 0.15151515 0.46464646 0.38383838 1 0 0 0 1 0 0 0 1 0.3333333333333333 0.3333333333333333 0.3333333333333333 0.3333333333333333 0.3333333333333333 0.3333333333333333 0.3333333333333333 0.3333333333333333 0.3333333333333333 0.3333333333333333 0.3333333333333333 0.3333333333333333 0.3333333333333333 0.3333333333333333 0.3333333333333333 0.3333333333333333 0.3333333333333333 0.3333333333333333</probabilities>
		</cpt>
		<cpt id="MinTemperature_39">
			<state id="Temp_5_1C" />
			<state id="Temp_0_4C" />
			<state id="Temp_5_9C" />
			<state id="Temp_10_14C" />
			<state id="Temp_15_19C" />
			<state id="Temp_20_24C" />
			<parents>Events</parents>
			<probabilities>0 0.1613226452905812 0.5490981963927856 0.06412825651302605 0.2254509018036072 0 0 0 0.3333333333333333 0.4444444444444444 0 0.2222222222222223 0 0 1 0 0 0 0.1666666666666667 0.1666666666666667 0.1666666666666667 0.1666666666666667 0.1666666666666667 0.1666666666666667 0 0 1 0 0 0 0 1 0 0 0 0 0.01312493738102395 0.1312493738102395 0.2504759042180142 0.4348261697224727 0.105199879771566 0.06512373509668368</probabilities>
		</cpt>
		<cpt id="Delay_39">
			<state id="Normal" />
			<state id="Low_Delay" />
			<state id="High_Delay" />
			<parents>MinTemperature_39 Delay_38</parents>
			<probabilities>0.666666667 0.333333333 0 0.3333333333 0.666666667 0 0 0.33333333 0.666666667 0.31 0.23 0.46 0.23 0.31 0.46 0.46 0.23 0.31 0.38383838 0.46464646 0.15151515 0.46464646 0.38383838 0.15151515 0.15151515 0.46464646 0.38383838 1 0 0 0 1 0 0 0 1 0.3333333333333333 0.3333333333333333 0.3333333333333333 0.3333333333333333 0.3333333333333333 0.3333333333333333 0.3333333333333333 0.3333333333333333 0.3333333333333333 0.3333333333333333 0.3333333333333333 0.3333333333333333 0.3333333333333333 0.3333333333333333 0.3333333333333333 0.3333333333333333 0.3333333333333333 0.3333333333333333</probabilities>
		</cpt>
		<cpt id="MinTemperature_40">
			<state id="Temp_5_1C" />
			<state id="Temp_0_4C" />
			<state id="Temp_5_9C" />
			<state id="Temp_10_14C" />
			<state id="Temp_15_19C" />
			<state id="Temp_20_24C" />
			<parents>Events</parents>
			<probabilities>0 0.1613226452905812 0.5490981963927856 0.06412825651302605 0.2254509018036072 0 0 0 0.3333333333333333 0.4444444444444444 0 0.2222222222222223 0 0 1 0 0 0 0.1666666666666667 0.1666666666666667 0.1666666666666667 0.1666666666666667 0.1666666666666667 0.1666666666666667 0 0 1 0 0 0 0 1 0 0 0 0 0.01312493738102395 0.1312493738102395 0.2504759042180142 0.4348261697224727 0.105199879771566 0.06512373509668368</probabilities>
		</cpt>
		<cpt id="Delay_40">
			<state id="Normal" />
			<state id="Low_Delay" />
			<state id="High_Delay" />
			<parents>MinTemperature_40 Delay_39</parents>
			<probabilities>0.666666667 0.333333333 0 0.3333333333 0.666666667 0 0 0.33333333 0.666666667 0.31 0.23 0.46 0.23 0.31 0.46 0.46 0.23 0.31 0.38383838 0.46464646 0.15151515 0.46464646 0.38383838 0.15151515 0.15151515 0.46464646 0.38383838 1 0 0 0 1 0 0 0 1 0.3333333333333333 0.3333333333333333 0.3333333333333333 0.3333333333333333 0.3333333333333333 0.3333333333333333 0.3333333333333333 0.3333333333333333 0.3333333333333333 0.3333333333333333 0.3333333333333333 0.3333333333333333 0.3333333333333333 0.3333333333333333 0.3333333333333333 0.3333333333333333 0.3333333333333333 0.3333333333333333</probabilities>
		</cpt>
		<cpt id="MinTemperature_41">
			<state id="Temp_5_1C" />
			<state id="Temp_0_4C" />
			<state id="Temp_5_9C" />
			<state id="Temp_10_14C" />
			<state id="Temp_15_19C" />
			<state id="Temp_20_24C" />
			<parents>Events</parents>
			<probabilities>0 0.1613226452905812 0.5490981963927856 0.06412825651302605 0.2254509018036072 0 0 0 0.3333333333333333 0.4444444444444444 0 0.2222222222222223 0 0 1 0 0 0 0.1666666666666667 0.1666666666666667 0.1666666666666667 0.1666666666666667 0.1666666666666667 0.1666666666666667 0 0 1 0 0 0 0 1 0 0 0 0 0.01312493738102395 0.1312493738102395 0.2504759042180142 0.4348261697224727 0.105199879771566 0.06512373509668368</probabilities>
		</cpt>
		<cpt id="Delay_41">
			<state id="Normal" />
			<state id="Low_Delay" />
			<state id="High_Delay" />
			<parents>MinTemperature_41 Delay_40</parents>
			<probabilities>0.666666667 0.333333333 0 0.3333333333 0.666666667 0 0 0.33333333 0.666666667 0.31 0.23 0.46 0.23 0.31 0.46 0.46 0.23 0.31 0.38383838 0.46464646 0.15151515 0.46464646 0.38383838 0.15151515 0.15151515 0.46464646 0.38383838 1 0 0 0 1 0 0 0 1 0.3333333333333333 0.3333333333333333 0.3333333333333333 0.3333333333333333 0.3333333333333333 0.3333333333333333 0.3333333333333333 0.3333333333333333 0.3333333333333333 0.3333333333333333 0.3333333333333333 0.3333333333333333 0.3333333333333333 0.3333333333333333 0.3333333333333333 0.3333333333333333 0.3333333333333333 0.3333333333333333</probabilities>
		</cpt>
		<cpt id="MinTemperature_42">
			<state id="Temp_5_1C" />
			<state id="Temp_0_4C" />
			<state id="Temp_5_9C" />
			<state id="Temp_10_14C" />
			<state id="Temp_15_19C" />
			<state id="Temp_20_24C" />
			<parents>Events</parents>
			<probabilities>0 0.1613226452905812 0.5490981963927856 0.06412825651302605 0.2254509018036072 0 0 0 0.3333333333333333 0.4444444444444444 0 0.2222222222222223 0 0 1 0 0 0 0.1666666666666667 0.1666666666666667 0.1666666666666667 0.1666666666666667 0.1666666666666667 0.1666666666666667 0 0 1 0 0 0 0 1 0 0 0 0 0.01312493738102395 0.1312493738102395 0.2504759042180142 0.4348261697224727 0.105199879771566 0.06512373509668368</probabilities>
		</cpt>
		<cpt id="Delay_42">
			<state id="Normal" />
			<state id="Low_Delay" />
			<state id="High_Delay" />
			<parents>MinTemperature_42 Delay_41</parents>
			<probabilities>0.666666667 0.333333333 0 0.3333333333 0.666666667 0 0 0.33333333 0.666666667 0.31 0.23 0.46 0.23 0.31 0.46 0.46 0.23 0.31 0.38383838 0.46464646 0.15151515 0.46464646 0.38383838 0.15151515 0.15151515 0.46464646 0.38383838 1 0 0 0 1 0 0 0 1 0.3333333333333333 0.3333333333333333 0.3333333333333333 0.3333333333333333 0.3333333333333333 0.3333333333333333 0.3333333333333333 0.3333333333333333 0.3333333333333333 0.3333333333333333 0.3333333333333333 0.3333333333333333 0.3333333333333333 0.3333333333333333 0.3333333333333333 0.3333333333333333 0.3333333333333333 0.3333333333333333</probabilities>
		</cpt>
		<cpt id="MinTemperature_43">
			<state id="Temp_5_1C" />
			<state id="Temp_0_4C" />
			<state id="Temp_5_9C" />
			<state id="Temp_10_14C" />
			<state id="Temp_15_19C" />
			<state id="Temp_20_24C" />
			<parents>Events</parents>
			<probabilities>0 0.1613226452905812 0.5490981963927856 0.06412825651302605 0.2254509018036072 0 0 0 0.3333333333333333 0.4444444444444444 0 0.2222222222222223 0 0 1 0 0 0 0.1666666666666667 0.1666666666666667 0.1666666666666667 0.1666666666666667 0.1666666666666667 0.1666666666666667 0 0 1 0 0 0 0 1 0 0 0 0 0.01312493738102395 0.1312493738102395 0.2504759042180142 0.4348261697224727 0.105199879771566 0.06512373509668368</probabilities>
		</cpt>
		<cpt id="Delay_43">
			<state id="Normal" />
			<state id="Low_Delay" />
			<state id="High_Delay" />
			<parents>MinTemperature_43 Delay_42</parents>
			<probabilities>0.666666667 0.333333333 0 0.3333333333 0.666666667 0 0 0.33333333 0.666666667 0.31 0.23 0.46 0.23 0.31 0.46 0.46 0.23 0.31 0.38383838 0.46464646 0.15151515 0.46464646 0.38383838 0.15151515 0.15151515 0.46464646 0.38383838 1 0 0 0 1 0 0 0 1 0.3333333333333333 0.3333333333333333 0.3333333333333333 0.3333333333333333 0.3333333333333333 0.3333333333333333 0.3333333333333333 0.3333333333333333 0.3333333333333333 0.3333333333333333 0.3333333333333333 0.3333333333333333 0.3333333333333333 0.3333333333333333 0.3333333333333333 0.3333333333333333 0.3333333333333333 0.3333333333333333</probabilities>
		</cpt>
		<cpt id="MinTemperature_44">
			<state id="Temp_5_1C" />
			<state id="Temp_0_4C" />
			<state id="Temp_5_9C" />
			<state id="Temp_10_14C" />
			<state id="Temp_15_19C" />
			<state id="Temp_20_24C" />
			<parents>Events</parents>
			<probabilities>0 0.1613226452905812 0.5490981963927856 0.06412825651302605 0.2254509018036072 0 0 0 0.3333333333333333 0.4444444444444444 0 0.2222222222222223 0 0 1 0 0 0 0.1666666666666667 0.1666666666666667 0.1666666666666667 0.1666666666666667 0.1666666666666667 0.1666666666666667 0 0 1 0 0 0 0 1 0 0 0 0 0.01312493738102395 0.1312493738102395 0.2504759042180142 0.4348261697224727 0.105199879771566 0.06512373509668368</probabilities>
		</cpt>
		<cpt id="Delay_44">
			<state id="Normal" />
			<state id="Low_Delay" />
			<state id="High_Delay" />
			<parents>MinTemperature_44 Delay_43</parents>
			<probabilities>0.666666667 0.333333333 0 0.3333333333 0.666666667 0 0 0.33333333 0.666666667 0.31 0.23 0.46 0.23 0.31 0.46 0.46 0.23 0.31 0.38383838 0.46464646 0.15151515 0.46464646 0.38383838 0.15151515 0.15151515 0.46464646 0.38383838 1 0 0 0 1 0 0 0 1 0.3333333333333333 0.3333333333333333 0.3333333333333333 0.3333333333333333 0.3333333333333333 0.3333333333333333 0.3333333333333333 0.3333333333333333 0.3333333333333333 0.3333333333333333 0.3333333333333333 0.3333333333333333 0.3333333333333333 0.3333333333333333 0.3333333333333333 0.3333333333333333 0.3333333333333333 0.3333333333333333</probabilities>
		</cpt>
		<cpt id="MinTemperature_45">
			<state id="Temp_5_1C" />
			<state id="Temp_0_4C" />
			<state id="Temp_5_9C" />
			<state id="Temp_10_14C" />
			<state id="Temp_15_19C" />
			<state id="Temp_20_24C" />
			<parents>Events</parents>
			<probabilities>0 0.1613226452905812 0.5490981963927856 0.06412825651302605 0.2254509018036072 0 0 0 0.3333333333333333 0.4444444444444444 0 0.2222222222222223 0 0 1 0 0 0 0.1666666666666667 0.1666666666666667 0.1666666666666667 0.1666666666666667 0.1666666666666667 0.1666666666666667 0 0 1 0 0 0 0 1 0 0 0 0 0.01312493738102395 0.1312493738102395 0.2504759042180142 0.4348261697224727 0.105199879771566 0.06512373509668368</probabilities>
		</cpt>
		<cpt id="Delay_45">
			<state id="Normal" />
			<state id="Low_Delay" />
			<state id="High_Delay" />
			<parents>MinTemperature_45 Delay_44</parents>
			<probabilities>0.666666667 0.333333333 0 0.3333333333 0.666666667 0 0 0.33333333 0.666666667 0.31 0.23 0.46 0.23 0.31 0.46 0.46 0.23 0.31 0.38383838 0.46464646 0.15151515 0.46464646 0.38383838 0.15151515 0.15151515 0.46464646 0.38383838 1 0 0 0 1 0 0 0 1 0.3333333333333333 0.3333333333333333 0.3333333333333333 0.3333333333333333 0.3333333333333333 0.3333333333333333 0.3333333333333333 0.3333333333333333 0.3333333333333333 0.3333333333333333 0.3333333333333333 0.3333333333333333 0.3333333333333333 0.3333333333333333 0.3333333333333333 0.3333333333333333 0.3333333333333333 0.3333333333333333</probabilities>
		</cpt>
		<cpt id="MinTemperature_46">
			<state id="Temp_5_1C" />
			<state id="Temp_0_4C" />
			<state id="Temp_5_9C" />
			<state id="Temp_10_14C" />
			<state id="Temp_15_19C" />
			<state id="Temp_20_24C" />
			<parents>Events</parents>
			<probabilities>0 0.1613226452905812 0.5490981963927856 0.06412825651302605 0.2254509018036072 0 0 0 0.3333333333333333 0.4444444444444444 0 0.2222222222222223 0 0 1 0 0 0 0.1666666666666667 0.1666666666666667 0.1666666666666667 0.1666666666666667 0.1666666666666667 0.1666666666666667 0 0 1 0 0 0 0 1 0 0 0 0 0.01312493738102395 0.1312493738102395 0.2504759042180142 0.4348261697224727 0.105199879771566 0.06512373509668368</probabilities>
		</cpt>
		<cpt id="Delay_46">
			<state id="Normal" />
			<state id="Low_Delay" />
			<state id="High_Delay" />
			<parents>MinTemperature_46 Delay_45</parents>
			<probabilities>0.666666667 0.333333333 0 0.3333333333 0.666666667 0 0 0.33333333 0.666666667 0.31 0.23 0.46 0.23 0.31 0.46 0.46 0.23 0.31 0.38383838 0.46464646 0.15151515 0.46464646 0.38383838 0.15151515 0.15151515 0.46464646 0.38383838 1 0 0 0 1 0 0 0 1 0.3333333333333333 0.3333333333333333 0.3333333333333333 0.3333333333333333 0.3333333333333333 0.3333333333333333 0.3333333333333333 0.3333333333333333 0.3333333333333333 0.3333333333333333 0.3333333333333333 0.3333333333333333 0.3333333333333333 0.3333333333333333 0.3333333333333333 0.3333333333333333 0.3333333333333333 0.3333333333333333</probabilities>
		</cpt>
		<cpt id="MinTemperature_47">
			<state id="Temp_5_1C" />
			<state id="Temp_0_4C" />
			<state id="Temp_5_9C" />
			<state id="Temp_10_14C" />
			<state id="Temp_15_19C" />
			<state id="Temp_20_24C" />
			<parents>Events</parents>
			<probabilities>0 0.1613226452905812 0.5490981963927856 0.06412825651302605 0.2254509018036072 0 0 0 0.3333333333333333 0.4444444444444444 0 0.2222222222222223 0 0 1 0 0 0 0.1666666666666667 0.1666666666666667 0.1666666666666667 0.1666666666666667 0.1666666666666667 0.1666666666666667 0 0 1 0 0 0 0 1 0 0 0 0 0.01312493738102395 0.1312493738102395 0.2504759042180142 0.4348261697224727 0.105199879771566 0.06512373509668368</probabilities>
		</cpt>
		<cpt id="Delay_47">
			<state id="Normal" />
			<state id="Low_Delay" />
			<state id="High_Delay" />
			<parents>MinTemperature_47 Delay_46</parents>
			<probabilities>0.666666667 0.333333333 0 0.3333333333 0.666666667 0 0 0.33333333 0.666666667 0.31 0.23 0.46 0.23 0.31 0.46 0.46 0.23 0.31 0.38383838 0.46464646 0.15151515 0.46464646 0.38383838 0.15151515 0.15151515 0.46464646 0.38383838 1 0 0 0 1 0 0 0 1 0.3333333333333333 0.3333333333333333 0.3333333333333333 0.3333333333333333 0.3333333333333333 0.3333333333333333 0.3333333333333333 0.3333333333333333 0.3333333333333333 0.3333333333333333 0.3333333333333333 0.3333333333333333 0.3333333333333333 0.3333333333333333 0.3333333333333333 0.3333333333333333 0.3333333333333333 0.3333333333333333</probabilities>
		</cpt>
		<cpt id="MinTemperature_48">
			<state id="Temp_5_1C" />
			<state id="Temp_0_4C" />
			<state id="Temp_5_9C" />
			<state id="Temp_10_14C" />
			<state id="Temp_15_19C" />
			<state id="Temp_20_24C" />
			<parents>Events</parents>
			<probabilities>0 0.1613226452905812 0.5490981963927856 0.06412825651302605 0.2254509018036072 0 0 0 0.3333333333333333 0.4444444444444444 0 0.2222222222222223 0 0 1 0 0 0 0.1666666666666667 0.1666666666666667 0.1666666666666667 0.1666666666666667 0.1666666666666667 0.1666666666666667 0 0 1 0 0 0 0 1 0 0 0 0 0.01312493738102395 0.1312493738102395 0.2504759042180142 0.4348261697224727 0.105199879771566 0.06512373509668368</probabilities>
		</cpt>
		<cpt id="Delay_48">
			<state id="Normal" />
			<state id="Low_Delay" />
			<state id="High_Delay" />
			<parents>MinTemperature_48 Delay_47</parents>
			<probabilities>0.666666667 0.333333333 0 0.3333333333 0.666666667 0 0 0.33333333 0.666666667 0.31 0.23 0.46 0.23 0.31 0.46 0.46 0.23 0.31 0.38383838 0.46464646 0.15151515 0.46464646 0.38383838 0.15151515 0.15151515 0.46464646 0.38383838 1 0 0 0 1 0 0 0 1 0.3333333333333333 0.3333333333333333 0.3333333333333333 0.3333333333333333 0.3333333333333333 0.3333333333333333 0.3333333333333333 0.3333333333333333 0.3333333333333333 0.3333333333333333 0.3333333333333333 0.3333333333333333 0.3333333333333333 0.3333333333333333 0.3333333333333333 0.3333333333333333 0.3333333333333333 0.3333333333333333</probabilities>
		</cpt>
		<cpt id="MinTemperature_49">
			<state id="Temp_5_1C" />
			<state id="Temp_0_4C" />
			<state id="Temp_5_9C" />
			<state id="Temp_10_14C" />
			<state id="Temp_15_19C" />
			<state id="Temp_20_24C" />
			<parents>Events</parents>
			<probabilities>0 0.1613226452905812 0.5490981963927856 0.06412825651302605 0.2254509018036072 0 0 0 0.3333333333333333 0.4444444444444444 0 0.2222222222222223 0 0 1 0 0 0 0.1666666666666667 0.1666666666666667 0.1666666666666667 0.1666666666666667 0.1666666666666667 0.1666666666666667 0 0 1 0 0 0 0 1 0 0 0 0 0.01312493738102395 0.1312493738102395 0.2504759042180142 0.4348261697224727 0.105199879771566 0.06512373509668368</probabilities>
		</cpt>
		<cpt id="Delay_49">
			<state id="Normal" />
			<state id="Low_Delay" />
			<state id="High_Delay" />
			<parents>MinTemperature_49 Delay_48</parents>
			<probabilities>0.666666667 0.333333333 0 0.3333333333 0.666666667 0 0 0.33333333 0.666666667 0.31 0.23 0.46 0.23 0.31 0.46 0.46 0.23 0.31 0.38383838 0.46464646 0.15151515 0.46464646 0.38383838 0.15151515 0.15151515 0.46464646 0.38383838 1 0 0 0 1 0 0 0 1 0.3333333333333333 0.3333333333333333 0.3333333333333333 0.3333333333333333 0.3333333333333333 0.3333333333333333 0.3333333333333333 0.3333333333333333 0.3333333333333333 0.3333333333333333 0.3333333333333333 0.3333333333333333 0.3333333333333333 0.3333333333333333 0.3333333333333333 0.3333333333333333 0.3333333333333333 0.3333333333333333</probabilities>
		</cpt>
		<cpt id="MinTemperature_50">
			<state id="Temp_5_1C" />
			<state id="Temp_0_4C" />
			<state id="Temp_5_9C" />
			<state id="Temp_10_14C" />
			<state id="Temp_15_19C" />
			<state id="Temp_20_24C" />
			<parents>Events</parents>
			<probabilities>0 0.1613226452905812 0.5490981963927856 0.06412825651302605 0.2254509018036072 0 0 0 0.3333333333333333 0.4444444444444444 0 0.2222222222222223 0 0 1 0 0 0 0.1666666666666667 0.1666666666666667 0.1666666666666667 0.1666666666666667 0.1666666666666667 0.1666666666666667 0 0 1 0 0 0 0 1 0 0 0 0 0.01312493738102395 0.1312493738102395 0.2504759042180142 0.4348261697224727 0.105199879771566 0.06512373509668368</probabilities>
		</cpt>
		<cpt id="Delay_50">
			<state id="Normal" />
			<state id="Low_Delay" />
			<state id="High_Delay" />
			<parents>MinTemperature_50 Delay_49</parents>
			<probabilities>0.666666667 0.333333333 0 0.3333333333 0.666666667 0 0 0.33333333 0.666666667 0.31 0.23 0.46 0.23 0.31 0.46 0.46 0.23 0.31 0.38383838 0.46464646 0.15151515 0.46464646 0.38383838 0.15151515 0.15151515 0.46464646 0.38383838 1 0 0 0 1 0 0 0 1 0.3333333333333333 0.3333333333333333 0.3333333333333333 0.3333333333333333 0.3333333333333333 0.3333333333333333 0.3333333333333333 0.3333333333333333 0.3333333333333333 0.3333333333333333 0.3333333333333333 0.3333333333333333 0.3333333333333333 0.3333333333333333 0.3333333333333333 0.3333333333333333 0.3333333333333333 0.3333333333333333</probabilities>
		</cpt>
		<cpt id="MinTemperature_51">
			<state id="Temp_5_1C" />
			<state id="Temp_0_4C" />
			<state id="Temp_5_9C" />
			<state id="Temp_10_14C" />
			<state id="Temp_15_19C" />
			<state id="Temp_20_24C" />
			<parents>Events</parents>
			<probabilities>0 0.1613226452905812 0.5490981963927856 0.06412825651302605 0.2254509018036072 0 0 0 0.3333333333333333 0.4444444444444444 0 0.2222222222222223 0 0 1 0 0 0 0.1666666666666667 0.1666666666666667 0.1666666666666667 0.1666666666666667 0.1666666666666667 0.1666666666666667 0 0 1 0 0 0 0 1 0 0 0 0 0.01312493738102395 0.1312493738102395 0.2504759042180142 0.4348261697224727 0.105199879771566 0.06512373509668368</probabilities>
		</cpt>
		<cpt id="Delay_51">
			<state id="Normal" />
			<state id="Low_Delay" />
			<state id="High_Delay" />
			<parents>MinTemperature_51 Delay_50</parents>
			<probabilities>0.666666667 0.333333333 0 0.3333333333 0.666666667 0 0 0.33333333 0.666666667 0.31 0.23 0.46 0.23 0.31 0.46 0.46 0.23 0.31 0.38383838 0.46464646 0.15151515 0.46464646 0.38383838 0.15151515 0.15151515 0.46464646 0.38383838 1 0 0 0 1 0 0 0 1 0.3333333333333333 0.3333333333333333 0.3333333333333333 0.3333333333333333 0.3333333333333333 0.3333333333333333 0.3333333333333333 0.3333333333333333 0.3333333333333333 0.3333333333333333 0.3333333333333333 0.3333333333333333 0.3333333333333333 0.3333333333333333 0.3333333333333333 0.3333333333333333 0.3333333333333333 0.3333333333333333</probabilities>
		</cpt>
		<cpt id="MinTemperature_52">
			<state id="Temp_5_1C" />
			<state id="Temp_0_4C" />
			<state id="Temp_5_9C" />
			<state id="Temp_10_14C" />
			<state id="Temp_15_19C" />
			<state id="Temp_20_24C" />
			<parents>Events</parents>
			<probabilities>0 0.1613226452905812 0.5490981963927856 0.06412825651302605 0.2254509018036072 0 0 0 0.3333333333333333 0.4444444444444444 0 0.2222222222222223 0 0 1 0 0 0 0.1666666666666667 0.1666666666666667 0.1666666666666667 0.1666666666666667 0.1666666666666667 0.1666666666666667 0 0 1 0 0 0 0 1 0 0 0 0 0.01312493738102395 0.1312493738102395 0.2504759042180142 0.4348261697224727 0.105199879771566 0.06512373509668368</probabilities>
		</cpt>
		<cpt id="Delay_52">
			<state id="Normal" />
			<state id="Low_Delay" />
			<state id="High_Delay" />
			<parents>MinTemperature_52 Delay_51</parents>
			<probabilities>0.666666667 0.333333333 0 0.3333333333 0.666666667 0 0 0.33333333 0.666666667 0.31 0.23 0.46 0.23 0.31 0.46 0.46 0.23 0.31 0.38383838 0.46464646 0.15151515 0.46464646 0.38383838 0.15151515 0.15151515 0.46464646 0.38383838 1 0 0 0 1 0 0 0 1 0.3333333333333333 0.3333333333333333 0.3333333333333333 0.3333333333333333 0.3333333333333333 0.3333333333333333 0.3333333333333333 0.3333333333333333 0.3333333333333333 0.3333333333333333 0.3333333333333333 0.3333333333333333 0.3333333333333333 0.3333333333333333 0.3333333333333333 0.3333333333333333 0.3333333333333333 0.3333333333333333</probabilities>
		</cpt>
		<cpt id="MinTemperature_53">
			<state id="Temp_5_1C" />
			<state id="Temp_0_4C" />
			<state id="Temp_5_9C" />
			<state id="Temp_10_14C" />
			<state id="Temp_15_19C" />
			<state id="Temp_20_24C" />
			<parents>Events</parents>
			<probabilities>0 0.1613226452905812 0.5490981963927856 0.06412825651302605 0.2254509018036072 0 0 0 0.3333333333333333 0.4444444444444444 0 0.2222222222222223 0 0 1 0 0 0 0.1666666666666667 0.1666666666666667 0.1666666666666667 0.1666666666666667 0.1666666666666667 0.1666666666666667 0 0 1 0 0 0 0 1 0 0 0 0 0.01312493738102395 0.1312493738102395 0.2504759042180142 0.4348261697224727 0.105199879771566 0.06512373509668368</probabilities>
		</cpt>
		<cpt id="Delay_53">
			<state id="Normal" />
			<state id="Low_Delay" />
			<state id="High_Delay" />
			<parents>MinTemperature_53 Delay_52</parents>
			<probabilities>0.666666667 0.333333333 0 0.3333333333 0.666666667 0 0 0.33333333 0.666666667 0.31 0.23 0.46 0.23 0.31 0.46 0.46 0.23 0.31 0.38383838 0.46464646 0.15151515 0.46464646 0.38383838 0.15151515 0.15151515 0.46464646 0.38383838 1 0 0 0 1 0 0 0 1 0.3333333333333333 0.3333333333333333 0.3333333333333333 0.3333333333333333 0.3333333333333333 0.3333333333333333 0.3333333333333333 0.3333333333333333 0.3333333333333333 0.3333333333333333 0.3333333333333333 0.3333333333333333 0.3333333333333333 0.3333333333333333 0.3333333333333333 0.3333333333333333 0.3333333333333333 0.3333333333333333</probabilities>
		</cpt>
		<cpt id="MinTemperature_54">
			<state id="Temp_5_1C" />
			<state id="Temp_0_4C" />
			<state id="Temp_5_9C" />
			<state id="Temp_10_14C" />
			<state id="Temp_15_19C" />
			<state id="Temp_20_24C" />
			<parents>Events</parents>
			<probabilities>0 0.1613226452905812 0.5490981963927856 0.06412825651302605 0.2254509018036072 0 0 0 0.3333333333333333 0.4444444444444444 0 0.2222222222222223 0 0 1 0 0 0 0.1666666666666667 0.1666666666666667 0.1666666666666667 0.1666666666666667 0.1666666666666667 0.1666666666666667 0 0 1 0 0 0 0 1 0 0 0 0 0.01312493738102395 0.1312493738102395 0.2504759042180142 0.4348261697224727 0.105199879771566 0.06512373509668368</probabilities>
		</cpt>
		<cpt id="Delay_54">
			<state id="Normal" />
			<state id="Low_Delay" />
			<state id="High_Delay" />
			<parents>MinTemperature_54 Delay_53</parents>
			<probabilities>0.666666667 0.333333333 0 0.3333333333 0.666666667 0 0 0.33333333 0.666666667 0.31 0.23 0.46 0.23 0.31 0.46 0.46 0.23 0.31 0.38383838 0.46464646 0.15151515 0.46464646 0.38383838 0.15151515 0.15151515 0.46464646 0.38383838 1 0 0 0 1 0 0 0 1 0.3333333333333333 0.3333333333333333 0.3333333333333333 0.3333333333333333 0.3333333333333333 0.3333333333333333 0.3333333333333333 0.3333333333333333 0.3333333333333333 0.3333333333333333 0.3333333333333333 0.3333333333333333 0.3333333333333333 0.3333333333333333 0.3333333333333333 0.3333333333333333 0.3333333333333333 0.3333333333333333</probabilities>
		</cpt>
		<cpt id="MinTemperature_55">
			<state id="Temp_5_1C" />
			<state id="Temp_0_4C" />
			<state id="Temp_5_9C" />
			<state id="Temp_10_14C" />
			<state id="Temp_15_19C" />
			<state id="Temp_20_24C" />
			<parents>Events</parents>
			<probabilities>0 0.1613226452905812 0.5490981963927856 0.06412825651302605 0.2254509018036072 0 0 0 0.3333333333333333 0.4444444444444444 0 0.2222222222222223 0 0 1 0 0 0 0.1666666666666667 0.1666666666666667 0.1666666666666667 0.1666666666666667 0.1666666666666667 0.1666666666666667 0 0 1 0 0 0 0 1 0 0 0 0 0.01312493738102395 0.1312493738102395 0.2504759042180142 0.4348261697224727 0.105199879771566 0.06512373509668368</probabilities>
		</cpt>
		<cpt id="Delay_55">
			<state id="Normal" />
			<state id="Low_Delay" />
			<state id="High_Delay" />
			<parents>MinTemperature_55 Delay_54</parents>
			<probabilities>0.666666667 0.333333333 0 0.3333333333 0.666666667 0 0 0.33333333 0.666666667 0.31 0.23 0.46 0.23 0.31 0.46 0.46 0.23 0.31 0.38383838 0.46464646 0.15151515 0.46464646 0.38383838 0.15151515 0.15151515 0.46464646 0.38383838 1 0 0 0 1 0 0 0 1 0.3333333333333333 0.3333333333333333 0.3333333333333333 0.3333333333333333 0.3333333333333333 0.3333333333333333 0.3333333333333333 0.3333333333333333 0.3333333333333333 0.3333333333333333 0.3333333333333333 0.3333333333333333 0.3333333333333333 0.3333333333333333 0.3333333333333333 0.3333333333333333 0.3333333333333333 0.3333333333333333</probabilities>
		</cpt>
		<cpt id="MinTemperature_56">
			<state id="Temp_5_1C" />
			<state id="Temp_0_4C" />
			<state id="Temp_5_9C" />
			<state id="Temp_10_14C" />
			<state id="Temp_15_19C" />
			<state id="Temp_20_24C" />
			<parents>Events</parents>
			<probabilities>0 0.1613226452905812 0.5490981963927856 0.06412825651302605 0.2254509018036072 0 0 0 0.3333333333333333 0.4444444444444444 0 0.2222222222222223 0 0 1 0 0 0 0.1666666666666667 0.1666666666666667 0.1666666666666667 0.1666666666666667 0.1666666666666667 0.1666666666666667 0 0 1 0 0 0 0 1 0 0 0 0 0.01312493738102395 0.1312493738102395 0.2504759042180142 0.4348261697224727 0.105199879771566 0.06512373509668368</probabilities>
		</cpt>
		<cpt id="Delay_56">
			<state id="Normal" />
			<state id="Low_Delay" />
			<state id="High_Delay" />
			<parents>MinTemperature_56 Delay_55</parents>
			<probabilities>0.666666667 0.333333333 0 0.3333333333 0.666666667 0 0 0.33333333 0.666666667 0.31 0.23 0.46 0.23 0.31 0.46 0.46 0.23 0.31 0.38383838 0.46464646 0.15151515 0.46464646 0.38383838 0.15151515 0.15151515 0.46464646 0.38383838 1 0 0 0 1 0 0 0 1 0.3333333333333333 0.3333333333333333 0.3333333333333333 0.3333333333333333 0.3333333333333333 0.3333333333333333 0.3333333333333333 0.3333333333333333 0.3333333333333333 0.3333333333333333 0.3333333333333333 0.3333333333333333 0.3333333333333333 0.3333333333333333 0.3333333333333333 0.3333333333333333 0.3333333333333333 0.3333333333333333</probabilities>
		</cpt>
		<cpt id="MinTemperature_57">
			<state id="Temp_5_1C" />
			<state id="Temp_0_4C" />
			<state id="Temp_5_9C" />
			<state id="Temp_10_14C" />
			<state id="Temp_15_19C" />
			<state id="Temp_20_24C" />
			<parents>Events</parents>
			<probabilities>0 0.1613226452905812 0.5490981963927856 0.06412825651302605 0.2254509018036072 0 0 0 0.3333333333333333 0.4444444444444444 0 0.2222222222222223 0 0 1 0 0 0 0.1666666666666667 0.1666666666666667 0.1666666666666667 0.1666666666666667 0.1666666666666667 0.1666666666666667 0 0 1 0 0 0 0 1 0 0 0 0 0.01312493738102395 0.1312493738102395 0.2504759042180142 0.4348261697224727 0.105199879771566 0.06512373509668368</probabilities>
		</cpt>
		<cpt id="Delay_57">
			<state id="Normal" />
			<state id="Low_Delay" />
			<state id="High_Delay" />
			<parents>MinTemperature_57 Delay_56</parents>
			<probabilities>0.666666667 0.333333333 0 0.3333333333 0.666666667 0 0 0.33333333 0.666666667 0.31 0.23 0.46 0.23 0.31 0.46 0.46 0.23 0.31 0.38383838 0.46464646 0.15151515 0.46464646 0.38383838 0.15151515 0.15151515 0.46464646 0.38383838 1 0 0 0 1 0 0 0 1 0.3333333333333333 0.3333333333333333 0.3333333333333333 0.3333333333333333 0.3333333333333333 0.3333333333333333 0.3333333333333333 0.3333333333333333 0.3333333333333333 0.3333333333333333 0.3333333333333333 0.3333333333333333 0.3333333333333333 0.3333333333333333 0.3333333333333333 0.3333333333333333 0.3333333333333333 0.3333333333333333</probabilities>
		</cpt>
		<cpt id="MinTemperature_58">
			<state id="Temp_5_1C" />
			<state id="Temp_0_4C" />
			<state id="Temp_5_9C" />
			<state id="Temp_10_14C" />
			<state id="Temp_15_19C" />
			<state id="Temp_20_24C" />
			<parents>Events</parents>
			<probabilities>0 0.1613226452905812 0.5490981963927856 0.06412825651302605 0.2254509018036072 0 0 0 0.3333333333333333 0.4444444444444444 0 0.2222222222222223 0 0 1 0 0 0 0.1666666666666667 0.1666666666666667 0.1666666666666667 0.1666666666666667 0.1666666666666667 0.1666666666666667 0 0 1 0 0 0 0 1 0 0 0 0 0.01312493738102395 0.1312493738102395 0.2504759042180142 0.4348261697224727 0.105199879771566 0.06512373509668368</probabilities>
		</cpt>
		<cpt id="Delay_58">
			<state id="Normal" />
			<state id="Low_Delay" />
			<state id="High_Delay" />
			<parents>MinTemperature_58 Delay_57</parents>
			<probabilities>0.666666667 0.333333333 0 0.3333333333 0.666666667 0 0 0.33333333 0.666666667 0.31 0.23 0.46 0.23 0.31 0.46 0.46 0.23 0.31 0.38383838 0.46464646 0.15151515 0.46464646 0.38383838 0.15151515 0.15151515 0.46464646 0.38383838 1 0 0 0 1 0 0 0 1 0.3333333333333333 0.3333333333333333 0.3333333333333333 0.3333333333333333 0.3333333333333333 0.3333333333333333 0.3333333333333333 0.3333333333333333 0.3333333333333333 0.3333333333333333 0.3333333333333333 0.3333333333333333 0.3333333333333333 0.3333333333333333 0.3333333333333333 0.3333333333333333 0.3333333333333333 0.3333333333333333</probabilities>
		</cpt>
		<cpt id="MinTemperature_59">
			<state id="Temp_5_1C" />
			<state id="Temp_0_4C" />
			<state id="Temp_5_9C" />
			<state id="Temp_10_14C" />
			<state id="Temp_15_19C" />
			<state id="Temp_20_24C" />
			<parents>Events</parents>
			<probabilities>0 0.1613226452905812 0.5490981963927856 0.06412825651302605 0.2254509018036072 0 0 0 0.3333333333333333 0.4444444444444444 0 0.2222222222222223 0 0 1 0 0 0 0.1666666666666667 0.1666666666666667 0.1666666666666667 0.1666666666666667 0.1666666666666667 0.1666666666666667 0 0 1 0 0 0 0 1 0 0 0 0 0.01312493738102395 0.1312493738102395 0.2504759042180142 0.4348261697224727 0.105199879771566 0.06512373509668368</probabilities>
		</cpt>
		<cpt id="Delay_59">
			<state id="Normal" />
			<state id="Low_Delay" />
			<state id="High_Delay" />
			<parents>MinTemperature_59 Delay_58</parents>
			<probabilities>0.666666667 0.333333333 0 0.3333333333 0.666666667 0 0 0.33333333 0.666666667 0.31 0.23 0.46 0.23 0.31 0.46 0.46 0.23 0.31 0.38383838 0.46464646 0.15151515 0.46464646 0.38383838 0.15151515 0.15151515 0.46464646 0.38383838 1 0 0 0 1 0 0 0 1 0.3333333333333333 0.3333333333333333 0.3333333333333333 0.3333333333333333 0.3333333333333333 0.3333333333333333 0.3333333333333333 0.3333333333333333 0.3333333333333333 0.3333333333333333 0.3333333333333333 0.3333333333333333 0.3333333333333333 0.3333333333333333 0.3333333333333333 0.3333333333333333 0.3333333333333333 0.3333333333333333</probabilities>
		</cpt>
		<cpt id="MinTemperature_60">
			<state id="Temp_5_1C" />
			<state id="Temp_0_4C" />
			<state id="Temp_5_9C" />
			<state id="Temp_10_14C" />
			<state id="Temp_15_19C" />
			<state id="Temp_20_24C" />
			<parents>Events</parents>
			<probabilities>0 0.1613226452905812 0.5490981963927856 0.06412825651302605 0.2254509018036072 0 0 0 0.3333333333333333 0.4444444444444444 0 0.2222222222222223 0 0 1 0 0 0 0.1666666666666667 0.1666666666666667 0.1666666666666667 0.1666666666666667 0.1666666666666667 0.1666666666666667 0 0 1 0 0 0 0 1 0 0 0 0 0.01312493738102395 0.1312493738102395 0.2504759042180142 0.4348261697224727 0.105199879771566 0.06512373509668368</probabilities>
		</cpt>
		<cpt id="Delay_60">
			<state id="Normal" />
			<state id="Low_Delay" />
			<state id="High_Delay" />
			<parents>MinTemperature_60 Delay_59</parents>
			<probabilities>0.666666667 0.333333333 0 0.3333333333 0.666666667 0 0 0.33333333 0.666666667 0.31 0.23 0.46 0.23 0.31 0.46 0.46 0.23 0.31 0.38383838 0.46464646 0.15151515 0.46464646 0.38383838 0.15151515 0.15151515 0.46464646 0.38383838 1 0 0 0 1 0 0 0 1 0.3333333333333333 0.3333333333333333 0.3333333333333333 0.3333333333333333 0.3333333333333333 0.3333333333333333 0.3333333333333333 0.3333333333333333 0.3333333333333333 0.3333333333333333 0.3333333333333333 0.3333333333333333 0.3333333333333333 0.3333333333333333 0.3333333333333333 0.3333333333333333 0.3333333333333333 0.3333333333333333</probabilities>
		</cpt>
		<cpt id="MinTemperature_61">
			<state id="Temp_5_1C" />
			<state id="Temp_0_4C" />
			<state id="Temp_5_9C" />
			<state id="Temp_10_14C" />
			<state id="Temp_15_19C" />
			<state id="Temp_20_24C" />
			<parents>Events</parents>
			<probabilities>0 0.1613226452905812 0.5490981963927856 0.06412825651302605 0.2254509018036072 0 0 0 0.3333333333333333 0.4444444444444444 0 0.2222222222222223 0 0 1 0 0 0 0.1666666666666667 0.1666666666666667 0.1666666666666667 0.1666666666666667 0.1666666666666667 0.1666666666666667 0 0 1 0 0 0 0 1 0 0 0 0 0.01312493738102395 0.1312493738102395 0.2504759042180142 0.4348261697224727 0.105199879771566 0.06512373509668368</probabilities>
		</cpt>
		<cpt id="Delay_61">
			<state id="Normal" />
			<state id="Low_Delay" />
			<state id="High_Delay" />
			<parents>MinTemperature_61 Delay_60</parents>
			<probabilities>0.666666667 0.333333333 0 0.3333333333 0.666666667 0 0 0.33333333 0.666666667 0.31 0.23 0.46 0.23 0.31 0.46 0.46 0.23 0.31 0.38383838 0.46464646 0.15151515 0.46464646 0.38383838 0.15151515 0.15151515 0.46464646 0.38383838 1 0 0 0 1 0 0 0 1 0.3333333333333333 0.3333333333333333 0.3333333333333333 0.3333333333333333 0.3333333333333333 0.3333333333333333 0.3333333333333333 0.3333333333333333 0.3333333333333333 0.3333333333333333 0.3333333333333333 0.3333333333333333 0.3333333333333333 0.3333333333333333 0.3333333333333333 0.3333333333333333 0.3333333333333333 0.3333333333333333</probabilities>
		</cpt>
		<cpt id="MinTemperature_62">
			<state id="Temp_5_1C" />
			<state id="Temp_0_4C" />
			<state id="Temp_5_9C" />
			<state id="Temp_10_14C" />
			<state id="Temp_15_19C" />
			<state id="Temp_20_24C" />
			<parents>Events</parents>
			<probabilities>0 0.1613226452905812 0.5490981963927856 0.06412825651302605 0.2254509018036072 0 0 0 0.3333333333333333 0.4444444444444444 0 0.2222222222222223 0 0 1 0 0 0 0.1666666666666667 0.1666666666666667 0.1666666666666667 0.1666666666666667 0.1666666666666667 0.1666666666666667 0 0 1 0 0 0 0 1 0 0 0 0 0.01312493738102395 0.1312493738102395 0.2504759042180142 0.4348261697224727 0.105199879771566 0.06512373509668368</probabilities>
		</cpt>
		<cpt id="Delay_62">
			<state id="Normal" />
			<state id="Low_Delay" />
			<state id="High_Delay" />
			<parents>MinTemperature_62 Delay_61</parents>
			<probabilities>0.666666667 0.333333333 0 0.3333333333 0.666666667 0 0 0.33333333 0.666666667 0.31 0.23 0.46 0.23 0.31 0.46 0.46 0.23 0.31 0.38383838 0.46464646 0.15151515 0.46464646 0.38383838 0.15151515 0.15151515 0.46464646 0.38383838 1 0 0 0 1 0 0 0 1 0.3333333333333333 0.3333333333333333 0.3333333333333333 0.3333333333333333 0.3333333333333333 0.3333333333333333 0.3333333333333333 0.3333333333333333 0.3333333333333333 0.3333333333333333 0.3333333333333333 0.3333333333333333 0.3333333333333333 0.3333333333333333 0.3333333333333333 0.3333333333333333 0.3333333333333333 0.3333333333333333</probabilities>
		</cpt>
		<cpt id="MinTemperature_63">
			<state id="Temp_5_1C" />
			<state id="Temp_0_4C" />
			<state id="Temp_5_9C" />
			<state id="Temp_10_14C" />
			<state id="Temp_15_19C" />
			<state id="Temp_20_24C" />
			<parents>Events</parents>
			<probabilities>0 0.1613226452905812 0.5490981963927856 0.06412825651302605 0.2254509018036072 0 0 0 0.3333333333333333 0.4444444444444444 0 0.2222222222222223 0 0 1 0 0 0 0.1666666666666667 0.1666666666666667 0.1666666666666667 0.1666666666666667 0.1666666666666667 0.1666666666666667 0 0 1 0 0 0 0 1 0 0 0 0 0.01312493738102395 0.1312493738102395 0.2504759042180142 0.4348261697224727 0.105199879771566 0.06512373509668368</probabilities>
		</cpt>
		<cpt id="Delay_63">
			<state id="Normal" />
			<state id="Low_Delay" />
			<state id="High_Delay" />
			<parents>MinTemperature_63 Delay_62</parents>
			<probabilities>0.666666667 0.333333333 0 0.3333333333 0.666666667 0 0 0.33333333 0.666666667 0.31 0.23 0.46 0.23 0.31 0.46 0.46 0.23 0.31 0.38383838 0.46464646 0.15151515 0.46464646 0.38383838 0.15151515 0.15151515 0.46464646 0.38383838 1 0 0 0 1 0 0 0 1 0.3333333333333333 0.3333333333333333 0.3333333333333333 0.3333333333333333 0.3333333333333333 0.3333333333333333 0.3333333333333333 0.3333333333333333 0.3333333333333333 0.3333333333333333 0.3333333333333333 0.3333333333333333 0.3333333333333333 0.3333333333333333 0.3333333333333333 0.3333333333333333 0.3333333333333333 0.3333333333333333</probabilities>
		</cpt>
		<cpt id="MinTemperature_64">
			<state id="Temp_5_1C" />
			<state id="Temp_0_4C" />
			<state id="Temp_5_9C" />
			<state id="Temp_10_14C" />
			<state id="Temp_15_19C" />
			<state id="Temp_20_24C" />
			<parents>Events</parents>
			<probabilities>0 0.1613226452905812 0.5490981963927856 0.06412825651302605 0.2254509018036072 0 0 0 0.3333333333333333 0.4444444444444444 0 0.2222222222222223 0 0 1 0 0 0 0.1666666666666667 0.1666666666666667 0.1666666666666667 0.1666666666666667 0.1666666666666667 0.1666666666666667 0 0 1 0 0 0 0 1 0 0 0 0 0.01312493738102395 0.1312493738102395 0.2504759042180142 0.4348261697224727 0.105199879771566 0.06512373509668368</probabilities>
		</cpt>
		<cpt id="Delay_64">
			<state id="Normal" />
			<state id="Low_Delay" />
			<state id="High_Delay" />
			<parents>MinTemperature_64 Delay_63</parents>
			<probabilities>0.666666667 0.333333333 0 0.3333333333 0.666666667 0 0 0.33333333 0.666666667 0.31 0.23 0.46 0.23 0.31 0.46 0.46 0.23 0.31 0.38383838 0.46464646 0.15151515 0.46464646 0.38383838 0.15151515 0.15151515 0.46464646 0.38383838 1 0 0 0 1 0 0 0 1 0.3333333333333333 0.3333333333333333 0.3333333333333333 0.3333333333333333 0.3333333333333333 0.3333333333333333 0.3333333333333333 0.3333333333333333 0.3333333333333333 0.3333333333333333 0.3333333333333333 0.3333333333333333 0.3333333333333333 0.3333333333333333 0.3333333333333333 0.3333333333333333 0.3333333333333333 0.3333333333333333</probabilities>
		</cpt>
		<cpt id="MinTemperature_65">
			<state id="Temp_5_1C" />
			<state id="Temp_0_4C" />
			<state id="Temp_5_9C" />
			<state id="Temp_10_14C" />
			<state id="Temp_15_19C" />
			<state id="Temp_20_24C" />
			<parents>Events</parents>
			<probabilities>0 0.1613226452905812 0.5490981963927856 0.06412825651302605 0.2254509018036072 0 0 0 0.3333333333333333 0.4444444444444444 0 0.2222222222222223 0 0 1 0 0 0 0.1666666666666667 0.1666666666666667 0.1666666666666667 0.1666666666666667 0.1666666666666667 0.1666666666666667 0 0 1 0 0 0 0 1 0 0 0 0 0.01312493738102395 0.1312493738102395 0.2504759042180142 0.4348261697224727 0.105199879771566 0.06512373509668368</probabilities>
		</cpt>
		<cpt id="Delay_65">
			<state id="Normal" />
			<state id="Low_Delay" />
			<state id="High_Delay" />
			<parents>MinTemperature_65 Delay_64</parents>
			<probabilities>0.666666667 0.333333333 0 0.3333333333 0.666666667 0 0 0.33333333 0.666666667 0.31 0.23 0.46 0.23 0.31 0.46 0.46 0.23 0.31 0.38383838 0.46464646 0.15151515 0.46464646 0.38383838 0.15151515 0.15151515 0.46464646 0.38383838 1 0 0 0 1 0 0 0 1 0.3333333333333333 0.3333333333333333 0.3333333333333333 0.3333333333333333 0.3333333333333333 0.3333333333333333 0.3333333333333333 0.3333333333333333 0.3333333333333333 0.3333333333333333 0.3333333333333333 0.3333333333333333 0.3333333333333333 0.3333333333333333 0.3333333333333333 0.3333333333333333 0.3333333333333333 0.3333333333333333</probabilities>
		</cpt>
		<cpt id="MinTemperature_66">
			<state id="Temp_5_1C" />
			<state id="Temp_0_4C" />
			<state id="Temp_5_9C" />
			<state id="Temp_10_14C" />
			<state id="Temp_15_19C" />
			<state id="Temp_20_24C" />
			<parents>Events</parents>
			<probabilities>0 0.1613226452905812 0.5490981963927856 0.06412825651302605 0.2254509018036072 0 0 0 0.3333333333333333 0.4444444444444444 0 0.2222222222222223 0 0 1 0 0 0 0.1666666666666667 0.1666666666666667 0.1666666666666667 0.1666666666666667 0.1666666666666667 0.1666666666666667 0 0 1 0 0 0 0 1 0 0 0 0 0.01312493738102395 0.1312493738102395 0.2504759042180142 0.4348261697224727 0.105199879771566 0.06512373509668368</probabilities>
		</cpt>
		<cpt id="Delay_66">
			<state id="Normal" />
			<state id="Low_Delay" />
			<state id="High_Delay" />
			<parents>MinTemperature_66 Delay_65</parents>
			<probabilities>0.666666667 0.333333333 0 0.3333333333 0.666666667 0 0 0.33333333 0.666666667 0.31 0.23 0.46 0.23 0.31 0.46 0.46 0.23 0.31 0.38383838 0.46464646 0.15151515 0.46464646 0.38383838 0.15151515 0.15151515 0.46464646 0.38383838 1 0 0 0 1 0 0 0 1 0.3333333333333333 0.3333333333333333 0.3333333333333333 0.3333333333333333 0.3333333333333333 0.3333333333333333 0.3333333333333333 0.3333333333333333 0.3333333333333333 0.3333333333333333 0.3333333333333333 0.3333333333333333 0.3333333333333333 0.3333333333333333 0.3333333333333333 0.3333333333333333 0.3333333333333333 0.3333333333333333</probabilities>
		</cpt>
		<cpt id="MinTemperature_67">
			<state id="Temp_5_1C" />
			<state id="Temp_0_4C" />
			<state id="Temp_5_9C" />
			<state id="Temp_10_14C" />
			<state id="Temp_15_19C" />
			<state id="Temp_20_24C" />
			<parents>Events</parents>
			<probabilities>0 0.1613226452905812 0.5490981963927856 0.06412825651302605 0.2254509018036072 0 0 0 0.3333333333333333 0.4444444444444444 0 0.2222222222222223 0 0 1 0 0 0 0.1666666666666667 0.1666666666666667 0.1666666666666667 0.1666666666666667 0.1666666666666667 0.1666666666666667 0 0 1 0 0 0 0 1 0 0 0 0 0.01312493738102395 0.1312493738102395 0.2504759042180142 0.4348261697224727 0.105199879771566 0.06512373509668368</probabilities>
		</cpt>
		<cpt id="Delay_67">
			<state id="Normal" />
			<state id="Low_Delay" />
			<state id="High_Delay" />
			<parents>MinTemperature_67 Delay_66</parents>
			<probabilities>0.666666667 0.333333333 0 0.3333333333 0.666666667 0 0 0.33333333 0.666666667 0.31 0.23 0.46 0.23 0.31 0.46 0.46 0.23 0.31 0.38383838 0.46464646 0.15151515 0.46464646 0.38383838 0.15151515 0.15151515 0.46464646 0.38383838 1 0 0 0 1 0 0 0 1 0.3333333333333333 0.3333333333333333 0.3333333333333333 0.3333333333333333 0.3333333333333333 0.3333333333333333 0.3333333333333333 0.3333333333333333 0.3333333333333333 0.3333333333333333 0.3333333333333333 0.3333333333333333 0.3333333333333333 0.3333333333333333 0.3333333333333333 0.3333333333333333 0.3333333333333333 0.3333333333333333</probabilities>
		</cpt>
		<cpt id="MinTemperature_68">
			<state id="Temp_5_1C" />
			<state id="Temp_0_4C" />
			<state id="Temp_5_9C" />
			<state id="Temp_10_14C" />
			<state id="Temp_15_19C" />
			<state id="Temp_20_24C" />
			<parents>Events</parents>
