<?xml version="1.0" encoding="ISO-8859-1"?>
<smile version="1.0" id="Network1" numsamples="1000" discsamples="10000">
	<nodes>
		<cpt id="Events">
			<state id="Rain" />
			<state id="Rain_Thunderstorm" />
			<state id="Fog" />
			<state id="Fog_Snow" />
			<state id="Fog_Rain_Thunderstorm" />
			<state id="Snow" />
			<state id="None" />
			<probabilities>0.01283508278992414 0.05368753947237526 0.3817179627112655 0.07495818504247939 0.2843153648412932 0.1349781209712701 0.05750774417139237</probabilities>
		</cpt>
		<cpt id="Temperature" dynamic="plate">
			<state id="Temp_0_4C" />
			<state id="Temp_5_9C" />
			<state id="Temp_10_14C" />
			<state id="Temp_15_19C" />
			<state id="Temp_20_24C" />
			<state id="Temp_25_29C" />
			<parents>Events</parents>
			<probabilities>0.04364013073000723 0.2312509934942397 0.4345840562419293 0.141577391633461 0.1154293264779426 0.03351810142242019 0.1812886116925192 0.1595895978503079 0.2234752381537446 0.05305201863502022 0.2694123731477876 0.1131821605206204 0.1249210812486655 0.1078699561351422 0.2332173077744248 0.3456594468623523 0.1767884883968178 0.01154371958259735 0.1573733301119395 0.2263393281996705 0.1692999836221645 0.2334508223379331 0.1168917308967193 0.09664480483157306 0.1464513506462546 0.2413271782865178 0.1926445724658614 0.1684317978772848 0.07911986367537102 0.1720252370487104 0.1412096629832122 0.2767638850911357 0.1787822253426545 0.1784925155772349 0.220831809478035 0.003919901527727616 0.11910816439506 0.0997068105663286 0.1750259441454113 0.1930871172596858 0.2198517814576943 0.1932201821758201</probabilities>
		</cpt>
		<cpt id="Delay" dynamic="plate">
			<state id="Normal" />
			<state id="Low_Delay" />
			<state id="High_Delay" />
			<parents>Temperature</parents>
			<probabilities>0.3697050756585347 0.3436262892584735 0.2866686350829917 0.7155931328569759 0.2030302187223004 0.08137664842072365 0.2357686541789944 0.4570014719412228 0.3072298738797829 0.1298961936895297 0.4190912234261643 0.451012582884306 0.468502990699008 0.3821424256530815 0.1493545836479105 0.3189071095198994 0.4833949063514741 0.1976979841286266</probabilities>
		</cpt>
	</nodes>
	<dynamic numslices="130">
		<cpt id="Delay" order="1">
			<parents>Delay</parents>
			<probabilities>0.666666667 0.333333333 0 0.3333333332 0.6666666668 0 0 0.333333331 0.6666666690000001 0.31 0.23 0.46 0.23 0.31 0.46 0.46 0.23 0.31 0.3838383838383838 0.4646464646464645 0.1515151515151515 0.4646464646464645 0.3838383838383838 0.1515151515151515 0.1515151515151515 0.4646464646464645 0.3838383838383838 1 0 0 0 1 0 0 0 1 0.3333333333333333 0.3333333333333333 0.3333333333333333 0.3333333333333333 0.3333333333333333 0.3333333333333333 0.3333333333333333 0.3333333333333333 0.3333333333333333 0.3333333333333333 0.3333333333333333 0.3333333333333333 0.3333333333333333 0.3333333333333333 0.3333333333333333 0.3333333333333333 0.3333333333333333 0.3333333333333333</probabilities>
		</cpt>
	</dynamic>
	<extensions>
		<genie version="1.0" app="GeNIe 2.0.5494.1" name="Network1" faultnameformat="nodestate">
			<plate leftwidth="120" rightwidth="120">208 298 808 598</plate>
			<diagautoformat target="e5f6f7" targetnr="e5f6f7" observation="ffff80" observationnr="ffff00" auxiliary="ffffff" />
			<node id="Events">
				<name>Events</name>
				<interior color="ffffff" />
				<outline color="000080" />
				<font color="000000" name="Arial" size="8" />
				<position>474 176 570 248</position>
			</node>
			<node id="Temperature">
				<name>Average Temp</name>
				<interior color="ffffff" />
				<outline color="000080" />
				<font color="000000" name="Arial" size="8" />
				<position>454 388 591 437</position>
			</node>
			<node id="Delay">
				<name>Delay</name>
				<interior color="ffffff" />
				<outline color="000080" />
				<font color="000000" name="Arial" size="8" />
				<position>483 507 561 543</position>
			</node>
		</genie>
	</extensions>
</smile>
