<?xml version="1.0" encoding="ISO-8859-1"?>
<smile version="1.0" id="Network1" numsamples="1000" discsamples="10000">
	<nodes>
		<cpt id="Copy_of_Temperature" dynamic="plate">
			<state id="Temp_0_4C" />
			<state id="Temp_5_9C" />
			<state id="Temp_10_14C" />
			<state id="Temp_15_19C" />
			<state id="Temp_20_24C" />
			<state id="Temp_25_29C" />
			<probabilities>0.1911105429879983 0.1786080996483616 0.09980982073840736 0.2486123064566901 0.2016986088877214 0.08016062128082116</probabilities>
		</cpt>
		<cpt id="Temperature" dynamic="plate">
			<state id="Temp_0_4C" />
			<state id="Temp_5_9C" />
			<state id="Temp_10_14C" />
			<state id="Temp_15_19C" />
			<state id="Temp_20_24C" />
			<state id="Temp_25_29C" />
			<probabilities>0.09721625240621303 0.2063558487697929 0.2335946739799954 0.1300904411877542 0.132430785385894 0.2003119982703506</probabilities>
		</cpt>
		<cpt id="Delay" dynamic="plate">
			<state id="Normal" />
			<state id="Low_Delay" />
			<state id="High_Delay" />
			<parents>Temperature Copy_of_Temperature</parents>
			<probabilities>0.5023732786284697 0.3988956826813895 0.09873103869014085 0.6084133041434142 0.350963178723255 0.04062351713333096 0.3431852440590227 0.3105403231203572 0.34627443282062 0.5367286826283196 0.2980971748988775 0.1651741424728029 0.5129814089418958 0.2830507850259589 0.2039678060321455 0.2834416388544737 0.3061374905845682 0.410420870560958 0.2362467938408282 0.3047843957433948 0.458968810415777 0.1907419838865745 0.2053360528303014 0.6039219632831243 0.1624504064389655 0.2763300694358749 0.5612195241251596 0.3040058488560519 0.1693555474099573 0.5266386037339909 0.3369041049246562 0.23025370311247 0.432842191962874 0.5050024906095073 0.1068277097945378 0.3881697995959549 0.2409131943879012 0.3001819894847262 0.4589048161273725 0.2624238116509234 0.3300565213762614 0.4075196669728151 0.1923306979561013 0.4083234834632211 0.3993458185806776 0.324254216521677 0.3028260169172159 0.3729197665611072 0.2543764660211972 0.3532206449429213 0.3924028890358815 0.2724244757801227 0.4346955218387829 0.2928800023810945 0.6823302531410604 0.2004336190883315 0.117236127770608 0.8613257702836979 0.04728057615745886 0.09139365355884317 0.5644108022827388 0.1248199939194704 0.3107692037977907 0.7489377645081378 0.03897519009268552 0.2120870453991768 0.7399368080764287 0.05467703972649269 0.2053861521970786 0.4762671117597852 0.4748723153118559 0.04886057292835885 0.2041342327937716 0.3708743352008002 0.4249914320054282 0.2993538187394333 0.3460944954214555 0.3545516858391112 0.4251183848563203 0.447261559588045 0.1276200555556348 0.2268649175073204 0.3707736013157323 0.4023614811769474 0.5230500124038607 0.229892980274991 0.2470570073211482 0.2495098783688125 0.554448092599371 0.1960420290318164 0.4729123796407995 0.2956116634979611 0.2314759568612394 0.3034080829380901 0.2734824618544737 0.4231094552074362 0.342365722502722 0.3540744470088985 0.3035598304883795 0.2303927645997087 0.2271252180841628 0.5424820173161286 0.2484485352866888 0.3559857932881043 0.395565671425207 0.2030714612260268 0.407444246814886 0.3894842919590874</probabilities>
		</cpt>
	</nodes>
	<dynamic numslices="5">
		<cpt id="Delay" order="1">
			<parents>Delay</parents>
			<probabilities>0.666666667 0.333333333 0 0.3333333332 0.6666666668 0 0 0.333333331 0.6666666690000001 0.666666667 0.333333333 0 0.3333333332 0.6666666668 0 0 0.333333331 0.6666666690000001 0.666666667 0.333333333 0 0.3333333332 0.6666666668 0 0 0.333333331 0.6666666690000001 0.666666667 0.333333333 0 0.3333333332 0.6666666668 0 0 0.333333331 0.6666666690000001 0.666666667 0.333333333 0 0.3333333332 0.6666666668 0 0 0.333333331 0.6666666690000001 0.666666667 0.333333333 0 0.3333333332 0.6666666668 0 0 0.333333331 0.6666666690000001 0.31 0.23 0.46 0.23 0.31 0.46 0.46 0.23 0.31 0.31 0.23 0.46 0.23 0.31 0.46 0.46 0.23 0.31 0.31 0.23 0.46 0.23 0.31 0.46 0.46 0.23 0.31 0.31 0.23 0.46 0.23 0.31 0.46 0.46 0.23 0.31 0.31 0.23 0.46 0.23 0.31 0.46 0.46 0.23 0.31 0.31 0.23 0.46 0.23 0.31 0.46 0.46 0.23 0.31 0.3838383838383839 0.4646464646464646 0.1515151515151515 0.4646464646464646 0.3838383838383839 0.1515151515151515 0.1515151515151515 0.4646464646464646 0.3838383838383839 0.3838383838383839 0.4646464646464646 0.1515151515151515 0.4646464646464646 0.3838383838383839 0.1515151515151515 0.1515151515151515 0.4646464646464646 0.3838383838383839 0.3838383838383839 0.4646464646464646 0.1515151515151515 0.4646464646464646 0.3838383838383839 0.1515151515151515 0.1515151515151515 0.4646464646464646 0.3838383838383839 0.3838383838383839 0.4646464646464646 0.1515151515151515 0.4646464646464646 0.3838383838383839 0.1515151515151515 0.1515151515151515 0.4646464646464646 0.3838383838383839 0.3838383838383839 0.4646464646464646 0.1515151515151515 0.4646464646464646 0.3838383838383839 0.1515151515151515 0.1515151515151515 0.4646464646464646 0.3838383838383839 0.3838383838383839 0.4646464646464646 0.1515151515151515 0.4646464646464646 0.3838383838383839 0.1515151515151515 0.1515151515151515 0.4646464646464646 0.3838383838383839 1 0 0 0 1 0 0 0 1 1 0 0 0 1 0 0 0 1 1 0 0 0 1 0 0 0 1 1 0 0 0 1 0 0 0 1 1 0 0 0 1 0 0 0 1 1 0 0 0 1 0 0 0 1 0.3333333333333333 0.3333333333333333 0.3333333333333333 0.3333333333333333 0.3333333333333333 0.3333333333333333 0.3333333333333333 0.3333333333333333 0.3333333333333333 0.3333333333333333 0.3333333333333333 0.3333333333333333 0.3333333333333333 0.3333333333333333 0.3333333333333333 0.3333333333333333 0.3333333333333333 0.3333333333333333 0.3333333333333333 0.3333333333333333 0.3333333333333333 0.3333333333333333 0.3333333333333333 0.3333333333333333 0.3333333333333333 0.3333333333333333 0.3333333333333333 0.3333333333333333 0.3333333333333333 0.3333333333333333 0.3333333333333333 0.3333333333333333 0.3333333333333333 0.3333333333333333 0.3333333333333333 0.3333333333333333 0.3333333333333333 0.3333333333333333 0.3333333333333333 0.3333333333333333 0.3333333333333333 0.3333333333333333 0.3333333333333333 0.3333333333333333 0.3333333333333333 0.3333333333333333 0.3333333333333333 0.3333333333333333 0.3333333333333333 0.3333333333333333 0.3333333333333333 0.3333333333333333 0.3333333333333333 0.3333333333333333 0.3333333333333333 0.3333333333333333 0.3333333333333333 0.3333333333333333 0.3333333333333333 0.3333333333333333 0.3333333333333333 0.3333333333333333 0.3333333333333333 0.3333333333333333 0.3333333333333333 0.3333333333333333 0.3333333333333333 0.3333333333333333 0.3333333333333333 0.3333333333333333 0.3333333333333333 0.3333333333333333 0.3333333333333333 0.3333333333333333 0.3333333333333333 0.3333333333333333 0.3333333333333333 0.3333333333333333 0.3333333333333333 0.3333333333333333 0.3333333333333333 0.3333333333333333 0.3333333333333333 0.3333333333333333 0.3333333333333333 0.3333333333333333 0.3333333333333333 0.3333333333333333 0.3333333333333333 0.3333333333333333 0.3333333333333333 0.3333333333333333 0.3333333333333333 0.3333333333333333 0.3333333333333333 0.3333333333333333 0.3333333333333333 0.3333333333333333 0.3333333333333333 0.3333333333333333 0.3333333333333333 0.3333333333333333 0.3333333333333333 0.3333333333333333 0.3333333333333333 0.3333333333333333 0.3333333333333333 0.3333333333333333</probabilities>
		</cpt>
	</dynamic>
	<extensions>
		<genie version="1.0" app="GeNIe 2.0.5494.1" name="Network1" faultnameformat="nodestate">
			<plate leftwidth="120" rightwidth="120">208 298 808 598</plate>
			<diagautoformat target="e5f6f7" targetnr="e5f6f7" observation="ffff80" observationnr="ffff00" auxiliary="ffffff" />
			<node id="Temperature">
				<name>Wind</name>
				<interior color="ffffff" />
				<outline color="000080" />
				<font color="000000" name="Arial" size="8" />
				<position>514 339 651 388</position>
			</node>
			<node id="Delay">
				<name>Delay</name>
				<interior color="ffffff" />
				<outline color="000080" />
				<font color="000000" name="Arial" size="8" />
				<position>483 507 561 543</position>
			</node>
			<node id="Copy_of_Temperature">
				<name>Wind Direction</name>
				<interior color="ffffff" />
				<outline color="000080" />
				<font color="000000" name="Arial" size="8" />
				<position>352 339 489 388</position>
			</node>
		</genie>
	</extensions>
</smile>
